0 1 2 100 1.0314e-05
1 1 2 100 0.994257
2 1 2 100 0.00573258
0 2 2 100 6.1563e-05
1 2 2 100 0.409069
2 2 2 100 0.590869
0 3 2 100 0.0161803
2 3 2 100 0.98382
0 1 3 100 0.000650239
1 1 3 100 0.66486
2 1 3 100 0.028232
3 1 3 100 0.306258
0 2 3 100 0.0650782
1 2 3 100 0.21946
2 2 3 100 0.294181
3 2 3 100 0.421281
0 3 3 100 0.0526396
1 3 3 100 0.152191
2 3 3 100 0.149885
3 3 3 100 0.645284
0 4 3 100 0.00244159
1 4 3 100 0.190357
2 4 3 100 0.14292
3 4 3 100 0.664281
0 5 3 100 0.0738537
1 5 3 100 0.261685
2 5 3 100 0.241717
3 5 3 100 0.422744
1 6 3 100 0.4
2 6 3 100 0.2
3 6 3 100 0.4
1 7 3 100 1
0 8 3 100 1
1 9 3 100 1
3 10 3 100 1
3 11 3 100 1
3 12 3 100 1
1 13 3 100 1
1 14 3 100 1
0 15 3 100 1
3 16 3 100 1
3 17 3 100 1
3 18 3 100 1
0 19 3 100 1
3 20 3 100 1
3 21 3 100 1
3 22 3 100 1
0 1 4 100 0.000108527
1 1 4 100 0.624473
2 1 4 100 0.0782963
3 1 4 100 0.105893
4 1 4 100 0.191228
0 2 4 100 0.0310482
1 2 4 100 0.174602
2 2 4 100 0.210236
3 2 4 100 0.192241
4 2 4 100 0.391873
0 3 4 100 0.114545
1 3 4 100 0.0816039
2 3 4 100 0.107837
3 3 4 100 0.166762
4 3 4 100 0.529253
0 4 4 100 0.0587406
1 4 4 100 0.0942576
2 4 4 100 0.102764
3 4 4 100 0.119146
4 4 4 100 0.625092
0 5 4 100 0.0714163
1 5 4 100 0.047825
2 5 4 100 0.108147
3 5 4 100 0.0792845
4 5 4 100 0.693327
0 6 4 100 0.134233
1 6 4 100 0.1
2 6 4 100 0.0953951
3 6 4 100 0.0669386
4 6 4 100 0.603433
0 7 4 100 0.14555
1 7 4 100 0.0714286
2 7 4 100 0.0761316
3 7 4 100 0.0664786
4 7 4 100 0.640411
0 8 4 100 0.155164
1 8 4 100 0.140769
3 8 4 100 0.00213426
4 8 4 100 0.701933
0 9 4 100 0.0325054
1 9 4 100 0.651568
4 9 4 100 0.315927
0 10 4 100 0.00205627
2 10 4 100 0.519104
3 10 4 100 0.47884
0 11 4 100 1
1 12 4 100 1
1 13 4 100 1
0 14 4 100 1
1 15 4 100 1
1 16 4 100 1
0 17 4 100 0.00108953
3 17 4 100 0.99891
0 18 4 100 0.0039804
2 18 4 100 0.99602
0 19 4 100 3.14848e-05
2 19 4 100 0.999969
4 20 4 100 1
0 1 5 100 0.000875103
1 1 5 100 0.650264
2 1 5 100 0.0890731
3 1 5 100 0.0479144
4 1 5 100 0.0536342
5 1 5 100 0.158239
0 2 5 100 0.0911715
1 2 5 100 0.127383
2 2 5 100 0.257955
3 2 5 100 0.0997112
4 2 5 100 0.162589
5 2 5 100 0.26119
0 3 5 100 0.0900626
1 3 5 100 0.074637
2 3 5 100 0.0804072
3 3 5 100 0.150941
4 3 5 100 0.232491
5 3 5 100 0.371461
0 4 5 100 0.140525
1 4 5 100 0.076831
2 4 5 100 0.0657081
3 4 5 100 0.0884698
4 4 5 100 0.168568
5 4 5 100 0.459899
0 5 5 100 0.0737417
1 5 5 100 0.0744378
2 5 5 100 0.0722333
3 5 5 100 0.0734302
4 5 5 100 0.121877
5 5 5 100 0.58428
0 6 5 100 0.136122
1 6 5 100 0.0623456
2 6 5 100 0.0439611
3 6 5 100 0.0388186
4 6 5 100 0.0875495
5 6 5 100 0.631203
0 7 5 100 0.0742937
1 7 5 100 0.0477734
2 7 5 100 0.0568226
3 7 5 100 0.0358853
4 7 5 100 0.105779
5 7 5 100 0.679446
0 8 5 100 0.035617
1 8 5 100 0.079399
2 8 5 100 0.0529613
3 8 5 100 0.0790406
4 8 5 100 0.166222
5 8 5 100 0.58676
0 9 5 100 0.072909
1 9 5 100 0.166419
2 9 5 100 0.0564041
3 9 5 100 0.0555556
4 9 5 100 0.110601
5 9 5 100 0.538111
0 10 5 100 0.0993354
1 10 5 100 0.181818
2 10 5 100 0.0877135
4 10 5 100 1.18863e-06
5 10 5 100 0.631132
1 11 5 100 1
0 12 5 100 0.0020717
1 12 5 100 0.500002
4 12 5 100 0.497927
1 13 5 100 0.5
4 13 5 100 0.5
0 14 5 100 0.500001
1 14 5 100 0.000927093
4 14 5 100 0.499072
1 15 5 100 0.5
4 15 5 100 0.5
0 16 5 100 0.5
4 16 5 100 0.5
0 17 5 100 0.5
1 17 5 100 0.5
0 18 5 100 0.496489
4 18 5 100 0.503511
0 19 5 100 0.00126375
1 19 5 100 0.500001
4 19 5 100 0.498735
0 20 5 100 1
5 21 5 100 1
0 1 6 100 0.000412662
1 1 6 100 0.610388
2 1 6 100 0.0864352
3 1 6 100 0.0365221
4 1 6 100 0.0461888
5 1 6 100 0.0728229
6 1 6 100 0.147231
0 2 6 100 0.138931
1 2 6 100 0.119555
2 2 6 100 0.246047
3 2 6 100 0.0798537
4 2 6 100 0.0953286
5 2 6 100 0.127434
6 2 6 100 0.192851
0 3 6 100 0.1279
1 3 6 100 0.0965369
2 3 6 100 0.0927027
3 3 6 100 0.131782
4 3 6 100 0.131888
5 3 6 100 0.16642
6 3 6 100 0.252771
0 4 6 100 0.163277
1 4 6 100 0.0939857
2 4 6 100 0.0604835
3 4 6 100 0.102291
4 4 6 100 0.118937
5 4 6 100 0.191606
6 4 6 100 0.269421
0 5 6 100 0.173328
1 5 6 100 0.0670767
2 5 6 100 0.0550074
3 5 6 100 0.0943291
4 5 6 100 0.0970824
5 5 6 100 0.161115
6 5 6 100 0.352061
0 6 6 100 0.11483
1 6 6 100 0.0723556
2 6 6 100 0.0400416
3 6 6 100 0.088627
4 6 6 100 0.0836854
5 6 6 100 0.136809
6 6 6 100 0.463652
0 7 6 100 0.0963441
1 7 6 100 0.0513353
2 7 6 100 0.0333984
3 7 6 100 0.0830925
4 7 6 100 0.0866413
5 7 6 100 0.0865917
6 7 6 100 0.562597
0 8 6 100 0.0646545
1 8 6 100 0.0664055
2 8 6 100 0.0546737
3 8 6 100 0.114161
4 8 6 100 0.101399
5 8 6 100 0.0762408
6 8 6 100 0.522466
0 9 6 100 0.118346
1 9 6 100 0.086301
2 9 6 100 0.0506815
3 9 6 100 0.0773738
4 9 6 100 0.064481
5 9 6 100 0.0951472
6 9 6 100 0.507669
0 10 6 100 0.13658
1 10 6 100 0.107317
2 10 6 100 0.0540286
3 10 6 100 0.080821
4 10 6 100 0.105378
5 10 6 100 0.108032
6 10 6 100 0.407845
0 11 6 100 0.188429
1 11 6 100 0.0476498
2 11 6 100 0.06927
3 11 6 100 0.0499162
4 11 6 100 0.0480956
5 11 6 100 0.0948376
6 11 6 100 0.501802
0 12 6 100 0.316563
2 12 6 100 5.73928e-05
3 12 6 100 0.100008
5 12 6 100 0.200004
6 12 6 100 0.383368
0 13 6 100 0.25182
1 13 6 100 0.124999
4 13 6 100 0.000429302
5 13 6 100 9.59838e-06
6 13 6 100 0.622742
0 14 6 100 0.00627494
3 14 6 100 0.00026909
4 14 6 100 0.499629
5 14 6 100 0.25
6 14 6 100 0.243828
0 15 6 100 0.334003
2 15 6 100 1.34526e-05
4 15 6 100 0.333324
5 15 6 100 0.33266
0 16 6 100 3.29467e-05
4 16 6 100 0.666634
5 16 6 100 0.333333
0 17 6 100 0.351824
2 17 6 100 0.00169571
3 17 6 100 0.331758
5 17 6 100 0.314722
0 18 6 100 0.666667
6 18 6 100 0.333333
0 19 6 100 0.5
6 19 6 100 0.5
5 20 6 100 1
6 21 6 100 1
0 1 7 100 0.000415083
1 1 7 100 0.629976
2 1 7 100 0.0958283
3 1 7 100 0.0402953
4 1 7 100 0.0294137
5 1 7 100 0.037387
6 1 7 100 0.0749132
7 1 7 100 0.0917713
0 2 7 100 0.150415
1 2 7 100 0.11714
2 2 7 100 0.239102
3 2 7 100 0.0818707
4 2 7 100 0.0867382
5 2 7 100 0.0742629
6 2 7 100 0.0937541
7 2 7 100 0.156717
0 3 7 100 0.180607
1 3 7 100 0.10514
2 3 7 100 0.0799681
3 3 7 100 0.133314
4 3 7 100 0.114977
5 3 7 100 0.0965326
6 3 7 100 0.121014
7 3 7 100 0.168447
0 4 7 100 0.147888
1 4 7 100 0.105253
2 4 7 100 0.0717783
3 4 7 100 0.0690111
4 4 7 100 0.127663
5 4 7 100 0.131402
6 4 7 100 0.146049
7 4 7 100 0.200957
0 5 7 100 0.161307
1 5 7 100 0.0684725
2 5 7 100 0.0573943
3 5 7 100 0.0795047
4 5 7 100 0.107043
5 5 7 100 0.0942514
6 5 7 100 0.167824
7 5 7 100 0.264203
0 6 7 100 0.159069
1 6 7 100 0.0723756
2 6 7 100 0.0591062
3 6 7 100 0.0591223
4 6 7 100 0.0904586
5 6 7 100 0.100025
6 6 7 100 0.140306
7 6 7 100 0.319537
0 7 7 100 0.14097
1 7 7 100 0.0716186
2 7 7 100 0.0559988
3 7 7 100 0.0646242
4 7 7 100 0.102415
5 7 7 100 0.0588052
6 7 7 100 0.103301
7 7 7 100 0.402268
0 8 7 100 0.12284
1 8 7 100 0.0729378
2 8 7 100 0.0423505
3 8 7 100 0.0807172
4 8 7 100 0.0823092
5 8 7 100 0.0578891
6 8 7 100 0.0888996
7 8 7 100 0.452056
0 9 7 100 0.157661
1 9 7 100 0.0686939
2 9 7 100 0.0481491
3 9 7 100 0.0517587
4 9 7 100 0.0595264
5 9 7 100 0.0380346
6 9 7 100 0.0910307
7 9 7 100 0.485146
0 10 7 100 0.159897
1 10 7 100 0.0364452
2 10 7 100 0.0342802
3 10 7 100 0.0134508
4 10 7 100 0.0402332
5 10 7 100 0.04737
6 10 7 100 0.124776
7 10 7 100 0.543548
0 11 7 100 0.16097
1 11 7 100 0.0952061
2 11 7 100 0.0280929
3 11 7 100 0.0159608
4 11 7 100 0.051096
5 11 7 100 0.0254537
6 11 7 100 0.0951853
7 11 7 100 0.528035
0 12 7 100 0.173058
1 12 7 100 0.137931
2 12 7 100 8.41127e-07
3 12 7 100 2.77456e-06
4 12 7 100 0.0689461
5 12 7 100 0.0690137
6 12 7 100 0.275253
7 12 7 100 0.275794
0 13 7 100 0.285486
1 13 7 100 0.110954
2 13 7 100 3.88054e-05
3 13 7 100 0.071408
4 13 7 100 0.13637
5 13 7 100 0.0909053
6 13 7 100 0.0791145
7 13 7 100 0.225724
0 14 7 100 0.228314
1 14 7 100 0.217982
2 14 7 100 0.00010453
3 14 7 100 0.0007402
4 14 7 100 0.10784
5 14 7 100 0.111791
6 14 7 100 0.222116
7 14 7 100 0.111111
0 15 7 100 0.250057
1 15 7 100 0.1875
2 15 7 100 8.23006e-06
3 15 7 100 9.49161e-07
4 15 7 100 0.0624977
5 15 7 100 0.0625118
6 15 7 100 0.187492
7 15 7 100 0.249932
0 16 7 100 0.170383
1 16 7 100 0.249964
3 16 7 100 1.78371e-06
4 16 7 100 0.0833986
5 16 7 100 2.09287e-05
6 16 7 100 0.412898
7 16 7 100 0.0833334
0 17 7 100 0.36361
1 17 7 100 0.181818
2 17 7 100 1.50388e-05
3 17 7 100 1.39498e-05
4 17 7 100 0.0909093
6 17 7 100 0.272724
7 17 7 100 0.0909093
0 18 7 100 0.000321033
1 18 7 100 0.0999998
4 18 7 100 0.299999
6 18 7 100 0.29968
7 18 7 100 0.300001
0 19 7 100 0.137354
1 19 7 100 0.143159
4 19 7 100 0.285714
6 19 7 100 0.290916
7 19 7 100 0.142857
0 20 7 100 0.399681
4 20 7 100 0.222533
6 20 7 100 0.177786
7 20 7 100 0.200001
0 21 7 100 0.000128967
4 21 7 100 0.499666
6 21 7 100 0.250204
7 21 7 100 0.25
0 22 7 100 0.333333
4 22 7 100 0.333333
7 22 7 100 0.333333
6 23 7 100 0.5
7 23 7 100 0.5
0 24 7 100 1
6 25 7 100 1
0 26 7 100 1
6 27 7 100 1
0 28 7 100 0.999977
6 28 7 100 2.3068e-05
7 29 7 100 1
0 1 8 100 0.000759027
1 1 8 100 0.595852
2 1 8 100 0.102758
3 1 8 100 0.0464517
4 1 8 100 0.0546856
5 1 8 100 0.0382045
6 1 8 100 0.0420785
7 1 8 100 0.0673292
8 1 8 100 0.0518817
0 2 8 100 0.157029
1 2 8 100 0.108071
2 2 8 100 0.248243
3 2 8 100 0.089475
4 2 8 100 0.0725372
5 2 8 100 0.0667041
6 2 8 100 0.0548743
7 2 8 100 0.0987601
8 2 8 100 0.104307
0 3 8 100 0.209949
1 3 8 100 0.0911755
2 3 8 100 0.0960925
3 3 8 100 0.127293
4 3 8 100 0.0905941
5 3 8 100 0.0736176
6 3 8 100 0.0839226
7 3 8 100 0.111613
8 3 8 100 0.115743
0 4 8 100 0.180036
1 4 8 100 0.0948888
2 4 8 100 0.0742006
3 4 8 100 0.0705585
4 4 8 100 0.118712
5 4 8 100 0.0948872
6 4 8 100 0.097638
7 4 8 100 0.115841
8 4 8 100 0.153238
0 5 8 100 0.166183
1 5 8 100 0.0758533
2 5 8 100 0.054612
3 5 8 100 0.0696331
4 5 8 100 0.105672
5 5 8 100 0.105527
6 5 8 100 0.0920987
7 5 8 100 0.144387
8 5 8 100 0.186034
0 6 8 100 0.181704
1 6 8 100 0.0757263
2 6 8 100 0.0575369
3 6 8 100 0.0493631
4 6 8 100 0.0983444
5 6 8 100 0.0899339
6 6 8 100 0.0740634
7 6 8 100 0.144653
8 6 8 100 0.228675
0 7 8 100 0.151372
1 7 8 100 0.0694592
2 7 8 100 0.0445999
3 7 8 100 0.0760016
4 7 8 100 0.0886489
5 7 8 100 0.0904939
6 7 8 100 0.0805489
7 7 8 100 0.12151
8 7 8 100 0.277366
0 8 8 100 0.129531
1 8 8 100 0.0710523
2 8 8 100 0.0479559
3 8 8 100 0.0787214
4 8 8 100 0.0961699
5 8 8 100 0.0808317
6 8 8 100 0.0582384
7 8 8 100 0.0894946
8 8 8 100 0.348005
0 9 8 100 0.164052
1 9 8 100 0.056464
2 9 8 100 0.0384153
3 9 8 100 0.073972
4 9 8 100 0.0670631
5 9 8 100 0.0567462
6 9 8 100 0.0635496
7 9 8 100 0.088309
8 9 8 100 0.391429
0 10 8 100 0.124557
1 10 8 100 0.0590494
2 10 8 100 0.0311054
3 10 8 100 0.0705619
4 10 8 100 0.0521271
5 10 8 100 0.0451891
6 10 8 100 0.0491878
7 10 8 100 0.0742145
8 10 8 100 0.494008
0 11 8 100 0.17339
1 11 8 100 0.0578308
2 11 8 100 0.0358944
3 11 8 100 0.0468456
4 11 8 100 0.0799591
5 11 8 100 0.0351456
6 11 8 100 0.0575087
7 11 8 100 0.0825256
8 11 8 100 0.4309
0 12 8 100 0.163593
1 12 8 100 0.0896802
2 12 8 100 0.031682
3 12 8 100 0.0209631
4 12 8 100 0.0832218
5 12 8 100 0.00951055
6 12 8 100 0.0742018
7 12 8 100 0.107796
8 12 8 100 0.419351
0 13 8 100 0.166585
1 13 8 100 0.0508477
2 13 8 100 0.0853274
3 13 8 100 0.00047326
4 13 8 100 0.0851863
5 13 8 100 0.0425927
6 13 8 100 0.0368626
7 13 8 100 0.0891767
8 13 8 100 0.442948
0 14 8 100 0.254239
1 14 8 100 0.0322581
2 14 8 100 0.0320292
3 14 8 100 0.0322969
4 14 8 100 0.0645285
5 14 8 100 0.0641416
6 14 8 100 0.0213897
7 14 8 100 0.197385
8 14 8 100 0.301732
0 15 8 100 0.136853
1 15 8 100 0.0833314
2 15 8 100 0.0416677
3 15 8 100 0.0415766
4 15 8 100 0.124154
5 15 8 100 0.0828126
6 15 8 100 0.164761
7 15 8 100 0.00242394
8 15 8 100 0.32242
0 16 8 100 0.216474
1 16 8 100 0.0674282
2 16 8 100 0.0588475
3 16 8 100 0.0382656
4 16 8 100 1.79169e-05
5 16 8 100 0.173858
6 16 8 100 0.0588235
7 16 8 100 0.186307
8 16 8 100 0.199978
0 17 8 100 0.17161
1 17 8 100 0.23077
2 17 8 100 0.0769242
3 17 8 100 6.9942e-06
4 17 8 100 0.154206
6 17 8 100 0.0766216
7 17 8 100 0.23016
8 17 8 100 0.0597011
0 18 8 100 0.2517
1 18 8 100 0.250001
2 18 8 100 0.188772
3 18 8 100 0.000364692
4 18 8 100 0.0571998
5 18 8 100 0.0833333
7 18 8 100 0.0852958
8 18 8 100 0.0833335
0 19 8 100 0.363883
1 19 8 100 0.0909093
3 19 8 100 3.5412e-05
4 19 8 100 0.181813
5 19 8 100 1.77521e-05
7 19 8 100 0.181523
8 19 8 100 0.181818
0 20 8 100 0.444418
1 20 8 100 0.222222
2 20 8 100 2.73547e-06
3 20 8 100 2.94319e-05
5 20 8 100 0.111111
7 20 8 100 0.111105
8 20 8 100 0.111111
0 21 8 100 0.0839078
1 21 8 100 0.125
3 21 8 100 0.124846
4 21 8 100 0.12498
5 21 8 100 0.125
7 21 8 100 0.166123
8 21 8 100 0.250143
0 22 8 100 0.667877
1 22 8 100 0.0183858
3 22 8 100 0.0155963
5 22 8 100 0.16668
6 22 8 100 0.000100927
7 22 8 100 0.13136
0 23 8 100 0.33328
2 23 8 100 5.62549e-05
3 23 8 100 6.63732e-06
4 23 8 100 0.166684
5 23 8 100 0.166644
7 23 8 100 0.166662
8 23 8 100 0.166667
0 24 8 100 0.199522
3 24 8 100 7.58732e-06
5 24 8 100 0.200079
6 24 8 100 0.000401105
7 24 8 100 0.39999
8 24 8 100 0.2
3 25 8 100 3.18955e-05
7 25 8 100 0.749968
8 25 8 100 0.25
0 26 8 100 0.333155
2 26 8 100 0.000178413
7 26 8 100 0.333333
8 26 8 100 0.333333
4 27 8 100 1
0 28 8 100 0.646689
2 28 8 100 0.352862
5 28 8 100 3.33086e-05
6 28 8 100 0.000313986
7 28 8 100 0.000101884
0 29 8 100 0.000673315
2 29 8 100 0.499327
4 29 8 100 0.5
0 30 8 100 0.645829
2 30 8 100 0.352417
5 30 8 100 0.000699221
6 30 8 100 0.00105467
0 31 8 100 0.0676751
2 31 8 100 0.432325
4 31 8 100 0.5
0 32 8 100 1.0804e-05
2 32 8 100 0.499994
5 32 8 100 0.49887
6 32 8 100 0.000955414
7 32 8 100 0.000169356
0 33 8 100 0.56056
2 33 8 100 0.00232311
6 33 8 100 0.437117
1 34 8 100 0.5
5 34 8 100 0.5
0 35 8 100 0.500011
1 35 8 100 0.499989
4 36 8 100 0.500002
5 36 8 100 0.499998
4 37 8 100 0.500081
7 37 8 100 0.499919
0 38 8 100 0.5
4 38 8 100 0.5
0 39 8 100 0.5
7 39 8 100 0.5
0 40 8 100 0.482527
2 40 8 100 0.0174726
7 40 8 100 0.5
0 41 8 100 0.498976
5 41 8 100 0.500763
8 41 8 100 0.000261699
0 42 8 100 0.499993
6 42 8 100 6.61127e-06
7 42 8 100 0.5
4 43 8 100 0.5
5 43 8 100 0.5
0 44 8 100 1.29723e-05
2 44 8 100 0.499987
5 44 8 100 0.5
0 45 8 100 0.497224
2 45 8 100 0.00307164
5 45 8 100 0.000187723
6 45 8 100 0.000116656
7 45 8 100 0.4994
2 46 8 100 0.499997
7 46 8 100 0.500003
0 47 8 100 0.0564021
2 47 8 100 0.443598
7 47 8 100 0.5
0 48 8 100 0.0025913
2 48 8 100 0.497409
8 48 8 100 0.5
0 49 8 100 0.888197
2 49 8 100 0.111496
8 49 8 100 0.000307311
8 50 8 100 1
0 1 9 100 0.000900341
1 1 9 100 0.549971
2 1 9 100 0.0918955
3 1 9 100 0.0454964
4 1 9 100 0.0490647
5 1 9 100 0.0346701
6 1 9 100 0.026386
7 1 9 100 0.0570218
8 1 9 100 0.0753177
9 1 9 100 0.0692759
0 2 9 100 0.174161
1 2 9 100 0.114263
2 2 9 100 0.203581
3 2 9 100 0.0825562
4 2 9 100 0.0713475
5 2 9 100 0.0538238
6 2 9 100 0.0466092
7 2 9 100 0.0491309
8 2 9 100 0.104499
9 2 9 100 0.100029
0 3 9 100 0.232988
1 3 9 100 0.0973979
2 3 9 100 0.077009
3 3 9 100 0.116551
4 3 9 100 0.0695465
5 3 9 100 0.0741633
6 3 9 100 0.0640561
7 3 9 100 0.0658931
8 3 9 100 0.0991356
9 3 9 100 0.10326
0 4 9 100 0.189165
1 4 9 100 0.10282
2 4 9 100 0.074386
3 4 9 100 0.0706276
4 4 9 100 0.0879238
5 4 9 100 0.0831215
6 4 9 100 0.0757972
7 4 9 100 0.0831642
8 4 9 100 0.117975
9 4 9 100 0.115019
0 5 9 100 0.19528
1 5 9 100 0.0863257
2 5 9 100 0.0598616
3 5 9 100 0.0485442
4 5 9 100 0.0750708
5 5 9 100 0.0948287
6 5 9 100 0.0892615
7 5 9 100 0.0788385
8 5 9 100 0.131894
9 5 9 100 0.140095
0 6 9 100 0.16423
1 6 9 100 0.0659925
2 6 9 100 0.0411721
3 6 9 100 0.0538129
4 6 9 100 0.079084
5 6 9 100 0.105538
6 6 9 100 0.0950644
7 6 9 100 0.0731354
8 6 9 100 0.144506
9 6 9 100 0.177466
0 7 9 100 0.191625
1 7 9 100 0.060424
2 7 9 100 0.0361947
3 7 9 100 0.0617063
4 7 9 100 0.0795943
5 7 9 100 0.0694632
6 7 9 100 0.0837892
7 7 9 100 0.0643154
8 7 9 100 0.114494
9 7 9 100 0.238394
0 8 9 100 0.155532
1 8 9 100 0.0644487
2 8 9 100 0.0467714
3 8 9 100 0.06108
4 8 9 100 0.064813
5 8 9 100 0.075116
6 8 9 100 0.0679948
7 8 9 100 0.0506915
8 8 9 100 0.101799
9 8 9 100 0.311753
0 9 9 100 0.141535
1 9 9 100 0.0568621
2 9 9 100 0.0401849
3 9 9 100 0.0722842
4 9 9 100 0.0492941
5 9 9 100 0.065569
6 9 9 100 0.0491667
7 9 9 100 0.0507481
8 9 9 100 0.0961041
9 9 9 100 0.378252
0 10 9 100 0.149625
1 10 9 100 0.0472321
2 10 9 100 0.0212917
3 10 9 100 0.0525629
4 10 9 100 0.0567137
5 10 9 100 0.0619652
6 10 9 100 0.0326475
7 10 9 100 0.0503904
8 10 9 100 0.10197
9 10 9 100 0.425601
0 11 9 100 0.138758
1 11 9 100 0.0455122
2 11 9 100 0.0208195
3 11 9 100 0.0469431
4 11 9 100 0.0453447
5 11 9 100 0.0486103
6 11 9 100 0.0360408
7 11 9 100 0.0608466
8 11 9 100 0.0943759
9 11 9 100 0.462749
0 12 9 100 0.170578
1 12 9 100 0.043162
2 12 9 100 0.0383413
3 12 9 100 0.0399113
4 12 9 100 0.0361928
5 12 9 100 0.044415
6 12 9 100 0.0397989
7 12 9 100 0.0550247
8 12 9 100 0.0933879
9 12 9 100 0.439187
0 13 9 100 0.145259
1 13 9 100 0.0336103
2 13 9 100 0.0253896
3 13 9 100 0.0575374
4 13 9 100 0.0501592
5 13 9 100 0.0358462
6 13 9 100 0.065538
7 13 9 100 0.0384072
8 13 9 100 0.0844715
9 13 9 100 0.463781
0 14 9 100 0.159874
1 14 9 100 0.0329229
2 14 9 100 0.0367694
3 14 9 100 0.100525
4 14 9 100 0.0444213
5 14 9 100 0.0612999
6 14 9 100 0.0572628
7 14 9 100 0.0496305
8 14 9 100 0.0665296
9 14 9 100 0.390764
0 15 9 100 0.243489
1 15 9 100 0.103227
2 15 9 100 0.0941852
3 15 9 100 0.0969199
4 15 9 100 0.0238146
5 15 9 100 0.060183
6 15 9 100 0.0780887
7 15 9 100 0.0474373
8 15 9 100 0.0277726
9 15 9 100 0.224882
0 16 9 100 0.132175
1 16 9 100 0.150257
2 16 9 100 0.0606106
3 16 9 100 0.0607204
4 16 9 100 0.0909083
5 16 9 100 0.0890407
6 16 9 100 0.000139231
7 16 9 100 0.0600998
8 16 9 100 0.09214
9 16 9 100 0.263909
0 17 9 100 0.255465
1 17 9 100 0.162298
2 17 9 100 0.0877101
3 17 9 100 0.0833423
4 17 9 100 0.169794
5 17 9 100 0.000150164
6 17 9 100 0.00456848
7 17 9 100 0.041668
8 17 9 100 0.0416675
9 17 9 100 0.153336
0 18 9 100 0.194643
1 18 9 100 0.0476133
2 18 9 100 0.0480105
3 18 9 100 0.230761
4 18 9 100 0.0952388
5 18 9 100 0.0444854
6 18 9 100 0.0480353
7 18 9 100 0.0475939
8 18 9 100 0.0546272
9 18 9 100 0.188991
0 19 9 100 0.353441
1 19 9 100 0.117647
2 19 9 100 0.117647
3 19 9 100 0.122226
4 19 9 100 0.000124184
5 19 9 100 0.135484
8 19 9 100 0.153431
0 20 9 100 0.411091
1 20 9 100 0.0254029
2 20 9 100 0.0923901
3 20 9 100 0.176319
4 20 9 100 0.0588235
5 20 9 100 0.000126017
7 20 9 100 0.118199
8 20 9 100 1.0253e-06
9 20 9 100 0.117647
0 21 9 100 0.0673864
1 21 9 100 0.265851
2 21 9 100 0.0666668
3 21 9 100 0.0667745
4 21 9 100 5.18771e-06
5 21 9 100 0.266587
7 21 9 100 0.0667219
8 21 9 100 0.066673
9 21 9 100 0.133334
0 22 9 100 0.150904
1 22 9 100 0.153841
2 22 9 100 0.153939
3 22 9 100 0.153716
4 22 9 100 0.0769341
5 22 9 100 0.153846
7 22 9 100 0.000169904
8 22 9 100 0.156649
0 23 9 100 0.0887212
1 23 9 100 0.0533902
2 23 9 100 0.179238
3 23 9 100 0.229091
4 23 9 100 0.0769269
5 23 9 100 0.229181
6 23 9 100 0.000687572
7 23 9 100 0.0011311
8 23 9 100 0.0647106
9 23 9 100 0.0769231
0 24 9 100 0.436778
1 24 9 100 0.0980178
2 24 9 100 2.01162e-06
3 24 9 100 0.0632157
5 24 9 100 0.166667
6 24 9 100 1.25644e-06
7 24 9 100 0.0686471
8 24 9 100 4.72798e-06
9 24 9 100 0.166666
0 25 9 100 0.00399489
1 25 9 100 0.1
2 25 9 100 0.100046
3 25 9 100 0.2
4 25 9 100 0.0999994
5 25 9 100 0.295958
7 25 9 100 0.1
9 25 9 100 0.1
0 26 9 100 0.333267
1 26 9 100 0.111132
2 26 9 100 0.109251
4 26 9 100 1.73046e-05
5 26 9 100 0.111793
6 26 9 100 0.00119559
7 26 9 100 0.111111
8 26 9 100 0.111121
9 26 9 100 0.111111
0 27 9 100 0.250425
2 27 9 100 0.125
3 27 9 100 0.124576
5 27 9 100 0.124999
6 27 9 100 2.38222e-06
7 27 9 100 0.125
8 27 9 100 0.124998
9 27 9 100 0.125
0 28 9 100 0.303118
3 28 9 100 0.285162
4 28 9 100 4.16836e-06
7 28 9 100 0.127333
8 28 9 100 0.141525
9 28 9 100 0.142857
0 29 9 100 0.168616
1 29 9 100 0.00156693
2 29 9 100 0.000208482
3 29 9 100 0.165178
5 29 9 100 0.00068496
6 29 9 100 0.15688
8 29 9 100 0.173532
9 29 9 100 0.333333
0 30 9 100 0.000945437
2 30 9 100 0.499984
3 30 9 100 0.24907
6 30 9 100 0.24606
8 30 9 100 0.00394052
2 31 9 100 0.5
6 31 9 100 0.25
9 31 9 100 0.25
0 32 9 100 0.333548
2 32 9 100 0.333333
6 32 9 100 0.333119
0 33 9 100 0.0718318
2 33 9 100 0.666369
7 33 9 100 0.2618
0 34 9 100 0.657642
2 34 9 100 0.00877623
3 34 9 100 0.00024838
8 34 9 100 0.333333
8 35 9 100 0.333334
9 35 9 100 0.666666
0 36 9 100 0.999962
3 36 9 100 3.82909e-05
0 37 9 100 2.9568e-05
5 37 9 100 5.04578e-05
6 37 9 100 0.00547146
8 37 9 100 0.994449
6 38 9 100 0.0875309
8 38 9 100 0.912469
6 39 9 100 1
0 40 9 100 0.000231373
4 40 9 100 0.999769
0 41 9 100 1
9 42 9 100 1
0 1 10 100 0.000635164
1 1 10 100 0.505502
2 1 10 100 0.115824
3 1 10 100 0.0450187
4 1 10 100 0.0557641
5 1 10 100 0.0501692
6 1 10 100 0.041018
7 1 10 100 0.0256858
8 1 10 100 0.0465844
9 1 10 100 0.0633863
10 1 10 100 0.050412
0 2 10 100 0.210326
1 2 10 100 0.116535
2 2 10 100 0.189733
3 2 10 100 0.086795
4 2 10 100 0.0555647
5 2 10 100 0.0623264
6 2 10 100 0.0549659
7 2 10 100 0.0391667
8 2 10 100 0.046394
9 2 10 100 0.0715982
10 2 10 100 0.0665953
0 3 10 100 0.208574
1 3 10 100 0.0801901
2 3 10 100 0.0788099
3 3 10 100 0.136979
4 3 10 100 0.090405
5 3 10 100 0.0693113
6 3 10 100 0.0643179
7 3 10 100 0.0516415
8 3 10 100 0.0601153
9 3 10 100 0.080915
10 3 10 100 0.078741
0 4 10 100 0.200513
1 4 10 100 0.0759361
2 4 10 100 0.064661
3 4 10 100 0.0612083
4 4 10 100 0.100078
5 4 10 100 0.0882263
6 4 10 100 0.0694843
7 4 10 100 0.0798906
8 4 10 100 0.079367
9 4 10 100 0.0880394
10 4 10 100 0.0925965
0 5 10 100 0.204995
1 5 10 100 0.0670632
2 5 10 100 0.0566495
3 5 10 100 0.0624403
4 5 10 100 0.0676201
5 5 10 100 0.0970768
6 5 10 100 0.0917192
7 5 10 100 0.071559
8 5 10 100 0.0766333
9 5 10 100 0.0959178
10 5 10 100 0.108326
0 6 10 100 0.184735
1 6 10 100 0.0688937
2 6 10 100 0.0520243
3 6 10 100 0.0484604
4 6 10 100 0.0783892
5 6 10 100 0.0840646
6 6 10 100 0.0853979
7 6 10 100 0.0871146
8 6 10 100 0.0760591
9 6 10 100 0.110125
10 6 10 100 0.124737
0 7 10 100 0.188741
1 7 10 100 0.0611424
2 7 10 100 0.0488416
3 7 10 100 0.0449384
4 7 10 100 0.0588827
5 7 10 100 0.0807816
6 7 10 100 0.0830943
7 7 10 100 0.0788632
8 7 10 100 0.0801243
9 7 10 100 0.120028
10 7 10 100 0.154563
0 8 10 100 0.165761
1 8 10 100 0.0663022
2 8 10 100 0.0458266
3 8 10 100 0.0577797
4 8 10 100 0.0630921
5 8 10 100 0.0591156
6 8 10 100 0.0790788
7 8 10 100 0.0844395
8 8 10 100 0.0680673
9 8 10 100 0.104829
10 8 10 100 0.205708
0 9 10 100 0.170787
1 9 10 100 0.0624215
2 9 10 100 0.0403847
3 9 10 100 0.053246
4 9 10 100 0.0678968
5 9 10 100 0.0586805
6 9 10 100 0.0657057
7 9 10 100 0.0626079
8 9 10 100 0.0494087
9 9 10 100 0.107693
10 9 10 100 0.261169
0 10 10 100 0.144129
1 10 10 100 0.0604392
2 10 10 100 0.0429202
3 10 10 100 0.0432571
4 10 10 100 0.0480675
5 10 10 100 0.0503309
6 10 10 100 0.0533756
7 10 10 100 0.0514206
8 10 10 100 0.0393087
9 10 10 100 0.093249
10 10 10 100 0.373502
0 11 10 100 0.153267
1 11 10 100 0.0532026
2 11 10 100 0.0362029
3 11 10 100 0.0401952
4 11 10 100 0.0381993
5 11 10 100 0.0448177
6 11 10 100 0.0458978
7 11 10 100 0.0551338
8 11 10 100 0.0485479
9 11 10 100 0.0812325
10 11 10 100 0.403304
0 12 10 100 0.158159
1 12 10 100 0.0261233
2 12 10 100 0.022554
3 12 10 100 0.0352112
4 12 10 100 0.0537705
5 12 10 100 0.0398935
6 12 10 100 0.0336151
7 12 10 100 0.0363413
8 12 10 100 0.0420274
9 12 10 100 0.0709349
10 12 10 100 0.481369
0 13 10 100 0.140063
1 13 10 100 0.0388257
2 13 10 100 0.0341079
3 13 10 100 0.0519986
4 13 10 100 0.0302509
5 13 10 100 0.033369
6 13 10 100 0.0370618
7 13 10 100 0.0326803
8 13 10 100 0.0415444
9 13 10 100 0.0811847
10 13 10 100 0.478914
0 14 10 100 0.187747
1 14 10 100 0.0383413
2 14 10 100 0.0508429
3 14 10 100 0.0459353
4 14 10 100 0.0196192
5 14 10 100 0.0361036
6 14 10 100 0.0540962
7 14 10 100 0.0436844
8 14 10 100 0.0306156
9 14 10 100 0.0736875
10 14 10 100 0.419327
0 15 10 100 0.103638
1 15 10 100 0.0565899
2 15 10 100 0.0556224
3 15 10 100 0.0520032
4 15 10 100 0.0230501
5 15 10 100 0.0560698
6 15 10 100 0.04677
7 15 10 100 0.0762769
8 15 10 100 0.0536993
9 15 10 100 0.0681351
10 15 10 100 0.408146
0 16 10 100 0.221065
1 16 10 100 0.0178857
2 16 10 100 0.071454
3 16 10 100 0.0601167
4 16 10 100 0.0381453
5 16 10 100 0.0180173
6 16 10 100 0.0172256
7 16 10 100 0.0375646
8 16 10 100 0.0360549
9 16 10 100 0.14545
10 16 10 100 0.337021
0 17 10 100 0.22487
1 17 10 100 0.0263461
2 17 10 100 0.0523191
3 17 10 100 0.00109959
4 17 10 100 0.0526117
5 17 10 100 0.0263711
6 17 10 100 0.0264357
7 17 10 100 0.0798784
8 17 10 100 0.0500835
9 17 10 100 0.128312
10 17 10 100 0.331673
0 18 10 100 0.235049
1 18 10 100 0.0384642
2 18 10 100 0.0384616
3 18 10 100 2.37058e-06
4 18 10 100 0.0384693
5 18 10 100 0.0376705
6 18 10 100 0.038458
7 18 10 100 0.114722
8 18 10 100 3.99651e-07
9 18 10 100 0.115382
10 18 10 100 0.343322
0 19 10 100 0.0621921
1 19 10 100 0.111111
2 19 10 100 0.122811
4 19 10 100 0.0556182
5 19 10 100 0.0555535
6 19 10 100 0.1111
7 19 10 100 0.110657
8 19 10 100 0.0557049
9 19 10 100 0.0941655
10 19 10 100 0.221086
0 20 10 100 0.142942
1 20 10 100 0.213505
2 20 10 100 0.142781
3 20 10 100 0.142854
4 20 10 100 1.22858e-06
7 20 10 100 0.0715221
8 20 10 100 0.142741
9 20 10 100 0.0722249
10 20 10 100 0.0714286
0 21 10 100 0.469378
1 21 10 100 0.011703
2 21 10 100 0.153846
3 21 10 100 0.076923
4 21 10 100 0.0573798
9 21 10 100 0.0769233
10 21 10 100 0.153847
0 22 10 100 0.183706
1 22 10 100 0.0909083
3 22 10 100 0.0901484
5 22 10 100 0.0907396
7 22 10 100 0.180575
8 22 10 100 0.000177236
9 22 10 100 0.181818
10 22 10 100 0.181927
0 23 10 100 0.222578
1 23 10 100 0.111111
3 23 10 100 0.111113
7 23 10 100 0.110997
9 23 10 100 0.33309
10 23 10 100 0.111111
0 24 10 100 0.499957
1 24 10 100 7.77113e-06
2 24 10 100 1.50789e-05
7 24 10 100 0.125
8 24 10 100 2.03406e-05
9 24 10 100 0.125
10 24 10 100 0.25
0 25 10 100 7.88705e-05
3 25 10 100 0.166667
5 25 10 100 0.166638
7 25 10 100 0.166594
9 25 10 100 0.333333
10 25 10 100 0.166689
0 26 10 100 0.243539
3 26 10 100 0.392675
4 26 10 100 0.158654
5 26 10 100 0.199997
7 26 10 100 3.45399e-05
9 26 10 100 0.00510104
0 27 10 100 0.200002
5 27 10 100 0.236928
7 27 10 100 0.163065
9 27 10 100 0.400005
0 28 10 100 0.593592
1 28 10 100 3.11332e-06
5 28 10 100 0.00640238
10 28 10 100 0.400002
0 29 10 100 5.58279e-05
2 29 10 100 0.0169919
4 29 10 100 0.316286
9 29 10 100 0.333332
10 29 10 100 0.333334
2 30 10 100 1
0 31 10 100 0.500002
2 31 10 100 0.499998
2 32 10 100 0.500001
3 32 10 100 8.82113e-05
9 32 10 100 0.499911
0 33 10 100 0.000143066
2 33 10 100 0.499857
9 33 10 100 0.5
0 34 10 100 0.000120457
2 34 10 100 0.0257897
9 34 10 100 0.446712
10 34 10 100 0.527378
0 35 10 100 0.000470615
2 35 10 100 0.00016393
5 35 10 100 0.00134581
9 35 10 100 0.0547558
10 35 10 100 0.943264
0 1 11 100 0.00169115
1 1 11 100 0.456206
2 1 11 100 0.121178
3 1 11 100 0.0612806
4 1 11 100 0.0610974
5 1 11 100 0.055447
6 1 11 100 0.0340112
7 1 11 100 0.0252531
8 1 11 100 0.0279756
9 1 11 100 0.0540907
10 1 11 100 0.0563479
11 1 11 100 0.0454218
0 2 11 100 0.213866
1 2 11 100 0.107948
2 2 11 100 0.178777
3 2 11 100 0.098111
4 2 11 100 0.054939
5 2 11 100 0.0641728
6 2 11 100 0.0411345
7 2 11 100 0.0367908
8 2 11 100 0.03729
9 2 11 100 0.0386876
10 2 11 100 0.0741572
11 2 11 100 0.0541262
0 3 11 100 0.237182
1 3 11 100 0.0794738
2 3 11 100 0.086155
3 3 11 100 0.118564
4 3 11 100 0.0761069
5 3 11 100 0.0601577
6 3 11 100 0.0485364
7 3 11 100 0.0588438
8 3 11 100 0.0485995
9 3 11 100 0.0516942
10 3 11 100 0.0690139
11 3 11 100 0.0656718
0 4 11 100 0.189101
1 4 11 100 0.0754551
2 4 11 100 0.0635154
3 4 11 100 0.0721718
4 4 11 100 0.0981265
5 4 11 100 0.0848549
6 4 11 100 0.0634584
7 4 11 100 0.0659884
8 4 11 100 0.0572583
9 4 11 100 0.0578227
10 4 11 100 0.0937166
11 4 11 100 0.0785307
0 5 11 100 0.216233
1 5 11 100 0.062372
2 5 11 100 0.0572178
3 5 11 100 0.0491597
4 5 11 100 0.0703722
5 5 11 100 0.0884441
6 5 11 100 0.0680834
7 5 11 100 0.077902
8 5 11 100 0.0714385
9 5 11 100 0.0665944
10 5 11 100 0.0853388
11 5 11 100 0.0868438
0 6 11 100 0.172107
1 6 11 100 0.0572052
2 6 11 100 0.048845
3 6 11 100 0.0525588
4 6 11 100 0.0652475
5 6 11 100 0.0770348
6 6 11 100 0.0769173
7 6 11 100 0.078492
8 6 11 100 0.0707401
9 6 11 100 0.0603726
10 6 11 100 0.132054
11 6 11 100 0.108425
0 7 11 100 0.186497
1 7 11 100 0.0636836
2 7 11 100 0.0419292
3 7 11 100 0.0446172
4 7 11 100 0.0763805
5 7 11 100 0.0642832
6 7 11 100 0.0747168
7 7 11 100 0.0957589
8 7 11 100 0.0689304
9 7 11 100 0.0631897
10 7 11 100 0.101936
11 7 11 100 0.118077
0 8 11 100 0.182512
1 8 11 100 0.0536759
2 8 11 100 0.0365609
3 8 11 100 0.0425025
4 8 11 100 0.0592995
5 8 11 100 0.06541
6 8 11 100 0.0673042
7 8 11 100 0.0960948
8 8 11 100 0.0616891
9 8 11 100 0.075965
10 8 11 100 0.117393
11 8 11 100 0.141593
0 9 11 100 0.191134
1 9 11 100 0.0511846
2 9 11 100 0.0320737
3 9 11 100 0.0382673
4 9 11 100 0.0625958
5 9 11 100 0.0504591
6 9 11 100 0.0617496
7 9 11 100 0.081947
8 9 11 100 0.0589868
9 9 11 100 0.0585818
10 9 11 100 0.105781
11 9 11 100 0.207239
0 10 11 100 0.152698
1 10 11 100 0.0539455
2 10 11 100 0.0325874
3 10 11 100 0.0369042
4 10 11 100 0.0547053
5 10 11 100 0.047865
6 10 11 100 0.0491487
7 10 11 100 0.0666264
8 10 11 100 0.0638335
9 10 11 100 0.0637899
10 10 11 100 0.109215
11 10 11 100 0.268682
0 11 11 100 0.158174
1 11 11 100 0.0507821
2 11 11 100 0.0206984
3 11 11 100 0.0322269
4 11 11 100 0.0449503
5 11 11 100 0.0569032
6 11 11 100 0.0409477
7 11 11 100 0.0637176
8 11 11 100 0.0556849
9 11 11 100 0.0580235
10 11 11 100 0.100231
11 11 11 100 0.31766
0 12 11 100 0.159146
1 12 11 100 0.039973
2 12 11 100 0.0249572
3 12 11 100 0.033393
4 12 11 100 0.0401799
5 12 11 100 0.0476999
6 12 11 100 0.0445811
7 12 11 100 0.0489423
8 12 11 100 0.0376467
9 12 11 100 0.0404273
10 12 11 100 0.0927171
11 12 11 100 0.390337
0 13 11 100 0.151535
1 13 11 100 0.0503388
2 13 11 100 0.019501
3 13 11 100 0.0297368
4 13 11 100 0.0438785
5 13 11 100 0.0440358
6 13 11 100 0.0377305
7 13 11 100 0.0418233
8 13 11 100 0.0428511
9 13 11 100 0.0353192
10 13 11 100 0.0644944
11 13 11 100 0.438755
0 14 11 100 0.164079
1 14 11 100 0.0244675
2 14 11 100 0.0163394
3 14 11 100 0.0262348
4 14 11 100 0.038118
5 14 11 100 0.0296735
6 14 11 100 0.0306962
7 14 11 100 0.0652148
8 14 11 100 0.0253796
9 14 11 100 0.0590292
10 14 11 100 0.0556771
11 14 11 100 0.465091
0 15 11 100 0.154646
1 15 11 100 0.0183676
2 15 11 100 0.0308705
3 15 11 100 0.0247421
4 15 11 100 0.0376454
5 15 11 100 0.0250349
6 15 11 100 0.0491758
7 15 11 100 0.0484128
8 15 11 100 0.0488702
9 15 11 100 0.043449
10 15 11 100 0.0425829
11 15 11 100 0.476203
0 16 11 100 0.146041
1 16 11 100 0.0207358
2 16 11 100 0.0103249
3 16 11 100 0.0470747
4 16 11 100 0.0412124
5 16 11 100 0.0597566
6 16 11 100 0.0411962
7 16 11 100 0.0516021
8 16 11 100 0.0539975
9 16 11 100 0.0620054
10 16 11 100 0.0219746
11 16 11 100 0.444079
0 17 11 100 0.232896
1 17 11 100 0.0174791
2 17 11 100 0.0525819
3 17 11 100 0.0173739
4 17 11 100 0.0431269
5 17 11 100 0.000723697
6 17 11 100 0.0175415
7 17 11 100 0.122799
8 17 11 100 0.0530367
9 17 11 100 0.0565714
10 17 11 100 0.0691794
11 17 11 100 0.316691
0 18 11 100 0.16478
1 18 11 100 0.0465097
2 18 11 100 0.00214542
3 18 11 100 0.0907255
4 18 11 100 0.107216
5 18 11 100 0.0763199
6 18 11 100 0.000158548
7 18 11 100 0.092446
8 18 11 100 0.0476549
9 18 11 100 0.0465349
10 18 11 100 0.0491255
11 18 11 100 0.276384
0 19 11 100 0.24215
1 19 11 100 0.0874146
2 19 11 100 0.00112517
3 19 11 100 0.0312651
4 19 11 100 0.12329
5 19 11 100 0.0313416
6 19 11 100 0.0297205
7 19 11 100 0.062401
8 19 11 100 0.0625004
9 19 11 100 0.0620276
10 19 11 100 0.0329947
11 19 11 100 0.233769
0 20 11 100 0.353546
1 20 11 100 0.04
3 20 11 100 0.0394318
4 20 11 100 0.0400533
6 20 11 100 4.73661e-07
7 20 11 100 0.0800023
8 20 11 100 0.0798961
9 20 11 100 0.0471549
10 20 11 100 0.0802119
11 20 11 100 0.239703
0 21 11 100 0.100735
1 21 11 100 0.0999998
2 21 11 100 0.0489962
3 21 11 100 0.0499999
4 21 11 100 0.0502417
5 21 11 100 0.0524926
7 21 11 100 0.017031
8 21 11 100 0.0980689
9 21 11 100 0.100002
10 21 11 100 0.0828172
11 21 11 100 0.299616
0 22 11 100 0.213773
3 22 11 100 0.071426
4 22 11 100 0.0713851
5 22 11 100 0.0716398
6 22 11 100 0.000359769
7 22 11 100 0.142857
8 22 11 100 0.0714421
9 22 11 100 0.0714295
10 22 11 100 0.0714286
11 22 11 100 0.214259
0 23 11 100 0.451477
4 23 11 100 0.000793406
6 23 11 100 2.86771e-06
7 23 11 100 0.181814
8 23 11 100 0.0909094
9 23 11 100 0.0909118
10 23 11 100 0.0909093
11 23 11 100 0.0931819
0 24 11 100 0.222114
3 24 11 100 0.111111
4 24 11 100 0.000693252
5 24 11 100 0.221529
7 24 11 100 0.111112
9 24 11 100 0.11122
10 24 11 100 0.11111
11 24 11 100 0.111111
0 25 11 100 0.0021841
4 25 11 100 0.125274
5 25 11 100 0.250849
6 25 11 100 0.121538
7 25 11 100 0.125108
8 25 11 100 0.125047
9 25 11 100 0.125
11 25 11 100 0.125
0 26 11 100 0.285726
1 26 11 100 0.142857
5 26 11 100 0.142857
7 26 11 100 0.142857
8 26 11 100 0.142857
9 26 11 100 0.142845
0 27 11 100 0.71424
2 27 11 100 0.142857
4 27 11 100 4.01688e-05
6 27 11 100 5.49237e-06
11 27 11 100 0.142857
0 28 11 100 0.166619
2 28 11 100 0.166667
7 28 11 100 0.333331
9 28 11 100 0.166715
11 28 11 100 0.166667
0 29 11 100 0.800301
2 29 11 100 0.19957
5 29 11 100 0.000120216
6 29 11 100 8.43145e-06
0 30 11 100 2.29863e-05
5 30 11 100 0.399981
7 30 11 100 0.199997
8 30 11 100 0.199998
9 30 11 100 0.200001
0 31 11 100 0.400622
2 31 11 100 0.000277255
5 31 11 100 0.200293
6 31 11 100 5.77623e-06
7 31 11 100 3.41876e-06
10 31 11 100 0.398799
0 32 11 100 0.400664
2 32 11 100 0.120842
5 32 11 100 0.2
7 32 11 100 0.0784833
10 32 11 100 1.0839e-05
11 32 11 100 0.2
0 33 11 100 0.249979
9 33 11 100 2.08807e-05
11 33 11 100 0.75
5 34 11 100 1
5 35 11 100 1
0 36 11 100 0.00256146
7 36 11 100 0.997439
7 37 11 100 1
11 38 11 100 1
0 1 12 100 0.000989012
1 1 12 100 0.466426
2 1 12 100 0.121974
3 1 12 100 0.0545509
4 1 12 100 0.0540698
5 1 12 100 0.0645994
6 1 12 100 0.0401296
7 1 12 100 0.0265322
8 1 12 100 0.0256755
9 1 12 100 0.0190074
10 1 12 100 0.0411055
11 1 12 100 0.0577557
12 1 12 100 0.0271856
0 2 12 100 0.213042
1 2 12 100 0.107897
2 2 12 100 0.176586
3 2 12 100 0.0877423
4 2 12 100 0.0643616
5 2 12 100 0.0573582
6 2 12 100 0.0669204
7 2 12 100 0.0366263
8 2 12 100 0.0288074
9 2 12 100 0.0330255
10 2 12 100 0.0299254
11 2 12 100 0.0561126
12 2 12 100 0.0415958
0 3 12 100 0.236291
1 3 12 100 0.086211
2 3 12 100 0.0859241
3 3 12 100 0.111888
4 3 12 100 0.081242
5 3 12 100 0.0623903
6 3 12 100 0.0546835
7 3 12 100 0.0531621
8 3 12 100 0.0492276
9 3 12 100 0.0375634
10 3 12 100 0.0471088
11 3 12 100 0.0556733
12 3 12 100 0.0386352
0 4 12 100 0.185793
1 4 12 100 0.0792268
2 4 12 100 0.0711972
3 4 12 100 0.0733615
4 4 12 100 0.0905842
5 4 12 100 0.0970658
6 4 12 100 0.0647302
7 4 12 100 0.0615098
8 4 12 100 0.0628437
9 4 12 100 0.0575937
10 4 12 100 0.0417351
11 4 12 100 0.0646802
12 4 12 100 0.0496785
0 5 12 100 0.201325
1 5 12 100 0.0600168
2 5 12 100 0.0555787
3 5 12 100 0.05554
4 5 12 100 0.0719211
5 5 12 100 0.0799254
6 5 12 100 0.0880665
7 5 12 100 0.0701738
8 5 12 100 0.074212
9 5 12 100 0.0648056
10 5 12 100 0.0505262
11 5 12 100 0.0666537
12 5 12 100 0.0612556
0 6 12 100 0.199228
1 6 12 100 0.0568969
2 6 12 100 0.0548264
3 6 12 100 0.0367553
4 6 12 100 0.0532714
5 6 12 100 0.0685709
6 6 12 100 0.0746469
7 6 12 100 0.0746472
8 6 12 100 0.0814303
9 6 12 100 0.0828219
10 6 12 100 0.0632153
11 6 12 100 0.0799342
12 6 12 100 0.073755
0 7 12 100 0.171011
1 7 12 100 0.0574877
2 7 12 100 0.044204
3 7 12 100 0.0345617
4 7 12 100 0.0527036
5 7 12 100 0.0602166
6 7 12 100 0.074223
7 7 12 100 0.0888136
8 7 12 100 0.0766318
9 7 12 100 0.0758014
10 7 12 100 0.0658981
11 7 12 100 0.0967777
12 7 12 100 0.10167
0 8 12 100 0.182608
1 8 12 100 0.045
2 8 12 100 0.0440203
3 8 12 100 0.0388776
4 8 12 100 0.052786
5 8 12 100 0.0553597
6 8 12 100 0.0677484
7 8 12 100 0.0825928
8 8 12 100 0.0743415
9 8 12 100 0.0674121
10 8 12 100 0.0629755
11 8 12 100 0.104545
12 8 12 100 0.121733
0 9 12 100 0.184352
1 9 12 100 0.0494776
2 9 12 100 0.0299207
3 9 12 100 0.0339241
4 9 12 100 0.0539878
5 9 12 100 0.042163
6 9 12 100 0.0663246
7 9 12 100 0.071684
8 9 12 100 0.0829211
9 9 12 100 0.0794212
10 9 12 100 0.0556962
11 9 12 100 0.10073
12 9 12 100 0.149397
0 10 12 100 0.173591
1 10 12 100 0.0513966
2 10 12 100 0.0308609
3 10 12 100 0.0312461
4 10 12 100 0.0493183
5 10 12 100 0.0519088
6 10 12 100 0.0575923
7 10 12 100 0.0648963
8 10 12 100 0.0704688
9 10 12 100 0.0696306
10 10 12 100 0.0578178
11 10 12 100 0.104497
12 10 12 100 0.186776
0 11 12 100 0.176093
1 11 12 100 0.0368315
2 11 12 100 0.0382096
3 11 12 100 0.02222
4 11 12 100 0.0458156
5 11 12 100 0.044334
6 11 12 100 0.0515929
7 11 12 100 0.0536408
8 11 12 100 0.0719766
9 11 12 100 0.0522333
10 11 12 100 0.0476221
11 11 12 100 0.104268
12 11 12 100 0.255162
0 12 12 100 0.142305
1 12 12 100 0.0375846
2 12 12 100 0.0354853
3 12 12 100 0.0248919
4 12 12 100 0.0311361
5 12 12 100 0.034641
6 12 12 100 0.0464992
7 12 12 100 0.0454454
8 12 12 100 0.0514692
9 12 12 100 0.0552753
10 12 12 100 0.0404197
11 12 12 100 0.0944659
12 12 12 100 0.360381
0 13 12 100 0.180864
1 13 12 100 0.0235878
2 13 12 100 0.0216683
3 13 12 100 0.0251182
4 13 12 100 0.0297968
5 13 12 100 0.027709
6 13 12 100 0.0479604
7 13 12 100 0.0416135
8 13 12 100 0.0437313
9 13 12 100 0.0453406
10 13 12 100 0.0344355
11 13 12 100 0.0777419
12 13 12 100 0.400433
0 14 12 100 0.149556
1 14 12 100 0.0316207
2 14 12 100 0.0218268
3 14 12 100 0.0322838
4 14 12 100 0.039713
5 14 12 100 0.0361047
6 14 12 100 0.0336779
7 14 12 100 0.0450003
8 14 12 100 0.0438382
9 14 12 100 0.039041
10 14 12 100 0.0489949
11 14 12 100 0.0742217
12 14 12 100 0.404121
0 15 12 100 0.17019
1 15 12 100 0.0163035
2 15 12 100 0.0192038
3 15 12 100 0.0198939
4 15 12 100 0.00485338
5 15 12 100 0.0429786
6 15 12 100 0.0455292
7 15 12 100 0.031763
8 15 12 100 0.059324
9 15 12 100 0.0231618
10 15 12 100 0.0385362
11 15 12 100 0.087207
12 15 12 100 0.441056
0 16 12 100 0.139264
1 16 12 100 0.0459996
2 16 12 100 0.019905
3 16 12 100 0.0270669
4 16 12 100 0.00723958
5 16 12 100 0.054254
6 16 12 100 0.0353827
7 16 12 100 0.0358323
8 16 12 100 0.0206254
9 16 12 100 0.0393179
10 16 12 100 0.046359
11 16 12 100 0.107285
12 16 12 100 0.421469
0 17 12 100 0.242938
1 17 12 100 0.0307502
2 17 12 100 0.000368761
3 17 12 100 0.0358424
4 17 12 100 0.0119714
5 17 12 100 0.0330491
6 17 12 100 0.0216742
7 17 12 100 0.0224718
8 17 12 100 0.0145515
9 17 12 100 0.047415
10 17 12 100 0.0326926
11 17 12 100 0.0769528
12 17 12 100 0.429322
0 18 12 100 0.138777
1 18 12 100 0.0364582
2 18 12 100 0.0179476
3 18 12 100 0.0377359
4 18 12 100 0.0188676
5 18 12 100 0.0552541
6 18 12 100 0.0567139
7 18 12 100 0.0189157
8 18 12 100 0.00336811
9 18 12 100 0.0188655
10 18 12 100 0.0324515
11 18 12 100 0.0758832
12 18 12 100 0.488762
0 19 12 100 0.127162
1 19 12 100 0.0370368
2 19 12 100 0.00017601
3 19 12 100 0.0735225
4 19 12 100 0.0620812
5 19 12 100 0.0462949
6 19 12 100 0.138046
7 19 12 100 0.0740742
8 19 12 100 5.84078e-06
9 19 12 100 0.0740746
10 19 12 100 0.037037
11 19 12 100 0.0740426
12 19 12 100 0.256446
0 20 12 100 0.324456
1 20 12 100 0.0766479
2 20 12 100 5.61577e-06
4 20 12 100 0.05
5 20 12 100 0.050001
6 20 12 100 0.000641855
7 20 12 100 0.0999928
9 20 12 100 0.0981125
10 20 12 100 0.0501398
11 20 12 100 0.050002
12 20 12 100 0.2
0 21 12 100 0.0809666
1 21 12 100 0.0058146
2 21 12 100 0.062442
4 21 12 100 0.0568228
5 21 12 100 0.124862
6 21 12 100 0.0625015
7 21 12 100 0.125008
9 21 12 100 0.0625
11 21 12 100 0.000219969
12 21 12 100 0.418863
0 22 12 100 0.000253578
1 22 12 100 0.111111
4 22 12 100 0.222222
5 22 12 100 0.222777
6 22 12 100 0.111111
7 22 12 100 0.111107
8 22 12 100 0.111106
9 22 12 100 0.110312
0 23 12 100 0.327788
3 23 12 100 1.22569e-06
4 23 12 100 0.111115
5 23 12 100 0.222279
6 23 12 100 0.111111
7 23 12 100 0.000102585
8 23 12 100 0.111113
9 23 12 100 2.01632e-06
10 23 12 100 0.00537647
12 23 12 100 0.111111
0 24 12 100 0.38818
1 24 12 100 0.125
2 24 12 100 0.111719
4 24 12 100 0.0246892
5 24 12 100 0.125
6 24 12 100 2.56986e-05
7 24 12 100 7.03583e-05
8 24 12 100 0.100311
9 24 12 100 4.14351e-06
12 24 12 100 0.125
0 25 12 100 0.285714
1 25 12 100 0.142857
4 25 12 100 0.142857
5 25 12 100 0.142857
7 25 12 100 0.142857
12 25 12 100 0.142857
0 26 12 100 0.0159436
1 26 12 100 0.159833
3 26 12 100 0.00460277
4 26 12 100 4.32881e-06
5 26 12 100 0.166667
6 26 12 100 0.166666
11 26 12 100 0.319616
12 26 12 100 0.166667
0 27 12 100 0.599835
2 27 12 100 2.03077e-06
5 27 12 100 0.000162074
7 27 12 100 0.2
12 27 12 100 0.200001
0 28 12 100 0.249996
5 28 12 100 0.250001
6 28 12 100 0.158986
7 28 12 100 3.29263e-06
8 28 12 100 0.0910133
12 28 12 100 0.250001
0 29 12 100 0.304809
6 29 12 100 0.333333
7 29 12 100 0.0076069
10 29 12 100 0.0209176
12 29 12 100 0.333334
6 30 12 100 0.5
11 30 12 100 0.5
0 31 12 100 0.00393632
6 31 12 100 0.996064
0 32 12 100 0.495741
6 32 12 100 0.504259
0 33 12 100 0.49989
5 33 12 100 7.38135e-05
7 33 12 100 3.35167e-05
12 33 12 100 0.500002
6 34 12 100 1
6 35 12 100 1
0 36 12 100 1
0 37 12 100 1.39402e-05
3 37 12 100 0.999822
6 37 12 100 7.6603e-05
8 37 12 100 8.7642e-05
0 38 12 100 4.57697e-05
6 38 12 100 5.07017e-05
8 38 12 100 3.12898e-05
9 38 12 100 0.999844
11 38 12 100 2.8367e-05
0 39 12 100 1
12 40 12 100 1
0 1 13 100 0.00113016
1 1 13 100 0.433583
2 1 13 100 0.12296
3 1 13 100 0.0453048
4 1 13 100 0.0661458
5 1 13 100 0.0627555
6 1 13 100 0.0377773
7 1 13 100 0.0458885
8 1 13 100 0.0184408
9 1 13 100 0.0293227
10 1 13 100 0.0309112
11 1 13 100 0.0328667
12 1 13 100 0.044954
13 1 13 100 0.0279596
0 2 13 100 0.233366
1 2 13 100 0.0935067
2 2 13 100 0.162229
3 2 13 100 0.0963357
4 2 13 100 0.0625729
5 2 13 100 0.0471114
6 2 13 100 0.0557941
7 2 13 100 0.0420457
8 2 13 100 0.0341072
9 2 13 100 0.027498
10 2 13 100 0.0258191
11 2 13 100 0.0314723
12 2 13 100 0.0497401
13 2 13 100 0.0384024
0 3 13 100 0.230576
1 3 13 100 0.0707133
2 3 13 100 0.0894558
3 3 13 100 0.100246
4 3 13 100 0.0910889
5 3 13 100 0.0605207
6 3 13 100 0.0455569
7 3 13 100 0.0460607
8 3 13 100 0.0408434
9 3 13 100 0.0495454
10 3 13 100 0.0467714
11 3 13 100 0.0399645
12 3 13 100 0.0512407
13 3 13 100 0.0374162
0 4 13 100 0.20639
1 4 13 100 0.0667425
2 4 13 100 0.0583706
3 4 13 100 0.0761824
4 4 13 100 0.0880042
5 4 13 100 0.0796819
6 4 13 100 0.0599082
7 4 13 100 0.0529362
8 4 13 100 0.0505754
9 4 13 100 0.0556721
10 4 13 100 0.0484988
11 4 13 100 0.0455332
12 4 13 100 0.0614169
13 4 13 100 0.0500879
0 5 13 100 0.2001
1 5 13 100 0.0604337
2 5 13 100 0.0552625
3 5 13 100 0.0566035
4 5 13 100 0.0568363
5 5 13 100 0.0816834
6 5 13 100 0.0660747
7 5 13 100 0.0703927
8 5 13 100 0.060189
9 5 13 100 0.066989
10 5 13 100 0.0576773
11 5 13 100 0.0602807
12 5 13 100 0.0649964
13 5 13 100 0.0424811
0 6 13 100 0.197469
1 6 13 100 0.0535799
2 6 13 100 0.0432405
3 6 13 100 0.0528924
4 6 13 100 0.0469459
5 6 13 100 0.0678286
6 6 13 100 0.0692558
7 6 13 100 0.0733128
8 6 13 100 0.0570511
9 6 13 100 0.0663316
10 6 13 100 0.0704721
11 6 13 100 0.0518096
12 6 13 100 0.0833008
13 6 13 100 0.0665095
0 7 13 100 0.20364
1 7 13 100 0.0487771
2 7 13 100 0.0391927
3 7 13 100 0.0397013
4 7 13 100 0.0459536
5 7 13 100 0.0528521
6 7 13 100 0.0706832
7 7 13 100 0.0794484
8 7 13 100 0.0722572
9 7 13 100 0.0848633
10 7 13 100 0.0578357
11 7 13 100 0.0627208
12 7 13 100 0.067449
13 7 13 100 0.0746251
0 8 13 100 0.203341
1 8 13 100 0.0558838
2 8 13 100 0.036067
3 8 13 100 0.0352169
4 8 13 100 0.0346358
5 8 13 100 0.0551787
6 8 13 100 0.0583159
7 8 13 100 0.0756191
8 8 13 100 0.0710202
9 8 13 100 0.0831508
10 8 13 100 0.0632979
11 8 13 100 0.0574728
12 8 13 100 0.0961557
13 8 13 100 0.0746447
0 9 13 100 0.20417
1 9 13 100 0.0486806
2 9 13 100 0.038789
3 9 13 100 0.0353602
4 9 13 100 0.041882
5 9 13 100 0.0478691
6 9 13 100 0.0555954
7 9 13 100 0.062249
8 9 13 100 0.0695859
9 9 13 100 0.0729126
10 9 13 100 0.0633598
11 9 13 100 0.0674514
12 9 13 100 0.0973652
13 9 13 100 0.0947297
0 10 13 100 0.164295
1 10 13 100 0.0467286
2 10 13 100 0.029319
3 10 13 100 0.0348432
4 10 13 100 0.0493612
5 10 13 100 0.0542572
6 10 13 100 0.0489217
7 10 13 100 0.0643417
8 10 13 100 0.0577691
9 10 13 100 0.0686061
10 10 13 100 0.0708841
11 10 13 100 0.0669446
12 10 13 100 0.090025
13 10 13 100 0.153704
0 11 13 100 0.173365
1 11 13 100 0.0379953
2 11 13 100 0.0277413
3 11 13 100 0.0367281
4 11 13 100 0.0386928
5 11 13 100 0.0511765
6 11 13 100 0.0426064
7 11 13 100 0.0632683
8 11 13 100 0.0593306
9 11 13 100 0.0507804
10 11 13 100 0.0624635
11 11 13 100 0.0634163
12 11 13 100 0.108071
13 11 13 100 0.184364
0 12 13 100 0.205943
1 12 13 100 0.0400693
2 12 13 100 0.0236453
3 12 13 100 0.0263559
4 12 13 100 0.0469951
5 12 13 100 0.0357496
6 12 13 100 0.0445488
7 12 13 100 0.0431926
8 12 13 100 0.0454622
9 12 13 100 0.0522304
10 12 13 100 0.0534741
11 12 13 100 0.0476966
12 12 13 100 0.0861592
13 12 13 100 0.248478
0 13 13 100 0.163186
1 13 13 100 0.0417255
2 13 13 100 0.0213714
3 13 13 100 0.029382
4 13 13 100 0.0400428
5 13 13 100 0.0420094
6 13 13 100 0.0418589
7 13 13 100 0.0370183
8 13 13 100 0.0351182
9 13 13 100 0.0481732
10 13 13 100 0.0490739
11 13 13 100 0.0457715
12 13 13 100 0.0875888
13 13 13 100 0.31768
0 14 13 100 0.151724
1 14 13 100 0.0304176
2 14 13 100 0.0291647
3 14 13 100 0.0373031
4 14 13 100 0.0451689
5 14 13 100 0.0434272
6 14 13 100 0.0409627
7 14 13 100 0.028485
8 14 13 100 0.0351808
9 14 13 100 0.0339708
10 14 13 100 0.044165
11 14 13 100 0.0388889
12 14 13 100 0.0753097
13 14 13 100 0.365831
0 15 13 100 0.180269
1 15 13 100 0.0231251
2 15 13 100 0.018776
3 15 13 100 0.0308969
4 15 13 100 0.0356072
5 15 13 100 0.0503705
6 15 13 100 0.0253114
7 15 13 100 0.0503488
8 15 13 100 0.0286766
9 15 13 100 0.0392586
10 15 13 100 0.0396406
11 15 13 100 0.0446128
12 15 13 100 0.0723796
13 15 13 100 0.360727
0 16 13 100 0.144877
1 16 13 100 0.0176628
2 16 13 100 0.0212417
3 16 13 100 0.0290141
4 16 13 100 0.0405907
5 16 13 100 0.0581897
6 16 13 100 0.0353039
7 16 13 100 0.0413708
8 16 13 100 0.041809
9 16 13 100 0.0252274
10 16 13 100 0.03807
11 16 13 100 0.034512
12 16 13 100 0.0545743
13 16 13 100 0.417557
0 17 13 100 0.157342
1 17 13 100 0.0230666
2 17 13 100 0.0174248
3 17 13 100 0.0368512
4 17 13 100 0.0376759
5 17 13 100 0.0525107
6 17 13 100 0.0285675
7 17 13 100 0.0234554
8 17 13 100 0.0219661
9 17 13 100 0.0183488
10 17 13 100 0.0392965
11 17 13 100 0.0322014
12 17 13 100 0.0474367
13 17 13 100 0.463856
0 18 13 100 0.168855
1 18 13 100 0.0107534
2 18 13 100 0.0104763
3 18 13 100 0.0526154
4 18 13 100 0.0429042
5 18 13 100 0.128
6 18 13 100 0.0111591
7 18 13 100 0.021578
8 18 13 100 0.0129204
9 18 13 100 0.0110455
10 18 13 100 0.0403573
11 18 13 100 0.0215063
12 18 13 100 0.0755335
13 18 13 100 0.392296
0 19 13 100 0.0665816
1 19 13 100 0.0013356
2 19 13 100 0.0262086
3 19 13 100 0.0391628
4 19 13 100 0.0447214
5 19 13 100 0.0677874
6 19 13 100 0.0578828
7 19 13 100 0.0247821
8 19 13 100 7.26808e-06
10 19 13 100 0.0507366
11 19 13 100 0.0336528
12 19 13 100 0.0938376
13 19 13 100 0.493303
0 20 13 100 0.271291
1 20 13 100 0.0124867
2 20 13 100 0.0571455
3 20 13 100 0.0289247
4 20 13 100 0.0569442
5 20 13 100 0.0856748
6 20 13 100 0.0158789
7 20 13 100 0.00275961
8 20 13 100 0.000254793
9 20 13 100 0.00431713
10 20 13 100 0.053574
11 20 13 100 0.00355111
12 20 13 100 0.0571448
13 20 13 100 0.350053
0 21 13 100 0.188666
1 21 13 100 0.0454528
2 21 13 100 0.0909093
3 21 13 100 0.090806
4 21 13 100 0.0454546
5 21 13 100 0.0580938
6 21 13 100 0.111274
8 21 13 100 0.0310068
9 21 13 100 0.00152628
10 21 13 100 0.0454546
12 21 13 100 0.116064
13 21 13 100 0.175291
0 22 13 100 0.220777
1 22 13 100 0.0486709
2 22 13 100 0.0546498
3 22 13 100 0.057732
5 22 13 100 0.111129
6 22 13 100 0.0554748
8 22 13 100 0.0555543
9 22 13 100 7.27394e-07
10 22 13 100 0.0555556
11 22 13 100 0.111234
12 22 13 100 0.11811
13 22 13 100 0.111111
0 23 13 100 0.313129
1 23 13 100 1.30539e-06
2 23 13 100 8.68389e-07
3 23 13 100 0.186912
5 23 13 100 0.125
6 23 13 100 0.0616714
10 23 13 100 0.000607508
11 23 13 100 0.125002
12 23 13 100 0.0626755
13 23 13 100 0.125
0 24 13 100 0.214288
2 24 13 100 0.0714286
3 24 13 100 8.18525e-06
5 24 13 100 0.0714286
6 24 13 100 0.0716856
8 24 13 100 0.0711715
9 24 13 100 0.142854
11 24 13 100 0.204887
12 24 13 100 0.0808195
13 24 13 100 0.0714285
0 25 13 100 0.155643
2 25 13 100 8.8452e-07
3 25 13 100 0.0769194
4 25 13 100 0.07405
5 25 13 100 0.0769232
6 25 13 100 0.0313093
7 25 13 100 0.0772772
8 25 13 100 0.0461042
9 25 13 100 0.203291
10 25 13 100 0.0287535
11 25 13 100 0.00182453
12 25 13 100 0.150981
13 25 13 100 0.0769229
0 26 13 100 0.166657
2 26 13 100 0.0842936
3 26 13 100 0.00017087
5 26 13 100 0.166666
6 26 13 100 0.0833335
7 26 13 100 0.083067
9 26 13 100 0.00871127
10 26 13 100 0.0833347
12 26 13 100 0.240432
13 26 13 100 0.0833333
0 27 13 100 0.363653
2 27 13 100 0.000371314
3 27 13 100 2.36637e-05
7 27 13 100 0.0909091
9 27 13 100 0.0909109
10 27 13 100 0.0907779
12 27 13 100 0.272445
13 27 13 100 0.0909091
0 28 13 100 0.100001
2 28 13 100 0.000404862
4 28 13 100 1.19193e-05
5 28 13 100 0.1
7 28 13 100 0.199898
9 28 13 100 0.1
10 28 13 100 0.000100021
12 28 13 100 0.299583
13 28 13 100 0.2
0 29 13 100 0.125221
3 29 13 100 0.0595739
5 29 13 100 0.124978
6 29 13 100 2.38545e-05
7 29 13 100 0.0047243
8 29 13 100 0.0229259
9 29 13 100 0.126125
10 29 13 100 0.121026
11 29 13 100 0.00135064
12 29 13 100 0.414051
0 30 13 100 0.250059
1 30 13 100 1.29196e-06
2 30 13 100 0.250667
11 30 13 100 2.33136e-06
12 30 13 100 0.37427
13 30 13 100 0.125
0 31 13 100 0.286726
2 31 13 100 0.285651
3 31 13 100 0.00053488
8 31 13 100 8.06786e-05
10 31 13 100 0.141748
11 31 13 100 3.1785e-05
12 31 13 100 0.285227
0 32 13 100 0.286449
2 32 13 100 0.142871
10 32 13 100 0.142109
12 32 13 100 0.142857
13 32 13 100 0.285714
0 33 13 100 1.93206e-05
2 33 13 100 0.405792
3 33 13 100 0.146425
7 33 13 100 0.0535547
10 33 13 100 0.199999
12 33 13 100 0.194209
0 34 13 100 0.200854
2 34 13 100 0.400008
4 34 13 100 0.199926
7 34 13 100 6.97536e-05
8 34 13 100 0.199142
0 35 13 100 0.210174
2 35 13 100 0.2
3 35 13 100 2.12058e-05
5 35 13 100 0.033463
6 35 13 100 0.000932004
7 35 13 100 0.00385205
8 35 13 100 0.0220984
10 35 13 100 0.132412
11 35 13 100 0.197047
13 35 13 100 0.199999
0 36 13 100 0.405294
6 36 13 100 0.25
8 36 13 100 0.0947061
11 36 13 100 0.25
0 37 13 100 0.000436634
2 37 13 100 0.495576
6 37 13 100 0.249988
7 37 13 100 3.46456e-05
11 37 13 100 0.249529
12 37 13 100 0.00443671
0 38 13 100 0.630383
2 38 13 100 0.248727
6 38 13 100 0.119617
12 38 13 100 0.00127264
0 39 13 100 0.25
1 39 13 100 4.42402e-06
2 39 13 100 0.249002
6 39 13 100 0.249995
12 39 13 100 0.000998286
13 39 13 100 0.25
0 40 13 100 0.00159848
2 40 13 100 0.318518
6 40 13 100 0.333333
8 40 13 100 0.00023927
12 40 13 100 0.0129776
13 40 13 100 0.333333
0 41 13 100 0.498631
3 41 13 100 2.06991e-05
8 41 13 100 0.00134854
13 41 13 100 0.5
13 42 13 100 1
0 1 14 100 0.000946787
1 1 14 100 0.423469
2 1 14 100 0.116859
3 1 14 100 0.0683127
4 1 14 100 0.067771
5 1 14 100 0.0561352
6 1 14 100 0.0429762
7 1 14 100 0.0383509
8 1 14 100 0.0184712
9 1 14 100 0.0149378
10 1 14 100 0.0221192
11 1 14 100 0.0238491
12 1 14 100 0.0376377
13 1 14 100 0.0383227
14 1 14 100 0.0298423
0 2 14 100 0.246453
1 2 14 100 0.0939034
2 2 14 100 0.159566
3 2 14 100 0.10443
4 2 14 100 0.0670373
5 2 14 100 0.0521028
6 2 14 100 0.0498453
7 2 14 100 0.0385364
8 2 14 100 0.0264438
9 2 14 100 0.0163728
10 2 14 100 0.0144013
11 2 14 100 0.0259046
12 2 14 100 0.0298485
13 2 14 100 0.0470103
14 2 14 100 0.0281441
0 3 14 100 0.219007
1 3 14 100 0.0736978
2 3 14 100 0.0749629
3 3 14 100 0.128397
4 3 14 100 0.0863775
5 3 14 100 0.0751292
6 3 14 100 0.0548604
7 3 14 100 0.038219
8 3 14 100 0.0408759
9 3 14 100 0.0294311
10 3 14 100 0.0290571
11 3 14 100 0.0331721
12 3 14 100 0.0275513
13 3 14 100 0.0456582
14 3 14 100 0.0436034
0 4 14 100 0.212426
1 4 14 100 0.0704984
2 4 14 100 0.0672877
3 4 14 100 0.0731504
4 4 14 100 0.0992511
5 4 14 100 0.0748826
6 4 14 100 0.0664607
7 4 14 100 0.0581138
8 4 14 100 0.0428856
9 4 14 100 0.0404364
10 4 14 100 0.0416947
11 4 14 100 0.0434016
12 4 14 100 0.0260913
13 4 14 100 0.0443701
14 4 14 100 0.0390498
0 5 14 100 0.213167
1 5 14 100 0.0563142
2 5 14 100 0.0553034
3 5 14 100 0.0513984
4 5 14 100 0.0631971
5 5 14 100 0.0850312
6 5 14 100 0.0864045
7 5 14 100 0.0658628
8 5 14 100 0.0578266
9 5 14 100 0.0369378
10 5 14 100 0.0548151
11 5 14 100 0.0451365
12 5 14 100 0.0359219
13 5 14 100 0.046485
14 5 14 100 0.0461987
0 6 14 100 0.188869
1 6 14 100 0.0595287
2 6 14 100 0.0459135
3 6 14 100 0.0498756
4 6 14 100 0.0499561
5 6 14 100 0.0720204
6 6 14 100 0.0850203
7 6 14 100 0.0734451
8 6 14 100 0.0648088
9 6 14 100 0.0500359
10 6 14 100 0.0549183
11 6 14 100 0.0512893
12 6 14 100 0.047016
13 6 14 100 0.0568479
14 6 14 100 0.0504554
0 7 14 100 0.175754
1 7 14 100 0.0449863
2 7 14 100 0.0391774
3 7 14 100 0.0378129
4 7 14 100 0.0424304
5 7 14 100 0.0483007
6 7 14 100 0.074104
7 7 14 100 0.0736017
8 7 14 100 0.0942567
9 7 14 100 0.0595838
10 7 14 100 0.067022
11 7 14 100 0.0550693
12 7 14 100 0.0471646
13 7 14 100 0.0771976
14 7 14 100 0.0635383
0 8 14 100 0.19779
1 8 14 100 0.0488601
2 8 14 100 0.0331947
3 8 14 100 0.0313739
4 8 14 100 0.0302273
5 8 14 100 0.045286
6 8 14 100 0.0643869
7 8 14 100 0.0688772
8 8 14 100 0.0682894
9 8 14 100 0.0749698
10 8 14 100 0.0811909
11 8 14 100 0.0554822
12 8 14 100 0.0488196
13 8 14 100 0.0782322
14 8 14 100 0.0730204
0 9 14 100 0.186906
1 9 14 100 0.0418752
2 9 14 100 0.0390398
3 9 14 100 0.0209433
4 9 14 100 0.0341534
5 9 14 100 0.0344487
6 9 14 100 0.0457495
7 9 14 100 0.0561791
8 9 14 100 0.0781649
9 9 14 100 0.0857334
10 9 14 100 0.0671842
11 9 14 100 0.0717135
12 9 14 100 0.0586878
13 9 14 100 0.0915854
14 9 14 100 0.0876362
0 10 14 100 0.183171
1 10 14 100 0.0397093
2 10 14 100 0.0299942
3 10 14 100 0.0260861
4 10 14 100 0.0295761
5 10 14 100 0.0400053
6 10 14 100 0.0476639
7 10 14 100 0.0513124
8 10 14 100 0.0584547
9 10 14 100 0.0711258
10 10 14 100 0.0793401
11 10 14 100 0.0632739
12 10 14 100 0.0706627
13 10 14 100 0.105976
14 10 14 100 0.103648
0 11 14 100 0.180361
1 11 14 100 0.0374233
2 11 14 100 0.0313312
3 11 14 100 0.0229363
4 11 14 100 0.037895
5 11 14 100 0.0370827
6 11 14 100 0.0520991
7 11 14 100 0.0461882
8 11 14 100 0.051515
9 11 14 100 0.0521396
10 11 14 100 0.0831652
11 11 14 100 0.0647404
12 11 14 100 0.0563894
13 11 14 100 0.112128
14 11 14 100 0.134606
0 12 14 100 0.174688
1 12 14 100 0.0393978
2 12 14 100 0.0235744
3 12 14 100 0.0273859
4 12 14 100 0.0292206
5 12 14 100 0.0398415
6 12 14 100 0.0457616
7 12 14 100 0.0496267
8 12 14 100 0.0475226
9 12 14 100 0.0522421
10 12 14 100 0.0731285
11 12 14 100 0.0531392
12 12 14 100 0.064079
13 12 14 100 0.105561
14 12 14 100 0.174831
0 13 14 100 0.169018
1 13 14 100 0.0362951
2 13 14 100 0.021751
3 13 14 100 0.0236961
4 13 14 100 0.027167
5 13 14 100 0.03777
6 13 14 100 0.0318258
7 13 14 100 0.0460897
8 13 14 100 0.0391302
9 13 14 100 0.0604169
10 13 14 100 0.0638669
11 13 14 100 0.0624322
12 13 14 100 0.0588733
13 13 14 100 0.10161
14 13 14 100 0.220058
0 14 14 100 0.172443
1 14 14 100 0.0323846
2 14 14 100 0.0205039
3 14 14 100 0.0258309
4 14 14 100 0.021966
5 14 14 100 0.0321291
6 14 14 100 0.0331085
7 14 14 100 0.0393029
8 14 14 100 0.0469885
9 14 14 100 0.0393802
10 14 14 100 0.0651647
11 14 14 100 0.0476204
12 14 14 100 0.0550957
13 14 14 100 0.106174
14 14 14 100 0.261908
0 15 14 100 0.160878
1 15 14 100 0.0270087
2 15 14 100 0.0264989
3 15 14 100 0.0372425
4 15 14 100 0.0196139
5 15 14 100 0.0294287
6 15 14 100 0.0319268
7 15 14 100 0.0267761
8 15 14 100 0.0306092
9 15 14 100 0.0513919
10 15 14 100 0.0519256
11 15 14 100 0.0421007
12 15 14 100 0.0449177
13 15 14 100 0.0837068
14 15 14 100 0.335974
0 16 14 100 0.157219
1 16 14 100 0.0113507
2 16 14 100 0.026183
3 16 14 100 0.0247315
4 16 14 100 0.0297605
5 16 14 100 0.0368687
6 16 14 100 0.037351
7 16 14 100 0.0310356
8 16 14 100 0.0346006
9 16 14 100 0.0539034
10 16 14 100 0.0511499
11 16 14 100 0.0312369
12 16 14 100 0.0442618
13 16 14 100 0.0796525
14 16 14 100 0.350695
0 17 14 100 0.149351
1 17 14 100 0.0129921
2 17 14 100 0.0194878
3 17 14 100 0.0302616
4 17 14 100 0.0130175
5 17 14 100 0.0233102
6 17 14 100 0.0428355
7 17 14 100 0.0230604
8 17 14 100 0.0428663
9 17 14 100 0.0604297
10 17 14 100 0.0490795
11 17 14 100 0.0325548
12 17 14 100 0.054641
13 17 14 100 0.0648615
14 17 14 100 0.381252
0 18 14 100 0.126595
1 18 14 100 0.0153846
2 18 14 100 0.00888736
3 18 14 100 0.0299498
4 18 14 100 0.00531257
5 18 14 100 0.0256577
6 18 14 100 0.0393578
7 18 14 100 0.0257948
8 18 14 100 0.0359729
9 18 14 100 0.0523961
10 18 14 100 0.0526339
11 18 14 100 0.0513921
12 18 14 100 0.0585675
13 18 14 100 0.0915261
14 18 14 100 0.380572
0 19 14 100 0.186178
1 19 14 100 0.0077577
2 19 14 100 0.0237468
3 19 14 100 0.00787914
4 19 14 100 0.0150887
5 19 14 100 0.0252108
6 19 14 100 0.0423027
7 19 14 100 7.29876e-07
8 19 14 100 0.0545816
9 19 14 100 0.0333666
10 19 14 100 0.0234738
11 19 14 100 0.068073
12 19 14 100 0.0541663
13 19 14 100 0.108188
14 19 14 100 0.349986
0 20 14 100 0.243774
1 20 14 100 0.0119047
2 20 14 100 0.0122323
3 20 14 100 0.0239352
4 20 14 100 4.63214e-06
5 20 14 100 0.0129461
6 20 14 100 0.0713801
7 20 14 100 0.0119048
8 20 14 100 0.0645541
9 20 14 100 0.0357208
10 20 14 100 0.023716
11 20 14 100 0.0476702
12 20 14 100 0.0233768
13 20 14 100 0.0471645
14 20 14 100 0.369716
0 21 14 100 0.136077
1 21 14 100 3.46241e-06
2 21 14 100 1.67999e-06
3 21 14 100 0.037742
4 21 14 100 1.38971e-06
5 21 14 100 0.0367037
6 21 14 100 0.104397
7 21 14 100 0.0197393
8 21 14 100 0.0190381
9 21 14 100 0.0190373
10 21 14 100 0.0378745
11 21 14 100 0.0754286
12 21 14 100 0.00396954
13 21 14 100 0.0187347
14 21 14 100 0.491251
0 22 14 100 0.240041
1 22 14 100 0.0344828
3 22 14 100 0.0344828
4 22 14 100 1.43056e-05
5 22 14 100 0.0344875
6 22 14 100 0.0689383
7 22 14 100 0.0692849
8 22 14 100 1.80688e-05
9 22 14 100 0.070848
10 22 14 100 0.103448
11 22 14 100 0.0344978
12 22 14 100 6.74535e-07
13 22 14 100 0.0347072
14 22 14 100 0.274749
0 23 14 100 0.227197
1 23 14 100 0.0454269
2 23 14 100 5.88705e-05
4 23 14 100 3.09553e-05
6 23 14 100 0.136336
7 23 14 100 0.045461
8 23 14 100 0.090994
9 23 14 100 0.0455424
10 23 14 100 0.136363
12 23 14 100 0.0454546
13 23 14 100 5.81154e-06
14 23 14 100 0.22713
0 24 14 100 0.0738389
1 24 14 100 0.166629
3 24 14 100 0.110633
4 24 14 100 0.000227375
6 24 14 100 0.110434
7 24 14 100 0.0555544
8 24 14 100 0.0555568
9 24 14 100 0.055578
10 24 14 100 0.143788
12 24 14 100 1.32616e-05
13 24 14 100 0.0614982
14 24 14 100 0.166249
0 25 14 100 0.332637
2 25 14 100 0.0666763
3 25 14 100 0.0666666
4 25 14 100 0.0681279
5 25 14 100 0.00197715
6 25 14 100 0.0665552
9 25 14 100 0.0666668
11 25 14 100 0.0649694
12 25 14 100 3.50485e-05
13 25 14 100 0.0656881
14 25 14 100 0.200001
0 26 14 100 0.154856
1 26 14 100 0.0769253
2 26 14 100 0.076923
4 26 14 100 0.00028421
5 26 14 100 0.0761301
6 26 14 100 0.0769259
7 26 14 100 3.55372e-06
8 26 14 100 0.153847
9 26 14 100 0.076923
14 26 14 100 0.307181
0 27 14 100 0.272068
3 27 14 100 0.0909093
4 27 14 100 0.0905367
5 27 14 100 0.09091
6 27 14 100 0.000372412
7 27 14 100 0.0909092
8 27 14 100 0.0909092
13 27 14 100 0.000657579
14 27 14 100 0.272727
0 28 14 100 0.254147
1 28 14 100 0.125
2 28 14 100 0.00127475
4 28 14 100 0.362357
5 28 14 100 0.133534
7 28 14 100 0.12368
13 28 14 100 6.73972e-06
0 29 14 100 0.249175
3 29 14 100 0.124985
4 29 14 100 2.51482e-06
5 29 14 100 0.271127
6 29 14 100 0.00170882
7 29 14 100 0.227155
10 29 14 100 6.81342e-06
13 29 14 100 0.125841
0 30 14 100 0.133085
1 30 14 100 0.125
3 30 14 100 0.000862936
4 30 14 100 0.375596
8 30 14 100 0.125
9 30 14 100 0.125
12 30 14 100 0.0944887
13 30 14 100 0.0209672
0 31 14 100 0.626595
3 31 14 100 5.03953e-05
4 31 14 100 0.13016
5 31 14 100 0.117691
8 31 14 100 7.66121e-05
9 31 14 100 0.12495
11 31 14 100 5.45528e-06
12 31 14 100 0.000428805
13 31 14 100 4.32458e-05
0 32 14 100 2.53424e-05
3 32 14 100 0.124986
4 32 14 100 0.24999
5 32 14 100 1.55727e-06
8 32 14 100 0.125001
12 32 14 100 0.124999
14 32 14 100 0.374997
0 33 14 100 0.167288
1 33 14 100 0.331751
4 33 14 100 0.16668
10 33 14 100 6.99898e-06
12 33 14 100 0.166186
13 33 14 100 0.168087
0 34 14 100 0.0013272
1 34 14 100 2.67026e-06
4 34 14 100 0.168522
5 34 14 100 0.33092
6 34 14 100 0.165898
8 34 14 100 0.166623
12 34 14 100 4.04365e-05
14 34 14 100 0.166667
0 35 14 100 0.288881
2 35 14 100 0.000214885
4 35 14 100 0.7109
5 35 14 100 3.93412e-06
0 36 14 100 0.199587
1 36 14 100 0.199958
2 36 14 100 3.93105e-05
4 36 14 100 0.000287757
5 36 14 100 0.199461
12 36 14 100 2.29561e-05
14 36 14 100 0.400645
2 37 14 100 0.249989
5 37 14 100 9.64988e-06
6 37 14 100 0.25
14 37 14 100 0.500002
0 38 14 100 0.000382631
2 38 14 100 0.333332
3 38 14 100 0.333334
4 38 14 100 6.02527e-05
5 38 14 100 0.332835
12 38 14 100 5.60465e-05
0 39 14 100 4.44321e-06
1 39 14 100 0.332941
2 39 14 100 0.000387437
3 39 14 100 0.333332
6 39 14 100 0.333306
10 39 14 100 2.90177e-05
0 40 14 100 0.000411559
1 40 14 100 0.000179159
2 40 14 100 0.333119
3 40 14 100 1.07425e-05
4 40 14 100 6.02467e-05
5 40 14 100 0.666117
12 40 14 100 0.000102315
0 41 14 100 0.332656
1 41 14 100 0.000676027
6 41 14 100 0.666668
0 42 14 100 0.000443764
2 42 14 100 0.333333
4 42 14 100 0.000399987
5 42 14 100 0.66565
12 42 14 100 0.000173159
0 43 14 100 0.333114
1 43 14 100 0.000222331
4 43 14 100 0.333321
5 43 14 100 8.51359e-06
6 43 14 100 0.333334
0 44 14 100 0.000405864
2 44 14 100 0.333317
3 44 14 100 0.333333
4 44 14 100 0.00112152
5 44 14 100 0.331368
12 44 14 100 0.000438939
13 44 14 100 1.59989e-05
0 45 14 100 0.000114643
1 45 14 100 2.22688e-05
2 45 14 100 0.333187
3 45 14 100 1.34624e-05
4 45 14 100 0.333332
5 45 14 100 0.33333
0 46 14 100 0.333737
4 46 14 100 0.0011896
5 46 14 100 0.663789
12 46 14 100 0.00128458
0 47 14 100 5.62502e-06
1 47 14 100 0.333333
3 47 14 100 0.333334
4 47 14 100 0.333325
5 47 14 100 3.52495e-06
0 48 14 100 0.00234455
1 48 14 100 0.333332
3 48 14 100 0.333334
4 48 14 100 0.00196072
5 48 14 100 0.319629
12 48 14 100 0.00939927
0 49 14 100 0.333353
3 49 14 100 0.333314
7 49 14 100 0.333333
0 50 14 100 0.481548
1 50 14 100 0.000387856
5 50 14 100 0.00783698
12 50 14 100 0.176893
14 50 14 100 0.333334
0 51 14 100 0.00196332
3 51 14 100 0.333331
7 51 14 100 0.333333
14 51 14 100 0.331373
0 52 14 100 0.00205411
2 52 14 100 0.000569654
5 52 14 100 0.00250052
12 52 14 100 0.328779
13 52 14 100 0.332764
14 52 14 100 0.333333
0 53 14 100 2.53934e-05
3 53 14 100 0.499975
13 53 14 100 0.5
0 54 14 100 0.501319
5 54 14 100 0.00100704
12 54 14 100 0.497674
12 55 14 100 0.500001
14 55 14 100 0.499999
0 56 14 100 0.002895
5 56 14 100 0.00151066
12 56 14 100 0.995594
10 57 14 100 0.000427241
12 57 14 100 0.999573
0 58 14 100 0.00289517
5 58 14 100 0.00123806
12 58 14 100 0.995867
12 59 14 100 1
0 60 14 100 0.00991119
5 60 14 100 0.00332942
12 60 14 100 0.986759
0 61 14 100 0.000286212
7 61 14 100 0.999692
10 61 14 100 2.13696e-05
0 62 14 100 0.000158713
7 62 14 100 0.998384
10 62 14 100 0.00145689
0 63 14 100 0.00028949
3 63 14 100 0.000116474
7 63 14 100 0.999532
10 63 14 100 6.20489e-05
0 64 14 100 0.000556532
3 64 14 100 0.999011
10 64 14 100 0.00043269
9 65 14 100 1
0 66 14 100 0.949902
12 66 14 100 0.0500982
9 67 14 100 1
0 68 14 100 1.24812e-05
9 68 14 100 3.22808e-05
10 68 14 100 0.999955
10 69 14 100 1
10 70 14 100 1
9 71 14 100 1
9 72 14 100 1
9 73 14 100 1
0 74 14 100 0.985988
12 74 14 100 0.0140118
0 75 14 100 0.0220399
10 75 14 100 0.97796
0 76 14 100 0.0162095
10 76 14 100 0.983791
0 77 14 100 1
14 78 14 100 1
0 1 15 100 0.0012759
1 1 15 100 0.398767
2 1 15 100 0.109928
3 1 15 100 0.0811354
4 1 15 100 0.0685537
5 1 15 100 0.0713155
6 1 15 100 0.0360103
7 1 15 100 0.0473137
8 1 15 100 0.0334743
9 1 15 100 0.0147639
10 1 15 100 0.0130135
11 1 15 100 0.0132763
12 1 15 100 0.0293328
13 1 15 100 0.0258952
14 1 15 100 0.0379833
15 1 15 100 0.0179616
0 2 15 100 0.225009
1 2 15 100 0.0900145
2 2 15 100 0.164543
3 2 15 100 0.0982608
4 2 15 100 0.0767326
5 2 15 100 0.0566496
6 2 15 100 0.0428695
7 2 15 100 0.0392407
8 2 15 100 0.0448851
9 2 15 100 0.0168351
10 2 15 100 0.0155662
11 2 15 100 0.016956
12 2 15 100 0.0208276
13 2 15 100 0.0246777
14 2 15 100 0.03744
15 2 15 100 0.0294926
0 3 15 100 0.245563
1 3 15 100 0.0686357
2 3 15 100 0.0711736
3 3 15 100 0.117753
4 3 15 100 0.103772
5 3 15 100 0.0661301
6 3 15 100 0.0447062
7 3 15 100 0.0411555
8 3 15 100 0.0359809
9 3 15 100 0.0246471
10 3 15 100 0.0300504
11 3 15 100 0.0202281
12 3 15 100 0.0348418
13 3 15 100 0.0309803
14 3 15 100 0.0361601
15 3 15 100 0.0282233
0 4 15 100 0.211574
1 4 15 100 0.0665658
2 4 15 100 0.0587223
3 4 15 100 0.0735278
4 4 15 100 0.101465
5 4 15 100 0.0899231
6 4 15 100 0.0573873
7 4 15 100 0.0531939
8 4 15 100 0.0451004
9 4 15 100 0.0300906
10 4 15 100 0.0391014
11 4 15 100 0.027227
12 4 15 100 0.0284061
13 4 15 100 0.031049
14 4 15 100 0.0458065
15 4 15 100 0.0408596
0 5 15 100 0.185529
1 5 15 100 0.0498769
2 5 15 100 0.0568952
3 5 15 100 0.053192
4 5 15 100 0.0722978
5 5 15 100 0.0853454
6 5 15 100 0.0692762
7 5 15 100 0.0611772
8 5 15 100 0.0635912
9 5 15 100 0.0471577
10 5 15 100 0.0392065
11 5 15 100 0.0462281
12 5 15 100 0.0404182
13 5 15 100 0.0409317
14 5 15 100 0.0539033
15 5 15 100 0.0349739
0 6 15 100 0.196046
1 6 15 100 0.0433056
2 6 15 100 0.0424822
3 6 15 100 0.0450306
4 6 15 100 0.0432566
5 6 15 100 0.06944
6 6 15 100 0.0755703
7 6 15 100 0.0573125
8 6 15 100 0.0757152
9 6 15 100 0.0615838
10 6 15 100 0.0459982
11 6 15 100 0.0451096
12 6 15 100 0.0469326
13 6 15 100 0.043537
14 6 15 100 0.0619446
15 6 15 100 0.0467348
0 7 15 100 0.18624
1 7 15 100 0.0342125
2 7 15 100 0.0340022
3 7 15 100 0.0416557
4 7 15 100 0.0445579
5 7 15 100 0.0412647
6 7 15 100 0.0525558
7 7 15 100 0.0722953
8 7 15 100 0.062837
9 7 15 100 0.0714484
10 7 15 100 0.0627948
11 7 15 100 0.0494506
12 7 15 100 0.0632676
13 7 15 100 0.0526872
14 7 15 100 0.0750947
15 7 15 100 0.055635
0 8 15 100 0.207653
1 8 15 100 0.0431385
2 8 15 100 0.0255817
3 8 15 100 0.0278131
4 8 15 100 0.0338776
5 8 15 100 0.0363753
6 8 15 100 0.050156
7 8 15 100 0.0550774
8 8 15 100 0.0811719
9 8 15 100 0.0678985
10 8 15 100 0.059386
11 8 15 100 0.0553554
12 8 15 100 0.0616916
13 8 15 100 0.0495192
14 8 15 100 0.0844508
15 8 15 100 0.0608545
0 9 15 100 0.201613
1 9 15 100 0.0357901
2 9 15 100 0.0279358
3 9 15 100 0.0269643
4 9 15 100 0.0328789
5 9 15 100 0.0282117
6 9 15 100 0.037738
7 9 15 100 0.0584008
8 9 15 100 0.0493666
9 9 15 100 0.0744461
10 9 15 100 0.0768913
11 9 15 100 0.0627054
12 9 15 100 0.0717147
13 9 15 100 0.0549878
14 9 15 100 0.0857684
15 9 15 100 0.0745874
0 10 15 100 0.182633
1 10 15 100 0.031738
2 10 15 100 0.0233857
3 10 15 100 0.0328381
4 10 15 100 0.0374512
5 10 15 100 0.0287354
6 10 15 100 0.0422373
7 10 15 100 0.0522209
8 10 15 100 0.0499638
9 10 15 100 0.0510193
10 10 15 100 0.0647633
11 10 15 100 0.0720695
12 10 15 100 0.0693072
13 10 15 100 0.0591559
14 10 15 100 0.0957115
15 10 15 100 0.10677
0 11 15 100 0.191346
1 11 15 100 0.0373629
2 11 15 100 0.0287128
3 11 15 100 0.031396
4 11 15 100 0.0237363
5 11 15 100 0.0343045
6 11 15 100 0.0318966
7 11 15 100 0.0476056
8 11 15 100 0.0549367
9 11 15 100 0.0483426
10 11 15 100 0.0644085
11 11 15 100 0.0632982
12 11 15 100 0.0693169
13 11 15 100 0.0735405
14 11 15 100 0.0922752
15 11 15 100 0.107521
0 12 15 100 0.196575
1 12 15 100 0.0315072
2 12 15 100 0.0323413
3 12 15 100 0.0308098
4 12 15 100 0.0285989
5 12 15 100 0.0433084
6 12 15 100 0.0306673
7 12 15 100 0.0309783
8 12 15 100 0.0389848
9 12 15 100 0.0453067
10 12 15 100 0.0629615
11 12 15 100 0.0663658
12 12 15 100 0.0640031
13 12 15 100 0.056826
14 12 15 100 0.102702
15 12 15 100 0.138064
0 13 15 100 0.16434
1 13 15 100 0.0362061
2 13 15 100 0.0289648
3 13 15 100 0.0313687
4 13 15 100 0.0308023
5 13 15 100 0.0297057
6 13 15 100 0.0177793
7 13 15 100 0.0330187
8 13 15 100 0.0367401
9 13 15 100 0.0379135
10 13 15 100 0.0593649
11 13 15 100 0.0724439
12 13 15 100 0.0608919
13 13 15 100 0.0610818
14 13 15 100 0.115777
15 13 15 100 0.183601
0 14 15 100 0.187171
1 14 15 100 0.0318054
2 14 15 100 0.0196839
3 14 15 100 0.0316402
4 14 15 100 0.0184154
5 14 15 100 0.0215385
6 14 15 100 0.0309316
7 14 15 100 0.0261673
8 14 15 100 0.0291606
9 14 15 100 0.0510533
10 14 15 100 0.0411652
11 14 15 100 0.0650995
12 14 15 100 0.0546454
13 14 15 100 0.0440961
14 14 15 100 0.105704
15 14 15 100 0.241724
0 15 15 100 0.16914
1 15 15 100 0.0241858
2 15 15 100 0.0172015
3 15 15 100 0.033942
4 15 15 100 0.0220236
5 15 15 100 0.0250696
6 15 15 100 0.0378022
7 15 15 100 0.0287585
8 15 15 100 0.0237987
9 15 15 100 0.0286619
10 15 15 100 0.0390781
11 15 15 100 0.0625321
12 15 15 100 0.0711291
13 15 15 100 0.0375414
14 15 15 100 0.0925254
15 15 15 100 0.28661
0 16 15 100 0.17098
1 16 15 100 0.0258809
2 16 15 100 0.0180157
3 16 15 100 0.021537
4 16 15 100 0.03352
5 16 15 100 0.0185269
6 16 15 100 0.0269128
7 16 15 100 0.0275287
8 16 15 100 0.0344676
9 16 15 100 0.0365805
10 16 15 100 0.0343044
11 16 15 100 0.0417723
12 16 15 100 0.0602127
13 16 15 100 0.0450426
14 16 15 100 0.0836397
15 16 15 100 0.321079
0 17 15 100 0.157755
1 17 15 100 0.0142325
2 17 15 100 0.0113813
3 17 15 100 0.0234017
4 17 15 100 0.0240702
5 17 15 100 0.0294311
6 17 15 100 0.0285809
7 17 15 100 0.0311637
8 17 15 100 0.0189517
9 17 15 100 0.0442072
10 17 15 100 0.0382862
11 17 15 100 0.0366842
12 17 15 100 0.0639279
13 17 15 100 0.0253221
14 17 15 100 0.10215
15 17 15 100 0.350454
0 18 15 100 0.131628
1 18 15 100 0.00762198
2 18 15 100 0.0135535
3 18 15 100 0.0209789
4 18 15 100 0.0237882
5 18 15 100 0.0243362
6 18 15 100 0.0362426
7 18 15 100 0.014431
8 18 15 100 0.0289494
9 18 15 100 0.0293064
10 18 15 100 0.031075
11 18 15 100 0.0469574
12 18 15 100 0.0679191
13 18 15 100 0.031647
14 18 15 100 0.118209
15 18 15 100 0.373357
0 19 15 100 0.188802
1 19 15 100 0.0153243
2 19 15 100 0.0208145
3 19 15 100 0.0164358
4 19 15 100 0.0260587
5 19 15 100 0.0156022
6 19 15 100 0.038288
7 19 15 100 0.0254673
8 19 15 100 0.0334662
9 19 15 100 0.0429434
10 19 15 100 0.0107807
11 19 15 100 0.0177408
12 19 15 100 0.0219772
13 19 15 100 0.0260236
14 19 15 100 0.135319
15 19 15 100 0.364956
0 20 15 100 0.192817
1 20 15 100 0.0154993
2 20 15 100 0.0202936
3 20 15 100 0.0312669
4 20 15 100 0.0311997
5 20 15 100 0.0155323
6 20 15 100 0.0310004
7 20 15 100 0.0109314
8 20 15 100 0.0398768
9 20 15 100 0.0482868
10 20 15 100 0.0230551
11 20 15 100 0.0304967
12 20 15 100 0.0311529
13 20 15 100 0.00266668
14 20 15 100 0.0958154
15 20 15 100 0.380109
0 21 15 100 0.189462
1 21 15 100 0.0126582
2 21 15 100 1.63955e-05
3 21 15 100 0.0231298
4 21 15 100 0.0242157
5 21 15 100 0.0390934
6 21 15 100 0.0266837
7 21 15 100 0.0126571
8 21 15 100 0.0406994
9 21 15 100 0.0253173
10 21 15 100 0.0388255
11 21 15 100 0.0258279
12 21 15 100 0.0625768
13 21 15 100 7.95222e-06
14 21 15 100 0.105602
15 21 15 100 0.373227
0 22 15 100 0.21102
1 22 15 100 0.0391681
2 22 15 100 0.0195399
3 22 15 100 0.0196456
4 22 15 100 0.0394543
5 22 15 100 0.0388081
6 22 15 100 0.0200638
7 22 15 100 1.73682e-05
8 22 15 100 0.0392114
9 22 15 100 0.0757613
10 22 15 100 0.0196804
11 22 15 100 0.0780509
12 22 15 100 0.0194307
13 22 15 100 0.0799922
14 22 15 100 0.0807214
15 22 15 100 0.219435
0 23 15 100 0.138499
1 23 15 100 0.0277762
2 23 15 100 0.0855255
3 23 15 100 0.0552768
4 23 15 100 0.0321842
5 23 15 100 0.079119
6 23 15 100 0.0276938
7 23 15 100 0.00150137
8 23 15 100 0.0834107
9 23 15 100 0.0834439
10 23 15 100 0.0277778
11 23 15 100 4.52032e-07
12 23 15 100 0.0808074
13 23 15 100 0.0555657
14 23 15 100 0.110307
15 23 15 100 0.111111
0 24 15 100 0.245915
1 24 15 100 6.33482e-06
2 24 15 100 0.0313159
3 24 15 100 0.0624881
4 24 15 100 0.0624726
5 24 15 100 0.0283332
6 24 15 100 0.0647536
7 24 15 100 0.028891
8 24 15 100 0.0919292
9 24 15 100 0.00887984
10 24 15 100 2.96636e-05
11 24 15 100 1.40354e-05
12 24 15 100 1.3435e-05
13 24 15 100 0.124952
14 24 15 100 0.0312557
15 24 15 100 0.218751
0 25 15 100 0.168049
1 25 15 100 1.67271e-05
2 25 15 100 6.41787e-07
3 25 15 100 0.0418566
4 25 15 100 0.0417897
5 25 15 100 0.0116652
6 25 15 100 0.000119839
7 25 15 100 0.111477
8 25 15 100 0.0416668
9 25 15 100 0.0416192
10 25 15 100 0.00301584
11 25 15 100 6.59467e-05
12 25 15 100 1.8763e-06
13 25 15 100 0.0833284
14 25 15 100 0.166474
15 25 15 100 0.288854
0 26 15 100 0.297093
2 26 15 100 0.11448
3 26 15 100 0.0149555
4 26 15 100 0.0588118
5 26 15 100 0.0459057
6 26 15 100 0.117814
8 26 15 100 0.000133402
9 26 15 100 0.0689829
10 26 15 100 0.058632
12 26 15 100 0.0033576
13 26 15 100 0.000172205
14 26 15 100 0.160839
15 26 15 100 0.0588233
0 27 15 100 0.1875
2 27 15 100 0.186929
4 27 15 100 5.59944e-05
6 27 15 100 0.0695812
8 27 15 100 0.0625001
9 27 15 100 0.0651784
11 27 15 100 0.000222011
12 27 15 100 0.0173892
13 27 15 100 9.21017e-06
14 27 15 100 0.0610898
15 27 15 100 0.349545
0 28 15 100 0.287123
2 28 15 100 0.0525362
3 28 15 100 0.0227814
6 28 15 100 2.00498e-05
7 28 15 100 0.00123614
8 28 15 100 0.0909093
9 28 15 100 2.63557e-05
10 28 15 100 0.090909
11 28 15 100 3.34842e-06
12 28 15 100 2.6941e-06
13 28 15 100 4.32844e-05
14 28 15 100 0.0908442
15 28 15 100 0.363565
0 29 15 100 0.125056
2 29 15 100 0.126761
3 29 15 100 0.0137291
4 29 15 100 2.13879e-05
6 29 15 100 0.220112
7 29 15 100 0.138642
9 29 15 100 2.08658e-05
10 29 15 100 0.125
11 29 15 100 3.43017e-06
12 29 15 100 0.130342
13 29 15 100 6.27812e-06
14 29 15 100 2.394e-06
15 29 15 100 0.120303
0 30 15 100 0.126288
2 30 15 100 0.124444
4 30 15 100 0.000199558
8 30 15 100 0.125
9 30 15 100 4.09674e-06
10 30 15 100 0.125
11 30 15 100 4.95117e-06
12 30 15 100 0.0101404
13 30 15 100 0.115217
14 30 15 100 0.125004
15 30 15 100 0.248699
0 31 15 100 0.142831
2 31 15 100 0.140898
6 31 15 100 0.142857
8 31 15 100 0.142883
12 31 15 100 0.00195884
14 31 15 100 0.142857
15 31 15 100 0.285714
0 32 15 100 2.1194e-05
2 32 15 100 0.00460978
6 32 15 100 0.199979
8 32 15 100 0.2
9 32 15 100 0.199999
14 32 15 100 0.19539
15 32 15 100 0.2
0 33 15 100 0.496034
2 33 15 100 0.249979
9 33 15 100 0.253987
0 34 15 100 0.000119976
2 34 15 100 0.249999
6 34 15 100 0.25
9 34 15 100 0.49988
5 35 15 100 9.68408e-06
6 35 15 100 0.25
8 35 15 100 0.25
9 35 15 100 0.24999
15 35 15 100 0.25
0 36 15 100 6.51639e-05
2 36 15 100 0.00108878
6 36 15 100 0.332516
8 36 15 100 2.22543e-05
9 36 15 100 0.666308
0 37 15 100 0.653354
4 37 15 100 0.000201766
6 37 15 100 0.333333
9 37 15 100 0.0131115
0 38 15 100 0.334245
4 38 15 100 0.332421
9 38 15 100 0.333334
0 39 15 100 8.51997e-05
2 39 15 100 0.0001205
4 39 15 100 0.000104918
5 39 15 100 0.33298
8 39 15 100 6.32626e-05
9 39 15 100 0.333313
15 39 15 100 0.333333
0 40 15 100 0.500001
15 40 15 100 0.499999
8 41 15 100 1
8 42 15 100 1
0 43 15 100 0.999987
8 43 15 100 1.29349e-05
0 44 15 100 0.999968
8 44 15 100 3.19901e-05
0 45 15 100 0.000109122
8 45 15 100 0.973765
11 45 15 100 0.000114575
13 45 15 100 0.0260112
0 46 15 100 0.00365747
5 46 15 100 0.00038819
13 46 15 100 0.995954
0 47 15 100 1.26457e-05
13 47 15 100 0.999987
0 48 15 100 0.999429
10 48 15 100 0.000571164
15 49 15 100 1
0 1 16 100 0.000732665
1 1 16 100 0.386028
2 1 16 100 0.14294
3 1 16 100 0.0673614
4 1 16 100 0.0547261
5 1 16 100 0.0583585
6 1 16 100 0.0681133
7 1 16 100 0.0426029
8 1 16 100 0.020511
9 1 16 100 0.0282553
10 1 16 100 0.0179102
11 1 16 100 0.0167975
12 1 16 100 0.0069355
13 1 16 100 0.00868253
14 1 16 100 0.0271137
15 1 16 100 0.0322608
16 1 16 100 0.02067
0 2 16 100 0.227058
1 2 16 100 0.089355
2 2 16 100 0.158855
3 2 16 100 0.102111
4 2 16 100 0.0688922
5 2 16 100 0.0507077
6 2 16 100 0.0494814
7 2 16 100 0.0538586
8 2 16 100 0.0247475
9 2 16 100 0.0246291
10 2 16 100 0.025026
11 2 16 100 0.0137364
12 2 16 100 0.0150406
13 2 16 100 0.00739618
14 2 16 100 0.026517
15 2 16 100 0.0394259
16 2 16 100 0.0231627
0 3 16 100 0.239668
1 3 16 100 0.068201
2 3 16 100 0.065057
3 3 16 100 0.115648
4 3 16 100 0.0829127
5 3 16 100 0.0650868
6 3 16 100 0.0561386
7 3 16 100 0.0549884
8 3 16 100 0.0395682
9 3 16 100 0.0302551
10 3 16 100 0.0238598
11 3 16 100 0.022662
12 3 16 100 0.0253049
13 3 16 100 0.017268
14 3 16 100 0.0267647
15 3 16 100 0.0422661
16 3 16 100 0.0243511
0 4 16 100 0.199998
1 4 16 100 0.0604096
2 4 16 100 0.0577568
3 4 16 100 0.0788622
4 4 16 100 0.0849341
5 4 16 100 0.089757
6 4 16 100 0.0662768
7 4 16 100 0.0567113
8 4 16 100 0.0412686
9 4 16 100 0.0428719
10 4 16 100 0.0231277
11 4 16 100 0.0253424
12 4 16 100 0.0355154
13 4 16 100 0.0364583
14 4 16 100 0.030554
15 4 16 100 0.0409452
16 4 16 100 0.0292106
0 5 16 100 0.219952
1 5 16 100 0.0538843
2 5 16 100 0.0392278
3 5 16 100 0.0664955
4 5 16 100 0.0595902
5 5 16 100 0.0833609
6 5 16 100 0.069605
7 5 16 100 0.0667361
8 5 16 100 0.0533508
9 5 16 100 0.0361107
10 5 16 100 0.0336229
11 5 16 100 0.0374413
12 5 16 100 0.0412739
13 5 16 100 0.0326445
14 5 16 100 0.0321767
15 5 16 100 0.0405141
16 5 16 100 0.0340134
0 6 16 100 0.214522
1 6 16 100 0.0464474
2 6 16 100 0.0370081
3 6 16 100 0.0428798
4 6 16 100 0.0489827
5 6 16 100 0.0797734
6 6 16 100 0.0637135
7 6 16 100 0.0764354
8 6 16 100 0.0530534
9 6 16 100 0.0577638
10 6 16 100 0.0466772
11 6 16 100 0.0421119
12 6 16 100 0.0407064
13 6 16 100 0.0372806
14 6 16 100 0.0361918
15 6 16 100 0.0393867
16 6 16 100 0.0370654
0 7 16 100 0.191483
1 7 16 100 0.0399391
2 7 16 100 0.0293293
3 7 16 100 0.0333163
4 7 16 100 0.0372462
5 7 16 100 0.0656875
6 7 16 100 0.0715024
7 7 16 100 0.0592917
8 7 16 100 0.0602584
9 7 16 100 0.0629809
10 7 16 100 0.0674535
11 7 16 100 0.0527546
12 7 16 100 0.0543375
13 7 16 100 0.0403374
14 7 16 100 0.0378662
15 7 16 100 0.0540328
16 7 16 100 0.0421831
0 8 16 100 0.194778
1 8 16 100 0.0298703
2 8 16 100 0.0254556
3 8 16 100 0.0309303
4 8 16 100 0.0287121
5 8 16 100 0.0426315
6 8 16 100 0.0570723
7 8 16 100 0.0660724
8 8 16 100 0.0583086
9 8 16 100 0.0779447
10 8 16 100 0.0726249
11 8 16 100 0.0476305
12 8 16 100 0.0631962
13 8 16 100 0.0454071
14 8 16 100 0.0487267
15 8 16 100 0.0599922
16 8 16 100 0.0506467
0 9 16 100 0.206347
1 9 16 100 0.0414767
2 9 16 100 0.0223405
3 9 16 100 0.0286084
4 9 16 100 0.0317804
5 9 16 100 0.0336564
6 9 16 100 0.0444016
7 9 16 100 0.0570891
8 9 16 100 0.051932
9 9 16 100 0.0567485
10 9 16 100 0.0737533
11 9 16 100 0.0628935
12 9 16 100 0.048008
13 9 16 100 0.0557766
14 9 16 100 0.0548671
15 9 16 100 0.0747686
16 9 16 100 0.0555521
0 10 16 100 0.195401
1 10 16 100 0.0353936
2 10 16 100 0.0169382
3 10 16 100 0.0309244
4 10 16 100 0.024715
5 10 16 100 0.0355063
6 10 16 100 0.0346812
7 10 16 100 0.0640175
8 10 16 100 0.0581788
9 10 16 100 0.0569471
10 10 16 100 0.0575983
11 10 16 100 0.0466069
12 10 16 100 0.0708784
13 10 16 100 0.0559606
14 10 16 100 0.0600266
15 10 16 100 0.0865959
16 10 16 100 0.0696306
0 11 16 100 0.191607
1 11 16 100 0.0365312
2 11 16 100 0.028122
3 11 16 100 0.0248376
4 11 16 100 0.0233508
5 11 16 100 0.0247631
6 11 16 100 0.0369536
7 11 16 100 0.0426817
8 11 16 100 0.0531042
9 11 16 100 0.0565312
10 11 16 100 0.0585472
11 11 16 100 0.060495
12 11 16 100 0.0702752
13 11 16 100 0.0585042
14 11 16 100 0.0539831
15 11 16 100 0.0914034
16 11 16 100 0.08831
0 12 16 100 0.198028
1 12 16 100 0.034009
2 12 16 100 0.0254969
3 12 16 100 0.0211108
4 12 16 100 0.0236402
5 12 16 100 0.035745
6 12 16 100 0.0301779
7 12 16 100 0.0348857
8 12 16 100 0.0478686
9 12 16 100 0.0468494
10 12 16 100 0.0544978
11 12 16 100 0.0690036
12 12 16 100 0.0656989
13 12 16 100 0.0607226
14 12 16 100 0.0635994
15 12 16 100 0.0832225
16 12 16 100 0.105444
0 13 16 100 0.172056
1 13 16 100 0.0428485
2 13 16 100 0.0201666
3 13 16 100 0.0278924
4 13 16 100 0.0207512
5 13 16 100 0.0274105
6 13 16 100 0.0276347
7 13 16 100 0.0481123
8 13 16 100 0.0356307
9 13 16 100 0.053639
10 13 16 100 0.048788
11 13 16 100 0.0453023
12 13 16 100 0.0647863
13 13 16 100 0.0674012
14 13 16 100 0.0658808
15 13 16 100 0.104347
16 13 16 100 0.127352
0 14 16 100 0.187279
1 14 16 100 0.0300608
2 14 16 100 0.0214097
3 14 16 100 0.0259505
4 14 16 100 0.0225427
5 14 16 100 0.0267492
6 14 16 100 0.0261406
7 14 16 100 0.0391913
8 14 16 100 0.0376719
9 14 16 100 0.0441174
10 14 16 100 0.0504857
11 14 16 100 0.0511641
12 14 16 100 0.0580877
13 14 16 100 0.045307
14 14 16 100 0.0470239
15 14 16 100 0.0891637
16 14 16 100 0.197655
0 15 16 100 0.155129
1 15 16 100 0.0271212
2 15 16 100 0.0246279
3 15 16 100 0.0206841
4 15 16 100 0.0135774
5 15 16 100 0.0273761
6 15 16 100 0.0295694
7 15 16 100 0.0349704
8 15 16 100 0.0351001
9 15 16 100 0.0405902
10 15 16 100 0.0531819
11 15 16 100 0.0518513
12 15 16 100 0.0538215
13 15 16 100 0.0549164
14 15 16 100 0.0411022
15 15 16 100 0.0881959
16 15 16 100 0.248185
0 16 16 100 0.177903
1 16 16 100 0.0202831
2 16 16 100 0.0265163
3 16 16 100 0.0194649
4 16 16 100 0.0203374
5 16 16 100 0.0158563
6 16 16 100 0.0253871
7 16 16 100 0.0379463
8 16 16 100 0.0478801
9 16 16 100 0.0307937
10 16 16 100 0.039797
11 16 16 100 0.0451985
12 16 16 100 0.0397867
13 16 16 100 0.0503921
14 16 16 100 0.0470768
15 16 16 100 0.0814241
16 16 16 100 0.273957
0 17 16 100 0.155525
1 17 16 100 0.0207195
2 17 16 100 0.0213683
3 17 16 100 0.0190318
4 17 16 100 0.0206658
5 17 16 100 0.0212381
6 17 16 100 0.018067
7 17 16 100 0.0241706
8 17 16 100 0.0468548
9 17 16 100 0.0296728
10 17 16 100 0.0419228
11 17 16 100 0.0489655
12 17 16 100 0.0357348
13 17 16 100 0.0457438
14 17 16 100 0.0353981
15 17 16 100 0.0738408
16 17 16 100 0.34108
0 18 16 100 0.189384
1 18 16 100 0.0194948
2 18 16 100 0.0109503
3 18 16 100 0.0224742
4 18 16 100 0.0109001
5 18 16 100 0.0181633
6 18 16 100 0.0139261
7 18 16 100 0.0417165
8 18 16 100 0.0474249
9 18 16 100 0.0369971
10 18 16 100 0.0369331
11 18 16 100 0.033835
12 18 16 100 0.0522162
13 18 16 100 0.0415755
14 18 16 100 0.0346186
15 18 16 100 0.0648869
16 18 16 100 0.324503
0 19 16 100 0.141176
1 19 16 100 0.0261002
2 19 16 100 0.00745641
3 19 16 100 0.0202664
4 19 16 100 0.0125483
5 19 16 100 0.0177682
6 19 16 100 0.0183896
7 19 16 100 0.0078994
8 19 16 100 0.0447731
9 19 16 100 0.0473011
10 19 16 100 0.0366672
11 19 16 100 0.0372918
12 19 16 100 0.0298762
13 19 16 100 0.0523647
14 19 16 100 0.0338476
15 19 16 100 0.0872079
16 19 16 100 0.379066
0 20 16 100 0.173098
1 20 16 100 0.0170283
2 20 16 100 0.00568276
3 20 16 100 0.0284066
4 20 16 100 0.0172189
5 20 16 100 0.0108943
6 20 16 100 0.0161458
7 20 16 100 0.0296411
8 20 16 100 0.0342151
9 20 16 100 0.028058
10 20 16 100 0.0415069
11 20 16 100 0.0386229
12 20 16 100 0.0183924
13 20 16 100 0.0611936
14 20 16 100 0.0232919
15 20 16 100 0.0680647
16 20 16 100 0.388538
0 21 16 100 0.146806
1 21 16 100 0.00889839
2 21 16 100 0.0161286
3 21 16 100 0.0543311
4 21 16 100 0.0176982
5 21 16 100 2.63528e-07
6 21 16 100 0.00897927
7 21 16 100 0.0396335
8 21 16 100 0.0258431
9 21 16 100 0.0374155
10 21 16 100 0.017437
11 21 16 100 0.0418542
12 21 16 100 0.0239582
13 21 16 100 0.0286711
14 21 16 100 0.0195965
15 21 16 100 0.11409
16 21 16 100 0.39866
0 22 16 100 0.173412
1 22 16 100 0.015469
2 22 16 100 0.0385093
3 22 16 100 0.0277811
4 22 16 100 0.0285572
5 22 16 100 0.000305453
6 22 16 100 4.41592e-05
7 22 16 100 0.0695681
8 22 16 100 0.0138893
9 22 16 100 0.0260395
10 22 16 100 0.029927
11 22 16 100 0.0141583
12 22 16 100 0.0415301
13 22 16 100 0.043358
14 22 16 100 0.0139219
15 22 16 100 0.079815
16 22 16 100 0.383715
0 23 16 100 0.236849
1 23 16 100 0.0408118
2 23 16 100 0.0204074
3 23 16 100 5.74005e-06
4 23 16 100 5.564e-06
5 23 16 100 4.49619e-06
6 23 16 100 0.0206358
7 23 16 100 0.0409817
8 23 16 100 1.43056e-06
9 23 16 100 8.25464e-05
10 23 16 100 0.0333082
11 23 16 100 0.0205719
12 23 16 100 0.0408505
13 23 16 100 0.0597456
14 23 16 100 0.0204141
15 23 16 100 0.0196409
16 23 16 100 0.445683
0 24 16 100 0.1783
1 24 16 100 0.0344828
2 24 16 100 0.102343
3 24 16 100 6.35228e-06
4 24 16 100 0.0344828
5 24 16 100 0.0344827
6 24 16 100 4.17272e-05
8 24 16 100 1.16788e-06
10 24 16 100 0.0689668
11 24 16 100 0.0344859
12 24 16 100 0.103481
13 24 16 100 0.068921
14 24 16 100 0.00228128
15 24 16 100 0.0321952
16 24 16 100 0.305529
0 25 16 100 0.180236
1 25 16 100 0.0416667
2 25 16 100 0.0416666
3 25 16 100 0.0416656
5 25 16 100 0.03964
8 25 16 100 9.74674e-07
10 25 16 100 0.0841432
11 25 16 100 0.0416742
12 25 16 100 0.0770669
13 25 16 100 0.0403347
14 25 16 100 0.0833335
16 25 16 100 0.328572
0 26 16 100 0.114243
1 26 16 100 6.5412e-06
2 26 16 100 0.0555557
3 26 16 100 0.0614012
4 26 16 100 0.0555556
6 26 16 100 0.0555524
8 26 16 100 6.09412e-07
9 26 16 100 0.0497366
10 26 16 100 0.054869
11 26 16 100 0.055428
12 26 16 100 0.10878
14 26 16 100 0.0555557
15 26 16 100 3.38166e-06
16 26 16 100 0.333313
0 27 16 100 0.250137
1 27 16 100 0.0831941
2 27 16 100 0.0833334
3 27 16 100 0.0833335
10 27 16 100 8.37138e-07
12 27 16 100 0.0833343
13 27 16 100 1.79174e-06
14 27 16 100 0.166665
15 27 16 100 0.0833329
16 27 16 100 0.166667
0 28 16 100 3.51316e-06
1 28 16 100 0.1
3 28 16 100 0.1
6 28 16 100 0.1
10 28 16 100 7.22398e-06
12 28 16 100 0.1
14 28 16 100 0.1
15 28 16 100 0.199989
16 28 16 100 0.3
0 29 16 100 0.285783
4 29 16 100 0.142784
8 29 16 100 3.11384e-06
12 29 16 100 0.285714
14 29 16 100 0.142858
16 29 16 100 0.142858
0 30 16 100 0.166667
3 30 16 100 0.166667
12 30 16 100 0.166666
14 30 16 100 0.166667
16 30 16 100 0.333334
0 31 16 100 0.0309968
4 31 16 100 3.8877e-06
10 31 16 100 0.25
12 31 16 100 0.218999
14 31 16 100 0.25
16 31 16 100 0.25
10 32 16 100 0.333333
14 32 16 100 0.333333
16 32 16 100 0.333333
0 33 16 100 0.5
16 33 16 100 0.5
14 34 16 100 1
14 35 16 100 1
16 36 16 100 1
0 1 17 100 0.00199722
1 1 17 100 0.403672
2 1 17 100 0.113958
3 1 17 100 0.0635208
4 1 17 100 0.0621574
5 1 17 100 0.0531049
6 1 17 100 0.0552062
7 1 17 100 0.0393031
8 1 17 100 0.0362154
9 1 17 100 0.0163266
10 1 17 100 0.00671453
11 1 17 100 0.0225792
12 1 17 100 0.0176175
13 1 17 100 0.0123201
14 1 17 100 0.01713
15 1 17 100 0.0186644
16 1 17 100 0.0376983
17 1 17 100 0.0218144
0 2 17 100 0.212064
1 2 17 100 0.0952655
2 2 17 100 0.14505
3 2 17 100 0.0954637
4 2 17 100 0.0626672
5 2 17 100 0.0635663
6 2 17 100 0.0551029
7 2 17 100 0.0438627
8 2 17 100 0.0404335
9 2 17 100 0.022372
10 2 17 100 0.0170894
11 2 17 100 0.017973
12 2 17 100 0.0227731
13 2 17 100 0.0195855
14 2 17 100 0.0164195
15 2 17 100 0.0196135
16 2 17 100 0.0316514
17 2 17 100 0.0190471
0 3 17 100 0.261901
1 3 17 100 0.0552453
2 3 17 100 0.0608032
3 3 17 100 0.112089
4 3 17 100 0.0865199
5 3 17 100 0.0651207
6 3 17 100 0.0646172
7 3 17 100 0.0336588
8 3 17 100 0.0343298
9 3 17 100 0.032039
10 3 17 100 0.0242025
11 3 17 100 0.0275685
12 3 17 100 0.0184137
13 3 17 100 0.0185703
14 3 17 100 0.0249811
15 3 17 100 0.0278385
16 3 17 100 0.0288053
17 3 17 100 0.0232963
0 4 17 100 0.202733
1 4 17 100 0.0608026
2 4 17 100 0.0520242
3 4 17 100 0.0653709
4 4 17 100 0.0919918
5 4 17 100 0.106227
6 4 17 100 0.0704286
7 4 17 100 0.0491701
8 4 17 100 0.0439164
9 4 17 100 0.0438138
10 4 17 100 0.0268408
11 4 17 100 0.0255174
12 4 17 100 0.0248168
13 4 17 100 0.028509
14 4 17 100 0.0276892
15 4 17 100 0.020082
16 4 17 100 0.0386991
17 4 17 100 0.0213674
0 5 17 100 0.213807
1 5 17 100 0.0496046
2 5 17 100 0.0368821
3 5 17 100 0.056496
4 5 17 100 0.0680121
5 5 17 100 0.0894071
6 5 17 100 0.0742933
7 5 17 100 0.0647815
8 5 17 100 0.0572041
9 5 17 100 0.038177
10 5 17 100 0.0400255
11 5 17 100 0.0291946
12 5 17 100 0.0315043
13 5 17 100 0.028025
14 5 17 100 0.0295758
15 5 17 100 0.0221255
16 5 17 100 0.0394936
17 5 17 100 0.0313914
0 6 17 100 0.183724
1 6 17 100 0.0331783
2 6 17 100 0.047744
3 6 17 100 0.0339252
4 6 17 100 0.0593886
5 6 17 100 0.0679142
6 6 17 100 0.0898948
7 6 17 100 0.0713485
8 6 17 100 0.0571579
9 6 17 100 0.0496789
10 6 17 100 0.0501329
11 6 17 100 0.0417265
12 6 17 100 0.0252637
13 6 17 100 0.0413809
14 6 17 100 0.0282204
15 6 17 100 0.042429
16 6 17 100 0.0410766
17 6 17 100 0.0358154
0 7 17 100 0.189211
1 7 17 100 0.0329402
2 7 17 100 0.0318032
3 7 17 100 0.0330667
4 7 17 100 0.0319649
5 7 17 100 0.0468357
6 7 17 100 0.0652307
7 7 17 100 0.0765483
8 7 17 100 0.0616207
9 7 17 100 0.0711119
10 7 17 100 0.060846
11 7 17 100 0.0473906
12 7 17 100 0.0331983
13 7 17 100 0.0319678
14 7 17 100 0.0433367
15 7 17 100 0.0378476
16 7 17 100 0.0666565
17 7 17 100 0.0384237
0 8 17 100 0.201942
1 8 17 100 0.0230432
2 8 17 100 0.0337187
3 8 17 100 0.0186598
4 8 17 100 0.0302441
5 8 17 100 0.0403203
6 8 17 100 0.0467815
7 8 17 100 0.0694272
8 8 17 100 0.0608298
9 8 17 100 0.0686415
10 8 17 100 0.0591955
11 8 17 100 0.060204
12 8 17 100 0.0507179
13 8 17 100 0.0451475
14 8 17 100 0.035936
15 8 17 100 0.0412765
16 8 17 100 0.0612541
17 8 17 100 0.0526603
0 9 17 100 0.187167
1 9 17 100 0.0239933
2 9 17 100 0.0290332
3 9 17 100 0.0221155
4 9 17 100 0.0277743
5 9 17 100 0.0382319
6 9 17 100 0.0377136
7 9 17 100 0.0545585
8 9 17 100 0.0608239
9 9 17 100 0.0643997
10 9 17 100 0.0684637
11 9 17 100 0.0581553
12 9 17 100 0.0581325
13 9 17 100 0.0506006
14 9 17 100 0.0442264
15 9 17 100 0.0529831
16 9 17 100 0.0716034
17 9 17 100 0.0500244
0 10 17 100 0.212014
1 10 17 100 0.0197312
2 10 17 100 0.0147244
3 10 17 100 0.0189558
4 10 17 100 0.023071
5 10 17 100 0.0278295
6 10 17 100 0.0337841
7 10 17 100 0.0482376
8 10 17 100 0.0501667
9 10 17 100 0.0539085
10 10 17 100 0.0744104
11 10 17 100 0.0625539
12 10 17 100 0.0602797
13 10 17 100 0.0655022
14 10 17 100 0.0518827
15 10 17 100 0.0548182
16 10 17 100 0.0784071
17 10 17 100 0.049723
0 11 17 100 0.185419
1 11 17 100 0.0224254
2 11 17 100 0.0209398
3 11 17 100 0.0130758
4 11 17 100 0.0180952
5 11 17 100 0.0302415
6 11 17 100 0.037906
7 11 17 100 0.0328385
8 11 17 100 0.0504647
9 11 17 100 0.0581121
10 11 17 100 0.0695034
11 11 17 100 0.0683375
12 11 17 100 0.0617271
13 11 17 100 0.0680857
14 11 17 100 0.054017
15 11 17 100 0.0515534
16 11 17 100 0.0955761
17 11 17 100 0.0616821
0 12 17 100 0.207302
1 12 17 100 0.0283737
2 12 17 100 0.0172026
3 12 17 100 0.017258
4 12 17 100 0.0233461
5 12 17 100 0.0192334
6 12 17 100 0.0320269
7 12 17 100 0.0329762
8 12 17 100 0.0270908
9 12 17 100 0.0481114
10 12 17 100 0.0596988
11 12 17 100 0.0521247
12 12 17 100 0.0675858
13 12 17 100 0.0692011
14 12 17 100 0.0503975
15 12 17 100 0.0684052
16 12 17 100 0.0904295
17 12 17 100 0.0892362
0 13 17 100 0.191885
1 13 17 100 0.0282882
2 13 17 100 0.0170327
3 13 17 100 0.0164392
4 13 17 100 0.0202621
5 13 17 100 0.0262076
6 13 17 100 0.030316
7 13 17 100 0.0279742
8 13 17 100 0.0407924
9 13 17 100 0.0377806
10 13 17 100 0.0433015
11 13 17 100 0.0486886
12 13 17 100 0.0673328
13 13 17 100 0.0714161
14 13 17 100 0.0522409
15 13 17 100 0.0664845
16 13 17 100 0.0926897
17 13 17 100 0.120868
0 14 17 100 0.186908
1 14 17 100 0.0246567
2 14 17 100 0.017895
3 14 17 100 0.0135149
4 14 17 100 0.0194717
5 14 17 100 0.0286668
6 14 17 100 0.0374699
7 14 17 100 0.0241976
8 14 17 100 0.0406915
9 14 17 100 0.0369052
10 14 17 100 0.0462673
11 14 17 100 0.0478869
12 14 17 100 0.0536015
13 14 17 100 0.0718976
14 14 17 100 0.0503639
15 14 17 100 0.0499421
16 14 17 100 0.090499
17 14 17 100 0.159165
0 15 17 100 0.188945
1 15 17 100 0.0203289
2 15 17 100 0.0174599
3 15 17 100 0.0209999
4 15 17 100 0.0278798
5 15 17 100 0.0222127
6 15 17 100 0.0365333
7 15 17 100 0.0310869
8 15 17 100 0.0358725
9 15 17 100 0.0362387
10 15 17 100 0.0426281
11 15 17 100 0.0373646
12 15 17 100 0.0536123
13 15 17 100 0.0686484
14 15 17 100 0.0488834
15 15 17 100 0.0521056
16 15 17 100 0.0874573
17 15 17 100 0.171743
0 16 17 100 0.175048
1 16 17 100 0.0201835
2 16 17 100 0.0193663
3 16 17 100 0.0119516
4 16 17 100 0.0297787
5 16 17 100 0.0278411
6 16 17 100 0.0217468
7 16 17 100 0.0340234
8 16 17 100 0.0341093
9 16 17 100 0.0413343
10 16 17 100 0.0349511
11 16 17 100 0.0535019
12 16 17 100 0.0405361
13 16 17 100 0.0423213
14 16 17 100 0.0489449
15 16 17 100 0.054309
16 16 17 100 0.0882884
17 16 17 100 0.221764
0 17 17 100 0.15206
1 17 17 100 0.0170446
2 17 17 100 0.0177651
3 17 17 100 0.0120717
4 17 17 100 0.0179121
5 17 17 100 0.0234141
6 17 17 100 0.0318177
7 17 17 100 0.0299107
8 17 17 100 0.0331348
9 17 17 100 0.0253968
10 17 17 100 0.0486823
11 17 17 100 0.0643427
12 17 17 100 0.026839
13 17 17 100 0.0434676
14 17 17 100 0.0458616
15 17 17 100 0.0555408
16 17 17 100 0.0910276
17 17 17 100 0.263711
0 18 17 100 0.196409
1 18 17 100 0.0154568
2 18 17 100 0.0123621
3 18 17 100 0.00873305
4 18 17 100 0.0111894
5 18 17 100 0.0281249
6 18 17 100 0.0266742
7 18 17 100 0.0248503
8 18 17 100 0.0278394
9 18 17 100 0.0154854
10 18 17 100 0.0433144
11 18 17 100 0.0339023
12 18 17 100 0.0405409
13 18 17 100 0.0501203
14 18 17 100 0.0428458
15 18 17 100 0.0455242
16 18 17 100 0.0804282
17 18 17 100 0.296199
0 19 17 100 0.161783
1 19 17 100 0.0132629
2 19 17 100 0.0165905
3 19 17 100 0.0104824
4 19 17 100 0.0183646
5 19 17 100 0.0208822
6 19 17 100 0.0189991
7 19 17 100 0.0211467
8 19 17 100 0.0324278
9 19 17 100 0.0142364
10 19 17 100 0.0417009
11 19 17 100 0.025771
12 19 17 100 0.0453744
13 19 17 100 0.036605
14 19 17 100 0.0520133
15 19 17 100 0.0504351
16 19 17 100 0.0887963
17 19 17 100 0.331128
0 20 17 100 0.210608
1 20 17 100 0.00369635
2 20 17 100 0.0180735
3 20 17 100 0.0216651
4 20 17 100 0.0110887
5 20 17 100 0.0110533
6 20 17 100 0.012851
7 20 17 100 0.00852051
8 20 17 100 0.0221378
9 20 17 100 0.0147174
10 20 17 100 0.0355318
11 20 17 100 0.0323587
12 20 17 100 0.0242253
13 20 17 100 0.030498
14 20 17 100 0.0348344
15 20 17 100 0.0491445
16 20 17 100 0.0585437
17 20 17 100 0.400453
0 21 17 100 0.13553
1 21 17 100 0.0117649
2 21 17 100 0.0139682
3 21 17 100 0.0117747
4 21 17 100 0.00597429
5 21 17 100 0.01932
6 21 17 100 0.00580875
7 21 17 100 0.0180117
8 21 17 100 0.0455173
9 21 17 100 0.0117647
10 21 17 100 0.0554482
11 21 17 100 0.0246378
12 21 17 100 0.0304731
13 21 17 100 0.0541425
14 21 17 100 0.017081
15 21 17 100 0.0573223
16 21 17 100 0.0628932
17 21 17 100 0.418567
0 22 17 100 0.166468
1 22 17 100 0.00919047
2 22 17 100 0.0183919
3 22 17 100 0.00915611
5 22 17 100 0.027523
6 22 17 100 2.25582e-06
7 22 17 100 0.018335
8 22 17 100 0.054245
9 22 17 100 0.00925052
10 22 17 100 0.0561049
11 22 17 100 0.00917442
12 22 17 100 0.0175223
13 22 17 100 0.0550426
14 22 17 100 0.0263272
15 22 17 100 0.0367021
16 22 17 100 0.0617748
17 22 17 100 0.424789
0 23 17 100 0.109219
1 23 17 100 0.0145101
2 23 17 100 1.9791e-05
3 23 17 100 0.0271483
4 23 17 100 2.79362e-07
5 23 17 100 0.0145125
6 23 17 100 0.0144925
7 23 17 100 0.0471929
8 23 17 100 0.0290242
9 23 17 100 0.014494
10 23 17 100 0.0289871
11 23 17 100 0.0284992
12 23 17 100 0.0136154
13 23 17 100 0.0869261
14 23 17 100 0.0290244
15 23 17 100 0.0453185
16 23 17 100 0.0976755
17 23 17 100 0.39934
0 24 17 100 0.21289
1 24 17 100 0.0235336
2 24 17 100 8.43897e-07
3 24 17 100 0.000538672
4 24 17 100 0.0238096
5 24 17 100 0.0238264
7 24 17 100 0.0597866
8 24 17 100 0.000557357
9 24 17 100 0.0476191
10 24 17 100 0.0213465
11 24 17 100 0.0438912
12 24 17 100 3.12238e-07
13 24 17 100 0.0730721
14 24 17 100 0.0476428
15 24 17 100 0.00311996
16 24 17 100 0.152354
17 24 17 100 0.266011
0 25 17 100 0.198455
1 25 17 100 0.0333334
3 25 17 100 6.03632e-06
4 25 17 100 0.0333332
6 25 17 100 0.0333334
8 25 17 100 0.0667324
9 25 17 100 0.000714998
10 25 17 100 0.0335284
11 25 17 100 0.0661411
12 25 17 100 0.0333342
13 25 17 100 0.132645
14 25 17 100 0.000479614
15 25 17 100 0.000115464
16 25 17 100 0.168101
17 25 17 100 0.199747
0 26 17 100 0.134229
1 26 17 100 0.0454546
2 26 17 100 1.02711e-05
3 26 17 100 0.0447736
4 26 17 100 2.20803e-06
5 26 17 100 0.00206918
6 26 17 100 0.045475
7 26 17 100 0.0843433
8 26 17 100 0.000227628
9 26 17 100 8.15415e-06
10 26 17 100 0.0454546
11 26 17 100 1.74866e-06
13 26 17 100 0.046129
14 26 17 100 0.0890392
15 26 17 100 0.0077265
16 26 17 100 0.318692
17 26 17 100 0.136364
0 27 17 100 0.39328
2 27 17 100 0.0555144
3 27 17 100 1.59395e-06
5 27 17 100 0.0555959
6 27 17 100 0.0555599
7 27 17 100 0.0534244
9 27 17 100 1.80657e-06
11 27 17 100 0.0555563
13 27 17 100 0.000175175
14 27 17 100 0.0721243
15 27 17 100 0.055572
16 27 17 100 0.113168
17 27 17 100 0.0900269
0 28 17 100 0.266574
1 28 17 100 0.133332
3 28 17 100 2.31346e-05
5 28 17 100 1.34054e-06
6 28 17 100 8.22438e-07
7 28 17 100 0.0666667
9 28 17 100 5.80753e-05
10 28 17 100 8.71446e-06
11 28 17 100 1.40194e-06
16 28 17 100 0.133333
17 28 17 100 0.4
0 29 17 100 0.332245
2 29 17 100 0.111078
3 29 17 100 2.73138e-06
4 29 17 100 0.111109
7 29 17 100 0.222222
8 29 17 100 2.07987e-06
9 29 17 100 0.00106132
15 29 17 100 5.62437e-05
17 29 17 100 0.222223
0 30 17 100 0.102949
3 30 17 100 7.00424e-05
4 30 17 100 0.0392888
5 30 17 100 0.142789
6 30 17 100 0.000392002
7 30 17 100 0.143087
13 30 17 100 0.142857
16 30 17 100 0.142852
17 30 17 100 0.285715
0 31 17 100 0.200006
2 31 17 100 6.22851e-05
5 31 17 100 0.2
6 31 17 100 0.198553
7 31 17 100 0.00137862
13 31 17 100 0.2
17 31 17 100 0.2
0 32 17 100 0.5
13 32 17 100 0.25
17 32 17 100 0.25
0 33 17 100 0.333334
9 33 17 100 0.333333
17 33 17 100 0.333334
0 34 17 100 2.37625e-05
2 34 17 100 0.498354
9 34 17 100 0.500003
10 34 17 100 0.000392568
11 34 17 100 0.0012265
0 35 17 100 0.500814
9 35 17 100 0.498604
11 35 17 100 0.000582017
9 36 17 100 1
0 37 17 100 0.500023
5 37 17 100 0.394413
10 37 17 100 0.105564
0 38 17 100 0.000893367
3 38 17 100 7.16629e-06
9 38 17 100 0.497242
16 38 17 100 0.00185653
17 38 17 100 0.500001
0 39 17 100 0.999986
9 39 17 100 1.44435e-05
17 40 17 100 1
0 1 18 100 0.000777383
1 1 18 100 0.409802
2 1 18 100 0.115551
3 1 18 100 0.0803164
4 1 18 100 0.0545525
5 1 18 100 0.0652819
6 1 18 100 0.0488137
7 1 18 100 0.0377203
8 1 18 100 0.0242732
9 1 18 100 0.0288952
10 1 18 100 0.0195418
11 1 18 100 0.013921
12 1 18 100 0.0135462
13 1 18 100 0.0103068
14 1 18 100 0.0133844
15 1 18 100 0.0179336
16 1 18 100 0.0129028
17 1 18 100 0.0228437
18 1 18 100 0.00963642
0 2 18 100 0.220559
1 2 18 100 0.0764864
2 2 18 100 0.164752
3 2 18 100 0.100925
4 2 18 100 0.0866248
5 2 18 100 0.0476386
6 2 18 100 0.0513727
7 2 18 100 0.0358634
8 2 18 100 0.0430398
9 2 18 100 0.0227274
10 2 18 100 0.018083
11 2 18 100 0.0209
12 2 18 100 0.0135338
13 2 18 100 0.0150344
14 2 18 100 0.0116299
15 2 18 100 0.0160472
16 2 18 100 0.0136947
17 2 18 100 0.027012
18 2 18 100 0.014076
0 3 18 100 0.228675
1 3 18 100 0.0685562
2 3 18 100 0.0576552
3 3 18 100 0.118681
4 3 18 100 0.0963405
5 3 18 100 0.0756944
6 3 18 100 0.0527878
7 3 18 100 0.0542472
8 3 18 100 0.035204
9 3 18 100 0.0407758
10 3 18 100 0.0273181
11 3 18 100 0.0213164
12 3 18 100 0.0189437
13 3 18 100 0.00913802
14 3 18 100 0.0150893
15 3 18 100 0.0141444
16 3 18 100 0.0200421
17 3 18 100 0.0290282
18 3 18 100 0.0163629
0 4 18 100 0.205599
1 4 18 100 0.0571632
2 4 18 100 0.0481727
3 4 18 100 0.0490913
4 4 18 100 0.0972382
5 4 18 100 0.101171
6 4 18 100 0.0805415
7 4 18 100 0.0464984
8 4 18 100 0.0487027
9 4 18 100 0.0279426
10 4 18 100 0.0402443
11 4 18 100 0.0364018
12 4 18 100 0.0241685
13 4 18 100 0.0243616
14 4 18 100 0.0159171
15 4 18 100 0.0189623
16 4 18 100 0.0270592
17 4 18 100 0.0350898
18 4 18 100 0.0156747
0 5 18 100 0.217233
1 5 18 100 0.0462071
2 5 18 100 0.0500177
3 5 18 100 0.0446315
4 5 18 100 0.0638665
5 5 18 100 0.0827554
6 5 18 100 0.08012
7 5 18 100 0.0799883
8 5 18 100 0.0538225
9 5 18 100 0.0372868
10 5 18 100 0.0347758
11 5 18 100 0.0345318
12 5 18 100 0.0239815
13 5 18 100 0.0406409
14 5 18 100 0.0169869
15 5 18 100 0.0239716
16 5 18 100 0.0239113
17 5 18 100 0.0260426
18 5 18 100 0.0192285
0 6 18 100 0.189227
1 6 18 100 0.0388057
2 6 18 100 0.0371075
3 6 18 100 0.0442768
4 6 18 100 0.0492995
5 6 18 100 0.0675136
6 6 18 100 0.069701
7 6 18 100 0.082653
8 6 18 100 0.0673043
9 6 18 100 0.0451669
10 6 18 100 0.0397492
11 6 18 100 0.0467585
12 6 18 100 0.0403096
13 6 18 100 0.0393183
14 6 18 100 0.024631
15 6 18 100 0.023535
16 6 18 100 0.0302369
17 6 18 100 0.0386739
18 6 18 100 0.0257319
0 7 18 100 0.189849
1 7 18 100 0.0404258
2 7 18 100 0.0315566
3 7 18 100 0.0305465
4 7 18 100 0.0486166
5 7 18 100 0.0447947
6 7 18 100 0.0500892
7 7 18 100 0.0679639
8 7 18 100 0.084812
9 7 18 100 0.066734
10 7 18 100 0.0470932
11 7 18 100 0.0515938
12 7 18 100 0.0431522
13 7 18 100 0.0337233
14 7 18 100 0.0322321
15 7 18 100 0.0256523
16 7 18 100 0.0345811
17 7 18 100 0.048304
18 7 18 100 0.0282798
0 8 18 100 0.197397
1 8 18 100 0.0327581
2 8 18 100 0.0296278
3 8 18 100 0.0207222
