2 0.94894 0.0497902 0.000359886 0.000387078 6.75999e-05 0.000361514 3.01628e-05 2.06568e-05 1.80921e-05 2.45166e-05 
3 0.193641 0.315392 0.408037 0.0165202 0.0217241 0.0188625 0.00911662 0.00548902 0.00300836 0.00821034 
4 0.253485 0.428365 0.0980412 0.0449029 0.0664165 0.031954 0.027183 0.0164493 0.00867042 0.0245328 
5 0.99905 0.000474047 6.36401e-05 5.07806e-06 0.000102496 0.000242392 1.82939e-06 2.72856e-05 3.14596e-05 1.68115e-06 
6 0.414282 0.583626 0.00066764 0.000539809 0.000184362 0.000453338 8.02132e-05 5.70355e-05 4.49257e-05 6.48051e-05 
7 0.21373 0.676943 0.034578 0.0167598 0.0181359 0.0131465 0.00892804 0.00616635 0.00463685 0.00697556 
8 0.993299 0.00421615 0.00208782 1.20068e-05 0.000245239 8.34059e-06 3.28829e-06 2.27669e-06 7.73069e-05 4.84986e-05 
9 0.355731 0.642225 0.00113925 0.000364549 0.000175626 0.000127664 7.67972e-05 5.46066e-05 4.30125e-05 6.20453e-05 
10 0.198135 0.63275 0.0537627 0.029595 0.0234585 0.0261262 0.0128137 0.00767397 0.00420587 0.0114785 
11 0.226569 0.77249 0.000532004 0.000117157 8.66329e-05 7.44917e-05 4.03112e-05 2.97048e-05 2.60166e-05 3.52551e-05 
12 0.316913 0.486193 0.0603084 0.0399355 0.0302275 0.0219108 0.0148801 0.0102773 0.00772809 0.0116259 
13 0.948742 0.0490211 0.00141325 0.000232305 0.000165344 0.000133541 8.75122e-05 6.05902e-05 4.89345e-05 9.54413e-05 
14 0.792899 0.204195 0.00157261 0.000417289 0.000298096 0.00021669 0.000130351 9.26864e-05 7.30072e-05 0.000105313 
15 0.997568 0.00141268 0.000528746 9.16786e-05 2.0541e-05 0.000227991 3.77353e-05 1.5353e-05 2.21411e-05 7.54406e-05 
16 0.276477 0.434195 0.0800093 0.0504651 0.0531745 0.0292155 0.0241923 0.0196911 0.00913993 0.0234397 
17 0.496407 0.476653 0.0122037 0.00461164 0.00329448 0.00239479 0.00144061 0.00102434 0.000806855 0.00116389 
18 0.163892 0.835047 1.04666e-05 0.00014737 0.000444607 0.000109272 0.000139078 8.02562e-07 7.04378e-05 0.000138924 
19 0.198599 0.749529 0.0196057 0.00804983 0.00706783 0.00557242 0.00366465 0.00277182 0.00153663 0.00360333 
20 0.728966 0.269996 0.000662314 0.00010606 7.54885e-05 6.09688e-05 3.99541e-05 2.76627e-05 2.23412e-05 4.35741e-05 
21 0.349014 0.527561 0.0547015 0.0171451 0.0150536 0.0118685 0.00780523 0.00590362 0.00327283 0.00767462 
22 0.280451 0.422072 0.0799715 0.0490434 0.0377106 0.0423586 0.0235109 0.0241048 0.0179965 0.0227815 
23 0.836249 0.146779 0.00640965 0.00263507 0.00231362 0.00182411 0.00119961 0.000907342 0.00050301 0.00117953 
24 0.296423 0.604957 0.0337566 0.01361 0.0119497 0.00942142 0.00742052 0.0128462 0.00352281 0.00609222 
25 0.918251 0.0188062 0.0613846 0.000366505 0.00104751 5.21471e-05 2.8209e-05 2.07868e-05 1.82059e-05 2.46708e-05 
26 0.995855 0.00380019 0.000104554 8.05869e-05 3.88929e-05 0.000104929 8.41842e-06 2.24892e-06 1.6112e-06 3.14247e-06 
27 0.335234 0.400002 0.0912463 0.0506 0.0409872 0.0226503 0.0187558 0.0152661 0.00708601 0.0181724 
28 0.28515 0.713947 0.000219735 0.000611051 2.15076e-05 1.84592e-05 9.98919e-06 7.36089e-06 6.44695e-06 8.73629e-06 
29 0.40704 0.505733 0.0787918 0.00263986 0.00188565 0.00137071 0.000824559 0.000586302 0.000461819 0.000666171 
30 0.375772 0.605546 0.00592785 0.00285961 0.00309441 0.00224309 0.00152333 0.00105212 0.000791155 0.00119019 
31 0.166588 0.8308 0.00113751 0.00046143 0.000329637 0.000239617 0.000144144 0.000102493 8.0732e-05 0.000116455 
32 0.926008 0.0711277 0.00124021 0.000508186 0.000363039 0.000263897 0.00015875 0.000112879 8.89125e-05 0.000128256 
33 0.37496 0.576167 0.0210017 0.00872202 0.00623086 0.00452929 0.00272463 0.00193735 0.00152601 0.00220126 
34 0.27199 0.440669 0.0961266 0.0423404 0.0384786 0.0324133 0.0275887 0.0166948 0.00879983 0.0248989 
35 0.467468 0.500399 0.0223084 0.00307444 0.00219632 0.00159653 0.000960406 0.000682896 0.000537904 0.000775924 
36 0.317748 0.469781 0.157403 0.0363667 0.00549734 0.0042905 0.00282161 0.00213417 0.00118314 0.00277439 
37 0.583309 0.0947079 0.321022 0.000277914 0.000202568 0.000174179 9.42572e-05 6.94567e-05 6.08329e-05 8.24349e-05 
38 0.98088 0.0053966 0.0134454 0.000223949 1.49612e-05 1.20834e-05 7.91849e-06 5.48246e-06 4.42781e-06 8.63595e-06 
39 0.258983 0.366875 0.368135 0.00188088 0.00134248 0.000975865 0.00058704 0.000417414 0.000328789 0.000474277 
40 0.699557 0.279797 0.00911053 0.00290142 0.00251984 0.00198669 0.00130653 0.000988214 0.000547843 0.00128466 
41 0.325129 0.454076 0.0602477 0.0292769 0.0578151 0.0269209 0.0155564 0.0107444 0.00807937 0.0121544 
42 0.502134 0.406375 0.0412916 0.0113037 0.0221407 0.00588478 0.00353051 0.00251036 0.00197736 0.00285234 
43 0.136329 0.859888 0.00209521 0.000482948 0.00035712 0.000307072 0.000166172 0.00012245 0.000107246 0.00014533 
44 0.38023 0.568926 0.015904 0.00814632 0.00758461 0.00606902 0.0046384 0.002793 0.00153076 0.0041777 
45 0.234927 0.450446 0.0813036 0.0551368 0.0395786 0.0456013 0.0265874 0.0158328 0.00996105 0.0406252 
46 0.495617 0.274086 0.157484 0.022426 0.023741 0.00878982 0.00596933 0.00412285 0.00310022 0.00466389 
47 0.412565 0.57255 0.00662995 0.00205955 0.00180831 0.00142571 0.000937602 0.000709171 0.000393148 0.000921912 
48 0.182395 0.501988 0.0476764 0.0444882 0.0556097 0.0727282 0.0334566 0.020076 0.0133318 0.0282496 
49 0.174309 0.798676 0.0100294 0.00359743 0.00490687 0.00268039 0.00204784 0.0012331 0.000675826 0.00184444 
50 0.317642 0.6216 0.0178091 0.0111249 0.00852733 0.00644048 0.00533312 0.00434085 0.00201487 0.00516722 
51 0.382687 0.486526 0.0493763 0.0203103 0.0178327 0.0140597 0.0092462 0.00699352 0.00387704 0.00909147 
52 0.935534 0.0613069 0.00137531 0.0008048 0.000318501 0.000231497 0.000139259 9.90199e-05 7.7996e-05 0.000112509 
53 0.474022 0.519126 0.00284918 0.00187726 0.000691635 0.000502647 0.000302371 0.000215001 0.000169352 0.00024429 
54 0.912898 0.0708933 0.0109479 0.00243824 0.000390414 0.0016156 0.000469877 0.00011303 9.89964e-05 0.00013415 
55 0.459214 0.421834 0.0831814 0.00893593 0.00783192 0.00617485 0.00406083 0.00307148 0.00170276 0.00399287 
56 0.540914 0.456955 0.00150095 0.000177814 0.00012656 0.000102217 6.69847e-05 4.63777e-05 3.74561e-05 7.30539e-05 
57 0.542605 0.446122 0.00527342 0.0014968 0.0013142 0.00103614 0.000681409 0.000515395 0.000285723 0.000670006 
58 0.173193 0.532197 0.0491951 0.0458571 0.0573165 0.044605 0.0340822 0.0206937 0.013742 0.0291188 
59 0.297321 0.466116 0.0690554 0.0354678 0.0332596 0.0415708 0.0201949 0.0121603 0.00666468 0.0181891 
60 0.265184 0.440558 0.0817784 0.0590249 0.0396625 0.0334107 0.0284376 0.0172085 0.0090706 0.025665 
61 0.382687 0.471141 0.0493763 0.0204776 0.0330501 0.0140597 0.00924619 0.00699351 0.00387704 0.00909147 
62 0.2544 0.736216 0.00518273 0.00120181 0.000888686 0.000764141 0.000413515 0.000304713 0.00026688 0.00036165 
63 0.582752 0.410036 0.000881017 0.00455867 0.00103848 0.000280663 7.22265e-06 1.68866e-06 1.81918e-06 0.000442755 
64 0.720199 0.236513 0.0349192 0.00239766 0.00176922 0.00152127 0.000823236 0.000606631 0.000531311 0.000719981 
65 0.693464 0.302439 0.00258584 0.000426122 0.000303294 0.000244958 0.000160525 0.000111142 8.97615e-05 0.00017507 
66 0.622845 0.295037 0.0377335 0.00786212 0.0055666 0.0132819 0.0125804 0.00176369 0.00136304 0.00196618 
67 0.911794 0.0874987 0.000443982 7.43953e-05 5.29512e-05 4.27663e-05 2.80256e-05 1.94039e-05 1.56712e-05 3.05649e-05 
68 0.437103 0.440844 0.05262 0.0156526 0.0168196 0.0121923 0.00828004 0.0057188 0.00430031 0.00646927 
69 0.412335 0.405236 0.0539942 0.0430508 0.0257552 0.0264275 0.0117203 0.00705732 0.0038679 0.0105562 
70 0.265184 0.440558 0.0841024 0.0552914 0.041072 0.0334107 0.0284376 0.0172085 0.0090706 0.025665 
71 0.325129 0.482309 0.0623175 0.0292027 0.0316004 0.0229067 0.0155564 0.0107444 0.00807937 0.0121544 
72 0.382687 0.471141 0.0493763 0.0203104 0.0332173 0.0140597 0.00924619 0.00699351 0.00387704 0.00909147 
73 0.300766 0.548086 0.0443871 0.0236401 0.0214839 0.0180974 0.0154037 0.00932127 0.00491324 0.0139019 
74 0.332893 0.616126 0.0194932 0.00706 0.00763967 0.00553789 0.0037609 0.00259755 0.00195325 0.00293842 
75 0.979907 0.0196427 0.000281557 4.75658e-05 3.38551e-05 2.73433e-05 1.79186e-05 1.24062e-05 1.00196e-05 1.95421e-05 
76 0.288555 0.687904 0.0101165 0.00420118 0.00300125 0.00218165 0.00131239 0.000933172 0.000735041 0.00106029 
77 0.295416 0.457991 0.0649116 0.0644945 0.0314011 0.0237161 0.0196384 0.0159845 0.00741947 0.0190275 
78 0.255906 0.461621 0.0818316 0.0519713 0.0398367 0.0300876 0.0249144 0.0202789 0.00941276 0.0241394 
79 0.366017 0.631126 0.000241802 0.00234049 0.000110661 4.36758e-05 4.27079e-05 2.44873e-05 1.68081e-05 3.59621e-05 
80 0.325129 0.484378 0.0602483 0.0292027 0.0316004 0.0229067 0.0155564 0.0107444 0.00807937 0.0121544 
81 0.288446 0.496977 0.0669957 0.0344091 0.0320365 0.0256348 0.019592 0.0117973 0.00646574 0.0176461 
82 0.236824 0.47545 0.0708137 0.0585297 0.0412696 0.0337899 0.0282013 0.0168071 0.0105477 0.027767 
83 0.0814818 0.354279 0.0164286 0.15509 0.0425984 0.0993759 0.0991562 0.0148384 2.50548e-05 0.136727 
84 0.371264 0.472002 0.0628276 0.0204275 0.0315023 0.01364 0.00897019 0.00678475 0.00376131 0.00882008 
85 0.260115 0.53973 0.0673809 0.0403027 0.0261762 0.0209455 0.0160081 0.00963926 0.00528298 0.0144182 
86 0.810584 0.173868 0.0149007 0.000353616 8.69493e-05 7.47604e-05 4.04566e-05 2.98119e-05 2.61104e-05 3.53823e-05 
87 0.62844 0.216408 0.10265 0.0321849 0.00531388 0.00631538 0.00306699 0.00184677 0.00101216 0.00276236 
88 0.637748 0.292389 0.0333299 0.0126082 0.00698268 0.00550529 0.0036205 0.00273842 0.00151812 0.00355991 
89 0.360463 0.623009 0.00710175 0.0029501 0.0021075 0.00153196 0.000921566 0.000655279 0.00051615 0.000744544 
90 0.204492 0.446427 0.205132 0.0318756 0.028967 0.024401 0.020769 0.012568 0.00662459 0.0187441 
91 0.229973 0.590894 0.0559461 0.0272777 0.0247891 0.0208817 0.0177735 0.0107553 0.00566912 0.0160406 
92 0.276087 0.504242 0.0641287 0.0329344 0.0306635 0.0245362 0.0187524 0.0114936 0.0202703 0.016892 
93 0.82863 0.15816 0.00783927 0.00117079 0.00170195 0.00161012 0.000288459 0.000205104 0.000161557 0.000233045 
94 0.43331 0.289253 0.15424 0.0272871 0.0247891 0.0208817 0.0177735 0.0107553 0.00566912 0.0160407 
95 0.975704 0.00914838 0.0151097 1.13468e-05 7.32343e-06 5.91482e-06 3.87609e-06 2.68366e-06 2.16741e-06 4.22729e-06 
96 0.332632 0.528708 0.0708172 0.0169253 0.0148606 0.0117164 0.00770516 0.00582793 0.00323087 0.00757622 
97 0.597132 0.402151 0.000186864 3.04246e-05 0.00044413 1.74898e-05 1.14613e-05 7.93534e-06 6.40883e-06 1.24997e-05 
98 0.265806 0.647229 0.0505971 0.00865432 0.0114324 0.00530737 0.003474 0.00262762 0.00145669 0.00341587 
99 0.382687 0.471141 0.0493763 0.0203103 0.0180121 0.0286823 0.00982877 0.00699351 0.00387704 0.00909147 
100 0.389597 0.607022 0.00200133 0.000394542 0.000291747 0.00025086 0.000135753 0.000100034 8.76141e-05 0.000118726 
101 0.354491 0.595807 0.0224942 0.00613249 0.0103501 0.00483309 0.00191348 0.00136058 0.0010717 0.00154592 
102 0.244637 0.522777 0.0776739 0.0464115 0.0387488 0.0226818 0.016616 0.0100053 0.0054836 0.0149657 
103 0.247681 0.590193 0.0451219 0.0324739 0.021848 0.0184042 0.0156648 0.00947926 0.00499652 0.0141375 
104 0.265528 0.557804 0.0650424 0.0320309 0.0275144 0.01718 0.0116673 0.0080583 0.00605953 0.00911578 
105 0.507297 0.481335 0.0103671 0.000286274 0.000211685 0.000182018 9.84992e-05 7.25827e-05 6.35707e-05 8.61449e-05 
106 0.456586 0.532963 0.00467598 0.00180727 0.00129108 0.000938501 0.000564563 0.000401432 0.0003162 0.000456117 
107 0.479593 0.507735 0.00480898 0.00196162 0.00172232 0.00135792 0.00089302 0.000675451 0.000374454 0.000878076 
108 0.749139 0.250289 2.53975e-05 2.40933e-05 0.000258135 5.02674e-06 4.9181e-06 0.000248213 1.9354e-06 4.13895e-06 
109 0.341627 0.645157 0.00597229 0.00366348 0.00116513 0.00084694 0.000509484 0.000362268 0.000285351 0.000411618 
110 0.312351 0.660231 0.0117827 0.00489284 0.00349536 0.00254082 0.00152845 0.0010868 0.000856054 0.00123485 
111 0.867434 0.120861 0.00913372 0.0008114 0.000572666 0.000416278 0.000250415 0.000178058 0.000140253 0.000202314 
112 0.206113 0.511783 0.0646431 0.0424074 0.0461394 0.0305184 0.0353162 0.0273297 0.00866564 0.0270841 
113 0.300304 0.344472 0.265825 0.0265836 0.0186198 0.0139637 0.0106721 0.00642617 0.00352199 0.0096121 
114 0.2157 0.672853 0.0347954 0.0178714 0.0166391 0.0133142 0.0101757 0.00612728 0.00335817 0.00916503 
115 0.133663 0.82471 0.012911 0.00774833 0.00546339 0.0044732 0.00373336 0.00222498 0.00139633 0.00367587 
116 0.393958 0.451613 0.047198 0.0194143 0.0189633 0.0262181 0.00947825 0.0207607 0.00370603 0.00869037 
117 0.794115 0.190151 0.0102188 0.00172565 0.00123277 0.000896117 0.000539067 0.000383303 0.00030192 0.000435518 
118 0.501887 0.406699 0.0235867 0.0219449 0.00701238 0.0172574 0.00306184 0.00217361 0.00171219 0.0146647 
119 0.425582 0.538905 0.0136465 0.00545526 0.00478977 0.00377635 0.00248348 0.00187842 0.00104135 0.00244192 
120 0.870196 0.129472 0.00020844 3.46224e-05 2.46426e-05 1.99028e-05 1.30427e-05 9.03026e-06 7.29312e-06 1.42244e-05 
121 0.462987 0.421769 0.0728941 0.0105777 0.009273 0.00731102 0.00480802 0.00363663 0.00201606 0.00472756 
122 0.78039 0.192644 0.0191723 0.00243924 0.00174237 0.00126655 0.000761902 0.00054175 0.000426726 0.00061555 
123 0.365899 0.433135 0.0912929 0.0478441 0.0227199 0.0123564 0.00944365 0.00568647 0.00311658 0.00850567 
124 0.261542 0.435188 0.0802576 0.0626165 0.0402252 0.0292155 0.0286697 0.0297063 0.00913998 0.0234397 
125 0.400238 0.598093 0.00104448 0.000176075 0.000125322 0.000101217 6.63296e-05 4.59241e-05 3.70897e-05 7.23394e-05 
126 0.348692 0.437969 0.0585596 0.0627623 0.0292351 0.0207102 0.0140647 0.00971412 0.00730463 0.0109889 
127 0.388733 0.497116 0.0327954 0.0522819 0.00677861 0.00534431 0.00351464 0.00265835 0.00147413 0.00930338 
128 0.846496 0.136968 0.00724485 0.00290734 0.00207695 0.00150976 0.00090821 0.000645782 0.00050867 0.000733754 
129 0.42555 0.527959 0.0175748 0.00721406 0.00633401 0.00499386 0.00328417 0.00248403 0.00137709 0.00322921 
130 0.459525 0.510398 0.00960164 0.00616818 0.0040499 0.00324063 0.00247673 0.00149136 0.000817367 0.00223073 
131 0.284416 0.705784 0.00687016 0.000917087 0.00065513 0.000476222 0.000286475 0.000203698 0.000160449 0.000231447 
132 0.561317 0.424863 0.0102853 0.00101092 0.000747461 0.000642708 0.000347801 0.00025629 0.000224469 0.000304178 
133 0.472209 0.432264 0.0284066 0.0118004 0.00855034 0.0354192 0.00368628 0.00262112 0.0020646 0.00297818 
134 0.337008 0.521609 0.0414226 0.0200769 0.0217264 0.0261639 0.0106952 0.00738678 0.00555457 0.00835613 
135 0.247066 0.55702 0.0595373 0.0346235 0.0331736 0.0197869 0.0165142 0.00984202 0.00617656 0.01626 
136 0.782125 0.187837 0.021067 0.00464177 0.00140847 0.00102382 0.000615887 0.000437926 0.000344946 0.000497582 
137 0.49085 0.42588 0.0292674 0.012158 0.00868544 0.00631355 0.003798 0.017852 0.00212717 0.00306842 
138 0.634847 0.307494 0.016063 0.00372579 0.0170404 0.00241755 0.0155189 0.000944637 0.000827327 0.00112111 
139 0.249995 0.501629 0.0728772 0.0388604 0.0353159 0.0297492 0.0253212 0.0153226 0.00807656 0.0228524 
140 0.544646 0.364834 0.0364182 0.0206085 0.0191684 0.00502548 0.00302007 0.00214742 0.00169148 0.00243995 
141 0.453666 0.35196 0.107738 0.020701 0.0186647 0.0149351 0.0114145 0.00687321 0.00376699 0.0102808 
142 0.314178 0.459696 0.0660089 0.0339031 0.0315654 0.0252578 0.0193039 0.0116238 0.00663152 0.0318316 
143 0.682246 0.316136 0.00101298 0.000170651 0.000121461 9.80991e-05 6.42863e-05 4.45094e-05 3.59472e-05 7.01109e-05 
144 0.623604 0.333629 0.0158412 0.0177576 0.00271613 0.00233547 0.00126384 0.000931307 0.000815675 0.00110532 
145 0.356887 0.507382 0.0458494 0.0188596 0.0165589 0.013572 0.0223147 0.00653417 0.00360011 0.00844208 
146 0.212477 0.720469 0.0213302 0.010252 0.0110938 0.00804172 0.0054613 0.00377197 0.00283637 0.00426696 
147 0.72652 0.117085 0.147459 0.00190903 0.00367266 0.00110678 0.000751629 0.000519129 0.000390365 0.000587254 
148 0.666444 0.330997 0.0014193 0.00032599 0.000241056 0.000207273 0.000112166 8.26535e-05 7.23911e-05 9.80975e-05 
149 0.282938 0.42954 0.069547 0.0806592 0.0461682 0.0251984 0.0208658 0.0169836 0.00788319 0.0202167 
150 0.245285 0.599213 0.0513445 0.0230635 0.0209599 0.017656 0.015028 0.00909392 0.0047934 0.0135628 
151 0.732841 0.229197 0.014949 0.00569238 0.00632408 0.00363071 0.00246217 0.00170055 0.00127875 0.00192371 
152 0.366417 0.549413 0.0317769 0.013071 0.0114765 0.00904829 0.00595052 0.00450078 0.00249513 0.00585094 
153 0.271632 0.42943 0.0783245 0.0502038 0.064373 0.0306662 0.0238467 0.0194098 0.00900936 0.0231048 
154 0.767755 0.204138 0.00926957 0.0157358 0.000971964 0.00077125 0.000417362 0.000307548 0.000269362 0.000365014 
155 0.341496 0.475397 0.0536994 0.0286546 0.0260411 0.0219363 0.0186711 0.0112985 0.00595544 0.0168508 
156 0.261381 0.517156 0.0608156 0.0311542 0.029006 0.023903 0.0437142 0.0110399 0.00585411 0.0159769 
157 0.406096 0.423937 0.0908467 0.0219203 0.0187125 0.0136968 0.00875111 0.00526946 0.00288803 0.00788193 
158 0.260547 0.479209 0.0831749 0.0363693 0.0337581 0.0399555 0.0236993 0.0143404 0.00755883 0.0213875 
159 0.320579 0.517188 0.0517179 0.0348184 0.0197245 0.0161496 0.0134785 0.00803282 0.00504117 0.013271 
160 0.284204 0.4578 0.0960526 0.0357286 0.0315684 0.0383438 0.0209208 0.0116238 0.00637065 0.0173866 
161 0.745293 0.179073 0.021064 0.0266011 0.0262755 0.00053077 0.000347805 0.000240807 0.000194483 0.000379318 
162 0.207402 0.726499 0.0271907 0.00873267 0.00943724 0.00684092 0.00464582 0.00320874 0.00241284 0.00362981 
163 0.599916 0.289183 0.0593922 0.0171874 0.010605 0.00733755 0.00579449 0.00350643 0.00184824 0.00522955 
164 0.24543 0.549521 0.0889057 0.0336431 0.0246689 0.0182716 0.0139645 0.00840872 0.00460856 0.0125775 
165 0.388672 0.495248 0.0438448 0.0168886 0.0156675 0.0125367 0.00958151 0.00576949 0.00316208 0.00862985 
166 0.361673 0.594852 0.0235737 0.00497082 0.00435761 0.00343563 0.00225941 0.00170894 0.000947398 0.0022216 
167 0.187544 0.780831 0.0119534 0.0049077 0.00430901 0.00339731 0.00223421 0.00168988 0.000936832 0.00219682 
168 0.888336 0.108281 0.00260514 0.000673055 2.90961e-05 2.34814e-05 1.53879e-05 1.0654e-05 8.60447e-06 1.67821e-05 
169 0.320276 0.468986 0.067512 0.0287669 0.0311288 0.0227657 0.0300487 0.0105841 0.00795878 0.011973 
170 0.245037 0.70534 0.0157804 0.0075881 0.00821114 0.00595214 0.00404222 0.00279185 0.00209936 0.00315822 
171 0.214196 0.497289 0.052656 0.0375024 0.0625254 0.0369248 0.0302162 0.0303884 0.011144 0.0271577 
172 0.669366 0.26359 0.0630218 0.00115473 0.000849537 0.000730479 0.000395299 0.00029129 0.000255123 0.000345718 
173 0.291771 0.457114 0.104286 0.0561126 0.0244277 0.0183261 0.0151752 0.0123517 0.00573323 0.0147031 
174 0.594936 0.404293 0.000434052 9.62687e-05 7.11867e-05 6.12103e-05 3.31239e-05 2.44086e-05 2.1378e-05 2.89693e-05 
175 0.179304 0.799781 0.00656381 0.00334602 0.0031153 0.00249279 0.00190518 0.0011472 0.000628744 0.00171595 
176 0.155154 0.501033 0.0471159 0.0539658 0.0604101 0.0396284 0.0458583 0.0354878 0.0114434 0.0499032 
177 0.397021 0.481276 0.0464135 0.0146489 0.0198968 0.0108791 0.00830802 0.00500265 0.00274191 0.0138118 
178 0.174388 0.482197 0.0563841 0.0408953 0.0573435 0.03793 0.043893 0.0349719 0.0240294 0.0479688 
179 0.640985 0.352646 0.00276267 0.00112859 0.000806243 0.000586068 0.000352554 0.000250683 0.000197458 0.000284833 
180 0.639896 0.212957 0.102652 0.0280803 0.0086812 0.00272126 0.0016277 0.00115738 0.000911642 0.00131504 
181 0.336619 0.569303 0.0317833 0.013071 0.0114765 0.00904829 0.00595052 0.00450078 0.00249717 0.0157498 
182 0.500438 0.445265 0.0345728 0.00617258 0.00440953 0.00320534 0.0019282 0.00137105 0.00107994 0.00155782 
183 0.342721 0.378809 0.182575 0.0249506 0.0221875 0.0160834 0.0109226 0.00754394 0.00567275 0.00853392 
184 0.325412 0.463393 0.0576283 0.0285515 0.0419405 0.0240711 0.0148801 0.0116419 0.0169973 0.0154848 
185 0.352086 0.528282 0.0526489 0.0167112 0.0146725 0.0115681 0.00760763 0.00575416 0.00318997 0.00748032 
186 0.849805 0.149251 0.000521228 0.000120737 8.928e-05 7.67679e-05 4.15429e-05 3.06124e-05 2.68115e-05 3.63324e-05 
187 0.339705 0.432051 0.0704754 0.0410887 0.0433021 0.0273951 0.0175859 0.00984904 0.00740609 0.0111415 
188 0.211038 0.702585 0.0274996 0.0132012 0.0142851 0.0103551 0.00703236 0.00485706 0.00365232 0.00549444 
189 0.545237 0.449474 0.00330931 0.000558253 0.000397339 0.000320913 0.000210301 0.000145604 0.000117595 0.000229355 
190 0.254572 0.643996 0.0321085 0.0155434 0.0168196 0.0121923 0.00828004 0.0057188 0.00430031 0.00646926 
191 0.572053 0.387408 0.0285427 0.00343148 0.00253743 0.00218182 0.00118069 0.000870037 0.000762012 0.0010326 
192 0.634088 0.182805 0.106487 0.033088 0.0118284 0.00876466 0.00725768 0.00590733 0.00274198 0.00703191 
193 0.197919 0.76701 0.0189875 0.00401269 0.00352317 0.00277774 0.00182676 0.0013817 0.000765981 0.00179619 
194 0.43127 0.380031 0.120055 0.0208398 0.0144542 0.0150938 0.00577893 0.00437095 0.00242315 0.00568217 
195 0.350936 0.39823 0.168725 0.0191954 0.0196758 0.0142627 0.00968609 0.00668991 0.00503055 0.00756782 
196 0.859221 0.131312 0.00592051 0.0010002 0.000711899 0.00057497 0.000376789 0.000260874 0.00021069 0.000410928 
197 0.448655 0.533163 0.00137696 0.00134493 0.000710958 0.000299787 0.0139538 0.000157323 0.000107986 0.000231044 
198 0.245158 0.706263 0.0183412 0.00754384 0.00662357 0.00522216 0.0034343 0.00259759 0.00144004 0.00337683 
199 0.265184 0.440558 0.0817755 0.0436432 0.0396625 0.0334107 0.0284376 0.0172085 0.0164474 0.0336728 
200 0.198025 0.654597 0.0432203 0.0230635 0.0209599 0.017656 0.015028 0.00909392 0.0047934 0.0135628 
201 0.327361 0.650934 0.0114186 0.00329579 0.00227476 0.00165355 0.000994706 0.000707285 0.000557114 0.000803635 
202 0.247665 0.565264 0.0252725 0.0242599 0.0340173 0.0225009 0.0260382 0.0215956 0.0133983 0.0199884 
203 0.340281 0.454076 0.0602477 0.0292027 0.0316004 0.0229067 0.0187779 0.0226744 0.0080794 0.0121544 
204 0.529147 0.445736 0.0107923 0.00448283 0.00320245 0.0023279 0.00140037 0.000995731 0.000784318 0.00113137 
205 0.351268 0.63891 0.00371114 0.00152445 0.00133848 0.00105529 0.000693998 0.000524917 0.000291002 0.000682385 
206 0.36449 0.468627 0.0469195 0.0358645 0.0422997 0.017143 0.00780523 0.00590362 0.00327283 0.00767462 
207 0.280085 0.511559 0.0650522 0.0334117 0.0311079 0.0248918 0.0190242 0.0114554 0.00627832 0.0171346 
208 0.332833 0.544975 0.0584358 0.0159057 0.0139654 0.0110106 0.007241 0.00547685 0.00303624 0.00711982 
209 0.282726 0.424561 0.0819067 0.069485 0.043047 0.0306333 0.0214009 0.017419 0.00808532 0.0207351 
210 0.375268 0.46401 0.0550454 0.019133 0.0168963 0.0421034 0.0087395 0.00658809 0.00365229 0.00856443 
211 0.283293 0.478374 0.223424 0.00466597 0.00333278 0.00242264 0.00145736 0.00103626 0.000816237 0.00117742 
212 0.932485 0.0588144 0.00326792 0.00232827 0.000909126 0.000713409 0.000469167 0.000354862 0.000196727 0.000461316 
213 0.371535 0.296723 0.0336717 0.259855 0.0111726 0.00878728 0.00577887 0.00437095 0.00242315 0.00568217 
214 0.402461 0.581632 0.00878456 0.00203744 0.0015066 0.00129546 0.000701037 0.000516584 0.000452444 0.000613109 
215 0.445037 0.548773 0.00341905 0.000792681 0.000586155 0.000504008 0.000272744 0.000200981 0.000176027 0.000238535 
216 0.314243 0.427331 0.0794379 0.0813896 0.0324814 0.0174548 0.0155435 0.0157931 0.00438356 0.0119423 
217 0.575971 0.405817 0.00881971 0.00293929 0.00209978 0.00152635 0.00091819 0.000652879 0.00051426 0.000741817 
218 0.309071 0.439095 0.0650547 0.0479281 0.0455746 0.0248918 0.0190242 0.0114554 0.00628207 0.0316236 
219 0.175455 0.518155 0.0412204 0.0397593 0.0557506 0.0368764 0.0426737 0.0330234 0.0106293 0.0464571 
220 0.286064 0.457541 0.0770245 0.0368433 0.0334814 0.0282038 0.0241046 0.0272366 0.00783525 0.0216653 
221 0.296193 0.476462 0.076123 0.0320373 0.0436818 0.0238563 0.0182315 0.010978 0.00601673 0.0164207 
222 0.561487 0.403249 0.015232 0.00626895 0.00447843 0.00325542 0.00195833 0.00139247 0.00109682 0.00158216 
223 0.173193 0.516864 0.0491433 0.0458571 0.0573165 0.044605 0.0340822 0.0206937 0.0137765 0.0444689 
224 0.274512 0.452245 0.090223 0.0405258 0.0368295 0.0310242 0.0264063 0.0159793 0.0084227 0.0238318 
225 0.334521 0.542043 0.0391597 0.0188959 0.0204473 0.014822 0.0100659 0.00695226 0.00522783 0.0078646 
226 0.297678 0.470687 0.0993055 0.0312283 0.0286193 0.0229004 0.0175022 0.0105389 0.00577606 0.0157638 
227 0.589541 0.40732 0.00174516 0.000398765 0.00029487 0.000253545 0.000137206 0.000101105 8.85518e-05 0.000119997 
228 0.256558 0.732027 0.00504695 0.00158866 0.00139485 0.00109973 0.000723228 0.000547025 0.000303258 0.000711125 
229 0.182949 0.51636 0.0476764 0.0444882 0.0556055 0.0432842 0.0479794 0.020076 0.0133318 0.0282496 
230 0.277075 0.616713 0.0336435 0.024844 0.0123353 0.0103909 0.00884423 0.00535193 0.002821 0.00798195 
231 0.538943 0.426825 0.0100395 0.0205046 0.00112867 0.000926361 0.0005013 0.000369401 0.000323536 0.000438424 
232 0.253279 0.602153 0.081557 0.0191811 0.0124076 0.00992794 0.00758767 0.0045689 0.00250407 0.00683404 
233 0.573228 0.27437 0.0935957 0.0164553 0.00823785 0.0205116 0.00439949 0.00322396 0.00178729 0.0041911 
234 0.655766 0.342138 0.00186422 6.52898e-05 4.64703e-05 3.7532e-05 2.45955e-05 1.7029e-05 1.37531e-05 2.68239e-05 
235 0.594997 0.091861 0.29827 0.00307351 0.0061954 0.00184287 0.0011901 0.000900155 0.000499025 0.00117019 
236 0.308629 0.454796 0.0787464 0.0334441 0.0311079 0.0249625 0.0334447 0.0114569 0.00627832 0.0171346 
237 0.378825 0.485156 0.0475399 0.0273689 0.0163749 0.0123673 0.0102409 0.00833549 0.00386905 0.00992233 
238 0.254247 0.583803 0.050849 0.0259035 0.0241173 0.0192981 0.0147491 0.00888112 0.00486746 0.0132841 
239 0.196773 0.572537 0.0384978 0.0359122 0.0448864 0.0349316 0.0266909 0.0162059 0.0107618 0.0228039 
240 0.297321 0.466116 0.0690554 0.0354678 0.0330222 0.030436 0.0308507 0.0128767 0.00666468 0.0181891 
241 0.460387 0.411544 0.0391458 0.0196245 0.022453 0.0114977 0.0073293 0.00554364 0.00390811 0.0185669 
242 0.31046 0.355008 0.1729 0.0517105 0.0306627 0.0219116 0.0181442 0.0147683 0.00685494 0.0175798 
243 0.263696 0.686247 0.0159456 0.00764832 0.00827631 0.00599938 0.00407431 0.00281401 0.00211602 0.00318329 
244 0.859828 0.137663 0.00157373 0.00026379 0.000187754 0.00015164 9.93729e-05 6.8802e-05 5.55667e-05 0.000108377 
245 0.267417 0.715626 0.0064576 0.00261939 0.00229985 0.00181325 0.00119247 0.000901941 0.000500016 0.00117251 
246 0.385828 0.607245 0.003826 0.000887047 0.000655935 0.000564009 0.000305213 0.000224907 0.000196983 0.000266932 
247 0.308507 0.506303 0.0455925 0.0376676 0.0265596 0.021746 0.0181493 0.0108165 0.0067881 0.0178698 
248 0.584459 0.344031 0.0542387 0.00254587 0.0106352 0.00148053 0.000801185 0.000590382 0.000517079 0.000700696 
249 0.354816 0.514543 0.047986 0.0185325 0.0200541 0.014537 0.00987236 0.00681856 0.00512729 0.00771335 
250 0.296409 0.337176 0.242842 0.060128 0.0170005 0.0128399 0.0106323 0.00865405 0.00401691 0.0103015 
251 0.164549 0.804743 0.0116042 0.00476596 0.00418456 0.0032992 0.00216968 0.00164108 0.000909776 0.00213338 
252 0.282896 0.435828 0.0781677 0.0417342 0.0525699 0.0319689 0.027183 0.0164493 0.00867042 0.0245328 
253 0.373171 0.51807 0.0497951 0.0152753 0.0117064 0.00884154 0.00732135 0.00595915 0.00276603 0.00709359 
254 0.247306 0.466041 0.0765398 0.073306 0.03692 0.0276147 0.0228667 0.0186121 0.00863911 0.0221553 
255 0.330131 0.461061 0.0611746 0.029652 0.0320866 0.0232591 0.0157958 0.0109102 0.0235258 0.0124034 
256 0.248043 0.435808 0.121323 0.0504651 0.038682 0.0292155 0.0241923 0.0196911 0.00913993 0.0234397 
257 0.18068 0.762196 0.0141263 0.00803432 0.010042 0.00781489 0.00597127 0.00362558 0.00240763 0.00510168 
258 0.285937 0.676035 0.0132466 0.00577797 0.00537956 0.0043046 0.00328989 0.001981 0.00108573 0.00296313 
259 0.372566 0.403678 0.0673185 0.0521243 0.0299068 0.0205701 0.0170333 0.0138641 0.00643525 0.0165035 
260 0.341949 0.617249 0.0217673 0.00474916 0.00416951 0.00328733 0.00216188 0.00163517 0.000906503 0.0021257 
261 0.457093 0.417319 0.0374847 0.0238612 0.0129145 0.0309131 0.00646248 0.00488794 0.00270976 0.00635425 
262 0.206233 0.612902 0.0636617 0.0252841 0.0297638 0.0182496 0.0155331 0.0093996 0.00495453 0.0140187 
263 0.457752 0.541047 0.000752226 0.000126786 9.02407e-05 7.28835e-05 4.7762e-05 3.30686e-05 2.67072e-05 5.20895e-05 
264 0.297321 0.466116 0.0690554 0.0354678 0.0330222 0.0264236 0.0201949 0.0121603 0.0066857 0.0335526 
265 0.340197 0.429775 0.0943611 0.0297087 0.0265035 0.0335456 0.0162058 0.00975826 0.0053482 0.0145962 
266 0.340927 0.456814 0.0516727 0.0380033 0.0327541 0.0268424 0.0264333 0.00920953 0.00692517 0.010418 
267 0.429747 0.557112 0.000997066 0.0108708 0.000513929 0.000202812 0.000198317 0.000113709 7.80495e-05 0.000166992 
268 0.280794 0.63406 0.029905 0.0128799 0.0119913 0.00959516 0.00733334 0.00441575 0.00242014 0.00660497 
269 0.450404 0.475328 0.0261034 0.0108436 0.00774647 0.005631 0.00338738 0.00240859 0.00189747 0.0162499 
270 0.368811 0.584089 0.0251842 0.00685838 0.00489948 0.00356149 0.00214244 0.00152338 0.00119994 0.00173091 
271 0.184282 0.748473 0.0212755 0.0103068 0.0111531 0.00808472 0.00549051 0.00379214 0.00285154 0.00428978 
272 0.354252 0.403218 0.0640789 0.0462265 0.031061 0.0262861 0.0341974 0.0134766 0.00710348 0.0200991 
273 0.365574 0.617201 0.00776346 0.00296098 0.00211527 0.00153762 0.000924967 0.000657697 0.000518055 0.000747292 
274 0.155188 0.505805 0.0452806 0.0440411 0.0617884 0.0561983 0.0472695 0.0365797 0.0115986 0.036251 
275 0.311921 0.484828 0.0586838 0.0517898 0.0291232 0.0209978 0.0142601 0.00984904 0.00740609 0.0111415 
276 0.285849 0.531264 0.0634529 0.0512093 0.0182812 0.0138073 0.0114333 0.00930607 0.00431955 0.0110777 
277 0.249811 0.443995 0.0770433 0.0411131 0.0435113 0.0591837 0.0364093 0.0162109 0.00854477 0.0241772 
278 0.225016 0.580858 0.0381204 0.0432056 0.032403 0.0252115 0.0192638 0.0116964 0.00776722 0.0164585 
279 0.364293 0.462486 0.0540884 0.027776 0.0258608 0.0206932 0.0158153 0.00952312 0.00521933 0.0142444 
280 0.289899 0.420656 0.086248 0.0458756 0.0613706 0.0265302 0.021964 0.0178774 0.00829809 0.0212808 
281 0.391953 0.537315 0.0344312 0.00928285 0.0078852 0.00621685 0.00408845 0.00309237 0.00171434 0.00402004 
282 0.544465 0.430297 0.00903794 0.00483632 0.005962 0.00189422 0.00113939 0.000810163 0.000638149 0.000920527 
283 0.291592 0.578561 0.0412276 0.0198699 0.0215013 0.015586 0.0105848 0.00731063 0.0054973 0.00826999 
284 0.229908 0.698202 0.0224506 0.011527 0.0107322 0.00858767 0.00656334 0.0039521 0.00216602 0.00591144 
285 0.820659 0.158834 0.0138437 0.000991714 0.00365434 0.00099918 0.000312658 0.000230393 0.000201787 0.000273442 
286 0.348925 0.501642 0.0467522 0.0510945 0.0150619 0.0118685 0.00780523 0.00590362 0.00327283 0.00767462 
287 0.272193 0.442329 0.0798414 0.0532321 0.0420087 0.0324133 0.0275887 0.0166948 0.00879983 0.0248989 
288 0.242463 0.730007 0.00647104 0.00670064 0.00374135 0.00306324 0.0025566 0.00152366 0.000956204 0.00251723 
289 0.272368 0.654951 0.0274524 0.0112835 0.00990705 0.00781092 0.00513677 0.00388529 0.00215391 0.00505082 
290 0.187944 0.533787 0.0420584 0.0392199 0.0490206 0.0432782 0.0503247 0.0177097 0.011753 0.0249042 
291 0.41044 0.518893 0.0176377 0.0274026 0.00597802 0.00986224 0.00309797 0.00234319 0.00129901 0.00304611 
292 0.213784 0.736694 0.0187559 0.00767542 0.0067391 0.00531324 0.0034942 0.0026429 0.00146516 0.00343573 
293 0.263858 0.543166 0.0626418 0.0359304 0.024715 0.0261648 0.0170858 0.00868593 0.00476049 0.0129922 
294 0.933057 0.0579921 0.0086502 8.48252e-05 6.0302e-05 4.87033e-05 3.19162e-05 2.20976e-05 1.78467e-05 3.4808e-05 
295 0.312402 0.499093 0.0691146 0.0267695 0.0289671 0.0209978 0.0142601 0.00984904 0.00740609 0.0111415 
296 0.320277 0.462223 0.0593495 0.0287668 0.0314365 0.0415695 0.0258626 0.0105841 0.00795878 0.011973 
297 0.356614 0.507775 0.121461 0.00353039 0.00309926 0.00244352 0.00160696 0.00121545 0.000673818 0.00158007 
298 0.175885 0.406819 0.0885191 0.0533723 0.0816206 0.0559146 0.0421196 0.0423596 0.015534 0.0378562 
299 0.410738 0.451572 0.0481476 0.0200769 0.0217253 0.0157484 0.0106951 0.00738678 0.00555456 0.00835613 
300 0.511236 0.314724 0.0464122 0.0287775 0.0237214 0.0304366 0.0148849 0.0112288 0.00521202 0.0133664 
301 0.304853 0.673595 0.00832235 0.00330043 0.00289781 0.00228469 0.00150251 0.00113645 0.00063002 0.00147736 
302 0.483219 0.494812 0.00853841 0.00335069 0.00294194 0.00231949 0.00152539 0.00115375 0.000639614 0.00149986 
303 0.293889 0.487753 0.0742492 0.0430088 0.0286193 0.0229004 0.0175022 0.0105389 0.00577606 0.0157638 
304 0.302831 0.416413 0.115699 0.0396047 0.0432464 0.024152 0.0205383 0.0124284 0.00655099 0.0185359 
305 0.275387 0.422908 0.103382 0.0481732 0.0371637 0.0403751 0.0232036 0.0186121 0.00863911 0.0221553 
306 0.290153 0.598231 0.0349653 0.0178714 0.0166391 0.0133142 0.0101757 0.00612728 0.00335817 0.00916503 
307 0.333257 0.601242 0.0384985 0.00845857 0.00603409 0.00438626 0.00263859 0.00187617 0.00147782 0.00213175 
308 0.394648 0.519341 0.0264073 0.0119713 0.0129542 0.00939033 0.00637985 0.0105357 0.00338941 0.00498254 
309 0.475699 0.42588 0.0292674 0.012158 0.00868992 0.0214623 0.0189353 0.002713 0.00212716 0.00306842 
310 0.679201 0.314658 0.00235042 0.000945682 0.000830318 0.00065464 0.000430517 0.000325629 0.000180521 0.000423313 
311 0.276763 0.715377 0.00528423 0.000806249 0.000575541 0.000418368 0.000251673 0.000178952 0.000140957 0.000203329 
312 0.860687 0.116426 0.0122016 0.00727744 0.00110929 0.000805985 0.000484847 0.00034475 0.000271553 0.000391714 
313 0.266927 0.481012 0.0847943 0.04112 0.0296355 0.024962 0.0257066 0.0198133 0.00685462 0.019175 
314 0.468599 0.434449 0.0296313 0.0291803 0.0203464 0.00627496 0.00374128 0.00266024 0.00209542 0.00302263 
315 0.373626 0.493029 0.041789 0.0213464 0.0198745 0.0159031 0.0121543 0.0073187 0.00401115 0.0109471 
316 0.448401 0.488396 0.0227008 0.00923778 0.0177573 0.00473627 0.00284848 0.00202541 0.00159537 0.00230132 
317 0.213897 0.618257 0.0492224 0.0262667 0.023871 0.0201083 0.0171152 0.010357 0.00545916 0.0154466 
318 0.786574 0.202654 0.00803045 0.00128779 0.000677329 2.06748e-05 0.000733026 1.64498e-05 1.98664e-06 4.25055e-06 
319 0.812603 0.187097 9.31413e-05 8.95803e-05 4.73539e-05 1.86897e-05 1.82755e-05 1.04786e-05 7.19252e-06 1.53889e-05 
320 0.207674 0.56194 0.0760318 0.0341784 0.031061 0.026165 0.0222704 0.0134765 0.00710348 0.0200991 
321 0.362948 0.515694 0.0446302 0.0165195 0.0243924 0.0126634 0.0073293 0.00554364 0.00307327 0.00720665 
322 0.335766 0.358695 0.0805537 0.0758581 0.0411229 0.0363299 0.021661 0.0240621 0.00677689 0.019175 
323 0.192617 0.801843 0.00241699 0.000977376 0.000698221 0.000507545 0.000305318 0.000217096 0.000171002 0.00024667 
324 0.481448 0.294306 0.0934394 0.0623692 0.0203303 0.0151994 0.0116165 0.00699486 0.00383367 0.0104627 
325 0.450107 0.467151 0.0660916 0.00521062 0.00372233 0.00270581 0.0016277 0.00115738 0.000911642 0.00131504 
326 0.531525 0.344453 0.109215 0.00468324 0.00329448 0.00239479 0.00144061 0.00102434 0.000806855 0.00116389 
327 0.55956 0.434987 0.00341022 0.000576117 0.000410054 0.000331183 0.00021703 0.000150264 0.000121358 0.000236695 
328 0.307415 0.469074 0.0906822 0.0401776 0.0263572 0.0209455 0.0160081 0.00963926 0.00528298 0.0144182 
329 0.518499 0.462845 0.0122776 0.00199609 0.00142597 0.00103655 0.000623547 0.000443373 0.000349236 0.000503771 
330 0.481104 0.321361 0.0611322 0.0875256 0.0129697 0.0103601 0.00864661 0.00515313 0.00323395 0.00851346 
331 0.509553 0.384654 0.0816225 0.0060351 0.00529281 0.00417296 0.0027443 0.0020757 0.00115072 0.00269838 
332 0.285238 0.473858 0.0663204 0.0473344 0.0325997 0.0259519 0.0333157 0.0116238 0.00637065 0.0173866 
333 0.280328 0.620234 0.0291924 0.021325 0.0138481 0.0110809 0.00846882 0.00509948 0.00279487 0.00762767 
334 0.579769 0.344454 0.0733243 0.000753048 0.000503512 0.000432947 0.000234289 0.000172644 0.000151209 0.000204903 
335 0.430084 0.482047 0.0527231 0.0110128 0.00785259 0.00570814 0.00343378 0.00244159 0.00192319 0.00277419 
336 0.539392 0.36691 0.0241456 0.0108628 0.0272435 0.00929824 0.00313332 0.00222795 0.00204841 0.0147379 
337 0.421362 0.525116 0.0229958 0.00955269 0.00682427 0.00496065 0.00298412 0.00212186 0.00167134 0.0024109 
338 0.716379 0.266337 0.0095575 0.0022101 0.00163428 0.00140524 0.000760447 0.000560363 0.000490787 0.000665067 
339 0.38751 0.468533 0.0486282 0.0200026 0.0175625 0.0139727 0.0240304 0.0069887 0.0038183 0.00895372 
340 0.265184 0.440558 0.0817755 0.0440123 0.054678 0.0334107 0.0284376 0.0172085 0.0090706 0.025665 
341 0.695552 0.226871 0.0501676 0.00618831 0.00909833 0.00393913 0.00259053 0.00195939 0.00108624 0.00254718 
342 0.314948 0.468478 0.0632964 0.0407696 0.0359434 0.0241906 0.0184883 0.0111327 0.00610147 0.016652 
343 0.361896 0.578573 0.0273305 0.00982154 0.00699955 0.0050733 0.00344539 0.00237963 0.00178939 0.00269191 
344 0.287119 0.427407 0.0793344 0.0423404 0.0384786 0.0324133 0.0275887 0.0203549 0.020065 0.0248991 
345 0.265333 0.721054 0.00588946 0.00241695 0.00172662 0.0012551 0.000755018 0.000536855 0.00042287 0.000609988 
346 0.310171 0.458215 0.0665038 0.0320196 0.0313724 0.0371455 0.0311574 0.0109784 0.00601673 0.0164207 
347 0.8856 0.113723 0.000427875 7.01214e-05 4.99092e-05 4.03095e-05 2.64156e-05 1.82891e-05 1.47709e-05 2.8809e-05 
348 0.301712 0.428426 0.121454 0.0376931 0.027608 0.0298155 0.0168613 0.0137241 0.00637025 0.0163368 
349 0.429357 0.506065 0.0289466 0.00802435 0.00573245 0.00416699 0.00250669 0.00178238 0.00148417 0.0119343 
350 0.515298 0.412873 0.0561815 0.00490521 0.00349536 0.00254082 0.00152845 0.0010868 0.000856054 0.00123485 
351 0.578492 0.234906 0.166444 0.00470062 0.00878083 0.00234099 0.00140824 0.00100132 0.000788724 0.00113773 
352 0.224301 0.7194 0.0212547 0.00874286 0.00767632 0.00605217 0.00398015 0.00301045 0.00166893 0.00391355 
353 0.237375 0.65781 0.0331814 0.0160615 0.0173802 0.0125987 0.00855604 0.00590942 0.00444365 0.00668491 
354 0.443632 0.538279 0.00687768 0.00279697 0.00245577 0.00193618 0.00127331 0.00096309 0.000533915 0.001252 
355 0.227566 0.72851 0.0139723 0.0067156 0.007267 0.00526775 0.00357744 0.00247084 0.00185797 0.00279508 
356 0.384132 0.588064 0.0225913 0.00163209 0.00116512 0.00084694 0.000509484 0.000362268 0.000285351 0.000411618 
357 0.312977 0.68096 0.00335719 0.000773863 0.00057224 0.000492043 0.000266269 0.00019621 0.000171848 0.000232872 
358 0.620053 0.28744 0.075932 0.00446629 0.00353392 0.00278621 0.00183233 0.00138591 0.000768317 0.00180166 
359 0.24858 0.562666 0.0716131 0.0251668 0.0335217 0.0184683 0.0141147 0.00849913 0.00465811 0.0127128 
360 0.297321 0.466116 0.0690554 0.0354678 0.0330222 0.0268432 0.0306946 0.0166256 0.00666468 0.0181891 
361 0.201847 0.564343 0.0343154 0.0313822 0.0602525 0.0410559 0.0233194 0.0141588 0.00940242 0.0199234 
362 0.401043 0.357629 0.0934055 0.0481205 0.0258363 0.0217169 0.0184844 0.0111855 0.00589589 0.0166823 
363 0.281787 0.501796 0.0572882 0.0518754 0.0277211 0.0233515 0.0198757 0.0120274 0.00633967 0.0179379 
364 0.376158 0.446095 0.0855515 0.0419147 0.0146805 0.0115681 0.00760763 0.00575416 0.00318997 0.00748032 
365 0.318786 0.602156 0.0515717 0.0114414 0.00470429 0.00368499 0.0024234 0.00183298 0.00101616 0.00238284 
366 0.255935 0.581806 0.0581746 0.0242675 0.0225941 0.0180793 0.0138175 0.0083202 0.00456004 0.0124451 
367 0.306449 0.522664 0.0840561 0.0194689 0.021067 0.0152711 0.010371 0.00716294 0.00538624 0.00810292 
368 0.232525 0.595422 0.0498445 0.0316553 0.0242641 0.0183261 0.0151752 0.0123517 0.00573323 0.0147031 
369 0.248043 0.46316 0.0794818 0.0649539 0.038682 0.0292155 0.0241923 0.0196911 0.00913993 0.0234397 
370 0.330131 0.461062 0.0611746 0.029652 0.0320866 0.0232591 0.0163244 0.0248002 0.00916919 0.0123414 
371 0.155188 0.505805 0.0453093 0.0591515 0.062 0.0408477 0.0472693 0.0365797 0.0115986 0.036251 
372 0.42834 0.463266 0.0321358 0.0168858 0.0153456 0.0129267 0.0110026 0.00665805 0.00350946 0.00992993 
373 0.413073 0.536324 0.0191049 0.00785817 0.00689955 0.00543975 0.0035774 0.00270582 0.00150005 0.00351753 
374 0.46397 0.412548 0.0406208 0.0192322 0.0205287 0.0180224 0.0103324 0.00516566 0.00286373 0.00671529 
375 0.382076 0.432984 0.131664 0.00816813 0.0251074 0.0126498 0.0023873 0.00169748 0.00133707 0.00192872 
376 0.317357 0.448676 0.0641386 0.0329344 0.0306635 0.024538 0.033002 0.011326 0.00618867 0.0311755 
377 0.205725 0.770459 0.00753576 0.00365034 0.00395006 0.00286334 0.00194456 0.00134305 0.00100992 0.0015193 
378 0.256694 0.666379 0.0230266 0.0119258 0.0150618 0.00850446 0.00649835 0.00391297 0.00214458 0.00585291 
379 0.454386 0.45256 0.0355349 0.0143497 0.0125992 0.00993345 0.00653264 0.00494107 0.00273922 0.00642332 
380 0.487562 0.350933 0.0725224 0.0197148 0.0179032 0.0150812 0.0128364 0.00776772 0.00409437 0.0115849 
381 0.572846 0.329066 0.0387428 0.0218738 0.0109388 0.00862148 0.00566984 0.00428848 0.00237743 0.00557496 
382 0.38087 0.553162 0.0257839 0.00902176 0.00974593 0.00706469 0.00479778 0.0033137 0.00249177 0.00374855 
383 0.668804 0.284486 0.0172986 0.00401218 0.00310312 0.0175209 0.00165903 0.00101727 0.000890968 0.00120735 
384 0.173866 0.779584 0.0176337 0.00721406 0.00633401 0.00499386 0.00328417 0.00248403 0.00137709 0.00322921 
385 0.247846 0.38844 0.129432 0.0844569 0.0702711 0.0233733 0.0198757 0.0120274 0.00633966 0.0179379 
386 0.315884 0.652002 0.013799 0.00573161 0.00409456 0.00297639 0.00179047 0.00127311 0.00100281 0.00144654 
387 0.400551 0.35495 0.104054 0.0683227 0.0181569 0.0226841 0.0110636 0.00664218 0.00364037 0.0099352 
388 0.668804 0.284486 0.0172986 0.00401218 0.00296685 0.00270698 0.0166092 0.00101728 0.000890968 0.00120735 
389 0.443877 0.467322 0.0393451 0.0123381 0.0108329 0.00854091 0.00561685 0.0042484 0.00235521 0.00552285 
390 0.275423 0.661257 0.0483766 0.00456837 0.00587299 0.00157839 0.000949492 0.000675136 0.000531791 0.000767106 
391 0.318175 0.471367 0.0871418 0.0274566 0.0260704 0.018898 0.0128341 0.00891755 0.0190957 0.0100437 
392 0.663734 0.290951 0.0167822 0.0188178 0.00287828 0.0024749 0.0013393 0.000986907 0.000864372 0.00117131 
393 0.382687 0.472898 0.0627094 0.0206047 0.0178327 0.0140597 0.0092462 0.00699352 0.00387704 0.00909147 
394 0.225672 0.40448 0.0788356 0.0482961 0.0697904 0.043469 0.0484381 0.0358433 0.0131442 0.0320322 
395 0.323177 0.539751 0.0612812 0.0172925 0.018295 0.0132618 0.00900636 0.00622045 0.00467753 0.00703674 
396 0.305146 0.445034 0.0750737 0.0669924 0.0321693 0.0222695 0.0188617 0.0114138 0.00601621 0.0170227 
397 0.650539 0.237669 0.0459956 0.00304887 0.0237706 0.00519256 0.0203689 0.000797032 0.0117441 0.000874349 
398 0.51824 0.238678 0.234989 0.00233296 0.00170659 0.00146742 0.000794095 0.000585157 0.000512503 0.000694495 
399 0.270892 0.674591 0.0212352 0.00830297 0.00729009 0.00574766 0.00377989 0.00285898 0.00158496 0.00371664 
400 0.372353 0.34419 0.140181 0.0768224 0.0199905 0.0146798 0.0112194 0.00675572 0.0037026 0.010105 
401 0.349308 0.640406 0.00568204 0.00131713 0.000973965 0.000837468 0.000453196 0.000333954 0.000292489 0.000396353 
402 0.363761 0.501689 0.0600862 0.0334775 0.0119923 0.00942142 0.0061959 0.00468638 0.00259802 0.00609222 
403 0.375215 0.373387 0.225811 0.0126328 0.00421503 0.00306393 0.00184313 0.00131056 0.0010323 0.00148909 
404 0.314867 0.406896 0.0844557 0.0476369 0.0355874 0.0268783 0.0222569 0.0181158 0.00867972 0.0346269 
405 0.174434 0.261448 0.0987666 0.112642 0.10389 0.052374 0.0628677 0.0770041 0.0213875 0.0351858 
406 0.373874 0.530259 0.0299476 0.0153694 0.0143096 0.0114502 0.00875111 0.00526946 0.00288803 0.00788193 
407 0.519792 0.434617 0.0288318 0.00524494 0.00374666 0.00272349 0.00163834 0.00116494 0.0009176 0.00132363 
408 0.193883 0.718888 0.0256365 0.0136385 0.0123945 0.0104408 0.00888675 0.00537765 0.00283456 0.00802032 
409 0.495614 0.500709 0.00112829 0.00110315 0.000583145 0.000230157 0.000225056 0.00012904 8.85731e-05 0.000189508 
410 0.223747 0.490611 0.0668116 0.0551367 0.0388771 0.0319547 0.0365858 0.0201825 0.00993621 0.0261573 
411 0.252089 0.497577 0.0721916 0.0527557 0.0342392 0.0251984 0.0208658 0.0169836 0.00788319 0.0202167 
412 0.470255 0.465396 0.0390449 0.00819891 0.00556543 0.00404557 0.00243365 0.00173045 0.00136304 0.00196617 
413 0.350286 0.50833 0.0811244 0.0151283 0.0131719 0.010385 0.00682958 0.00516566 0.00286373 0.00671529 
414 0.340281 0.454076 0.0602477 0.0293392 0.0465655 0.0229567 0.0155564 0.0107444 0.00807937 0.0121544 
415 0.232033 0.656372 0.0325193 0.0204828 0.0157003 0.0118581 0.00981922 0.00799227 0.00370973 0.00951376 
416 0.599434 0.351619 0.0161371 0.0073564 0.00796042 0.00577039 0.0039188 0.00270661 0.00203526 0.00306179 
417 0.261453 0.661885 0.0242463 0.0117523 0.0127173 0.00921855 0.00626052 0.00432397 0.00325145 0.00489139 
418 0.187318 0.60083 0.0602466 0.0409079 0.0288443 0.0236166 0.0197106 0.0117469 0.00737203 0.019407 
419 0.650127 0.345482 0.00301242 0.00117011 6.21468e-05 4.58956e-05 3.00763e-05 2.08237e-05 1.68179e-05 3.28013e-05 
420 0.542559 0.206945 0.221727 0.00741656 0.00623185 0.00491332 0.0032312 0.00244397 0.00135488 0.00317713 
421 0.554017 0.438516 0.0032145 0.00133072 0.000950645 0.000691035 0.000415698 0.000295582 0.000232824 0.000335847 
422 0.305859 0.49452 0.0572672 0.0401486 0.0225738 0.0200748 0.0308914 0.00953119 0.00499652 0.0141375 
423 0.515577 0.39189 0.0384217 0.0246441 0.00863507 0.00676946 0.00445187 0.00336725 0.00186672 0.00437737 
424 0.321794 0.418583 0.0812657 0.0430372 0.0329513 0.0250614 0.0324174 0.0171363 0.00778586 0.0199672 
425 0.132457 0.704477 0.0228161 0.0221912 0.0311166 0.0205822 0.0238179 0.0184316 0.00584427 0.018266 
426 0.158557 0.543607 0.0449906 0.0551711 0.0674509 0.0408371 0.031202 0.0189449 0.0125807 0.0266581 
427 0.210367 0.603003 0.0441808 0.0497029 0.024167 0.0197869 0.0165142 0.00984202 0.00617656 0.01626 
428 0.269616 0.613338 0.0273529 0.0210194 0.0197546 0.0153403 0.0117214 0.00711688 0.00472608 0.0100144 
429 0.530375 0.286557 0.158099 0.0109026 0.0101509 0.00141726 0.000766947 0.000565152 0.000494982 0.000670752 
430 0.259318 0.423627 0.0830829 0.0678988 0.0404403 0.0321301 0.0372198 0.0222232 0.00955538 0.0245051 
431 0.229865 0.475086 0.069687 0.0567826 0.0400967 0.0476223 0.0273846 0.0163054 0.0102328 0.0269381 
432 0.276379 0.503771 0.0643076 0.0338793 0.0440042 0.0245364 0.0187524 0.0112917 0.00618863 0.0168898 
433 0.296492 0.595569 0.0390609 0.0152517 0.0138606 0.0116758 0.00993787 0.00601372 0.00316983 0.00896897 
434 0.30075 0.40997 0.142493 0.0612898 0.0267389 0.0193826 0.0131631 0.00909142 0.00683639 0.0102845 
435 0.55476 0.369101 0.0261328 0.0144207 0.0232059 0.00434064 0.0026111 0.00185662 0.00146243 0.00210954 
436 0.251351 0.507836 0.0838656 0.0322364 0.0292962 0.0246783 0.021005 0.0127108 0.00670134 0.0303193 
437 0.272931 0.567311 0.0855003 0.0234367 0.0136176 0.0102851 0.00851667 0.00693207 0.00321763 0.00825173 
438 0.751509 0.177294 0.0304236 0.00120835 0.0379146 0.00051749 0.00033911 0.000234787 0.000189621 0.000369835 
439 0.182985 0.671288 0.0423203 0.0267852 0.0205312 0.0155067 0.0128405 0.0104514 0.00485119 0.0124411 
440 0.709425 0.256717 0.024923 0.00279591 0.00199735 0.0014519 0.000873401 0.000621031 0.000489174 0.000705631 
441 0.263898 0.672429 0.010677 0.0099027 0.0123773 0.0096323 0.00735994 0.00446874 0.00296754 0.00628811 
442 0.288446 0.467128 0.0819193 0.0344091 0.0320365 0.0257602 0.0343887 0.0118006 0.00646574 0.0176461 
443 0.689543 0.263788 0.0453552 0.000375857 0.000277875 0.000238932 0.000129298 9.52778e-05 8.3448e-05 0.000113081 
444 0.823885 0.145294 0.0264817 0.00160372 0.000890122 0.000647041 0.000389233 0.000276764 0.000218001 0.000314466 
445 0.493356 0.471534 0.0271819 0.00226864 0.00167691 0.0014419 0.000780285 0.000574981 0.00050359 0.000682417 
446 0.40162 0.567834 0.0197691 0.00684013 0.0012735 0.000964062 0.000521702 0.000384435 0.000336703 0.000456267 
447 0.287061 0.553794 0.0503336 0.0243972 0.0264004 0.0191373 0.0129965 0.00897634 0.00674985 0.0101543 
448 0.271169 0.560471 0.0533833 0.0268071 0.0249586 0.0199713 0.0152636 0.00919092 0.00503726 0.0137475 
449 0.28242 0.513915 0.0604024 0.0303343 0.0282427 0.0231513 0.029877 0.0104008 0.00570006 0.0155564 
450 0.389917 0.605686 0.00243176 0.000562052 0.000415614 0.000357368 0.00019339 0.000142506 0.000124812 0.000169134 
451 0.328116 0.430894 0.0956054 0.0298667 0.0357909 0.0247292 0.0194573 0.0117742 0.0062062 0.0175603 
452 0.280085 0.482573 0.0795441 0.0334125 0.0436821 0.0268103 0.0190242 0.0114554 0.00627832 0.0171346 
453 0.672068 0.190174 0.113258 0.00550028 0.00594196 0.00430725 0.00292514 0.00202032 0.0015192 0.00228544 
454 0.410133 0.421872 0.0865602 0.0265374 0.0157853 0.00950885 0.0078739 0.0064089 0.00312539 0.0121953 
455 0.249811 0.454511 0.0821899 0.0544366 0.0373633 0.0316578 0.0410978 0.016211 0.00854477 0.0241772 
456 0.344049 0.44165 0.0584759 0.0430493 0.0306712 0.022233 0.0151357 0.0250974 0.00784179 0.0117969 
457 0.312338 0.41645 0.110956 0.0400799 0.0310612 0.026165 0.0222704 0.0134765 0.00710348 0.0200991 
458 0.342354 0.484957 0.0458624 0.0425373 0.0235729 0.0269392 0.0113095 0.00779264 0.00585976 0.00881526 
459 0.473872 0.47435 0.0239063 0.00872202 0.00623086 0.00452929 0.00272463 0.00193735 0.00152601 0.00220126 
460 0.330131 0.461062 0.0611746 0.029652 0.0320866 0.0232591 0.0157958 0.0109097 0.00845281 0.0274768 
461 0.310348 0.537192 0.0600473 0.0215467 0.0200602 0.0160517 0.0122679 0.0073871 0.00404864 0.0110494 
462 0.24521 0.482097 0.0608607 0.0539349 0.0573099 0.0293249 0.0241195 0.0143745 0.00902103 0.0237481 
463 0.253485 0.421121 0.078376 0.072965 0.0506461 0.0465712 0.0271831 0.0164493 0.00867042 0.0245328 
464 0.960538 0.0372237 0.00104264 0.000374191 0.000267244 0.000194263 0.00011686 8.30936e-05 6.54511e-05 9.4413e-05 
465 0.570881 0.390174 0.0144365 0.00334349 0.00247237 0.00244752 0.0131267 0.00137028 0.000742473 0.00100613 
466 0.247274 0.497159 0.107055 0.0305056 0.0277211 0.0233515 0.0198757 0.0120274 0.00648137 0.0285489 
467 0.392456 0.518075 0.0574162 0.0100303 0.00716549 0.00520868 0.00313332 0.00222795 0.00175491 0.00253145 
468 0.251691 0.412476 0.110078 0.0645658 0.0392508 0.0318907 0.0370083 0.0199807 0.00927434 0.0237844 
469 0.270106 0.491976 0.0933693 0.0374419 0.0286995 0.021676 0.0179491 0.0146095 0.00678124 0.0173907 
470 0.483601 0.374311 0.0391704 0.0244618 0.0401245 0.0159446 0.00941097 0.00454579 0.00252008 0.00590945 
471 0.376889 0.464002 0.0486282 0.0200513 0.0315174 0.0155982 0.0234941 0.00704744 0.0038183 0.00895372 
472 0.233271 0.622963 0.0448861 0.0230541 0.0214644 0.0171753 0.0131267 0.00790419 0.00433204 0.0118229 
473 0.581291 0.332083 0.0346307 0.0415079 0.00341274 0.00248032 0.00149206 0.00106093 0.000835672 0.00120545 
474 0.497455 0.411055 0.0272283 0.0252559 0.00818229 0.00586893 0.00357455 0.0165508 0.00197738 0.00285234 
475 0.365232 0.426977 0.0606568 0.0311542 0.029006 0.0232099 0.0177387 0.0106813 0.00594682 0.0293977 
476 0.48147 0.394687 0.0743317 0.0104995 0.0143018 0.00780697 0.00596667 0.00359282 0.00196911 0.00537404 
477 0.351173 0.469621 0.178559 0.000186708 0.000128786 0.000104015 6.81628e-05 4.71934e-05 3.81148e-05 7.43387e-05 
478 0.18293 0.501453 0.0476764 0.0444882 0.0616559 0.0512828 0.0470541 0.0218777 0.0133318 0.0282496 
479 0.304019 0.550667 0.0520321 0.0217491 0.0202495 0.0162031 0.0123837 0.00745679 0.00408683 0.0111537 
480 0.233797 0.664905 0.0316652 0.0162353 0.0151158 0.0120953 0.00924414 0.00556633 0.00305074 0.00832598 
481 0.177199 0.701308 0.0394782 0.0212776 0.0162747 0.0122919 0.0101785 0.00828467 0.00384546 0.00986182 
482 0.372274 0.61981 0.00340157 0.00141272 0.00100922 0.000733617 0.000441313 0.000313796 0.000247171 0.000356542 
483 0.330131 0.461062 0.0611746 0.029652 0.0320866 0.0232591 0.0245323 0.0175448 0.00821664 0.0123414 
484 0.424984 0.49934 0.0223038 0.011301 0.0105218 0.00841929 0.00643465 0.00387461 0.0021236 0.0106971 
485 0.182156 0.517153 0.0476764 0.0444882 0.0583146 0.050983 0.0375715 0.020076 0.0133318 0.0282496 
486 0.330131 0.461062 0.0611747 0.0431012 0.0340219 0.0232591 0.0157958 0.0109097 0.00820366 0.0123414 
487 0.263685 0.456863 0.0872719 0.0397555 0.0358065 0.0301624 0.0257098 0.0290995 0.00847656 0.0231698 
488 0.198116 0.522501 0.0811891 0.0534503 0.0433727 0.0319348 0.023501 0.0140059 0.00878972 0.0231392 
489 0.330131 0.461274 0.0763454 0.0296537 0.0320866 0.0232591 0.0157958 0.0109097 0.00820366 0.0123414 
490 0.265184 0.440558 0.0817798 0.0590234 0.0396626 0.0334107 0.0284376 0.0172085 0.0090706 0.025665 
491 0.22978 0.670178 0.0343978 0.0199675 0.0142852 0.0103551 0.00703236 0.00485706 0.00365232 0.00549444 
492 0.48652 0.307507 0.11649 0.024674 0.0183457 0.0146798 0.0112194 0.00675572 0.0037026 0.010105 
493 0.392111 0.436894 0.0587472 0.0237671 0.0221283 0.0177065 0.0135326 0.00814865 0.00446622 0.0224976 
494 0.328816 0.613734 0.0216956 0.00892008 0.00783192 0.00617485 0.00406083 0.00307148 0.00170276 0.00399287 
495 0.668804 0.284486 0.0172986 0.00401218 0.00296685 0.00255106 0.0013805 0.00101727 0.00216317 0.0153197 
496 0.243176 0.461765 0.0844017 0.077334 0.0347037 0.0289559 0.0246459 0.014914 0.00786118 0.022243 
497 0.380473 0.610848 0.00374771 0.00154313 0.00110238 0.000801335 0.00048205 0.000342761 0.000269986 0.000389454 
498 0.184143 0.778657 0.0140927 0.00576494 0.00506168 0.00399073 0.00262447 0.00198506 0.00110047 0.00258055 
499 0.401114 0.457077 0.0479024 0.0197041 0.0173004 0.01364 0.00897019 0.00725403 0.017817 0.00922049 
500 0.407473 0.420463 0.0618409 0.0303331 0.0217332 0.0157484 0.0106951 0.00738678 0.00863415 0.0156932 
501 0.37143 0.602611 0.00951 0.00813153 0.00271113 0.00196554 0.00118239 0.000840735 0.00066223 0.000955264 
502 0.27968 0.669407 0.019226 0.00790522 0.00694086 0.00547232 0.00359882 0.00272203 0.00150903 0.0035386 
503 0.265184 0.440558 0.0817755 0.0436432 0.0396625 0.0334107 0.0287235 0.0316328 0.00974509 0.025665 
504 0.693597 0.302314 0.00233979 0.00050056 0.000370144 0.00031827 0.000172232 0.000126915 0.000111157 0.000150629 
505 0.27824 0.536042 0.054538 0.027776 0.0258608 0.0206932 0.0158153 0.00952312 0.00529103 0.0262209 
506 0.411615 0.461699 0.0427958 0.0176023 0.015455 0.012185 0.00809922 0.0193074 0.00336126 0.00787927 
507 0.103898 0.849481 0.0143892 0.00757089 0.00708352 0.00551202 0.00421167 0.0025572 0.00169815 0.00359833 
508 0.161175 0.685324 0.0456456 0.027183 0.0262986 0.0156882 0.0130934 0.00780331 0.00489713 0.0128918 
509 0.640269 0.302089 0.0327679 0.0172162 0.00226876 0.00195081 0.00105568 0.000777915 0.000681328 0.00092327 
510 0.489656 0.402834 0.0623924 0.0110051 0.0190681 0.00527462 0.00317299 0.00225615 0.00177712 0.00256349 
511 0.383706 0.476449 0.0522612 0.0297979 0.0175179 0.0127225 0.00972346 0.00585496 0.00320892 0.0087577 
512 0.401124 0.444364 0.0536978 0.0306047 0.0198745 0.0159031 0.0121543 0.0073187 0.00401115 0.0109471 
513 0.244395 0.735083 0.00777142 0.00318114 0.00279307 0.00220211 0.0014482 0.00109537 0.000607248 0.00142396 
514 0.297321 0.466116 0.0690554 0.0354678 0.0330222 0.0264236 0.0201949 0.0121603 0.00703197 0.0332064 
515 0.145377 0.763816 0.0223647 0.0184681 0.013022 0.0106619 0.00889845 0.00530322 0.00332815 0.00876143 
516 0.277259 0.528794 0.0739149 0.0310954 0.0238309 0.0179989 0.0149042 0.0121311 0.00563085 0.0144405 
517 0.318253 0.452246 0.0669941 0.0344091 0.0320365 0.0256348 0.019592 0.0117973 0.0064866 0.0325505 
518 0.382687 0.471141 0.0493763 0.0203103 0.0178327 0.0140597 0.00946555 0.0214313 0.00460451 0.00909147 
519 0.454346 0.539579 0.00261388 0.0010829 0.000773602 0.00056234 0.000338281 0.000240534 0.000189464 0.000273301 
520 0.268929 0.666503 0.024479 0.0100013 0.00878125 0.00692331 0.00455305 0.00344378 0.00190915 0.00447686 
521 0.180047 0.50898 0.0616076 0.0439057 0.0547878 0.0426371 0.0326199 0.0344452 0.0131358 0.0278341 
522 0.363581 0.507265 0.0372234 0.0338984 0.0150292 0.0126261 0.0107468 0.00650321 0.00342784 0.009699 
523 0.263383 0.52293 0.0960978 0.0377908 0.029925 0.0157582 0.0120428 0.00725155 0.00397435 0.0108467 
524 0.294533 0.46812 0.0703868 0.0421527 0.0315306 0.0270616 0.031347 0.0114554 0.00627832 0.0171346 
525 0.404565 0.486049 0.0376802 0.0219373 0.0155656 0.0112824 0.00766213 0.00529202 0.00397939 0.00598648 
526 0.338351 0.556687 0.0343681 0.0184426 0.0139741 0.0105543 0.00873962 0.00711354 0.00330186 0.00846775 
527 0.233236 0.468188 0.069799 0.0576429 0.0406443 0.0334077 0.0427957 0.0165525 0.0103879 0.0273463 
528 0.248063 0.649229 0.0328204 0.0156697 0.0169563 0.0122914 0.00834736 0.00576529 0.00433527 0.00652186 
529 0.333104 0.41623 0.0700367 0.0501056 0.0437165 0.0239985 0.0198722 0.0161748 0.0075078 0.019254 
530 0.307009 0.433778 0.0868678 0.0446421 0.0342187 0.0258445 0.0214009 0.017419 0.00808532 0.0207351 
531 0.244797 0.457402 0.102424 0.0480189 0.0488189 0.0272415 0.0225577 0.0183606 0.00852236 0.0218559 
532 0.155188 0.505805 0.0452806 0.0445807 0.0765823 0.0408649 0.0472693 0.0365797 0.0115986 0.036251 
533 0.365804 0.509169 0.0472072 0.0194143 0.0170459 0.0134394 0.00883827 0.00668498 0.003706 0.00869037 
534 0.638026 0.312778 0.0360393 0.00364588 0.00512583 0.00153762 0.000924967 0.000657697 0.000518055 0.000747292 
535 0.218573 0.630682 0.0419953 0.0302094 0.0202998 0.0170999 0.0145547 0.0088075 0.00464243 0.0131356 
536 0.734137 0.264093 0.000984882 0.000224821 0.000166246 0.000142947 7.73558e-05 5.70024e-05 4.99249e-05 6.76534e-05 
537 0.319714 0.460609 0.0641348 0.0329344 0.0306635 0.0245362 0.0192885 0.0242683 0.00696165 0.0168898 
538 0.646458 0.302609 0.0152758 0.00626895 0.0065176 0.0090148 0.00197301 0.00832394 0.00197711 0.00158216 
539 0.269905 0.457783 0.0955705 0.0437581 0.0641674 0.0217454 0.016616 0.0100053 0.0054836 0.0149657 
540 0.494113 0.454976 0.00124282 0.0206545 0.0163449 0.000241958 0.0120003 0.000135112 9.27412e-05 0.000198426 
541 0.316971 0.4491 0.0565188 0.0271462 0.0293751 0.0284543 0.0359582 0.0235832 0.00804237 0.024851 
542 0.564733 0.370209 0.0555025 0.0036431 0.00192362 0.0013983 0.000841161 0.000598107 0.000471117 0.000679584 
543 0.374303 0.414373 0.0612008 0.0309589 0.0387676 0.0236057 0.0200918 0.0121582 0.00640857 0.0181329 
544 0.369539 0.627366 0.000954552 0.000926227 0.000489622 0.000193245 0.000188962 0.000108345 7.43679e-05 0.000159115 
545 0.473838 0.489511 0.0138415 0.0056904 0.00499623 0.00393913 0.00259053 0.00195939 0.00108624 0.00254718 
546 0.211113 0.389734 0.0701813 0.0500762 0.0836399 0.0615793 0.0420892 0.0405179 0.0148587 0.0362103 
547 0.302926 0.69218 0.00270822 0.000625401 0.000462458 0.000397647 0.000215187 0.000158568 0.00013888 0.000188197 
548 0.303025 0.409449 0.0766568 0.0483571 0.0564934 0.031378 0.0264063 0.0159793 0.0084227 0.0238318 
549 0.356679 0.593219 0.0158545 0.0076788 0.00830928 0.00602328 0.00409054 0.00282522 0.00212446 0.00319597 
550 0.500549 0.386519 0.0361776 0.0239225 0.0131151 0.0191194 0.00693946 0.00478504 0.00265271 0.00622048 
551 0.545987 0.380174 0.0231315 0.0118226 0.0110074 0.00880786 0.00673163 0.00405343 0.00222156 0.00606302 
552 0.641249 0.295934 0.0148002 0.0365091 0.00239022 0.00474209 0.00220364 0.00074265 0.00058497 0.000843817 
553 0.319989 0.51268 0.0543715 0.0202924 0.0249656 0.0160949 0.0132032 0.00798966 0.00421139 0.0262016 
554 0.292817 0.474176 0.068046 0.0426859 0.0399097 0.0260232 0.0198889 0.0119761 0.0065637 0.0179135 
555 0.205394 0.586011 0.0338325 0.0310774 0.0483687 0.02989 0.0228386 0.0138669 0.00920856 0.0195126 
556 0.223754 0.753002 0.00894259 0.00356803 0.00313277 0.00246994 0.00162433 0.00122859 0.000681102 0.00159715 
557 0.411879 0.443579 0.0575012 0.0314407 0.0165392 0.0126927 0.00834726 0.00631359 0.00350011 0.00820758 
558 0.155188 0.505805 0.0452806 0.0440411 0.0617545 0.0408477 0.0502066 0.049025 0.0116007 0.036251 
559 0.168052 0.516332 0.0476785 0.0587531 0.0562639 0.0432735 0.0330648 0.0217148 0.0240551 0.0308128 
560 0.282629 0.408555 0.0827971 0.0590254 0.0502072 0.0283926 0.0248358 0.0318959 0.00888249 0.0227794 
561 0.319047 0.404213 0.0761962 0.061254 0.0330052 0.0275348 0.0357893 0.0143808 0.00746315 0.0211168 
562 0.448593 0.507681 0.0161303 0.00579023 0.00509911 0.00836082 0.00265412 0.00199377 0.0011053 0.00259187 
563 0.470351 0.453315 0.026832 0.0111448 0.00796165 0.00578742 0.00348147 0.00250646 0.0123669 0.0062537 
564 0.596568 0.402288 0.000353891 0.000342091 0.000180836 7.13727e-05 6.9791e-05 4.00159e-05 2.74669e-05 5.87673e-05 
565 0.391251 0.580871 0.0124506 0.00384891 0.00337937 0.00266437 0.00175219 0.0013253 0.000734717 0.00172287 
566 0.369639 0.494628 0.0458514 0.0188804 0.0308238 0.0130554 0.00858575 0.00649398 0.00360011 0.00844208 
567 0.443006 0.556738 8.0388e-05 7.58148e-05 4.00772e-05 1.58177e-05 1.54672e-05 8.86839e-06 6.08726e-06 1.30241e-05 
568 0.281102 0.411167 0.0806282 0.0512071 0.0404579 0.0431439 0.024648 0.0345865 0.00927446 0.0237844 
569 0.367208 0.366232 0.0964634 0.0439516 0.0296329 0.024962 0.0212465 0.0128569 0.00680332 0.0306428 
570 0.347645 0.450172 0.0558992 0.0403259 0.0265736 0.0334408 0.0162406 0.00975826 0.0053482 0.0145962 
571 0.200146 0.647841 0.0313981 0.0190845 0.0267603 0.0177007 0.0204834 0.0158512 0.00502607 0.0157088 
572 0.25342 0.593632 0.0477567 0.0245256 0.0228345 0.0182716 0.0139645 0.00840872 0.00460856 0.0125775 
573 0.320276 0.477148 0.0593494 0.0287668 0.0365021 0.0321109 0.0153302 0.010584 0.00795878 0.011973 
574 0.2621 0.579711 0.0709517 0.0175216 0.0189603 0.013744 0.00933386 0.00648731 0.0135613 0.00762916 
575 0.402359 0.542018 0.0202934 0.022 0.00389177 0.0030667 0.00201679 0.00152543 0.000845664 0.00198304 
576 0.675286 0.311157 0.00502374 0.00516677 0.00132137 0.000740262 0.000400593 0.000295191 0.00025854 0.000350348 
577 0.315171 0.419947 0.0694159 0.0567205 0.0337867 0.0257082 0.033596 0.0171998 0.00798297 0.0204726 
578 0.601497 0.374669 0.012034 0.00161022 0.0073628 0.00102364 0.000553906 0.000408165 0.000357487 0.000484432 
579 0.21361 0.749747 0.0138349 0.0056904 0.00499623 0.00393913 0.00259053 0.00195939 0.00108624 0.00254718 
580 0.208124 0.555087 0.0570356 0.0459292 0.0432012 0.026147 0.0218224 0.0130055 0.00816189 0.0214864 
581 0.498813 0.468474 0.0118812 0.0103459 0.00341215 0.00248032 0.00149206 0.00106093 0.000835672 0.00120545 
582 0.2663 0.58826 0.0455611 0.023287 0.0216812 0.0173488 0.0132593 0.00798403 0.0043758 0.0119423 
583 0.270373 0.417304 0.0818316 0.0519713 0.0398366 0.0300876 0.0292073 0.0457161 0.00953341 0.0241394 
584 0.475699 0.44103 0.0292688 0.012158 0.00868544 0.00631355 0.00381484 0.0177123 0.0022501 0.00306842 
585 0.100869 0.863446 0.0064094 0.00463215 0.00649521 0.00429628 0.00497169 0.00384738 0.00121992 0.0038128 
586 0.254197 0.504737 0.0750557 0.0400241 0.0421626 0.0231812 0.019187 0.0156171 0.00724891 0.0185901 
587 0.36986 0.535036 0.0285984 0.0213406 0.011458 0.0081946 0.00678564 0.00552311 0.00258339 0.0106198 
588 0.246628 0.469713 0.0937699 0.0390491 0.0431841 0.027851 0.023698 0.0143404 0.0083881 0.0333788 
589 0.25154 0.526987 0.0518181 0.0427464 0.0301407 0.0248874 0.0316225 0.0122753 0.00770335 0.0202793 
590 0.278497 0.479391 0.0672837 0.0366099 0.04457 0.0275108 0.023398 0.0141589 0.00746315 0.0211168 
591 0.667316 0.261435 0.0613867 0.00308663 0.00220477 0.00160267 0.0009641 0.000685523 0.000539973 0.000778908 
592 0.31788 0.584653 0.0308301 0.0149409 0.0161677 0.0117197 0.00795911 0.00549714 0.00413363 0.00621852 
593 0.718142 0.183506 0.0874596 0.00535259 0.00180264 0.00131036 0.000788258 0.00056049 0.000441487 0.000636843 
594 0.483525 0.434446 0.0288326 0.0119765 0.00855581 0.00621964 0.0152178 0.00610873 0.00209542 0.00302263 
595 0.482682 0.451668 0.0205002 0.010527 0.00980111 0.00784262 0.00599391 0.00360922 0.0019781 0.00539858 
596 0.278148 0.461769 0.0868601 0.0527466 0.0326233 0.0242876 0.0201117 0.0163697 0.00759825 0.019486 
597 0.313029 0.421321 0.0738252 0.0394001 0.0358064 0.0301624 0.0258326 0.0292637 0.00818962 0.0231698 
598 0.395832 0.491084 0.0330259 0.0189571 0.0211301 0.012629 0.00965196 0.00581191 0.00318533 0.0086933 
599 0.269585 0.675493 0.0187051 0.0132581 0.0067016 0.00528253 0.003474 0.00262762 0.00145669 0.00341587 
600 0.330131 0.461062 0.0611746 0.029652 0.0320866 0.0241678 0.0302388 0.0109426 0.00820366 0.0123414 
601 0.35457 0.501042 0.0423018 0.020504 0.0235821 0.0252998 0.01095 0.00754394 0.00567275 0.00853392 
602 0.396783 0.566537 0.0138705 0.0056904 0.00499623 0.00393913 0.00259053 0.00195939 0.00108624 0.00254718 
603 0.309278 0.418245 0.0606442 0.0500583 0.0352964 0.0289009 0.0371881 0.0145921 0.0220489 0.0237481 
604 0.383125 0.445742 0.152181 0.00937802 0.00311543 0.00226464 0.00136231 0.000968673 0.000763005 0.00110063 
605 0.600385 0.248241 0.109431 0.0112018 0.00912201 0.00718114 0.00374008 0.00596152 0.00189093 0.00284464 
606 0.25515 0.436164 0.104857 0.04945 0.0433011 0.0367536 0.0235255 0.0191364 0.00888246 0.0227794 
607 0.362494 0.326753 0.281785 0.00726651 0.00633401 0.00499387 0.00328417 0.00248404 0.00137709 0.00322921 
608 0.517208 0.481314 0.000930054 0.000154538 0.000109993 8.88365e-05 5.82163e-05 4.03068e-05 3.2553e-05 6.3491e-05 
609 0.766633 0.210006 0.0182962 0.00144885 0.00107136 0.000921215 0.000498515 0.000367349 0.000321738 0.000435989 
610 0.449367 0.549749 0.00027579 0.000263217 0.000139142 5.49168e-05 5.36997e-05 3.07897e-05 2.11341e-05 4.52177e-05 
611 0.36467 0.451368 0.054284 0.0260952 0.0413332 0.0207452 0.0138747 0.00958285 0.00720592 0.0108404 
612 0.395059 0.450512 0.047198 0.0194144 0.0317257 0.0144452 0.0225384 0.00671091 0.003706 0.00869037 
613 0.93415 0.0598158 0.00558589 0.000126564 9.00821e-05 7.27554e-05 4.7678e-05 3.30105e-05 2.66603e-05 5.19979e-05 
614 0.438538 0.547119 0.00792226 0.00183656 0.00135806 0.00116774 0.000631921 0.000465654 0.000407837 0.000552662 
615 0.382687 0.471141 0.0493763 0.0203103 0.0178327 0.0140597 0.00924619 0.0083173 0.0179378 0.00909149 
616 0.366843 0.496098 0.0592401 0.0194143 0.0170459 0.0134394 0.00883827 0.00668498 0.003706 0.00869037 
617 0.213645 0.584968 0.0583765 0.0370434 0.0283942 0.0214454 0.0177582 0.0144541 0.00670909 0.0172057 
618 0.320276 0.4699 0.081511 0.0287786 0.0311288 0.0225648 0.0153243 0.010584 0.00795878 0.011973 
619 0.249811 0.472989 0.0772721 0.0505046 0.0422273 0.0314738 0.026789 0.0162109 0.00854477 0.0241772 
620 0.392223 0.596577 0.00619015 0.00143292 0.00105959 0.000911092 0.000493037 0.000363312 0.000318203 0.000431198 
621 0.358329 0.475031 0.0531351 0.0472196 0.0287864 0.0121851 0.00801337 0.00606105 0.0033601 0.00787927 
622 0.287496 0.606278 0.0386233 0.0234744 0.0128792 0.0101542 0.00667781 0.00505087 0.00280009 0.00656606 
623 0.263096 0.707645 0.00936046 0.00446152 0.00482785 0.00349964 0.00237668 0.00164151 0.00123435 0.00185692 
624 0.665884 0.280266 0.0156259 0.0277855 0.00433166 0.00221092 0.00119644 0.000881637 0.000772172 0.00104637 
625 0.474645 0.463657 0.0208421 0.00857291 0.0140198 0.00593434 0.00390261 0.00295181 0.00163641 0.00383731 
626 0.262291 0.537845 0.0629823 0.0334168 0.0302319 0.0215019 0.0183014 0.0110748 0.00583751 0.0165171 
627 0.406169 0.514791 0.0326668 0.0167112 0.00867341 0.00681998 0.00448509 0.00339238 0.00188066 0.00441004 
628 0.267688 0.383931 0.186133 0.0422371 0.0321573 0.0242876 0.0201116 0.0163697 0.00759825 0.019486 
629 0.288446 0.467128 0.0670139 0.0493146 0.0320365 0.0256348 0.0196671 0.0266476 0.00646575 0.0176461 
630 0.330191 0.45538 0.0587691 0.037237 0.0469228 0.0263346 0.0150989 0.0104284 0.00784174 0.0117969 
631 0.392828 0.452743 0.0472112 0.0340778 0.0170751 0.0140705 0.0228619 0.0067361 0.003706 0.00869037 
632 0.272522 0.495109 0.0649328 0.0327024 0.0452635 0.0360897 0.0194944 0.0111327 0.00610147 0.016652 
633 0.297321 0.466116 0.0690554 0.0354742 0.0467941 0.02803 0.0201949 0.0121603 0.00666468 0.0181891 
634 0.30335 0.580782 0.0391403 0.0282806 0.0141494 0.0111448 0.0073293 0.00554364 0.00307327 0.00720665 
635 0.402634 0.463157 0.102912 0.0191467 0.00395341 0.00287375 0.00172873 0.00122921 0.000968226 0.00139666 
636 0.281733 0.468079 0.067516 0.0665702 0.0300958 0.0252522 0.0214935 0.0130064 0.00685568 0.019398 
637 0.547739 0.380698 0.018626 0.0222127 0.0208879 0.00361191 0.0020215 0.00143739 0.0011322 0.00163319 
638 0.466084 0.434711 0.0291599 0.0141315 0.0224488 0.0110463 0.00749434 0.00517614 0.00389225 0.00585539 
639 0.583223 0.32091 0.0701439 0.0129561 0.00415391 0.00301952 0.00181642 0.00129156 0.00101734 0.00146751 
640 0.221948 0.44517 0.155373 0.0485583 0.043165 0.0237162 0.0196384 0.0159845 0.00741947 0.0190275 
641 0.25818 0.656109 0.0253436 0.0178741 0.0122926 0.00954185 0.0072926 0.00439122 0.00240669 0.00656827 
642 0.152837 0.498141 0.0445945 0.0433738 0.0608229 0.0487685 0.0531609 0.0364295 0.025721 0.0361512 
643 0.502353 0.198774 0.2362 0.0169191 0.0119223 0.00976152 0.00814703 0.00485539 0.0030471 0.00802158 
644 0.228599 0.571338 0.0687801 0.0405771 0.0244173 0.0183261 0.0151752 0.0123517 0.00573323 0.0147031 
645 0.341124 0.542713 0.0474397 0.0171451 0.0150536 0.0118685 0.00780523 0.00590362 0.00327283 0.00767462 
646 0.319098 0.587465 0.0375734 0.0130249 0.0121268 0.00970358 0.0074162 0.00446565 0.00244748 0.0066796 
647 0.225841 0.485057 0.0890725 0.0500916 0.0327137 0.0269004 0.0406348 0.0192778 0.0084003 0.0220104 
648 0.19388 0.552061 0.0371019 0.0417133 0.0477945 0.0301716 0.0349149 0.0270191 0.00856716 0.0267763 
649 0.243419 0.493486 0.0789432 0.0378241 0.0351051 0.0414985 0.0247057 0.014914 0.00786118 0.022243 
650 0.196372 0.535191 0.0487206 0.0298256 0.0418129 0.0307836 0.0399263 0.0345195 0.00987614 0.0329728 
651 0.67811 0.206858 0.0627234 0.0148227 0.00940249 0.0118452 0.00573218 0.00345161 0.00189172 0.00516283 
652 0.264328 0.426816 0.0798755 0.0772903 0.0466996 0.0267377 0.032044 0.0177534 0.00798297 0.0204726 
653 0.261091 0.437005 0.0830715 0.0527588 0.0404402 0.0305435 0.0255865 0.0353636 0.00963489 0.0245051 
654 0.494054 0.444911 0.0551103 0.00169796 0.00125224 0.00107674 0.00058268 0.000429369 0.000376058 0.000509597 
655 0.382687 0.471141 0.0493763 0.0203103 0.0178327 0.0140597 0.00924619 0.00699351 0.00478754 0.0235656 
656 0.316037 0.487025 0.0672606 0.0260456 0.0281842 0.0204303 0.0138747 0.00958285 0.00720598 0.0243538 
657 0.430923 0.488496 0.0317563 0.0109921 0.00785259 0.00571234 0.0161776 0.00339214 0.00192319 0.00277419 
658 0.33026 0.441957 0.0719918 0.0360154 0.0522691 0.0223417 0.0150989 0.0104284 0.00784174 0.0117969 
659 0.387851 0.47132 0.0392433 0.0319871 0.0181639 0.0148402 0.0123857 0.00738151 0.00463242 0.012195 
660 0.405151 0.457151 0.0465139 0.0191329 0.0167989 0.0132446 0.00871018 0.00658809 0.00366736 0.0230421 
661 0.316956 0.558138 0.0467587 0.0175223 0.0189603 0.013744 0.00933386 0.00644664 0.00484762 0.00729263 
662 0.557294 0.421026 0.00263318 0.0120769 0.000311173 0.000243536 0.00604191 0.000110489 8.92335e-05 0.00017404 
663 0.632017 0.285966 0.0769232 0.00145706 0.00107735 0.000926361 0.0005013 0.000369401 0.000323536 0.000438424 
664 0.460209 0.535848 0.00121003 0.00118289 0.0006253 0.000246795 0.000241325 0.000138368 9.49759e-05 0.000203207 
665 0.276976 0.509759 0.0588761 0.0429261 0.0278777 0.0352834 0.017056 0.0102652 0.00562603 0.0153544 
666 0.499482 0.433635 0.0285418 0.00864535 0.00616386 0.00448058 0.00269533 0.00191652 0.0015096 0.01293 
667 0.279929 0.421966 0.0609236 0.0786758 0.0476883 0.0461912 0.0192553 0.0108165 0.00678841 0.0277665 
668 0.371264 0.501147 0.0486083 0.0197041 0.0173004 0.01364 0.00897019 0.00678475 0.00376131 0.00882008 
669 0.33158 0.506215 0.0642845 0.0196672 0.022156 0.024757 0.0104768 0.00723603 0.00544121 0.0081856 
670 0.457144 0.49586 0.0170447 0.00674317 0.0132204 0.00350165 0.00210644 0.00149778 0.00117977 0.00170182 
671 0.483017 0.432432 0.0349076 0.0225397 0.00881907 0.00641068 0.0038564 0.00274209 0.00215989 0.00311563 
672 0.265184 0.440558 0.0817755 0.0436601 0.0550151 0.0334258 0.0284376 0.0172085 0.0090706 0.025665 
673 0.553939 0.329171 0.0493536 0.0122435 0.0107326 0.00846183 0.00556484 0.00424379 0.0115199 0.014769 
674 0.480589 0.487413 0.0138122 0.00569096 0.00406552 0.00295528 0.00177777 0.00126408 0.000995694 0.00143628 
675 0.470871 0.447765 0.0433323 0.0189179 0.00633482 0.00448058 0.00269533 0.00191651 0.0015096 0.00217759 
676 0.313616 0.460195 0.0660724 0.0339031 0.0319118 0.0395895 0.0193317 0.0116238 0.00637065 0.0173866 
677 0.525244 0.398241 0.0223465 0.0114697 0.0106788 0.00854494 0.00863057 0.00660516 0.00235775 0.00588203 
678 0.276317 0.433883 0.0805365 0.0429819 0.0390616 0.0329044 0.0283029 0.0246033 0.016133 0.0252762 
679 0.236824 0.460065 0.0708137 0.058847 0.056324 0.0338028 0.0282013 0.0168071 0.0105477 0.027767 
680 0.483017 0.432432 0.0297177 0.012345 0.00881906 0.00641068 0.00427184 0.0177072 0.00216394 0.00311563 
681 0.338814 0.525203 0.0494197 0.0191677 0.0174194 0.0146736 0.0124895 0.00755779 0.00398371 0.0112718 
682 0.373564 0.481134 0.0656599 0.0169801 0.0270607 0.011569 0.00760763 0.00575416 0.00318997 0.00748032 
683 0.288406 0.392422 0.189479 0.033042 0.0321208 0.0178396 0.0147723 0.0120238 0.00558102 0.0143127 
684 0.502939 0.396096 0.0500828 0.0126947 0.0111454 0.00878728 0.00577887 0.00437095 0.00242315 0.00568217 
685 0.224143 0.480107 0.0752678 0.0657554 0.036749 0.0300869 0.0251107 0.0167117 0.0200068 0.0260612 
686 0.302896 0.525394 0.0532227 0.0349776 0.0262197 0.018898 0.0128341 0.00886413 0.00666548 0.0100274 
687 0.320276 0.462224 0.0891991 0.0287668 0.0311288 0.0225648 0.0153243 0.010584 0.00795878 0.011973 
688 0.26819 0.445202 0.0982047 0.0417185 0.0379127 0.0319367 0.027183 0.0164493 0.00867042 0.0245328 
689 0.265681 0.438324 0.0809185 0.0559929 0.0503111 0.0319373 0.027183 0.0164493 0.00867042 0.0245328 
690 0.306751 0.5008 0.0563493 0.0288176 0.0268305 0.0224284 0.0268844 0.010945 0.00541505 0.0147786 
691 0.473292 0.421188 0.0536401 0.0129429 0.011364 0.00895958 0.00589218 0.00445665 0.00247067 0.00579358 
692 0.305099 0.351208 0.168196 0.0535576 0.0385714 0.0246621 0.020769 0.012568 0.00662459 0.0187441 
693 0.337563 0.455135 0.0660203 0.0256984 0.0278545 0.033445 0.0136898 0.00945508 0.00710998 0.024029 
694 0.262401 0.433977 0.0828246 0.044077 0.0362588 0.047247 0.0222436 0.0171986 0.0081798 0.045592 
695 0.239654 0.543162 0.0675742 0.0363191 0.0284774 0.0229557 0.0267277 0.0123235 0.00595544 0.0168508 
696 0.41408 0.520475 0.0323291 0.0117502 0.00672308 0.00483017 0.00328027 0.00226559 0.00170364 0.0025629 
697 0.259318 0.423627 0.0830714 0.0527588 0.046526 0.0362158 0.043829 0.0205941 0.00955538 0.0245051 
698 0.399291 0.523609 0.0339763 0.0108346 0.00942378 0.0074299 0.0048862 0.00369576 0.00204884 0.00480443 
699 0.340891 0.640407 0.00806286 0.00332957 0.00237858 0.00172902 0.00104011 0.000739568 0.000582543 0.000840315 
700 0.300024 0.377961 0.133761 0.0338476 0.0535687 0.0267327 0.0220053 0.0252208 0.00701895 0.0198599 
701 0.412505 0.4651 0.0635978 0.0146689 0.0128792 0.0101542 0.00667781 0.00505087 0.00280009 0.00656606 
702 0.302038 0.454793 0.0788521 0.0424325 0.0397009 0.02413 0.0205383 0.0124284 0.00655099 0.0185359 
703 0.330131 0.461062 0.0611746 0.029652 0.0320866 0.0232591 0.0157958 0.0109097 0.00821517 0.0277141 
704 0.292809 0.447391 0.0681899 0.0486373 0.033956 0.0278018 0.0232036 0.0138287 0.00869229 0.0354907 
705 0.383491 0.472552 0.0486282 0.0200026 0.0175625 0.0138466 0.0091061 0.00688755 0.00383337 0.0240902 
706 0.375139 0.485123 0.0472127 0.0194143 0.0170459 0.0134394 0.00883827 0.00668498 0.00370616 0.0233961 
707 0.540375 0.424266 0.0247575 0.00303246 0.00224238 0.00192812 0.0010434 0.00076887 0.000673406 0.000912534 
708 0.307962 0.459059 0.0680091 0.0349304 0.0325219 0.0260232 0.0198889 0.0119761 0.00775669 0.031872 
709 0.259318 0.423632 0.0982174 0.0527588 0.0404402 0.0305435 0.0265502 0.0325168 0.0115179 0.0245051 
710 0.350581 0.452716 0.0576283 0.027933 0.0302265 0.0219108 0.0148801 0.0102773 0.00948608 0.0243607 
711 0.201354 0.631443 0.0619507 0.0284249 0.0200188 0.0163906 0.0136797 0.00815271 0.00511641 0.0134691 
712 0.292816 0.459054 0.0684981 0.04931 0.0345675 0.0394076 0.0198934 0.0119761 0.0065637 0.0179135 
713 0.320468 0.449794 0.0725323 0.052154 0.0285704 0.0207102 0.0140647 0.00971412 0.00735976 0.0246324 
714 0.188814 0.721354 0.0284309 0.013767 0.0148974 0.0107989 0.00733375 0.00506522 0.00380884 0.00572992 
715 0.717652 0.25163 0.0161745 0.00602501 0.00499435 0.00127553 0.000690252 0.000508637 0.000445484 0.000603677 
716 0.276385 0.59913 0.0329314 0.0247041 0.017419 0.014262 0.0119031 0.00709392 0.00445194 0.0117198 
717 0.265184 0.440558 0.0817755 0.0436432 0.0397318 0.0485556 0.028608 0.0172085 0.0090706 0.025665 
718 0.297321 0.466116 0.0690554 0.0354678 0.0344692 0.0400462 0.0205099 0.0121603 0.00666468 0.0181891 
719 0.662208 0.31291 0.0138769 0.0034439 0.00246025 0.00178839 0.00107582 0.000764961 0.000602544 0.000869168 
720 0.359366 0.507103 0.0528911 0.0161965 0.0175263 0.0127046 0.00862794 0.00595908 0.00456121 0.0150642 
721 0.320292 0.477108 0.059374 0.0287668 0.0311288 0.0286816 0.0241155 0.0106014 0.00795878 0.011973 
722 0.394389 0.451182 0.047198 0.0194143 0.0174176 0.0234373 0.0132178 0.0213435 0.00371013 0.00869037 
723 0.421491 0.54003 0.0226502 0.0049533 0.00353851 0.00257219 0.00154732 0.00110022 0.000866622 0.0012501 
724 0.50881 0.41573 0.0354132 0.00901606 0.0140402 0.00831855 0.00281647 0.00200265 0.00157745 0.00227546 
725 0.36757 0.533047 0.03137 0.0191121 0.0149261 0.0107346 0.00820417 0.00494012 0.00270753 0.00738931 
726 0.267118 0.574266 0.0443083 0.0266959 0.0259526 0.0243533 0.0141718 0.00760018 0.00416543 0.0113682 
727 0.305756 0.38618 0.150069 0.0388556 0.0290115 0.0219118 0.0290136 0.0147683 0.00685494 0.0175798 
728 0.581426 0.386244 0.0208106 0.0036191 0.00257058 0.00186858 0.00112406 0.000799264 0.000629564 0.000908144 
729 0.171918 0.678688 0.0411924 0.0274689 0.0194226 0.0217045 0.0147793 0.00822465 0.00433521 0.0122664 
730 0.761831 0.21344 0.00799145 0.000991213 0.0139851 0.000552597 0.000361717 0.000250439 0.000202263 0.000394491 
731 0.309664 0.461115 0.172778 0.0167585 0.0106337 0.00803136 0.00665047 0.00541309 0.00251257 0.00644358 
732 0.687231 0.27913 0.010644 0.00536142 0.00499173 0.00399426 0.00305271 0.00183818 0.00100745 0.00274951 
733 0.195021 0.661468 0.0467982 0.0250509 0.0192018 0.0145027 0.0120091 0.00977472 0.00453709 0.0116355 
734 0.358847 0.601372 0.0159446 0.00594672 0.00522128 0.00411656 0.00270722 0.00204765 0.00113517 0.00266192 
735 0.389426 0.480911 0.039442 0.0199775 0.0181554 0.0152936 0.0130172 0.00787713 0.00415203 0.0117481 
736 0.772128 0.0706289 0.154766 0.000731336 0.000488159 0.000394265 0.00025837 0.000178885 0.000144473 0.000281779 
737 0.320276 0.477149 0.0593486 0.0287735 0.0460474 0.0225649 0.0153243 0.010584 0.00795878 0.011973 
738 0.662265 0.293733 0.0162958 0.00418688 0.0168803 0.00240319 0.00130047 0.000958301 0.000839317 0.00113736 
739 0.284254 0.392547 0.141537 0.0470552 0.0360683 0.0272415 0.0225577 0.0183606 0.00852236 0.0218559 
740 0.533909 0.379583 0.029841 0.0182819 0.00638409 0.0138646 0.00261458 0.00182668 0.0116287 0.0020665 
741 0.230794 0.491912 0.075843 0.057128 0.0444791 0.0312867 0.0232036 0.0138287 0.00867846 0.0228463 
742 0.338051 0.45063 0.0634993 0.0558396 0.030161 0.0171079 0.0141463 0.0115143 0.00534453 0.0137063 
743 0.289779 0.445866 0.0667205 0.0602263 0.0357886 0.036309 0.0231058 0.0139819 0.00736986 0.0208528 
744 0.415619 0.526742 0.0247648 0.0102875 0.00734922 0.00534223 0.00321367 0.00228507 0.00179991 0.00259636 
745 0.26059 0.529332 0.0704889 0.042377 0.0275185 0.0220197 0.0168291 0.0101336 0.0055539 0.0151575 
746 0.407564 0.427011 0.052758 0.0314493 0.032407 0.0161377 0.0109226 0.00754394 0.00567275 0.00853392 
747 0.304137 0.463054 0.0675867 0.0456233 0.0313874 0.0214454 0.0183424 0.0239804 0.00723682 0.0172057 
748 0.462594 0.44461 0.0418795 0.011972 0.0219661 0.00595279 0.00358094 0.00254623 0.00200561 0.00289309 
749 0.259136 0.484931 0.171907 0.0208379 0.017887 0.0143128 0.0109389 0.00658683 0.00361004 0.00985241 
750 0.494507 0.499333 0.00437941 0.00050936 0.00037665 0.000323865 0.000175259 0.000129146 0.000113111 0.000153277 
751 0.281097 0.411172 0.0806282 0.0512071 0.0418741 0.0417277 0.0245481 0.0199807 0.0112894 0.0364752 
752 0.24835 0.699573 0.045243 0.00218544 0.0015125 0.00109946 0.000661388 0.000470279 0.00037043 0.000534343 
753 0.406821 0.587649 0.00239097 0.000982161 0.000701639 0.00051003 0.000306813 0.000218159 0.000171839 0.000247878 
754 0.37354 0.530903 0.0404356 0.0137518 0.0120742 0.00951955 0.00626044 0.00473519 0.00262508 0.00615568 
755 0.330295 0.468984 0.0597598 0.0428908 0.0306711 0.022233 0.0150989 0.0104284 0.00784174 0.0117969 
756 0.345358 0.526357 0.0506839 0.0186193 0.0255 0.0108798 0.00715479 0.00541165 0.00300009 0.00703506 
757 0.297321 0.466116 0.0690554 0.0354678 0.0330222 0.0264236 0.0209068 0.0267984 0.00669932 0.0181891 
758 0.370752 0.432322 0.0549424 0.0518646 0.0281844 0.0204303 0.0138747 0.00958285 0.00720592 0.0108404 
759 0.241038 0.439813 0.0762921 0.0914587 0.0394528 0.0322992 0.0269571 0.0160656 0.0100823 0.026542 
760 0.484002 0.305648 0.175537 0.00742285 0.0118521 0.00504913 0.00332046 0.00251148 0.00139231 0.00326489 
761 0.396687 0.48643 0.0364932 0.0187432 0.0174508 0.0139637 0.0106721 0.00642617 0.00352199 0.0096121 
762 0.186709 0.681245 0.0220314 0.0205566 0.0256936 0.0199953 0.0152782 0.00927648 0.00616021 0.0130533 
763 0.36112 0.351705 0.21628 0.0309934 0.0172209 0.00736998 0.0048468 0.00366595 0.00203232 0.00476569 
764 0.247637 0.524567 0.151702 0.0174195 0.0151651 0.0127747 0.0108732 0.00657972 0.00346817 0.0098131 
765 0.309663 0.463046 0.0911499 0.029973 0.0382167 0.0214692 0.0164083 0.00988024 0.00541505 0.0147786 
766 0.61188 0.29435 0.0318752 0.0104651 0.0112579 0.0183619 0.00561528 0.00391869 0.00675327 0.00552249 
767 0.325129 0.469226 0.0602492 0.0292027 0.0316004 0.0235232 0.030084 0.0107519 0.00807937 0.0121544 
768 0.327982 0.400407 0.127618 0.054646 0.0253927 0.0202063 0.0154431 0.00929905 0.00509652 0.0139093 
769 0.240989 0.471498 0.0888387 0.0500881 0.0484245 0.0288993 0.0241195 0.0143745 0.00902103 0.0237481 
770 0.303186 0.478041 0.0584219 0.0519276 0.028027 0.0236054 0.0200918 0.0121582 0.00640857 0.0181329 
771 0.297228 0.611344 0.0309302 0.012694 0.0111454 0.00878728 0.00577887 0.00437095 0.00242349 0.0152972 
772 0.349123 0.551337 0.0342594 0.0131115 0.0209907 0.0102846 0.00698452 0.00482402 0.00362747 0.00545707 
773 0.64801 0.284352 0.0238301 0.0296128 0.00483742 0.00328106 0.00197375 0.00140343 0.00110546 0.00159461 
774 0.437789 0.37592 0.0700089 0.0249787 0.0228345 0.0182716 0.0139645 0.00840872 0.00460995 0.0232144 
775 0.443218 0.482202 0.0261827 0.0101552 0.00894455 0.0146628 0.00465421 0.00349676 0.00193852 0.00454573 
776 0.494381 0.415399 0.0268285 0.0115093 0.0353724 0.00578994 0.00348147 0.0024755 0.0019499 0.00281272 
777 0.236824 0.460065 0.0708137 0.0585297 0.0412696 0.0337899 0.0282013 0.0168071 0.0143026 0.0393966 
778 0.37249 0.253787 0.269146 0.0283187 0.0198705 0.0162692 0.0135784 0.00809232 0.00507851 0.0133693 
779 0.289758 0.399151 0.0658571 0.146754 0.0278814 0.0223056 0.0170476 0.0102652 0.00562603 0.0153544 
780 0.278394 0.552565 0.0576385 0.0246679 0.0224179 0.0188843 0.0160734 0.00972654 0.00512686 0.0145063 
781 0.314304 0.42329 0.058618 0.0608152 0.033956 0.0281415 0.035522 0.0138287 0.00867846 0.0228463 
782 0.53818 0.45969 0.00118052 0.000271658 0.00020088 0.000172728 9.34717e-05 6.88779e-05 6.0326e-05 8.17479e-05 
783 0.382687 0.471141 0.0493764 0.0356875 0.0178401 0.0140597 0.0092462 0.00699352 0.00387704 0.00909147 
784 0.318296 0.452203 0.0669941 0.0344091 0.0320365 0.0256348 0.019592 0.0123028 0.0208753 0.0176564 
785 0.261477 0.479747 0.0733613 0.0560522 0.0346631 0.0261801 0.0216788 0.0176453 0.00819032 0.0210044 
786 0.320423 0.61855 0.0217892 0.00914845 0.00851764 0.00681561 0.005209 0.00313659 0.00171907 0.00469162 
787 0.312825 0.567674 0.073167 0.0157938 0.0100114 0.00667064 0.00438688 0.00331809 0.00183947 0.00431347 
788 0.424728 0.416313 0.0618164 0.0308549 0.015455 0.0127805 0.0204317 0.00638058 0.00336011 0.00787927 
789 0.304632 0.665589 0.0162796 0.00336808 0.00295695 0.00233132 0.00153317 0.00115964 0.000642877 0.00150751 
790 0.302061 0.477393 0.133477 0.030952 0.0169823 0.0114905 0.00978013 0.00591827 0.00311952 0.0088266 
791 0.307527 0.459495 0.0707261 0.0473597 0.0325271 0.0260232 0.0198889 0.0119761 0.0065637 0.0179135 
792 0.269882 0.483702 0.0729002 0.0503605 0.0299894 0.0226502 0.024188 0.0210699 0.00708605 0.0181724 
793 0.170569 0.524184 0.0484031 0.0598971 0.0568604 0.0439291 0.0335658 0.0203802 0.0135338 0.0286776 
794 0.888654 0.0726706 0.0323671 0.000362111 0.000257571 0.00020824 0.00516122 9.44074e-05 7.62297e-05 0.000148677 
795 0.527647 0.467449 0.00306706 0.000518091 0.000368753 0.000297826 0.000195171 0.000135129 0.000109135 0.000212855 
796 0.268293 0.730642 0.000346799 0.000310697 0.00016424 6.48227e-05 6.33861e-05 3.63435e-05 2.49462e-05 5.33741e-05 
797 0.279056 0.550406 0.0694144 0.0286376 0.0226699 0.0164331 0.0111601 0.00770794 0.00579607 0.00871945 
798 0.579803 0.3614 0.0474013 0.0032599 0.00241056 0.00207273 0.00112166 0.000826535 0.000723911 0.000980975 
799 0.43381 0.545771 0.00154486 0.00151046 0.00079846 0.000315138 0.000308154 0.000176686 0.00192108 0.0138443 
800 0.239599 0.681645 0.0297585 0.0122238 0.0107326 0.00846183 0.00556484 0.00420906 0.00233341 0.00547172 
801 0.340428 0.343111 0.170978 0.0505958 0.0338061 0.019299 0.0147491 0.00888112 0.00486746 0.0132841 
802 0.339342 0.472152 0.0557036 0.0401815 0.0289671 0.0209978 0.0142601 0.00984904 0.00740609 0.0111415 
803 0.297321 0.466116 0.0690554 0.0354678 0.0330836 0.0365447 0.025397 0.0121603 0.00666468 0.0181891 
804 0.357185 0.597332 0.0171855 0.00705975 0.00619853 0.00488704 0.00321392 0.0024309 0.00134764 0.00316014 
805 0.356748 0.640106 0.000965566 0.00094404 0.000499038 0.000196961 0.000192596 0.000110428 7.57981e-05 0.000162175 
806 0.361071 0.579879 0.0386918 0.00637596 0.00454952 0.0033071 0.00198941 0.00141457 0.00111423 0.00160727 
807 0.188057 0.651336 0.0472315 0.0251045 0.0228147 0.0192185 0.0163579 0.00989869 0.0052176 0.0147631 
808 0.641517 0.303934 0.0152016 0.00352422 0.00749319 0.0108671 0.00136166 0.0141828 0.000857855 0.00106051 
809 0.257394 0.442201 0.0793399 0.0433989 0.0524228 0.0465971 0.0282529 0.0166948 0.00879983 0.0248989 
810 0.677334 0.267361 0.0291183 0.00363603 0.0162766 0.00227176 0.00122922 0.000905792 0.000793327 0.00107504 
811 0.257737 0.739615 0.00242199 6.38994e-05 4.54807e-05 3.67328e-05 2.40717e-05 1.66663e-05 1.34603e-05 2.62527e-05 
812 0.263307 0.430144 0.0843495 0.0535705 0.0410624 0.0310134 0.0257098 0.0362585 0.0097026 0.0248821 
813 0.325129 0.454076 0.0602477 0.0292027 0.0467519 0.0229067 0.0155564 0.0133558 0.0206131 0.0121607 
814 0.306014 0.405208 0.0794596 0.0504649 0.038682 0.0292155 0.0241923 0.0196911 0.0091431 0.0379293 
815 0.38055 0.465023 0.0618664 0.0194503 0.0170459 0.0208742 0.0161093 0.00668499 0.003706 0.00869037 
816 0.733083 0.221748 0.0298577 0.000880715 0.0128201 0.000504851 0.000330839 0.00022906 0.000184996 0.000360815 
817 0.360403 0.565387 0.0447114 0.0074347 0.00643958 0.0050771 0.0033389 0.00252544 0.00140004 0.00328303 
818 0.257675 0.468682 0.0639307 0.056566 0.0438972 0.034027 0.0254595 0.0151731 0.0095222 0.0250674 
819 0.475699 0.456183 0.0292674 0.012158 0.00868544 0.00631355 0.00379797 0.00270054 0.00212716 0.00306842 
820 0.243664 0.633265 0.0357788 0.0226109 0.0173315 0.0130901 0.0108394 0.00882263 0.00409516 0.0105022 
821 0.283525 0.487325 0.0901034 0.0492415 0.0241128 0.018161 0.0150384 0.0122404 0.00568158 0.0145706 
822 0.616116 0.248909 0.0941436 0.0120865 0.00898979 0.00651657 0.00442554 0.0030566 0.00229844 0.00345771 
823 0.315819 0.462841 0.0976231 0.0289348 0.0268305 0.0214692 0.0164083 0.00988024 0.00541505 0.0147786 
824 0.483017 0.432432 0.0297177 0.012345 0.011099 0.0195154 0.0038564 0.00274209 0.00215989 0.00311563 
825 0.204672 0.742502 0.0167078 0.00809823 0.00876315 0.00635228 0.00431397 0.00297954 0.0022405 0.00337054 
826 0.259345 0.427253 0.155478 0.0622845 0.0372717 0.0188084 0.0139645 0.00840872 0.00460856 0.0125775 
827 0.830531 0.145401 0.0119608 0.00948845 0.000732239 0.000591398 0.000387554 0.000268328 0.00021671 0.000422669 
828 0.340225 0.503271 0.0508794 0.0366886 0.0167865 0.0127294 0.0167369 0.0085452 0.00396638 0.0101719 
829 0.578716 0.29049 0.0557042 0.0158995 0.0148031 0.0118451 0.00905288 0.00545117 0.00403312 0.0140048 
830 0.380507 0.450359 0.0619036 0.0194146 0.0322955 0.0276012 0.00883837 0.00668498 0.003706 0.00869037 
831 0.37764 0.490684 0.0530295 0.0165022 0.026989 0.0114235 0.00751253 0.00568223 0.0031501 0.00738682 
832 0.313304 0.441889 0.0898108 0.0468542 0.0315775 0.0241906 0.0184883 0.0111327 0.00610147 0.016652 
833 0.382572 0.428451 0.0641808 0.0252068 0.0400689 0.0196343 0.0133341 0.00920949 0.00692517 0.010418 
834 0.209013 0.619742 0.0738323 0.0252326 0.019341 0.0146078 0.0120961 0.00984555 0.00456996 0.0117198 
835 0.154546 0.528983 0.0784157 0.0376668 0.0528163 0.0349355 0.0404277 0.0312853 0.00991988 0.0310041 
836 0.656274 0.213531 0.116219 0.0050113 0.00261653 0.00206293 0.00135666 0.00102614 0.000568866 0.00133396 
837 0.170569 0.514153 0.0584297 0.0451623 0.056448 0.0439291 0.0335658 0.0203802 0.0175318 0.0398311 
838 0.192681 0.277859 0.135877 0.0800803 0.0984158 0.0208097 0.0734685 0.0391803 0.0332533 0.0483749 
839 0.307218 0.538486 0.0500095 0.0202286 0.0275956 0.0150708 0.0115146 0.0069335 0.00380009 0.0191428 
840 0.332636 0.471884 0.0843731 0.025909 0.0241173 0.0192981 0.0147491 0.00888111 0.00486746 0.0132841 
841 0.401797 0.339843 0.0786703 0.0322514 0.0305275 0.0358532 0.0373111 0.0180894 0.00669988 0.0189571 
842 0.383677 0.482882 0.0347972 0.0241215 0.022338 0.0319863 0.00639501 0.00483594 0.00268093 0.00628665 
843 0.482654 0.420394 0.0398622 0.0158959 0.0228976 0.00677702 0.00374128 0.00266024 0.00209542 0.00302263 
844 0.457389 0.538248 0.00133903 0.00130907 0.000691999 0.000273119 0.000267067 0.000153127 0.000105107 0.000224883 
845 0.481579 0.499727 0.00141431 0.00138282 0.000730985 0.000288506 0.000294985 0.0135994 0.000745027 0.000237552 
846 0.330268 0.467964 0.0606481 0.0283758 0.0451343 0.0224437 0.0150989 0.0104284 0.00784174 0.0117969 
847 0.289841 0.502183 0.0761364 0.0307389 0.0286193 0.0229004 0.0175022 0.0105389 0.00577606 0.0157638 
848 0.207407 0.187232 0.11245 0.100196 0.129831 0.0254341 0.0897948 0.0478871 0.0406429 0.0591249 
849 0.297321 0.466116 0.0690554 0.0354678 0.0330222 0.0287509 0.0325614 0.0128511 0.00666468 0.0181891 
850 0.178413 0.655376 0.033773 0.0232869 0.0369179 0.0226515 0.0173074 0.0105085 0.00697836 0.0147869 
851 0.28608 0.560556 0.0485331 0.0235046 0.0254345 0.0184371 0.012521 0.00864794 0.0065029 0.00978279 
852 0.33415 0.40203 0.138899 0.0321332 0.0353099 0.0183345 0.0138175 0.0083202 0.00456005 0.0124451 
853 0.24114 0.422065 0.104916 0.0788754 0.0502612 0.0284337 0.0235108 0.0191364 0.00888246 0.0227794 
854 0.367147 0.422279 0.0561926 0.0518042 0.0411987 0.0204289 0.0136897 0.00945508 0.00710984 0.0106959 
855 0.60555 0.376951 0.00756064 0.00311018 0.00222186 0.00161509 0.000971574 0.000690837 0.000544158 0.000784946 
856 0.297321 0.466116 0.0690554 0.0354678 0.0330222 0.0264236 0.0201949 0.0136678 0.0205072 0.0182237 
857 0.300671 0.496058 0.0610251 0.0460769 0.0250485 0.0208817 0.0177735 0.0107553 0.00566912 0.0160407 
858 0.494886 0.380065 0.0533452 0.0199458 0.00626194 0.0350186 0.0048129 0.00193735 0.00152601 0.00220126 
859 0.572653 0.421689 0.00359868 0.000580763 0.000413361 0.000333853 0.000218781 0.000151475 0.000122336 0.000238603 
860 0.307712 0.579254 0.048171 0.01361 0.0119497 0.00942142 0.0061959 0.0065536 0.0102181 0.00691415 
861 0.236824 0.460065 0.0708137 0.0585297 0.0412696 0.0337899 0.0323195 0.0280735 0.0105477 0.027767 
862 0.254699 0.572815 0.0612246 0.0310684 0.026916 0.0185237 0.0122679 0.0073871 0.00404864 0.0110494 
863 0.260122 0.593671 0.0462518 0.0224114 0.0242515 0.0175796 0.0119387 0.00824571 0.00620044 0.00932778 
864 0.304065 0.48292 0.0820389 0.0390169 0.0262004 0.0218532 0.0155331 0.0093996 0.00495453 0.0140187 
865 0.25518 0.720338 0.00863374 0.00332841 0.00475519 0.00298233 0.00151386 0.00114503 0.00063478 0.00148853 
866 0.170263 0.598047 0.0584336 0.0335991 0.0429724 0.0228889 0.0264871 0.0204973 0.00649923 0.0203131 
867 0.381191 0.534507 0.0318682 0.0159934 0.0113969 0.00826144 0.00561052 0.00387503 0.00291387 0.00438355 
868 0.315566 0.440749 0.0731536 0.02852 0.0452001 0.0234334 0.0432708 0.0104685 0.00784174 0.0117969 
869 0.250749 0.456107 0.0784938 0.0555982 0.0373633 0.0314738 0.026789 0.0179337 0.0213146 0.0241773 
870 0.173193 0.516864 0.0491433 0.0460447 0.0714745 0.045644 0.0340822 0.0206937 0.013742 0.0291188 
871 0.305932 0.364358 0.142677 0.109827 0.0257102 0.016987 0.0115362 0.00796776 0.00599144 0.00901336 
872 0.557749 0.393568 0.0187865 0.0074586 0.00654873 0.00516315 0.0033955 0.00256824 0.00142377 0.00333867 
873 0.236824 0.460065 0.0708137 0.0595501 0.0554904 0.0339333 0.0282013 0.0168071 0.0105477 0.027767 
874 0.4442 0.471876 0.029735 0.0114901 0.0106788 0.00854494 0.00653068 0.00393243 0.00215534 0.0108571 
875 0.741224 0.0848229 0.0729966 0.0957677 0.00385212 0.000468723 0.000281964 0.00020049 0.000157922 0.000227802 
876 0.19652 0.717107 0.0281668 0.0213244 0.011561 0.00835273 0.00567251 0.00391785 0.00294607 0.00443198 
877 0.746189 0.221108 0.0173934 0.0130732 0.000625082 0.000504852 0.000330839 0.00022906 0.000184996 0.000360815 
878 0.300573 0.454523 0.0774676 0.0324706 0.0302692 0.038216 0.0189603 0.0237745 0.00709366 0.016652 
879 0.335162 0.413988 0.0720549 0.0557295 0.04789 0.0207842 0.0172089 0.0140071 0.0065016 0.0166736 
880 0.20517 0.510451 0.046915 0.0592683 0.0596615 0.0371708 0.0284018 0.0172447 0.0114517 0.0242657 
881 0.191036 0.406819 0.0733714 0.0521461 0.0726852 0.0660597 0.0421323 0.0423596 0.015534 0.0378562 
882 0.34441 0.598468 0.0216069 0.00886022 0.00777936 0.00613341 0.00403357 0.00305086 0.00169133 0.00396608 
883 0.173193 0.516864 0.0491433 0.0458571 0.0573165 0.0446243 0.0494474 0.0206937 0.013742 0.0291188 
884 0.286114 0.506247 0.053024 0.0259813 0.0664642 0.0212192 0.0136897 0.00945508 0.00710984 0.0106959 
885 0.757437 0.148412 0.090161 0.00142938 0.000833196 0.00060566 0.00036434 0.000259064 0.000204059 0.000294355 
886 0.483017 0.447817 0.0297177 0.012345 0.00881906 0.00641068 0.0038564 0.00274209 0.00215989 0.00311563 
887 0.483017 0.447817 0.0297177 0.012345 0.00881906 0.00641068 0.0038564 0.00274209 0.00215989 0.00311563 
888 0.382687 0.471141 0.0493825 0.0356888 0.0178327 0.0140597 0.00924619 0.00699351 0.00387704 0.00909147 
889 0.483017 0.432432 0.0297195 0.0277271 0.00881972 0.00641068 0.0038564 0.00274209 0.00215989 0.00311563 
890 0.515781 0.424073 0.0297173 0.0145403 0.00893576 0.00264126 0.00140037 0.000995731 0.000784317 0.00113137 
891 0.865714 0.0936553 0.00645935 0.0313935 0.000776629 0.00062724 0.000411043 0.00028459 0.000229844 0.000448285 
892 0.317191 0.420629 0.0721853 0.0589304 0.0351192 0.0265246 0.021964 0.0178774 0.00829809 0.0212808 
893 0.468599 0.434449 0.0295933 0.0404525 0.00916791 0.00621932 0.00374128 0.00266024 0.00209542 0.00302263 
894 0.293192 0.415116 0.0770349 0.0411572 0.0504881 0.0327977 0.026789 0.0162109 0.00855666 0.0386581 
895 0.228144 0.534357 0.0793338 0.0350223 0.031828 0.026811 0.0228203 0.0138093 0.00727887 0.0205954 
896 0.185783 0.539501 0.0416623 0.0505088 0.0494842 0.0506391 0.0287721 0.0174687 0.0116004 0.0245808 
897 0.382687 0.485734 0.0501679 0.0203103 0.0178327 0.0140597 0.0092462 0.00699352 0.00387704 0.00909147 
898 0.295256 0.435361 0.0770271 0.0368417 0.0334814 0.0312063 0.0347411 0.024033 0.0103868 0.0216653 
899 0.53281 0.391441 0.0276703 0.0189816 0.00605956 0.00440392 0.0131443 0.00187914 0.00147782 0.00213175 
900 0.465923 0.512457 0.00780638 0.00311025 0.00609775 0.00161509 0.000971574 0.000690837 0.000544158 0.000784946 
901 0.288446 0.496975 0.0669976 0.0344091 0.0320365 0.0256348 0.019592 0.0117973 0.00646574 0.0176461 
902 0.192703 0.413845 0.069184 0.0635016 0.0823519 0.0484239 0.0397128 0.039939 0.0146464 0.035693 
903 0.263307 0.430144 0.0843495 0.0535705 0.0410624 0.0326356 0.0394434 0.0209029 0.00970238 0.0248821 
904 0.320276 0.44945 0.0870478 0.0287669 0.0313199 0.0330591 0.0195643 0.010584 0.00795878 0.011973 
905 0.820577 0.16533 0.00886162 0.0034486 0.000528364 0.000454298 0.000245843 0.000181158 0.000158665 0.000215008 
906 0.408475 0.488561 0.0408316 0.0213918 0.0120422 0.00932528 0.00613268 0.00463856 0.00257151 0.00603006 
907 0.317715 0.424481 0.0655955 0.0481644 0.0537647 0.0265627 0.022542 0.0136409 0.00719011 0.0203442 
908 0.258406 0.469345 0.0431682 0.0402799 0.0532511 0.0497858 0.0299392 0.0181769 0.0120707 0.0255773 
909 0.284664 0.404667 0.111982 0.0541418 0.0459761 0.0272725 0.0225577 0.0183606 0.00852236 0.0218559 
910 0.227689 0.48478 0.0639303 0.0803105 0.0375633 0.0305048 0.0254595 0.0151731 0.0095222 0.0250674 
911 0.31365 0.465841 0.13333 0.0301802 0.0178273 0.0129217 0.00877543 0.00606095 0.00455759 0.00685631 
912 0.281093 0.683244 0.00482295 0.027743 0.00104046 0.000720924 0.000433678 0.000308367 0.000242894 0.000350374 
913 0.397351 0.543693 0.0224614 0.00910464 0.00799396 0.0063026 0.00414485 0.00313502 0.00173799 0.00407549 
914 0.276702 0.539497 0.0637015 0.0247017 0.0310798 0.0188844 0.0160734 0.00972654 0.00512686 0.0145063 
915 0.386189 0.477658 0.0571722 0.0197041 0.0173004 0.01364 0.00897019 0.00678475 0.00376131 0.00882008 
916 0.636615 0.341928 0.0151697 0.00179857 0.00132997 0.00114358 0.000618847 0.000456019 0.000399399 0.000541227 
917 0.554127 0.303638 0.0399437 0.0353484 0.0173026 0.0145751 0.0124057 0.00750706 0.00395697 0.0111962 
918 0.389299 0.534152 0.040267 0.0182026 0.00595227 0.00425198 0.00255782 0.00181873 0.00143258 0.00206649 
919 0.275004 0.659988 0.0212568 0.0102009 0.00949754 0.00759971 0.00580826 0.00349743 0.00191683 0.00523137 
920 0.387617 0.483988 0.0433715 0.0178782 0.0291389 0.0123501 0.00812166 0.00614295 0.00340551 0.00798575 
921 0.472796 0.504474 0.0147909 0.00248429 0.00177473 0.00129008 0.000776056 0.000551814 0.000434653 0.000626985 
922 0.279947 0.440438 0.0739004 0.0398854 0.0499947 0.0432589 0.0256805 0.0155354 0.00818873 0.0231698 
923 0.270066 0.536386 0.0614594 0.0256247 0.0460472 0.0190991 0.0145852 0.00878244 0.00481338 0.0131365 
924 0.408989 0.470234 0.0462453 0.018594 0.0163257 0.0128715 0.00846483 0.00640251 0.00354941 0.00832317 
925 0.441511 0.523835 0.0149297 0.00617251 0.00440953 0.00320534 0.0019282 0.00137105 0.00107994 0.00155782 
926 0.226151 0.551748 0.0903306 0.0355563 0.0250703 0.0205266 0.0171316 0.0102099 0.00640746 0.0168678 
927 0.483017 0.432432 0.0297177 0.012345 0.00881906 0.00641068 0.00391578 0.012195 0.00803219 0.00311563 
928 0.150556 0.520517 0.0439686 0.0427264 0.0599111 0.0396284 0.0463362 0.0499353 0.0112524 0.0351689 
929 0.653988 0.286658 0.031241 0.00383518 0.00305404 0.0169263 0.0013196 0.000972394 0.00085166 0.00115409 
930 0.84158 0.0974157 0.0442669 0.0142934 0.000683423 0.000551971 0.000361717 0.000250439 0.000202263 0.000394491 
931 0.294634 0.451447 0.0397597 0.0358123 0.0441103 0.0291769 0.0349133 0.0359678 0.00828485 0.0258936 
932 0.451159 0.481957 0.0216105 0.0161067 0.00825942 0.0066059 0.00504872 0.00304007 0.00166617 0.00454726 
933 0.271751 0.518724 0.0662966 0.0277968 0.0347493 0.0238321 0.0158153 0.00952312 0.0052372 0.0262748 
934 0.297321 0.473247 0.077309 0.0354678 0.0330222 0.0264236 0.0201949 0.0121603 0.00666468 0.0181891 
935 0.398353 0.438819 0.094519 0.0180018 0.0134801 0.0101812 0.00843064 0.00686205 0.00318513 0.00816838 
936 0.173193 0.516864 0.0491433 0.0467818 0.071775 0.0446064 0.0340822 0.0206937 0.013742 0.0291188 
