1 0 100 2 1
1 1 100 2 0.62574
2 1 100 2 0.37426
1 2 100 2 0.535765
2 2 100 2 0.464235
1 3 100 2 6.09044e-05
2 3 100 2 0.999939
1 4 100 2 0.409325
2 4 100 2 0.590675
1 0 100 3 0.000130793
2 0 100 3 0.926939
3 0 100 3 0.0729299
1 1 100 3 0.647591
2 1 100 3 0.277709
3 1 100 3 0.0746993
1 2 100 3 0.0980098
2 2 100 3 0.542902
3 2 100 3 0.359088
1 3 100 3 0.343787
2 3 100 3 0.291047
3 3 100 3 0.365166
1 4 100 3 0.216672
2 4 100 3 0.334633
3 4 100 3 0.448695
1 5 100 3 0.211397
2 5 100 3 0.186917
3 5 100 3 0.601686
1 6 100 3 0.424134
2 6 100 3 0.292682
3 6 100 3 0.283185
1 7 100 3 0.174406
2 7 100 3 0.325217
3 7 100 3 0.500376
1 8 100 3 0.0020045
2 8 100 3 0.498995
3 8 100 3 0.499
1 0 100 4 0.00323591
2 0 100 4 0.485134
3 0 100 4 0.425453
4 0 100 4 0.0861772
1 1 100 4 0.67145
2 1 100 4 0.164579
3 1 100 4 0.0862211
4 1 100 4 0.0777495
1 2 100 4 0.172813
2 2 100 4 0.560855
3 2 100 4 0.217051
4 2 100 4 0.0492804
1 3 100 4 0.16347
2 3 100 4 0.235133
3 3 100 4 0.383057
4 3 100 4 0.21834
1 4 100 4 0.0974648
2 4 100 4 0.232332
3 4 100 4 0.321048
4 4 100 4 0.349155
1 5 100 4 0.112241
2 5 100 4 0.255511
3 5 100 4 0.230416
4 5 100 4 0.401831
1 6 100 4 0.103683
2 6 100 4 0.222116
3 6 100 4 0.308438
4 6 100 4 0.365763
1 7 100 4 0.114347
2 7 100 4 0.0315076
3 7 100 4 0.365151
4 7 100 4 0.488994
1 8 100 4 0.215164
2 8 100 4 0.0218238
3 8 100 4 0.146475
4 8 100 4 0.616537
2 9 100 4 1
4 10 100 4 1
1 0 100 5 0.000945367
2 0 100 5 0.329767
3 0 100 5 0.264401
4 0 100 5 0.295924
5 0 100 5 0.108962
1 1 100 5 0.632797
2 1 100 5 0.118174
3 1 100 5 0.0731298
4 1 100 5 0.103407
5 1 100 5 0.0724918
1 2 100 5 0.185611
2 2 100 5 0.326167
3 2 100 5 0.201928
4 2 100 5 0.151196
5 2 100 5 0.135097
1 3 100 5 0.133801
2 3 100 5 0.270348
3 3 100 5 0.246759
4 3 100 5 0.284784
5 3 100 5 0.0643072
1 4 100 5 0.082339
2 4 100 5 0.232879
3 4 100 5 0.283644
4 4 100 5 0.223517
5 4 100 5 0.177621
1 5 100 5 0.102824
2 5 100 5 0.15262
3 5 100 5 0.232714
4 5 100 5 0.224634
5 5 100 5 0.287208
1 6 100 5 0.120701
2 6 100 5 0.157368
3 6 100 5 0.187671
4 6 100 5 0.209173
5 6 100 5 0.325087
1 7 100 5 0.14773
2 7 100 5 0.151363
3 7 100 5 0.161624
4 7 100 5 0.184881
5 7 100 5 0.354402
1 8 100 5 0.0741478
2 8 100 5 0.167289
3 8 100 5 0.123072
4 8 100 5 0.245948
5 8 100 5 0.389543
1 9 100 5 0.0874388
2 9 100 5 0.163284
3 9 100 5 0.260734
4 9 100 5 0.0677947
5 9 100 5 0.420749
1 10 100 5 0.200425
2 10 100 5 0.000573493
3 10 100 5 0.200524
4 10 100 5 0.200524
5 10 100 5 0.397953
1 0 100 6 0.000876034
2 0 100 6 0.215109
3 0 100 6 0.220145
4 0 100 6 0.248168
5 0 100 6 0.256576
6 0 100 6 0.0591262
1 1 100 6 0.619617
2 1 100 6 0.105512
3 1 100 6 0.0806537
4 1 100 6 0.0675024
5 1 100 6 0.0632542
6 1 100 6 0.0634605
1 2 100 6 0.183245
2 2 100 6 0.422471
3 2 100 6 0.149369
4 2 100 6 0.109702
5 2 100 6 0.0924988
6 2 100 6 0.042714
1 3 100 6 0.0968692
2 3 100 6 0.235361
3 3 100 6 0.275383
4 3 100 6 0.152888
5 3 100 6 0.156197
6 3 100 6 0.083302
1 4 100 6 0.0660972
2 4 100 6 0.176218
3 4 100 6 0.226409
4 4 100 6 0.230269
5 4 100 6 0.209383
6 4 100 6 0.0916241
1 5 100 6 0.077865
2 5 100 6 0.14428
3 5 100 6 0.179364
4 5 100 6 0.233995
5 5 100 6 0.214531
6 5 100 6 0.149965
1 6 100 6 0.0826553
2 6 100 6 0.0927975
3 6 100 6 0.166073
4 6 100 6 0.194102
5 6 100 6 0.19019
6 6 100 6 0.274183
1 7 100 6 0.0835892
2 7 100 6 0.146528
3 7 100 6 0.137168
4 7 100 6 0.136156
5 7 100 6 0.179609
6 7 100 6 0.31695
1 8 100 6 0.0638861
2 8 100 6 0.113794
3 8 100 6 0.140915
4 8 100 6 0.138902
5 8 100 6 0.150991
6 8 100 6 0.391513
1 9 100 6 0.133587
2 9 100 6 0.135995
3 9 100 6 0.101763
4 9 100 6 0.111715
5 9 100 6 0.15085
6 9 100 6 0.36609
1 10 100 6 0.0975522
2 10 100 6 0.077168
3 10 100 6 0.162744
4 10 100 6 0.151446
5 10 100 6 0.212908
6 10 100 6 0.298181
1 11 100 6 0.12283
2 11 100 6 0.12657
3 11 100 6 0.0285793
4 11 100 6 0.122852
5 11 100 6 0.353154
6 11 100 6 0.246015
1 12 100 6 0.169096
2 12 100 6 0.0819482
3 12 100 6 0.170836
4 12 100 6 0.17035
5 12 100 6 0.174485
6 12 100 6 0.233284
1 13 100 6 0.0860376
2 13 100 6 0.16296
3 13 100 6 0.0147952
4 13 100 6 0.16296
5 13 100 6 0.114151
6 13 100 6 0.459096
1 14 100 6 7.01012e-06
2 14 100 6 0.00647092
3 14 100 6 0.496469
4 14 100 6 0.496457
5 14 100 6 0.000595435
1 15 100 6 0.419241
2 15 100 6 0.29012
3 15 100 6 0.00125252
4 15 100 6 0.289367
5 15 100 6 1.94116e-05
1 16 100 6 7.91856e-06
2 16 100 6 0.00046475
3 16 100 6 9.57704e-05
4 16 100 6 0.993955
5 16 100 6 0.00547645
1 17 100 6 2.26529e-05
2 17 100 6 0.243715
3 17 100 6 0.313203
4 17 100 6 0.320733
5 17 100 6 0.0583925
6 17 100 6 0.0639342
3 18 100 6 4.73088e-06
4 18 100 6 0.00122574
5 18 100 6 0.589011
6 18 100 6 0.409759
1 19 100 6 6.6592e-05
2 19 100 6 0.00230803
3 19 100 6 0.00154723
4 19 100 6 0.000353532
5 19 100 6 0.0948206
6 19 100 6 0.900904
5 20 100 6 1
4 21 100 6 0.00381586
5 21 100 6 0.996184
1 22 100 6 0.0119887
2 22 100 6 0.921189
3 22 100 6 0.0593494
4 22 100 6 0.00730337
5 22 100 6 0.00016907
3 23 100 6 1.35525e-06
5 23 100 6 0.188442
6 23 100 6 0.811557
1 24 100 6 0.0473701
2 24 100 6 0.066715
3 24 100 6 0.468645
4 24 100 6 0.413551
5 24 100 6 0.00371851
5 25 100 6 0.205743
6 25 100 6 0.794257
3 26 100 6 0.119581
5 26 100 6 0.880419
4 27 100 6 1.74465e-06
5 27 100 6 0.390719
6 27 100 6 0.609279
1 28 100 6 0.00325276
2 28 100 6 0.253782
3 28 100 6 0.235369
4 28 100 6 0.253801
5 28 100 6 0.253794
3 29 100 6 3.8562e-06
5 29 100 6 1.40674e-05
6 29 100 6 0.999982
1 0 100 7 0.00119998
2 0 100 7 0.15297
3 0 100 7 0.220867
4 0 100 7 0.22512
5 0 100 7 0.136313
6 0 100 7 0.226693
7 0 100 7 0.036836
1 1 100 7 0.573703
2 1 100 7 0.102217
3 1 100 7 0.0975401
4 1 100 7 0.0709853
5 1 100 7 0.0612028
6 1 100 7 0.0572188
7 1 100 7 0.0371334
1 2 100 7 0.190096
2 2 100 7 0.390547
3 2 100 7 0.0982537
4 2 100 7 0.105902
5 2 100 7 0.101226
6 2 100 7 0.0817758
7 2 100 7 0.0321991
1 3 100 7 0.114556
2 3 100 7 0.178999
3 3 100 7 0.239816
4 3 100 7 0.119655
5 3 100 7 0.184036
6 3 100 7 0.118599
7 3 100 7 0.0443396
1 4 100 7 0.0726659
2 4 100 7 0.180734
3 4 100 7 0.151589
4 4 100 7 0.226232
5 4 100 7 0.177272
6 4 100 7 0.132051
7 4 100 7 0.0594564
1 5 100 7 0.0533061
2 5 100 7 0.112214
3 5 100 7 0.171959
4 5 100 7 0.179039
5 5 100 7 0.202685
6 5 100 7 0.177571
7 5 100 7 0.103226
1 6 100 7 0.056707
2 6 100 7 0.0994049
3 6 100 7 0.150083
4 6 100 7 0.150531
5 6 100 7 0.178821
6 6 100 7 0.168987
7 6 100 7 0.195466
1 7 100 7 0.0650239
2 7 100 7 0.103415
3 7 100 7 0.121493
4 7 100 7 0.136784
5 7 100 7 0.148342
6 7 100 7 0.152507
7 7 100 7 0.272435
1 8 100 7 0.0630204
2 8 100 7 0.0990174
3 8 100 7 0.105468
4 8 100 7 0.113592
5 8 100 7 0.141319
6 8 100 7 0.159992
7 8 100 7 0.317591
1 9 100 7 0.107605
2 9 100 7 0.100079
3 9 100 7 0.0761561
4 9 100 7 0.109319
5 9 100 7 0.126018
6 9 100 7 0.117353
7 9 100 7 0.363469
1 10 100 7 0.0478279
2 10 100 7 0.090488
3 10 100 7 0.0653058
4 10 100 7 0.0849861
5 10 100 7 0.0819341
6 10 100 7 0.17994
7 10 100 7 0.449518
1 11 100 7 0.012553
2 11 100 7 0.0363285
3 11 100 7 0.118324
4 11 100 7 0.0989303
5 11 100 7 0.117763
6 11 100 7 0.209225
7 11 100 7 0.406876
1 12 100 7 0.0576538
2 12 100 7 0.132044
3 12 100 7 0.0923079
4 12 100 7 0.0412286
5 12 100 7 0.0870191
6 12 100 7 0.211972
7 12 100 7 0.377775
1 13 100 7 0.000562229
2 13 100 7 0.00131447
3 13 100 7 0.142199
4 13 100 7 0.0771801
5 13 100 7 0.0106163
6 13 100 7 0.20079
7 13 100 7 0.567338
1 14 100 7 2.29877e-05
2 14 100 7 0.000881272
5 14 100 7 0.998905
6 14 100 7 0.000190381
1 15 100 7 5.40307e-05
2 15 100 7 0.000374182
4 15 100 7 0.998965
5 15 100 7 8.67546e-05
6 15 100 7 0.000520229
1 16 100 7 0.112586
2 16 100 7 0.183651
3 16 100 7 0.18384
4 16 100 7 0.185049
5 16 100 7 0.217112
6 16 100 7 0.117762
2 17 100 7 5.34296e-06
3 17 100 7 8.45061e-05
4 17 100 7 8.66199e-05
5 17 100 7 0.18736
6 17 100 7 0.289112
7 17 100 7 0.523351
1 18 100 7 1.21174e-05
2 18 100 7 1.2402e-05
5 18 100 7 8.42863e-05
6 18 100 7 1.20267e-05
7 18 100 7 0.999879
2 19 100 7 0.337516
6 19 100 7 0.662484
2 20 100 7 9.00414e-06
4 20 100 7 1.07277e-05
5 20 100 7 0.000292082
6 20 100 7 0.999688
2 21 100 7 0.117208
5 21 100 7 3.2112e-05
6 21 100 7 0.0111668
7 21 100 7 0.871593
1 22 100 7 0.275581
2 22 100 7 0.719983
3 22 100 7 0.00430677
4 22 100 7 0.000117284
5 22 100 7 6.30412e-06
6 22 100 7 5.25602e-06
2 23 100 7 0.000382523
4 23 100 7 1.10612e-06
6 23 100 7 1.41753e-06
7 23 100 7 0.999615
1 24 100 7 3.09308e-07
2 24 100 7 0.000619311
3 24 100 7 0.249859
4 24 100 7 0.24163
5 24 100 7 0.253945
6 24 100 7 0.253946
2 25 100 7 0.000118022
4 25 100 7 3.46034e-06
7 25 100 7 0.999879
1 0 100 8 0.00146064
2 0 100 8 0.17226
3 0 100 8 0.175803
4 0 100 8 0.174876
5 0 100 8 0.150396
6 0 100 8 0.111643
7 0 100 8 0.188887
8 0 100 8 0.0246748
1 1 100 8 0.517757
2 1 100 8 0.10869
3 1 100 8 0.0956749
4 1 100 8 0.0808473
5 1 100 8 0.0583107
6 1 100 8 0.0620794
7 1 100 8 0.0476445
8 1 100 8 0.0289961
1 2 100 8 0.153199
2 2 100 8 0.317281
3 2 100 8 0.132414
4 2 100 8 0.131859
5 2 100 8 0.0772824
6 2 100 8 0.0735912
7 2 100 8 0.0750617
8 2 100 8 0.0393121
1 3 100 8 0.0745805
2 3 100 8 0.15414
3 3 100 8 0.212085
4 3 100 8 0.138911
5 3 100 8 0.157167
6 3 100 8 0.105961
7 3 100 8 0.10898
8 3 100 8 0.048174
1 4 100 8 0.108412
2 4 100 8 0.111898
3 4 100 8 0.154886
4 4 100 8 0.128474
5 4 100 8 0.167385
6 4 100 8 0.168564
7 4 100 8 0.125863
8 4 100 8 0.0345179
1 5 100 8 0.0716077
2 5 100 8 0.116095
3 5 100 8 0.143797
4 5 100 8 0.174205
5 5 100 8 0.1347
6 5 100 8 0.183191
7 5 100 8 0.121631
8 5 100 8 0.054772
1 6 100 8 0.0685915
2 6 100 8 0.0954985
3 6 100 8 0.118085
4 6 100 8 0.147155
5 6 100 8 0.167131
6 6 100 8 0.166194
7 6 100 8 0.118409
8 6 100 8 0.118937
1 7 100 8 0.0538161
2 7 100 8 0.0693232
3 7 100 8 0.098657
4 7 100 8 0.101256
5 7 100 8 0.14363
6 7 100 8 0.157001
7 7 100 8 0.173767
8 7 100 8 0.202551
1 8 100 8 0.0536936
2 8 100 8 0.0843211
3 8 100 8 0.0868119
4 8 100 8 0.121263
5 8 100 8 0.138861
6 8 100 8 0.131858
7 8 100 8 0.128087
8 8 100 8 0.255106
1 9 100 8 0.0564596
2 9 100 8 0.0653022
3 9 100 8 0.0871302
4 9 100 8 0.0893227
5 9 100 8 0.116056
6 9 100 8 0.127738
7 9 100 8 0.145213
8 9 100 8 0.312779
1 10 100 8 0.0695143
2 10 100 8 0.0872833
3 10 100 8 0.0735797
4 10 100 8 0.0732958
5 10 100 8 0.0813094
6 10 100 8 0.0972698
7 10 100 8 0.145109
8 10 100 8 0.372639
1 11 100 8 0.0976053
2 11 100 8 0.100297
3 11 100 8 0.0729061
4 11 100 8 0.1022
5 11 100 8 0.082305
6 11 100 8 0.149981
7 11 100 8 0.135039
8 11 100 8 0.259666
1 12 100 8 0.0397468
2 12 100 8 0.0361727
3 12 100 8 0.101535
4 12 100 8 0.0846748
5 12 100 8 0.115158
6 12 100 8 0.117746
7 12 100 8 0.111479
8 12 100 8 0.393487
1 13 100 8 0.086329
2 13 100 8 0.0870978
3 13 100 8 0.121711
4 13 100 8 0.0877996
5 13 100 8 0.053117
6 13 100 8 0.122392
7 13 100 8 0.135593
8 13 100 8 0.30596
1 14 100 8 6.0767e-05
2 14 100 8 0.00210121
3 14 100 8 0.199536
4 14 100 8 0.138712
5 14 100 8 0.135295
6 14 100 8 0.134589
7 14 100 8 0.0552405
8 14 100 8 0.334465
1 15 100 8 0.0773557
2 15 100 8 0.153773
3 15 100 8 0.153756
4 15 100 8 0.000257008
5 15 100 8 0.153758
6 15 100 8 0.00027317
7 15 100 8 0.154092
8 15 100 8 0.306735
2 16 100 8 7.44567e-07
4 16 100 8 6.37268e-06
5 16 100 8 0.230715
6 16 100 8 0.230743
7 16 100 8 0.307833
8 16 100 8 0.230703
2 17 100 8 0.00826051
3 17 100 8 7.17329e-07
4 17 100 8 1.54221e-06
7 17 100 8 0.120956
8 17 100 8 0.870782
2 18 100 8 0.0304661
4 18 100 8 0.770352
7 18 100 8 0.197405
8 18 100 8 0.00177695
1 19 100 8 0.192728
2 19 100 8 0.182642
3 19 100 8 0.192728
4 19 100 8 3.32222e-06
5 19 100 8 0.239124
6 19 100 8 0.192728
7 19 100 8 4.75224e-05
1 20 100 8 0.167138
2 20 100 8 0.143641
3 20 100 8 0.167138
4 20 100 8 0.167138
6 20 100 8 0.167131
7 20 100 8 0.0206771
8 20 100 8 0.167137
2 21 100 8 0.159839
4 21 100 8 0.00680428
5 21 100 8 0.0103988
7 21 100 8 0.822958
4 22 100 8 1.5122e-06
5 22 100 8 1.7329e-06
7 22 100 8 0.0915094
8 22 100 8 0.908487
2 23 100 8 0.848692
4 23 100 8 0.00441512
5 23 100 8 0.145352
6 23 100 8 0.000964398
7 23 100 8 0.000576585
2 24 100 8 0.996497
5 24 100 8 1.59209e-05
7 24 100 8 0.00348707
5 25 100 8 0.773656
7 25 100 8 0.225939
8 25 100 8 0.000404594
2 26 100 8 0.125998
7 26 100 8 0.874002
3 27 100 8 0.00135981
5 27 100 8 0.330091
6 27 100 8 0.0537231
7 27 100 8 0.614826
2 28 100 8 0.000223093
5 28 100 8 5.00389e-07
7 28 100 8 0.109346
8 28 100 8 0.89043
7 29 100 8 1
6 30 100 8 0.95885
7 30 100 8 0.0411496
7 31 100 8 0.204619
8 31 100 8 0.795381
3 33 100 8 0.962762
7 33 100 8 0.0372382
3 35 100 8 1
4 36 100 8 3.67131e-06
7 36 100 8 0.65431
8 36 100 8 0.345687
4 38 100 8 4.51282e-06
7 38 100 8 0.575073
8 38 100 8 0.424923
4 41 100 8 1
7 43 100 8 1
7 44 100 8 0.0510791
8 44 100 8 0.948921
1 0 100 9 0.000641099
2 0 100 9 0.135527
3 0 100 9 0.168337
4 0 100 9 0.130381
5 0 100 9 0.16217
6 0 100 9 0.124943
7 0 100 9 0.0754464
8 0 100 9 0.176116
9 0 100 9 0.0264373
1 1 100 9 0.487054
2 1 100 9 0.0927179
3 1 100 9 0.0829527
4 1 100 9 0.0873521
5 1 100 9 0.0608678
6 1 100 9 0.0485841
7 1 100 9 0.0595854
8 1 100 9 0.050217
9 1 100 9 0.0306697
1 2 100 9 0.11936
2 2 100 9 0.303583
3 2 100 9 0.128565
4 2 100 9 0.106315
5 2 100 9 0.0932071
6 2 100 9 0.0919179
7 2 100 9 0.0696454
8 2 100 9 0.0621805
9 2 100 9 0.0252252
1 3 100 9 0.10831
2 3 100 9 0.121376
3 3 100 9 0.197435
4 3 100 9 0.116226
5 3 100 9 0.0755994
6 3 100 9 0.09128
7 3 100 9 0.132639
8 3 100 9 0.119697
9 3 100 9 0.0374365
1 4 100 9 0.0933144
2 4 100 9 0.0954312
3 4 100 9 0.122724
4 4 100 9 0.143227
5 4 100 9 0.120266
6 4 100 9 0.143356
7 4 100 9 0.150175
8 4 100 9 0.10112
9 4 100 9 0.0303859
1 5 100 9 0.0747794
2 5 100 9 0.10554
3 5 100 9 0.118206
4 5 100 9 0.149748
5 5 100 9 0.137968
6 5 100 9 0.150633
7 5 100 9 0.128232
8 5 100 9 0.101788
9 5 100 9 0.0331068
1 6 100 9 0.0883576
2 6 100 9 0.109707
3 6 100 9 0.0934429
4 6 100 9 0.132326
5 6 100 9 0.145536
6 6 100 9 0.125659
7 6 100 9 0.144079
8 6 100 9 0.0878779
9 6 100 9 0.0730151
1 7 100 9 0.053745
2 7 100 9 0.0927393
3 7 100 9 0.0972676
4 7 100 9 0.118667
5 7 100 9 0.123291
6 7 100 9 0.135858
7 7 100 9 0.131141
8 7 100 9 0.106289
9 7 100 9 0.141002
1 8 100 9 0.0405073
2 8 100 9 0.076982
3 8 100 9 0.0919731
4 8 100 9 0.114491
5 8 100 9 0.11861
6 8 100 9 0.134473
7 8 100 9 0.122929
8 8 100 9 0.114119
9 8 100 9 0.185916
1 9 100 9 0.0436915
2 9 100 9 0.0656777
3 9 100 9 0.0666807
4 9 100 9 0.0795145
5 9 100 9 0.100186
6 9 100 9 0.109559
7 9 100 9 0.151959
8 9 100 9 0.119732
9 9 100 9 0.263
1 10 100 9 0.0543585
2 10 100 9 0.0609235
3 10 100 9 0.0796328
4 10 100 9 0.0873091
5 10 100 9 0.0901761
6 10 100 9 0.111443
7 10 100 9 0.109683
8 10 100 9 0.140835
9 10 100 9 0.265639
1 11 100 9 0.0414216
2 11 100 9 0.0611277
3 11 100 9 0.0439334
4 11 100 9 0.0512067
5 11 100 9 0.0576449
6 11 100 9 0.0963666
7 11 100 9 0.12438
8 11 100 9 0.143943
9 11 100 9 0.379975
1 12 100 9 0.0447222
2 12 100 9 0.0672437
3 12 100 9 0.0645355
4 12 100 9 0.0528602
5 12 100 9 0.101236
6 12 100 9 0.0666119
7 12 100 9 0.113808
8 12 100 9 0.150776
9 12 100 9 0.338207
1 13 100 9 0.109651
2 13 100 9 0.0455902
3 13 100 9 0.0505724
4 13 100 9 0.0849375
5 13 100 9 0.0421243
6 13 100 9 0.0511408
7 13 100 9 0.15064
8 13 100 9 0.106124
9 13 100 9 0.35922
1 14 100 9 0.0540967
2 14 100 9 0.0464666
3 14 100 9 0.0902517
4 14 100 9 0.00728351
5 14 100 9 0.0544572
6 14 100 9 0.052227
7 14 100 9 0.137465
8 14 100 9 0.168152
9 14 100 9 0.3896
1 15 100 9 0.000866334
2 15 100 9 0.122473
3 15 100 9 0.183653
4 15 100 9 0.0633746
5 15 100 9 0.10214
6 15 100 9 0.127043
7 15 100 9 0.0411484
8 15 100 9 0.106199
9 15 100 9 0.253103
1 16 100 9 0.0579964
2 16 100 9 0.0609896
3 16 100 9 9.54873e-05
4 16 100 9 0.118332
5 16 100 9 0.122593
6 16 100 9 0.121491
7 16 100 9 0.0594434
8 16 100 9 0.152025
9 16 100 9 0.307034
1 17 100 9 0.103316
2 17 100 9 0.0952543
3 17 100 9 0.104115
4 17 100 9 0.104073
5 17 100 9 0.0971858
6 17 100 9 0.111238
7 17 100 9 0.116554
8 17 100 9 0.032348
9 17 100 9 0.235915
2 18 100 9 4.13428e-05
3 18 100 9 1.43128e-05
4 18 100 9 0.222749
5 18 100 9 2.08641e-05
6 18 100 9 0.004559
7 18 100 9 0.215878
8 18 100 9 0.111076
9 18 100 9 0.445662
1 19 100 9 0.0792041
2 19 100 9 0.0793781
3 19 100 9 0.079376
4 19 100 9 0.0168172
5 19 100 9 0.0859841
6 19 100 9 0.120471
7 19 100 9 0.158247
8 19 100 9 0.166791
9 19 100 9 0.213731
2 20 100 9 6.94048e-06
3 20 100 9 0.00638554
4 20 100 9 0.000142962
5 20 100 9 1.75626e-05
6 20 100 9 0.000777096
7 20 100 9 0.000744663
8 20 100 9 0.205187
9 20 100 9 0.786739
1 21 100 9 8.65698e-05
2 21 100 9 0.00144838
6 21 100 9 0.495742
8 21 100 9 0.156795
9 21 100 9 0.345928
1 22 100 9 0.143863
2 22 100 9 0.143856
3 22 100 9 0.143854
4 22 100 9 0.136848
5 22 100 9 0.143857
7 22 100 9 0.143867
8 22 100 9 9.53468e-07
9 22 100 9 0.143855
4 23 100 9 4.71058e-05
5 23 100 9 4.41681e-05
6 23 100 9 0.0014765
8 23 100 9 0.667821
9 23 100 9 0.330611
3 24 100 9 1.83916e-06
4 24 100 9 1.20317e-06
6 24 100 9 2.27011e-06
7 24 100 9 5.42441e-07
8 24 100 9 0.153802
9 24 100 9 0.846192
4 25 100 9 0.999362
6 25 100 9 3.38749e-06
7 25 100 9 1.87084e-06
8 25 100 9 0.000633126
6 26 100 9 0.000192303
8 26 100 9 0.999808
2 27 100 9 0.131931
4 27 100 9 1.01267e-06
5 27 100 9 6.95598e-06
8 27 100 9 0.0247829
9 27 100 9 0.843278
1 28 100 9 1.67507e-05
8 28 100 9 0.189243
9 28 100 9 0.81074
5 30 100 9 1
8 31 100 9 1
2 32 100 9 0.968329
5 32 100 9 0.00966675
8 32 100 9 0.022004
5 33 100 9 9.20646e-06
8 33 100 9 0.366529
9 33 100 9 0.633462
5 34 100 9 1
5 35 100 9 1
6 36 100 9 0.999936
8 36 100 9 6.35227e-05
8 37 100 9 1
9 38 100 9 1
1 0 100 10 0.000383236
2 0 100 10 0.129089
3 0 100 10 0.132625
4 0 100 10 0.125908
5 0 100 10 0.130887
6 0 100 10 0.135848
7 0 100 10 0.11054
8 0 100 10 0.0513948
9 0 100 10 0.164516
10 0 100 10 0.0188087
1 1 100 10 0.463472
2 1 100 10 0.0858725
3 1 100 10 0.0626494
4 1 100 10 0.0756523
5 1 100 10 0.0590141
6 1 100 10 0.0646219
7 1 100 10 0.0628027
8 1 100 10 0.0600851
9 1 100 10 0.0422064
10 1 100 10 0.0236237
1 2 100 10 0.128382
2 2 100 10 0.292106
3 2 100 10 0.12447
4 2 100 10 0.083223
5 2 100 10 0.0769733
6 2 100 10 0.0559923
7 2 100 10 0.0701064
8 2 100 10 0.0746565
9 2 100 10 0.0696702
10 2 100 10 0.0244195
1 3 100 10 0.0689321
2 3 100 10 0.13541
3 3 100 10 0.193657
4 3 100 10 0.112566
5 3 100 10 0.0989471
6 3 100 10 0.0807115
7 3 100 10 0.0851956
8 3 100 10 0.110368
9 3 100 10 0.0884326
10 3 100 10 0.0257799
1 4 100 10 0.0755973
2 4 100 10 0.0857799
3 4 100 10 0.122316
4 4 100 10 0.138534
5 4 100 10 0.0922512
6 4 100 10 0.113393
7 4 100 10 0.13184
8 4 100 10 0.145151
9 4 100 10 0.0796532
10 4 100 10 0.0154843
1 5 100 10 0.0718378
2 5 100 10 0.0741828
3 5 100 10 0.100796
4 5 100 10 0.142467
5 5 100 10 0.133607
6 5 100 10 0.105598
7 5 100 10 0.130481
8 5 100 10 0.135007
9 5 100 10 0.0805503
10 5 100 10 0.0254731
1 6 100 10 0.0699929
2 6 100 10 0.0889578
3 6 100 10 0.107861
4 6 100 10 0.095672
5 6 100 10 0.138463
6 6 100 10 0.136496
7 6 100 10 0.122143
8 6 100 10 0.125842
9 6 100 10 0.0861049
10 6 100 10 0.0284669
1 7 100 10 0.0636133
2 7 100 10 0.0675667
3 7 100 10 0.104542
4 7 100 10 0.126693
5 7 100 10 0.123424
6 7 100 10 0.120444
7 7 100 10 0.112511
8 7 100 10 0.118783
9 7 100 10 0.0792401
10 7 100 10 0.0831835
1 8 100 10 0.0512061
2 8 100 10 0.0692541
3 8 100 10 0.0783401
4 8 100 10 0.0867679
5 8 100 10 0.105644
6 8 100 10 0.11809
7 8 100 10 0.104291
8 8 100 10 0.115032
9 8 100 10 0.100365
10 8 100 10 0.17101
1 9 100 10 0.05725
2 9 100 10 0.0670826
3 9 100 10 0.0744021
4 9 100 10 0.0812192
5 9 100 10 0.0867927
6 9 100 10 0.0908174
7 9 100 10 0.100753
8 9 100 10 0.124128
9 9 100 10 0.115391
10 9 100 10 0.202164
1 10 100 10 0.0323368
2 10 100 10 0.0574735
3 10 100 10 0.0634325
4 10 100 10 0.0759007
5 10 100 10 0.0728403
6 10 100 10 0.0915302
7 10 100 10 0.0891836
8 10 100 10 0.112929
9 10 100 10 0.114785
10 10 100 10 0.289588
1 11 100 10 0.0480007
2 11 100 10 0.040013
3 11 100 10 0.06027
4 11 100 10 0.0699457
5 11 100 10 0.0971088
6 11 100 10 0.0761416
7 11 100 10 0.0800766
8 11 100 10 0.0988027
9 11 100 10 0.122277
10 11 100 10 0.307364
1 12 100 10 0.0548283
2 12 100 10 0.055361
3 12 100 10 0.0367305
4 12 100 10 0.0540464
5 12 100 10 0.0563105
6 12 100 10 0.0829621
7 12 100 10 0.0884557
8 12 100 10 0.105614
9 12 100 10 0.127328
10 12 100 10 0.338364
1 13 100 10 0.0429668
2 13 100 10 0.0527118
3 13 100 10 0.0368391
4 13 100 10 0.0250395
5 13 100 10 0.0433405
6 13 100 10 0.0473772
7 13 100 10 0.0842858
8 13 100 10 0.112788
9 13 100 10 0.142883
10 13 100 10 0.411768
1 14 100 10 0.0421583
2 14 100 10 0.0177332
3 14 100 10 0.0574272
4 14 100 10 0.0491046
5 14 100 10 0.0873107
6 14 100 10 0.0781128
7 14 100 10 0.147489
8 14 100 10 0.0954395
9 14 100 10 0.156279
10 14 100 10 0.268946
1 15 100 10 0.0524805
2 15 100 10 0.0581129
3 15 100 10 0.0293692
4 15 100 10 0.0992552
5 15 100 10 0.0525697
6 15 100 10 0.0476592
7 15 100 10 0.0870479
8 15 100 10 0.112102
9 15 100 10 0.149986
10 15 100 10 0.311417
1 16 100 10 0.072035
2 16 100 10 0.0539597
3 16 100 10 0.054373
4 16 100 10 0.0540053
5 16 100 10 0.107242
6 16 100 10 0.0777395
7 16 100 10 0.145294
8 16 100 10 0.111329
9 16 100 10 0.11829
10 16 100 10 0.205732
2 17 100 10 0.00345425
3 17 100 10 4.97963e-05
4 17 100 10 0.00520345
5 17 100 10 0.287631
6 17 100 10 3.30282e-05
7 17 100 10 0.000847501
8 17 100 10 0.144428
9 17 100 10 0.00370358
10 17 100 10 0.554649
1 18 100 10 0.11308
2 18 100 10 0.113641
3 18 100 10 0.113419
4 18 100 10 0.114019
5 18 100 10 0.113325
6 18 100 10 0.10431
7 18 100 10 0.113251
8 18 100 10 0.143445
9 18 100 10 0.0715092
1 19 100 10 0.0114493
2 19 100 10 0.137004
3 19 100 10 0.000178408
4 19 100 10 0.0585822
5 19 100 10 0.133595
6 19 100 10 0.000302705
7 19 100 10 0.129751
8 19 100 10 0.216715
9 19 100 10 0.0500494
10 19 100 10 0.262374
2 20 100 10 0.261054
3 20 100 10 0.449057
4 20 100 10 0.000176408
5 20 100 10 0.0184287
6 20 100 10 0.00241365
7 20 100 10 9.04652e-05
8 20 100 10 0.000508036
9 20 100 10 0.00156771
10 20 100 10 0.266704
1 21 100 10 8.77435e-07
3 21 100 10 0.00191293
4 21 100 10 4.91764e-07
5 21 100 10 0.000315741
6 21 100 10 4.53115e-07
7 21 100 10 1.07884e-06
8 21 100 10 2.58219e-05
9 21 100 10 0.145728
10 21 100 10 0.852015
1 22 100 10 0.229729
2 22 100 10 1.38812e-05
3 22 100 10 0.0479321
4 22 100 10 0.191475
5 22 100 10 0.00119445
6 22 100 10 0.230617
7 22 100 10 0.229431
8 22 100 10 0.0695441
9 22 100 10 6.26592e-05
2 23 100 10 2.14081e-05
3 23 100 10 3.53091e-05
4 23 100 10 0.198085
5 23 100 10 0.00897264
6 23 100 10 0.197191
7 23 100 10 0.199074
8 23 100 10 0.198177
9 23 100 10 0.198443
1 24 100 10 5.31442e-06
2 24 100 10 0.00287379
3 24 100 10 0.0940566
4 24 100 10 0.102666
5 24 100 10 0.162531
6 24 100 10 0.256032
7 24 100 10 0.171
8 24 100 10 0.210824
9 24 100 10 1.14312e-05
1 25 100 10 0.335275
2 25 100 10 0.107933
3 25 100 10 0.00301617
4 25 100 10 0.000291795
5 25 100 10 0.000331934
6 25 100 10 0.00597423
7 25 100 10 4.88339e-06
8 25 100 10 0.0914793
9 25 100 10 0.0569309
10 25 100 10 0.398763
1 26 100 10 3.3539e-06
3 26 100 10 0.000166134
5 26 100 10 0.0003472
7 26 100 10 2.59601e-06
8 26 100 10 0.250689
9 26 100 10 0.214022
10 26 100 10 0.534769
3 27 100 10 9.68545e-05
4 27 100 10 5.15126e-05
9 27 100 10 0.742668
10 27 100 10 0.257184
1 28 100 10 0.334844
2 28 100 10 0.330101
3 28 100 10 0.334824
4 28 100 10 0.000115244
5 28 100 10 7.11846e-07
9 28 100 10 0.000116049
5 29 100 10 0.974039
9 29 100 10 0.0259605
3 30 100 10 5.51489e-06
4 30 100 10 1.79907e-06
5 30 100 10 0.00290139
8 30 100 10 2.9572e-06
9 30 100 10 0.0930963
10 30 100 10 0.903992
2 31 100 10 3.52721e-05
3 31 100 10 3.89515e-05
4 31 100 10 0.999585
5 31 100 10 0.000180453
8 31 100 10 5.47951e-06
9 31 100 10 0.000155081
3 32 100 10 0.999021
5 32 100 10 0.000972093
8 32 100 10 2.32923e-06
9 32 100 10 4.50765e-06
3 33 100 10 0.000346253
5 33 100 10 0.998044
7 33 100 10 1.4362e-05
8 33 100 10 2.48413e-05
9 33 100 10 0.00157017
5 34 100 10 0.316316
7 34 100 10 0.68033
8 34 100 10 0.000266753
9 34 100 10 0.00308748
2 35 100 10 1.62121e-06
3 35 100 10 0.0708306
5 35 100 10 0.00101571
8 35 100 10 0.927641
9 35 100 10 0.000511047
2 36 100 10 8.9028e-06
3 36 100 10 3.5541e-05
4 36 100 10 4.70097e-06
5 36 100 10 0.00423098
8 36 100 10 5.96083e-06
9 36 100 10 0.217748
10 36 100 10 0.777965
1 37 100 10 1.24189e-05
2 37 100 10 1.76727e-06
3 37 100 10 3.2161e-05
4 37 100 10 0.0024089
6 37 100 10 0.205516
7 37 100 10 0.205518
8 37 100 10 0.205522
9 37 100 10 0.175471
10 37 100 10 0.205518
3 38 100 10 2.44729e-05
5 38 100 10 0.00011778
8 38 100 10 0.000101787
9 38 100 10 0.229411
10 38 100 10 0.770345
3 39 100 10 1.83512e-05
4 39 100 10 0.505126
5 39 100 10 0.4946
6 39 100 10 8.70824e-05
7 39 100 10 1.51446e-05
8 39 100 10 4.77503e-06
9 39 100 10 0.000148656
2 40 100 10 0.0265752
4 40 100 10 2.74088e-06
5 40 100 10 0.000423702
8 40 100 10 0.000963118
9 40 100 10 0.972035
3 41 100 10 0.000126832
5 41 100 10 5.49187e-07
7 41 100 10 5.1639e-07
8 41 100 10 0.000126062
9 41 100 10 0.13453
10 41 100 10 0.865216
7 42 100 10 0.211457
9 42 100 10 0.788543
7 43 100 10 0.999987
9 43 100 10 1.2659e-05
3 44 100 10 0.00249877
4 44 100 10 0.00410435
5 44 100 10 0.0291478
6 44 100 10 0.248223
7 44 100 10 0.248119
8 44 100 10 0.248261
9 44 100 10 0.219645
2 45 100 10 3.28255e-07
4 45 100 10 0.162625
5 45 100 10 0.168491
6 45 100 10 0.168492
7 45 100 10 0.0945951
8 45 100 10 0.168491
9 45 100 10 0.0688141
10 45 100 10 0.168492
4 46 100 10 0.00231076
8 46 100 10 0.00521824
9 46 100 10 0.992471
3 47 100 10 0.972967
9 47 100 10 0.0270332
3 48 100 10 0.969498
9 48 100 10 0.0305024
3 49 100 10 0.002652
9 49 100 10 0.997348
3 50 100 10 1
3 51 100 10 2.85076e-06
9 51 100 10 3.84429e-05
10 51 100 10 0.999959
1 0 100 11 0.000741175
2 0 100 11 0.105757
3 0 100 11 0.136035
4 0 100 11 0.110141
5 0 100 11 0.109804
6 0 100 11 0.105557
7 0 100 11 0.109224
8 0 100 11 0.103675
9 0 100 11 0.0560266
10 0 100 11 0.141464
11 0 100 11 0.0215752
1 1 100 11 0.463118
2 1 100 11 0.0935079
3 1 100 11 0.076571
4 1 100 11 0.0673738
5 1 100 11 0.0575259
6 1 100 11 0.0473104
7 1 100 11 0.0412603
8 1 100 11 0.049315
9 1 100 11 0.0581524
10 1 100 11 0.0330464
11 1 100 11 0.0128193
1 2 100 11 0.164956
2 2 100 11 0.257883
3 2 100 11 0.115403
4 2 100 11 0.0995706
5 2 100 11 0.0935646
6 2 100 11 0.0686041
7 2 100 11 0.0471982
8 2 100 11 0.0550797
9 2 100 11 0.0514245
10 2 100 11 0.0331076
11 2 100 11 0.0132083
1 3 100 11 0.0920042
2 3 100 11 0.144076
3 3 100 11 0.185931
4 3 100 11 0.0871861
5 3 100 11 0.0677592
6 3 100 11 0.0719056
7 3 100 11 0.0896498
8 3 100 11 0.0864017
9 3 100 11 0.0994903
10 3 100 11 0.0592423
11 3 100 11 0.0163539
1 4 100 11 0.0791432
2 4 100 11 0.094738
3 4 100 11 0.126133
4 4 100 11 0.147429
5 4 100 11 0.0896812
6 4 100 11 0.0836569
7 4 100 11 0.0791903
8 4 100 11 0.0845913
9 4 100 11 0.106822
10 4 100 11 0.0855538
11 4 100 11 0.0230614
1 5 100 11 0.0790033
2 5 100 11 0.0908003
3 5 100 11 0.0945199
4 5 100 11 0.1046
5 5 100 11 0.140081
6 5 100 11 0.107642
7 5 100 11 0.0980866
8 5 100 11 0.10317
9 5 100 11 0.103089
10 5 100 11 0.0600876
11 5 100 11 0.0189195
1 6 100 11 0.0405595
2 6 100 11 0.072321
3 6 100 11 0.057871
4 6 100 11 0.108013
5 6 100 11 0.108663
6 6 100 11 0.136865
7 6 100 11 0.117037
8 6 100 11 0.120183
9 6 100 11 0.124107
10 6 100 11 0.0837991
11 6 100 11 0.0305816
1 7 100 11 0.0488837
2 7 100 11 0.0627246
3 7 100 11 0.0776978
4 7 100 11 0.100653
5 7 100 11 0.117677
6 7 100 11 0.11379
7 7 100 11 0.107022
8 7 100 11 0.107436
9 7 100 11 0.106453
10 7 100 11 0.0954245
11 7 100 11 0.0622387
1 8 100 11 0.0539894
2 8 100 11 0.0671299
3 8 100 11 0.0663841
4 8 100 11 0.0955754
5 8 100 11 0.103035
6 8 100 11 0.101192
7 8 100 11 0.118573
8 8 100 11 0.0980055
9 8 100 11 0.117872
10 8 100 11 0.0819921
11 8 100 11 0.0962513
1 9 100 11 0.041819
2 9 100 11 0.0564678
3 9 100 11 0.0714487
4 9 100 11 0.0781714
5 9 100 11 0.0894177
6 9 100 11 0.0924374
7 9 100 11 0.0941792
8 9 100 11 0.10757
9 9 100 11 0.105119
10 9 100 11 0.102948
11 9 100 11 0.160422
1 10 100 11 0.0418089
2 10 100 11 0.0387346
3 10 100 11 0.0533571
4 10 100 11 0.0656191
5 10 100 11 0.0799041
6 10 100 11 0.103254
7 10 100 11 0.0928075
8 10 100 11 0.0950236
9 10 100 11 0.101363
10 10 100 11 0.108818
11 10 100 11 0.21931
1 11 100 11 0.0509654
2 11 100 11 0.0675088
3 11 100 11 0.0476084
4 11 100 11 0.0670079
5 11 100 11 0.0673597
6 11 100 11 0.0855948
7 11 100 11 0.0901171
8 11 100 11 0.0762677
9 11 100 11 0.104334
10 11 100 11 0.0994719
11 11 100 11 0.243765
1 12 100 11 0.0316017
2 12 100 11 0.0416225
3 12 100 11 0.0399404
4 12 100 11 0.0594559
5 12 100 11 0.0664194
6 12 100 11 0.0847274
7 12 100 11 0.0991944
8 12 100 11 0.0871898
9 12 100 11 0.119342
10 12 100 11 0.102587
11 12 100 11 0.26792
1 13 100 11 0.0273386
2 13 100 11 0.0301311
3 13 100 11 0.0492269
4 13 100 11 0.0569035
5 13 100 11 0.0503566
6 13 100 11 0.0621738
7 13 100 11 0.0761729
8 13 100 11 0.0849485
9 13 100 11 0.0902874
10 13 100 11 0.1642
11 13 100 11 0.308261
1 14 100 11 0.0318406
2 14 100 11 0.0132076
3 14 100 11 0.0337837
4 14 100 11 0.0396836
5 14 100 11 0.0496916
6 14 100 11 0.0611691
7 14 100 11 0.0931618
8 14 100 11 0.0993081
9 14 100 11 0.0938878
10 14 100 11 0.127307
11 14 100 11 0.356959
1 15 100 11 0.0275803
2 15 100 11 0.0412797
3 15 100 11 0.0361307
4 15 100 11 0.0463254
5 15 100 11 0.0751716
6 15 100 11 0.0347247
7 15 100 11 0.0679719
8 15 100 11 0.0999718
9 15 100 11 0.0995502
10 15 100 11 0.16212
11 15 100 11 0.309173
1 16 100 11 0.054053
2 16 100 11 0.0692941
3 16 100 11 0.04451
4 16 100 11 0.0440875
5 16 100 11 0.0344859
6 16 100 11 0.0859807
7 16 100 11 0.124655
8 16 100 11 0.0518019
9 16 100 11 0.0808734
10 16 100 11 0.109468
11 16 100 11 0.300791
1 17 100 11 0.0031134
2 17 100 11 0.0300311
3 17 100 11 0.0601763
4 17 100 11 0.0362607
5 17 100 11 0.100293
6 17 100 11 0.0620519
7 17 100 11 0.114356
8 17 100 11 0.0861954
9 17 100 11 0.120873
10 17 100 11 0.0948433
11 17 100 11 0.291807
1 18 100 11 0.0977744
2 18 100 11 0.0957756
3 18 100 11 0.0479606
4 18 100 11 0.0484023
5 18 100 11 0.00013202
6 18 100 11 0.096707
7 18 100 11 0.00546891
8 18 100 11 0.0435699
9 18 100 11 0.0967141
10 18 100 11 0.117532
11 18 100 11 0.349963
1 19 100 11 1.2184e-05
2 19 100 11 0.000646503
3 19 100 11 0.136265
4 19 100 11 5.50426e-05
5 19 100 11 6.54404e-05
6 19 100 11 0.000260392
7 19 100 11 0.0409383
8 19 100 11 0.271739
9 19 100 11 0.137252
10 19 100 11 0.137752
11 19 100 11 0.275015
2 20 100 11 4.0792e-06
3 20 100 11 9.28667e-05
4 20 100 11 0.000145508
5 20 100 11 0.167246
6 20 100 11 0.00019542
7 20 100 11 0.166373
8 20 100 11 0.336688
9 20 100 11 0.323922
10 20 100 11 0.00533331
1 21 100 11 1.07331e-05
3 21 100 11 0.00176177
4 21 100 11 0.000302016
5 21 100 11 0.000625688
6 21 100 11 3.21667e-06
7 21 100 11 0.000985159
9 21 100 11 0.989491
10 21 100 11 0.00681304
11 21 100 11 7.27792e-06
1 22 100 11 0.159001
2 22 100 11 0.16524
3 22 100 11 0.000720634
4 22 100 11 0.160727
5 22 100 11 0.0812066
6 22 100 11 0.0805019
7 22 100 11 0.00728366
8 22 100 11 0.0805039
9 22 100 11 0.098953
10 22 100 11 0.0852708
11 22 100 11 0.0805909
1 23 100 11 0.00371446
2 23 100 11 0.101054
3 23 100 11 5.20477e-05
4 23 100 11 0.0241361
5 23 100 11 0.101081
6 23 100 11 0.101182
7 23 100 11 0.101081
8 23 100 11 0.101081
9 23 100 11 0.101343
10 23 100 11 0.247592
11 23 100 11 0.117684
1 24 100 11 0.170388
2 24 100 11 0.159862
3 24 100 11 0.154606
4 24 100 11 0.00284357
5 24 100 11 4.28503e-06
6 24 100 11 3.96174e-07
7 24 100 11 2.94324e-07
9 24 100 11 8.30724e-05
10 24 100 11 0.0904589
11 24 100 11 0.421754
2 25 100 11 4.29658e-05
3 25 100 11 6.86062e-05
4 25 100 11 3.67775e-06
6 25 100 11 1.51108e-05
9 25 100 11 6.70239e-06
10 25 100 11 0.112526
11 25 100 11 0.887337
3 26 100 11 0.000603285
4 26 100 11 0.982297
9 26 100 11 3.983e-06
10 26 100 11 0.0170959
3 27 100 11 1.07925e-05
4 27 100 11 2.22292e-06
5 27 100 11 6.20012e-06
6 27 100 11 1.201e-06
9 27 100 11 0.0232879
10 27 100 11 0.382996
11 27 100 11 0.593696
2 28 100 11 0.000810993
8 28 100 11 0.253769
9 28 100 11 4.59012e-05
10 28 100 11 0.118746
11 28 100 11 0.626628
3 29 100 11 0.254091
4 29 100 11 0.00175299
8 29 100 11 0.744014
10 29 100 11 0.000141821
3 30 100 11 3.73765e-07
4 30 100 11 4.03086e-07
5 30 100 11 0.0109765
6 30 100 11 0.187161
7 30 100 11 0.200018
8 30 100 11 0.200018
9 30 100 11 0.200028
10 30 100 11 0.201798
9 31 100 11 0.391487
10 31 100 11 3.82689e-06
11 31 100 11 0.608509
2 32 100 11 2.59149e-06
3 32 100 11 0.011291
4 32 100 11 0.434999
5 32 100 11 0.0463015
6 32 100 11 4.37635e-06
7 32 100 11 0.00700554
8 32 100 11 2.64572e-06
9 32 100 11 0.000140883
10 32 100 11 0.0529373
11 32 100 11 0.447315
4 33 100 11 0.0501325
6 33 100 11 0.949867
3 34 100 11 2.33035e-05
4 34 100 11 1.05604e-05
8 34 100 11 4.46686e-06
11 34 100 11 0.999962
1 35 100 11 7.82447e-05
2 35 100 11 9.46358e-06
3 35 100 11 0.0264908
4 35 100 11 0.0131665
5 35 100 11 0.945273
7 35 100 11 0.0144917
8 35 100 11 1.6445e-05
9 35 100 11 5.12004e-05
10 35 100 11 0.00042326
6 36 100 11 1
8 37 100 11 1
3 38 100 11 1.00923e-05
4 38 100 11 4.54748e-05
5 38 100 11 0.0046654
6 38 100 11 2.2246e-06
7 38 100 11 0.324138
8 38 100 11 0.00353756
9 38 100 11 0.333865
10 38 100 11 0.333735
6 39 100 11 0.628683
8 39 100 11 0.371317
6 41 100 11 4.44275e-05
11 41 100 11 0.999956
6 42 100 11 1.28799e-06
11 42 100 11 0.999999
1 0 100 12 7.56535e-05
2 0 100 12 0.116577
3 0 100 12 0.107903
4 0 100 12 0.0965156
5 0 100 12 0.0979686
6 0 100 12 0.0944438
7 0 100 12 0.0991396
8 0 100 12 0.0992882
9 0 100 12 0.0866934
10 0 100 12 0.0463059
11 0 100 12 0.137504
12 0 100 12 0.0175855
1 1 100 12 0.43007
2 1 100 12 0.0870947
3 1 100 12 0.0741103
4 1 100 12 0.0658263
5 1 100 12 0.062331
6 1 100 12 0.0463389
7 1 100 12 0.0455901
8 1 100 12 0.0386295
9 1 100 12 0.0396923
10 1 100 12 0.0579485
11 1 100 12 0.036401
12 1 100 12 0.0159679
1 2 100 12 0.181452
2 2 100 12 0.231065
3 2 100 12 0.120518
4 2 100 12 0.078001
5 2 100 12 0.0717374
6 2 100 12 0.0683109
7 2 100 12 0.0557703
8 2 100 12 0.0529433
9 2 100 12 0.0417071
10 2 100 12 0.0476649
11 2 100 12 0.0373692
12 2 100 12 0.0134604
1 3 100 12 0.0717041
2 3 100 12 0.15563
3 3 100 12 0.170788
4 3 100 12 0.12224
5 3 100 12 0.0854374
6 3 100 12 0.0651175
7 3 100 12 0.0599914
8 3 100 12 0.0512477
9 3 100 12 0.0797949
10 3 100 12 0.0814284
11 3 100 12 0.0465365
12 3 100 12 0.0100826
1 4 100 12 0.0902767
2 4 100 12 0.0867286
3 4 100 12 0.121486
4 4 100 12 0.132798
5 4 100 12 0.0972226
6 4 100 12 0.0698786
7 4 100 12 0.0754164
8 4 100 12 0.0734501
9 4 100 12 0.0888139
10 4 100 12 0.0902325
11 4 100 12 0.0561041
12 4 100 12 0.0175923
1 5 100 12 0.0838189
2 5 100 12 0.0766917
3 5 100 12 0.0793557
4 5 100 12 0.135751
5 5 100 12 0.11955
6 5 100 12 0.117943
7 5 100 12 0.073808
8 5 100 12 0.0765328
9 5 100 12 0.0813506
10 5 100 12 0.0902002
11 5 100 12 0.0531953
12 5 100 12 0.0118023
1 6 100 12 0.067679
2 6 100 12 0.0694075
3 6 100 12 0.0879836
4 6 100 12 0.0850128
5 6 100 12 0.114394
6 6 100 12 0.0977734
7 6 100 12 0.110264
8 6 100 12 0.0906312
9 6 100 12 0.0854669
10 6 100 12 0.101733
11 6 100 12 0.0675454
12 6 100 12 0.0221087
1 7 100 12 0.0530878
2 7 100 12 0.0537824
3 7 100 12 0.0838357
4 7 100 12 0.0941322
5 7 100 12 0.104755
6 7 100 12 0.127664
7 7 100 12 0.111592
8 7 100 12 0.0954295
9 7 100 12 0.0927021
10 7 100 12 0.0905737
11 7 100 12 0.067647
12 7 100 12 0.0247983
1 8 100 12 0.0412757
2 8 100 12 0.0601864
3 8 100 12 0.0763108
4 8 100 12 0.0929205
5 8 100 12 0.106075
6 8 100 12 0.103726
7 8 100 12 0.102312
8 8 100 12 0.105759
9 8 100 12 0.0917314
10 8 100 12 0.100296
11 8 100 12 0.0708067
12 8 100 12 0.0486002
1 9 100 12 0.044922
2 9 100 12 0.0372592
3 9 100 12 0.0546393
4 9 100 12 0.0768237
5 9 100 12 0.0808718
6 9 100 12 0.0997587
7 9 100 12 0.0962838
8 9 100 12 0.111374
9 9 100 12 0.115397
10 9 100 12 0.101001
11 9 100 12 0.0853162
12 9 100 12 0.096354
1 10 100 12 0.0444282
2 10 100 12 0.0380935
3 10 100 12 0.0501345
4 10 100 12 0.060956
5 10 100 12 0.0675182
6 10 100 12 0.0976083
7 10 100 12 0.103598
8 10 100 12 0.0898928
9 10 100 12 0.090677
10 10 100 12 0.108243
11 10 100 12 0.096679
12 10 100 12 0.152171
1 11 100 12 0.0462055
2 11 100 12 0.0340908
3 11 100 12 0.048392
4 11 100 12 0.0442277
5 11 100 12 0.0716551
6 11 100 12 0.0663647
7 11 100 12 0.0793896
8 11 100 12 0.103368
9 11 100 12 0.0967402
10 11 100 12 0.103732
11 11 100 12 0.0963759
12 11 100 12 0.209459
1 12 100 12 0.0284137
2 12 100 12 0.0342248
3 12 100 12 0.0297001
4 12 100 12 0.0371623
5 12 100 12 0.0423272
6 12 100 12 0.0627869
7 12 100 12 0.0747743
8 12 100 12 0.0859759
9 12 100 12 0.0939963
10 12 100 12 0.101624
11 12 100 12 0.11681
12 12 100 12 0.292204
1 13 100 12 0.0278267
2 13 100 12 0.040951
3 13 100 12 0.0467217
4 13 100 12 0.044134
5 13 100 12 0.0442085
6 13 100 12 0.0566196
7 13 100 12 0.0784422
8 13 100 12 0.0636838
9 13 100 12 0.0864601
10 13 100 12 0.120063
11 13 100 12 0.0972653
12 13 100 12 0.293624
1 14 100 12 0.0345372
2 14 100 12 0.042116
3 14 100 12 0.0383557
4 14 100 12 0.0471455
5 14 100 12 0.0481736
6 14 100 12 0.0496201
7 14 100 12 0.0572765
8 14 100 12 0.0820589
9 14 100 12 0.0855791
10 14 100 12 0.102705
11 14 100 12 0.141496
12 14 100 12 0.270937
1 15 100 12 0.0438662
2 15 100 12 0.0385591
3 15 100 12 0.0427168
4 15 100 12 0.0468315
5 15 100 12 0.0262508
6 15 100 12 0.0375254
7 15 100 12 0.0485671
8 15 100 12 0.0756864
9 15 100 12 0.100284
10 15 100 12 0.0977416
11 15 100 12 0.106715
12 15 100 12 0.335256
1 16 100 12 0.0205418
2 16 100 12 0.0147692
3 16 100 12 0.0223061
4 16 100 12 0.0216951
5 16 100 12 0.0119488
6 16 100 12 0.0305471
7 16 100 12 0.0791369
8 16 100 12 0.0845004
9 16 100 12 0.0946121
10 16 100 12 0.133245
11 16 100 12 0.129728
12 16 100 12 0.356969
1 17 100 12 0.0554974
2 17 100 12 0.0308114
3 17 100 12 0.0309437
4 17 100 12 0.0315399
5 17 100 12 0.0495114
6 17 100 12 0.0683892
7 17 100 12 0.0505599
8 17 100 12 0.0941474
9 17 100 12 0.0932082
10 17 100 12 0.0779159
11 17 100 12 0.0900028
12 17 100 12 0.327473
1 18 100 12 1.97083e-05
2 18 100 12 0.0410867
3 18 100 12 8.46743e-05
4 18 100 12 0.0406525
5 18 100 12 0.081993
6 18 100 12 0.0815032
7 18 100 12 0.00140926
8 18 100 12 0.163723
9 18 100 12 0.0118132
10 18 100 12 0.117737
11 18 100 12 0.0404557
12 18 100 12 0.419523
1 19 100 12 0.0238669
2 19 100 12 0.000181611
3 19 100 12 0.000806481
4 19 100 12 0.0690049
5 19 100 12 0.0145103
6 19 100 12 0.138351
7 19 100 12 0.133489
8 19 100 12 0.000412627
9 19 100 12 0.0693064
10 19 100 12 0.000675495
11 19 100 12 0.108425
12 19 100 12 0.440971
1 20 100 12 8.2875e-06
2 20 100 12 0.177932
3 20 100 12 0.180415
4 20 100 12 0.180924
5 20 100 12 0.212308
6 20 100 12 0.00100159
7 20 100 12 9.78116e-05
8 20 100 12 0.000155435
9 20 100 12 0.0010216
10 20 100 12 0.0157078
11 20 100 12 0.00365252
12 20 100 12 0.226775
1 21 100 12 0.0903717
2 21 100 12 0.0904521
3 21 100 12 0.0663149
4 21 100 12 0.0903765
5 21 100 12 0.0919234
6 21 100 12 0.00290395
7 21 100 12 0.0904275
8 21 100 12 0.0903725
9 21 100 12 0.0862711
10 21 100 12 0.0953987
11 21 100 12 0.114816
12 21 100 12 0.0903717
1 22 100 12 3.82909e-07
2 22 100 12 5.54448e-06
3 22 100 12 9.26133e-07
4 22 100 12 0.000286815
5 22 100 12 0.00733777
6 22 100 12 0.1254
7 22 100 12 0.126837
8 22 100 12 0.126722
9 22 100 12 0.126576
10 22 100 12 0.106236
11 22 100 12 0.128096
12 22 100 12 0.252502
1 23 100 12 0.00741287
2 23 100 12 1.19824e-05
3 23 100 12 3.55189e-06
4 23 100 12 0.000159248
5 23 100 12 0.000163593
6 23 100 12 0.0100611
7 23 100 12 0.253453
8 23 100 12 0.286009
9 23 100 12 0.321284
10 23 100 12 0.00398347
11 23 100 12 0.114647
12 23 100 12 0.00281064
2 24 100 12 8.34012e-07
5 24 100 12 8.56083e-07
7 24 100 12 1.32793e-05
9 24 100 12 3.87405e-06
10 24 100 12 0.00035792
11 24 100 12 0.229026
12 24 100 12 0.770597
2 25 100 12 0.000684928
4 25 100 12 9.25291e-05
5 25 100 12 0.0156206
6 25 100 12 6.34777e-05
7 25 100 12 0.0704156
8 25 100 12 0.911568
9 25 100 12 3.00201e-05
11 25 100 12 0.00152529
2 26 100 12 2.50494e-07
3 26 100 12 2.964e-06
4 26 100 12 0.00219608
5 26 100 12 0.245275
7 26 100 12 0.245569
8 26 100 12 0.0821059
9 26 100 12 0.24512
10 26 100 12 0.000906863
11 26 100 12 0.0615025
12 26 100 12 0.117321
4 27 100 12 4.29146e-07
5 27 100 12 4.02745e-06
7 27 100 12 8.24643e-06
8 27 100 12 6.91644e-06
9 27 100 12 3.54215e-06
10 27 100 12 0.347599
11 27 100 12 0.264914
12 27 100 12 0.387464
2 28 100 12 0.864513
4 28 100 12 0.0272297
7 28 100 12 0.00220512
8 28 100 12 0.000951924
11 28 100 12 0.1051
2 29 100 12 0.00478941
6 29 100 12 0.00030652
8 29 100 12 2.29088e-05
9 29 100 12 0.000199306
10 29 100 12 0.504992
11 29 100 12 0.489689
1 30 100 12 0.334541
2 30 100 12 1.11918e-06
3 30 100 12 0.334517
4 30 100 12 0.330567
5 30 100 12 0.000366864
9 30 100 12 3.99785e-07
10 30 100 12 6.85842e-06
2 31 100 12 0.129226
5 31 100 12 0.0079704
8 31 100 12 1.22813e-05
9 31 100 12 0.858615
11 31 100 12 0.00417642
2 32 100 12 1.17029e-05
3 32 100 12 1.41258e-06
5 32 100 12 3.16466e-06
7 32 100 12 0.000114857
8 32 100 12 2.58867e-06
9 32 100 12 2.64481e-05
10 32 100 12 4.7367e-06
11 32 100 12 0.0029208
12 32 100 12 0.996914
2 33 100 12 0.000410261
6 33 100 12 9.44288e-06
7 33 100 12 8.19924e-06
8 33 100 12 0.69613
9 33 100 12 8.22526e-06
10 33 100 12 0.0120305
11 33 100 12 0.291404
2 34 100 12 0.000189271
4 34 100 12 0.0505653
7 34 100 12 0.0275241
9 34 100 12 0.00215233
10 34 100 12 0.0106843
11 34 100 12 0.908885
2 35 100 12 1.18422e-06
7 35 100 12 1.55933e-06
10 35 100 12 0.00126376
11 35 100 12 0.219767
12 35 100 12 0.778967
2 36 100 12 4.91057e-06
7 36 100 12 6.14134e-05
9 36 100 12 1.136e-05
10 36 100 12 0.000164954
11 36 100 12 0.219626
12 36 100 12 0.780132
2 37 100 12 0.865939
5 37 100 12 0.12018
7 37 100 12 0.0138812
2 38 100 12 0.496174
5 38 100 12 0.151218
7 38 100 12 0.303725
11 38 100 12 0.048883
1 39 100 12 0.14278
3 39 100 12 0.14278
4 39 100 12 0.14278
6 39 100 12 0.14278
7 39 100 12 0.000539994
8 39 100 12 0.14278
9 39 100 12 0.14278
10 39 100 12 0.14278
11 39 100 12 1.75359e-06
2 40 100 12 1.10605e-05
5 40 100 12 9.05387e-06
7 40 100 12 9.85885e-05
9 40 100 12 1.35854e-05
11 40 100 12 0.243357
12 40 100 12 0.756511
11 41 100 12 1
11 42 100 12 1
5 45 100 12 0.0359651
7 45 100 12 0.000149114
11 45 100 12 0.963886
2 48 100 12 0.000228647
5 48 100 12 0.921523
7 48 100 12 0.076421
9 48 100 12 0.00174307
11 48 100 12 8.41443e-05
2 49 100 12 0.0188917
5 49 100 12 0.0171965
7 49 100 12 0.848039
9 49 100 12 0.115191
11 49 100 12 0.00068233
3 50 100 12 1
10 51 100 12 1
2 52 100 12 0.00010132
7 52 100 12 0.0031858
8 52 100 12 0.994217
9 52 100 12 0.00249399
11 52 100 12 2.05199e-06
2 53 100 12 0.0425152
5 53 100 12 0.0432465
7 53 100 12 0.189997
9 53 100 12 0.723788
11 53 100 12 0.000453101
1 54 100 12 0.238342
2 54 100 12 1.59671e-05
3 54 100 12 0.238311
4 54 100 12 0.236795
5 54 100 12 3.29381e-06
6 54 100 12 0.237703
7 54 100 12 1.1793e-05
8 54 100 12 0.000354423
9 54 100 12 7.71022e-06
10 54 100 12 0.0484493
11 54 100 12 6.69686e-06
2 55 100 12 5.39052e-06
5 55 100 12 2.95724e-06
7 55 100 12 1.77812e-05
9 55 100 12 2.67854e-06
11 55 100 12 0.106827
12 55 100 12 0.893144
1 0 100 13 0.000458712
2 0 100 13 0.0955117
3 0 100 13 0.103452
4 0 100 13 0.0873114
5 0 100 13 0.0964156
6 0 100 13 0.0853726
7 0 100 13 0.0860737
8 0 100 13 0.0904047
9 0 100 13 0.0984555
10 0 100 13 0.0695736
11 0 100 13 0.0403493
12 0 100 13 0.128547
13 0 100 13 0.0180747
1 1 100 13 0.399624
2 1 100 13 0.0872394
3 1 100 13 0.0660452
4 1 100 13 0.0648021
5 1 100 13 0.060434
6 1 100 13 0.0488873
7 1 100 13 0.0449977
8 1 100 13 0.0511136
9 1 100 13 0.0416657
10 1 100 13 0.0422393
11 1 100 13 0.0456765
12 1 100 13 0.0324815
13 1 100 13 0.0147937
1 2 100 13 0.157919
2 2 100 13 0.234348
3 2 100 13 0.0987391
4 2 100 13 0.093208
5 2 100 13 0.0605505
6 2 100 13 0.0710417
7 2 100 13 0.0597288
8 2 100 13 0.0369282
9 2 100 13 0.0476008
10 2 100 13 0.0431234
11 2 100 13 0.0435943
12 2 100 13 0.0381521
13 2 100 13 0.0150658
1 3 100 13 0.0882298
2 3 100 13 0.133694
3 3 100 13 0.197186
4 3 100 13 0.0944135
5 3 100 13 0.0799654
6 3 100 13 0.0577975
7 3 100 13 0.0624575
8 3 100 13 0.0572693
9 3 100 13 0.0500969
10 3 100 13 0.0676713
11 3 100 13 0.0665752
12 3 100 13 0.038474
13 3 100 13 0.0061693
1 4 100 13 0.0801208
2 4 100 13 0.11558
3 4 100 13 0.141943
4 4 100 13 0.129575
5 4 100 13 0.0755415
6 4 100 13 0.0653612
7 4 100 13 0.0686855
8 4 100 13 0.0662771
9 4 100 13 0.0527656
10 4 100 13 0.0620916
11 4 100 13 0.0768077
12 4 100 13 0.0502121
13 4 100 13 0.015039
1 5 100 13 0.089614
2 5 100 13 0.0761788
3 5 100 13 0.0856867
4 5 100 13 0.129376
5 5 100 13 0.0921023
6 5 100 13 0.0921179
7 5 100 13 0.0656632
8 5 100 13 0.0635846
9 5 100 13 0.0676078
10 5 100 13 0.0887776
11 5 100 13 0.0841323
12 5 100 13 0.0516893
13 5 100 13 0.0134694
1 6 100 13 0.0610347
2 6 100 13 0.0733802
3 6 100 13 0.0765515
4 6 100 13 0.105805
5 6 100 13 0.112701
6 6 100 13 0.108066
7 6 100 13 0.0901725
8 6 100 13 0.0804383
9 6 100 13 0.0619135
10 6 100 13 0.0786844
11 6 100 13 0.0849915
12 6 100 13 0.051495
13 6 100 13 0.014766
1 7 100 13 0.0535276
2 7 100 13 0.0553815
3 7 100 13 0.044057
4 7 100 13 0.0834235
5 7 100 13 0.114668
6 7 100 13 0.0893149
7 7 100 13 0.102308
8 7 100 13 0.0953746
9 7 100 13 0.0890804
10 7 100 13 0.0911812
11 7 100 13 0.102155
12 7 100 13 0.0609105
13 7 100 13 0.018618
1 8 100 13 0.0394945
2 8 100 13 0.0501161
3 8 100 13 0.0534449
4 8 100 13 0.0615665
5 8 100 13 0.0881283
6 8 100 13 0.113233
7 8 100 13 0.122231
8 8 100 13 0.092681
9 8 100 13 0.0903466
10 8 100 13 0.0903151
11 8 100 13 0.10982
12 8 100 13 0.0547221
13 8 100 13 0.0339007
1 9 100 13 0.0396788
2 9 100 13 0.0277557
3 9 100 13 0.065949
4 9 100 13 0.0622252
5 9 100 13 0.0631701
6 9 100 13 0.0990346
7 9 100 13 0.118892
8 9 100 13 0.102151
9 9 100 13 0.0932397
10 9 100 13 0.0917325
11 9 100 13 0.0964661
12 9 100 13 0.0694074
13 9 100 13 0.0702972
1 10 100 13 0.0507848
2 10 100 13 0.0385594
3 10 100 13 0.0434137
4 10 100 13 0.066541
5 10 100 13 0.0581574
6 10 100 13 0.0714331
7 10 100 13 0.0846504
8 10 100 13 0.0999941
9 10 100 13 0.0979816
10 10 100 13 0.0998561
11 10 100 13 0.104639
12 10 100 13 0.0846004
13 10 100 13 0.0993892
1 11 100 13 0.0264089
2 11 100 13 0.0381182
3 11 100 13 0.0363526
4 11 100 13 0.0562644
5 11 100 13 0.0668773
6 11 100 13 0.0628761
7 11 100 13 0.0756396
8 11 100 13 0.095624
9 11 100 13 0.0834818
10 11 100 13 0.0960957
11 11 100 13 0.109318
12 11 100 13 0.0887406
13 11 100 13 0.164203
1 12 100 13 0.0297722
2 12 100 13 0.0338159
3 12 100 13 0.0380565
4 12 100 13 0.0310163
5 12 100 13 0.0658073
6 12 100 13 0.0657486
7 12 100 13 0.0561766
8 12 100 13 0.0668504
9 12 100 13 0.0891714
10 12 100 13 0.0826769
11 12 100 13 0.10607
12 12 100 13 0.118718
13 12 100 13 0.216121
1 13 100 13 0.0220538
2 13 100 13 0.0269066
3 13 100 13 0.0307701
4 13 100 13 0.0352056
5 13 100 13 0.0534235
6 13 100 13 0.0663131
7 13 100 13 0.0694431
8 13 100 13 0.0724837
9 13 100 13 0.0881739
10 13 100 13 0.0924448
11 13 100 13 0.0865748
12 13 100 13 0.0935646
13 13 100 13 0.262642
1 14 100 13 0.0365241
2 14 100 13 0.0388601
3 14 100 13 0.0386468
4 14 100 13 0.037136
5 14 100 13 0.0433983
6 14 100 13 0.0580081
7 14 100 13 0.0490335
8 14 100 13 0.072869
9 14 100 13 0.0711029
10 14 100 13 0.0942737
11 14 100 13 0.0944797
12 14 100 13 0.0909343
13 14 100 13 0.274734
1 15 100 13 0.0323412
2 15 100 13 0.0387821
3 15 100 13 0.0411495
4 15 100 13 0.0468875
5 15 100 13 0.0345886
6 15 100 13 0.0569948
7 15 100 13 0.0480272
8 15 100 13 0.0442348
9 15 100 13 0.0673553
10 15 100 13 0.0856095
11 15 100 13 0.0580915
12 15 100 13 0.106042
13 15 100 13 0.339896
1 16 100 13 0.028436
2 16 100 13 0.0349343
3 16 100 13 0.0317402
4 16 100 13 0.0552482
5 16 100 13 0.0553042
6 16 100 13 0.0404641
7 16 100 13 0.032068
8 16 100 13 0.0554927
9 16 100 13 0.0676017
10 16 100 13 0.05776
11 16 100 13 0.115505
12 16 100 13 0.109278
13 16 100 13 0.316168
1 17 100 13 0.0431412
2 17 100 13 0.0122018
3 17 100 13 0.0347321
4 17 100 13 0.0473107
5 17 100 13 0.01985
6 17 100 13 0.067361
7 17 100 13 0.0504346
8 17 100 13 0.0592317
9 17 100 13 0.0429972
10 17 100 13 0.0605711
11 17 100 13 0.0402476
12 17 100 13 0.133569
13 17 100 13 0.388352
1 18 100 13 0.0354909
2 18 100 13 0.0699217
3 18 100 13 0.09321
4 18 100 13 0.000279756
5 18 100 13 0.0344665
6 18 100 13 0.0361982
7 18 100 13 0.00208058
8 18 100 13 0.000796488
9 18 100 13 0.0628504
10 18 100 13 0.0622122
11 18 100 13 0.13085
12 18 100 13 0.143884
13 18 100 13 0.327759
1 19 100 13 0.0205228
2 19 100 13 0.00966352
3 19 100 13 0.0254329
4 19 100 13 0.0312324
5 19 100 13 0.0242098
6 19 100 13 0.0819451
7 19 100 13 0.0930322
8 19 100 13 0.174514
9 19 100 13 0.0843515
10 19 100 13 0.10482
11 19 100 13 0.0765011
12 19 100 13 0.0814815
13 19 100 13 0.192293
1 20 100 13 0.0675743
2 20 100 13 0.0473987
3 20 100 13 0.0220928
4 20 100 13 1.14688e-05
5 20 100 13 0.0677545
6 20 100 13 0.000834848
7 20 100 13 0.121235
8 20 100 13 0.0805142
9 20 100 13 0.070168
10 20 100 13 0.000210177
11 20 100 13 0.000353593
12 20 100 13 0.0949938
13 20 100 13 0.426859
2 21 100 13 3.06374e-05
3 21 100 13 6.33348e-05
4 21 100 13 9.41631e-05
5 21 100 13 0.000963498
6 21 100 13 0.000117996
7 21 100 13 0.000257924
8 21 100 13 0.000290881
9 21 100 13 0.000232914
10 21 100 13 0.000263184
11 21 100 13 0.148419
12 21 100 13 0.0168964
13 21 100 13 0.83237
1 22 100 13 8.56382e-05
2 22 100 13 8.84294e-05
3 22 100 13 1.21609e-05
4 22 100 13 0.0267035
5 22 100 13 0.000357658
6 22 100 13 0.0687134
7 22 100 13 0.00123439
8 22 100 13 0.113633
9 22 100 13 0.0837033
10 22 100 13 0.163218
11 22 100 13 0.164934
12 22 100 13 0.129532
13 22 100 13 0.247783
1 23 100 13 1.06628e-06
2 23 100 13 4.25154e-05
3 23 100 13 6.70106e-06
4 23 100 13 0.00609984
5 23 100 13 0.000310689
6 23 100 13 0.00053235
7 23 100 13 1.29926e-05
8 23 100 13 0.160754
9 23 100 13 0.160661
10 23 100 13 0.160175
11 23 100 13 0.160566
12 23 100 13 0.0297103
13 23 100 13 0.321128
1 24 100 13 1.46258e-05
2 24 100 13 0.188252
3 24 100 13 0.00643605
4 24 100 13 0.00572398
5 24 100 13 0.147985
6 24 100 13 0.00742416
7 24 100 13 0.456476
8 24 100 13 0.0175503
9 24 100 13 0.000346585
10 24 100 13 0.000237272
11 24 100 13 0.00138274
12 24 100 13 0.168172
1 25 100 13 0.10261
2 25 100 13 0.00466185
3 25 100 13 0.0532442
4 25 100 13 0.0601118
5 25 100 13 0.0532505
6 25 100 13 0.157506
7 25 100 13 0.10691
8 25 100 13 0.0532834
9 25 100 13 0.102862
10 25 100 13 0.0541218
11 25 100 13 0.13201
12 25 100 13 0.066427
13 25 100 13 0.0530012
1 26 100 13 3.83677e-06
2 26 100 13 0.0116853
3 26 100 13 0.000608953
4 26 100 13 0.0991553
5 26 100 13 0.099298
6 26 100 13 0.000462002
7 26 100 13 0.0991219
8 26 100 13 3.94065e-05
9 26 100 13 0.102795
10 26 100 13 0.105158
11 26 100 13 0.092534
12 26 100 13 0.0918063
13 26 100 13 0.297332
1 27 100 13 0.110042
2 27 100 13 0.0830542
3 27 100 13 0.0782754
4 27 100 13 0.187277
5 27 100 13 0.165994
6 27 100 13 0.0153882
7 27 100 13 0.0116507
8 27 100 13 0.0014267
9 27 100 13 0.0830578
10 27 100 13 0.0817392
11 27 100 13 0.0824441
12 27 100 13 0.0165979
13 27 100 13 0.0830529
1 28 100 13 0.142309
2 28 100 13 0.275818
3 28 100 13 0.144002
4 28 100 13 6.88622e-06
5 28 100 13 0.144097
6 28 100 13 0.139226
7 28 100 13 0.15406
8 28 100 13 3.87671e-05
9 28 100 13 7.87869e-06
10 28 100 13 1.26413e-06
11 28 100 13 6.19466e-06
12 28 100 13 0.000425903
1 29 100 13 4.78801e-05
2 29 100 13 0.000361206
3 29 100 13 4.1499e-06
4 29 100 13 0.00159327
5 29 100 13 0.000150362
6 29 100 13 0.119876
7 29 100 13 0.121633
8 29 100 13 0.120507
9 29 100 13 7.62708e-07
10 29 100 13 0.121633
11 29 100 13 0.121502
12 29 100 13 0.0277945
13 29 100 13 0.364897
1 30 100 13 0.000150106
5 30 100 13 0.000540772
6 30 100 13 0.0153174
7 30 100 13 6.50733e-05
9 30 100 13 0.000843018
10 30 100 13 0.971489
11 30 100 13 0.00241867
12 30 100 13 0.00917617
2 31 100 13 0.931271
3 31 100 13 0.0107499
5 31 100 13 0.000205872
6 31 100 13 0.00854596
7 31 100 13 7.84715e-06
8 31 100 13 4.67764e-06
9 31 100 13 0.0341999
10 31 100 13 0.0145451
11 31 100 13 6.94452e-06
12 31 100 13 0.00046312
3 32 100 13 0.000172366
4 32 100 13 3.55722e-05
5 32 100 13 8.99039e-05
6 32 100 13 2.70519e-06
7 32 100 13 0.627531
8 32 100 13 0.371354
9 32 100 13 9.64538e-05
10 32 100 13 4.37757e-05
11 32 100 13 0.000194362
12 32 100 13 0.000479679
3 33 100 13 0.000133166
5 33 100 13 1.21506e-05
6 33 100 13 0.00449055
7 33 100 13 0.0466454
8 33 100 13 0.122123
9 33 100 13 0.212777
10 33 100 13 0.188339
11 33 100 13 0.212687
12 33 100 13 0.212792
1 34 100 13 0.283364
2 34 100 13 0.490641
4 34 100 13 0.218815
5 34 100 13 0.00688787
8 34 100 13 7.20405e-07
12 34 100 13 0.000291237
3 35 100 13 8.73188e-06
4 35 100 13 4.66619e-06
5 35 100 13 8.39441e-07
8 35 100 13 2.67109e-05
10 35 100 13 0.00311475
11 35 100 13 0.000237787
12 35 100 13 0.222485
13 35 100 13 0.774121
3 36 100 13 0.0986061
5 36 100 13 0.0492894
7 36 100 13 0.000573914
8 36 100 13 0.000491377
11 36 100 13 0.00396899
12 36 100 13 0.84707
1 37 100 13 0.000426003
3 37 100 13 1.35016e-06
4 37 100 13 3.27331e-05
5 37 100 13 1.52295e-06
7 37 100 13 0.00286743
8 37 100 13 0.0169361
9 37 100 13 0.195506
10 37 100 13 0.198765
11 37 100 13 0.186583
12 37 100 13 3.92182e-05
13 37 100 13 0.398842
5 38 100 13 4.05275e-06
12 38 100 13 0.127971
13 38 100 13 0.872025
2 39 100 13 0.998546
4 39 100 13 0.000957268
12 39 100 13 0.00049673
10 40 100 13 1
2 41 100 13 0.000470997
3 41 100 13 0.00341912
11 41 100 13 1.26434e-05
12 41 100 13 0.219857
13 41 100 13 0.77624
4 42 100 13 1.38152e-05
5 42 100 13 2.75932e-06
12 42 100 13 0.218181
13 42 100 13 0.781802
1 44 100 13 8.45859e-05
2 44 100 13 1.33678e-05
4 44 100 13 0.952765
5 44 100 13 0.046961
6 44 100 13 6.54038e-05
7 44 100 13 2.28298e-05
8 44 100 13 6.33832e-05
9 44 100 13 2.40223e-05
10 45 100 13 1
3 46 100 13 0.999799
5 46 100 13 0.000201468
12 47 100 13 1
4 49 100 13 0.00219272
5 49 100 13 0.240175
6 49 100 13 0.252743
7 49 100 13 0.250996
8 49 100 13 0.249177
9 49 100 13 0.00471466
10 49 100 13 5.20818e-07
10 50 100 13 1
3 51 100 13 1
4 54 100 13 5.22253e-06
5 54 100 13 1.87582e-05
6 54 100 13 9.97336e-06
7 54 100 13 3.23102e-05
8 54 100 13 0.0166179
9 54 100 13 0.982967
10 54 100 13 9.62753e-05
11 54 100 13 5.0166e-05
12 54 100 13 0.000202097
10 55 100 13 1
3 56 100 13 1
8 57 100 13 5.91755e-05
9 57 100 13 1.65501e-05
12 57 100 13 0.999924
8 59 100 13 0.00432445
9 59 100 13 0.188064
10 59 100 13 0.166655
11 59 100 13 0.373132
12 59 100 13 0.267824
10 60 100 13 0.999974
12 60 100 13 2.6208e-05
12 61 100 13 1
13 62 100 13 1
1 0 100 14 0.000391652
2 0 100 14 0.0937403
3 0 100 14 0.08765
4 0 100 14 0.0920476
5 0 100 14 0.0796851
6 0 100 14 0.0723633
7 0 100 14 0.0752372
8 0 100 14 0.0856584
9 0 100 14 0.0839334
10 0 100 14 0.084324
11 0 100 14 0.0785345
12 0 100 14 0.0380758
13 0 100 14 0.111746
14 0 100 14 0.0166128
1 1 100 14 0.359919
2 1 100 14 0.0882517
3 1 100 14 0.0725375
4 1 100 14 0.0736971
5 1 100 14 0.0579786
6 1 100 14 0.0544357
7 1 100 14 0.039718
8 1 100 14 0.0449003
9 1 100 14 0.0443774
10 1 100 14 0.0396339
11 1 100 14 0.0383669
12 1 100 14 0.0435475
13 1 100 14 0.0306016
14 1 100 14 0.0120347
1 2 100 14 0.18915
2 2 100 14 0.238282
3 2 100 14 0.0948122
4 2 100 14 0.0809313
5 2 100 14 0.0686456
6 2 100 14 0.0603023
7 2 100 14 0.0558126
8 2 100 14 0.0526654
9 2 100 14 0.039072
10 2 100 14 0.0273815
11 2 100 14 0.0317055
12 2 100 14 0.0376366
13 2 100 14 0.0154828
14 2 100 14 0.0081209
1 3 100 14 0.108289
2 3 100 14 0.160585
3 3 100 14 0.178077
4 3 100 14 0.093123
5 3 100 14 0.0628695
6 3 100 14 0.0613876
7 3 100 14 0.0414832
8 3 100 14 0.0597383
9 3 100 14 0.0271986
10 3 100 14 0.0420933
11 3 100 14 0.0537205
12 3 100 14 0.0580084
13 3 100 14 0.0451112
14 3 100 14 0.00831582
1 4 100 14 0.0927663
2 4 100 14 0.0896472
3 4 100 14 0.117279
4 4 100 14 0.129833
5 4 100 14 0.0873573
6 4 100 14 0.0726906
7 4 100 14 0.0685552
8 4 100 14 0.0404133
9 4 100 14 0.0647315
10 4 100 14 0.0601476
11 4 100 14 0.0629554
12 4 100 14 0.0662021
13 4 100 14 0.0401975
14 4 100 14 0.00722422
1 5 100 14 0.0748748
2 5 100 14 0.0721132
3 5 100 14 0.119282
4 5 100 14 0.107764
5 5 100 14 0.121853
6 5 100 14 0.0853446
7 5 100 14 0.0723647
8 5 100 14 0.0537204
9 5 100 14 0.0430199
10 5 100 14 0.0603601
11 5 100 14 0.0643651
12 5 100 14 0.0664981
13 5 100 14 0.0438223
14 5 100 14 0.014617
1 6 100 14 0.0516505
2 6 100 14 0.0634801
3 6 100 14 0.078067
4 6 100 14 0.0954274
5 6 100 14 0.112298
6 6 100 14 0.111216
7 6 100 14 0.0906174
8 6 100 14 0.0673616
9 6 100 14 0.0669736
10 6 100 14 0.0479829
11 6 100 14 0.0657707
12 6 100 14 0.0850352
13 6 100 14 0.0523715
14 6 100 14 0.0117475
1 7 100 14 0.0527195
2 7 100 14 0.0551026
3 7 100 14 0.0528823
4 7 100 14 0.0626217
5 7 100 14 0.106561
6 7 100 14 0.0980188
7 7 100 14 0.10939
8 7 100 14 0.0858203
9 7 100 14 0.0834448
10 7 100 14 0.0637805
11 7 100 14 0.0715537
12 7 100 14 0.084396
13 7 100 14 0.0575464
14 7 100 14 0.0161622
1 8 100 14 0.0405165
2 8 100 14 0.0420157
3 8 100 14 0.0581432
4 8 100 14 0.0680623
5 8 100 14 0.0906512
6 8 100 14 0.108015
7 8 100 14 0.100695
8 8 100 14 0.106963
9 8 100 14 0.0867214
10 8 100 14 0.0825359
11 8 100 14 0.0733927
12 8 100 14 0.0686377
13 8 100 14 0.0578941
14 8 100 14 0.015756
1 9 100 14 0.0307752
2 9 100 14 0.0374682
3 9 100 14 0.0521365
4 9 100 14 0.0641363
5 9 100 14 0.0781865
6 9 100 14 0.0862671
7 9 100 14 0.0980897
8 9 100 14 0.10307
9 9 100 14 0.0938665
10 9 100 14 0.0916105
11 9 100 14 0.0712183
12 9 100 14 0.0909289
13 9 100 14 0.0664241
14 9 100 14 0.0358221
1 10 100 14 0.0294335
2 10 100 14 0.0317341
3 10 100 14 0.0560935
4 10 100 14 0.0641676
5 10 100 14 0.0687367
6 10 100 14 0.0892207
7 10 100 14 0.0747392
8 10 100 14 0.0958008
9 10 100 14 0.0939174
10 10 100 14 0.0904532
11 10 100 14 0.0880398
12 10 100 14 0.0938394
13 10 100 14 0.0640881
14 10 100 14 0.0597359
1 11 100 14 0.0284042
2 11 100 14 0.0226049
3 11 100 14 0.0410116
4 11 100 14 0.0438684
5 11 100 14 0.0497694
6 11 100 14 0.0626
7 11 100 14 0.086076
8 11 100 14 0.0744161
9 11 100 14 0.093427
10 11 100 14 0.0971263
11 11 100 14 0.100099
12 11 100 14 0.102067
13 11 100 14 0.0805833
14 11 100 14 0.117946
1 12 100 14 0.035567
2 12 100 14 0.0327474
3 12 100 14 0.0245284
4 12 100 14 0.036169
5 12 100 14 0.0417099
6 12 100 14 0.056016
7 12 100 14 0.0699265
8 12 100 14 0.0929014
9 12 100 14 0.0748163
10 12 100 14 0.0846138
11 12 100 14 0.0848485
12 12 100 14 0.107185
13 12 100 14 0.0873916
14 12 100 14 0.171579
1 13 100 14 0.0291667
2 13 100 14 0.03004
3 13 100 14 0.0331611
4 13 100 14 0.0335071
5 13 100 14 0.045639
6 13 100 14 0.0496946
7 13 100 14 0.0655825
8 13 100 14 0.0496809
9 13 100 14 0.0876874
10 13 100 14 0.0813402
11 13 100 14 0.0813807
12 13 100 14 0.106325
13 13 100 14 0.106748
14 13 100 14 0.200047
1 14 100 14 0.0281863
2 14 100 14 0.0348915
3 14 100 14 0.0293029
4 14 100 14 0.0301129
5 14 100 14 0.0411195
6 14 100 14 0.0410296
7 14 100 14 0.0645536
8 14 100 14 0.0609009
9 14 100 14 0.0678806
10 14 100 14 0.0965716
11 14 100 14 0.0816815
12 14 100 14 0.100358
13 14 100 14 0.102365
14 14 100 14 0.221045
1 15 100 14 0.0204186
2 15 100 14 0.0334391
3 15 100 14 0.0250148
4 15 100 14 0.022949
5 15 100 14 0.0255609
6 15 100 14 0.0472029
7 15 100 14 0.063644
8 15 100 14 0.0488409
9 15 100 14 0.0686137
10 15 100 14 0.0750917
11 15 100 14 0.0975543
12 15 100 14 0.0834007
13 15 100 14 0.101456
14 15 100 14 0.286813
1 16 100 14 0.0355447
2 16 100 14 0.0288573
3 16 100 14 0.0271379
4 16 100 14 0.0383877
5 16 100 14 0.0288709
6 16 100 14 0.0440699
7 16 100 14 0.0248062
8 16 100 14 0.0534881
9 16 100 14 0.0750098
10 16 100 14 0.0593104
11 16 100 14 0.073742
12 16 100 14 0.0878413
13 16 100 14 0.099335
14 16 100 14 0.323599
1 17 100 14 0.00919996
2 17 100 14 0.0144641
3 17 100 14 0.0177814
4 17 100 14 0.0102228
5 17 100 14 0.0233212
6 17 100 14 0.0411203
7 17 100 14 0.0347239
8 17 100 14 0.0530001
9 17 100 14 0.0484732
10 17 100 14 0.0937148
11 17 100 14 0.0647894
12 17 100 14 0.0798971
13 17 100 14 0.126129
14 17 100 14 0.383163
1 18 100 14 0.0229138
2 18 100 14 0.0117897
3 18 100 14 0.0243029
4 18 100 14 0.013035
5 18 100 14 0.0359314
6 18 100 14 0.0343497
7 18 100 14 0.0481932
8 18 100 14 0.0257283
9 18 100 14 0.0613568
10 18 100 14 0.0932791
11 18 100 14 0.099277
12 18 100 14 0.0714848
13 18 100 14 0.107272
14 18 100 14 0.351087
1 19 100 14 0.0205108
2 19 100 14 0.000205423
3 19 100 14 0.0359959
4 19 100 14 0.0121409
5 19 100 14 0.0309367
6 19 100 14 0.00354187
7 19 100 14 0.0466788
8 19 100 14 0.0690191
9 19 100 14 0.10199
10 19 100 14 0.0540472
11 19 100 14 0.0572335
12 19 100 14 0.108157
13 19 100 14 0.147726
14 19 100 14 0.311817
1 20 100 14 7.66281e-06
2 20 100 14 5.09828e-05
3 20 100 14 0.0283374
4 20 100 14 0.0278651
5 20 100 14 0.0528273
6 20 100 14 0.0963588
7 20 100 14 0.0319273
8 20 100 14 0.100046
9 20 100 14 0.0779546
10 20 100 14 0.0552033
11 20 100 14 0.0874135
12 20 100 14 0.107426
13 20 100 14 0.0159645
14 20 100 14 0.318618
1 21 100 14 0.0952378
2 21 100 14 0.0224024
3 21 100 14 0.0449971
4 21 100 14 0.119692
5 21 100 14 0.0814786
6 21 100 14 0.0784029
7 21 100 14 0.084811
8 21 100 14 0.0800425
9 21 100 14 0.0816179
10 21 100 14 0.0400734
11 21 100 14 0.0841457
12 21 100 14 0.0834065
13 21 100 14 0.0636996
14 21 100 14 0.0399929
1 22 100 14 0.000110564
2 22 100 14 2.1907e-05
3 22 100 14 0.000926756
4 22 100 14 0.000166174
5 22 100 14 0.000383239
6 22 100 14 0.181981
7 22 100 14 0.00636423
8 22 100 14 0.0676844
9 22 100 14 0.0700997
10 22 100 14 0.0680389
11 22 100 14 0.0678686
12 22 100 14 0.0514249
13 22 100 14 0.111858
14 22 100 14 0.373071
1 23 100 14 0.0024057
2 23 100 14 0.121336
3 23 100 14 0.00170108
4 23 100 14 0.000206807
5 23 100 14 0.00397427
6 23 100 14 0.000410281
7 23 100 14 0.00957914
8 23 100 14 0.00603106
9 23 100 14 0.0994802
10 23 100 14 0.00219373
11 23 100 14 0.000728437
12 23 100 14 0.00317808
13 23 100 14 0.224886
14 23 100 14 0.523889
2 24 100 14 0.0190982
3 24 100 14 0.0819656
4 24 100 14 0.082403
5 24 100 14 0.0825502
6 24 100 14 0.0819284
7 24 100 14 0.082354
8 24 100 14 0.0830171
9 24 100 14 0.0819582
10 24 100 14 0.000799166
11 24 100 14 0.11538
12 24 100 14 0.163552
13 24 100 14 0.0431594
14 24 100 14 0.0818349
1 25 100 14 0.109534
2 25 100 14 0.0431113
3 25 100 14 0.113402
4 25 100 14 0.164541
5 25 100 14 0.0389324
6 25 100 14 0.0526908
7 25 100 14 8.7512e-06
8 25 100 14 0.0550248
9 25 100 14 0.109932
10 25 100 14 0.0550138
11 25 100 14 0.11002
12 25 100 14 0.109175
13 25 100 14 0.00207051
14 25 100 14 0.0365445
1 26 100 14 2.54936e-06
2 26 100 14 6.41525e-05
3 26 100 14 6.33996e-06
5 26 100 14 2.55053e-05
6 26 100 14 0.126287
7 26 100 14 0.000842768
8 26 100 14 0.000494696
9 26 100 14 0.000118384
10 26 100 14 8.35237e-06
11 26 100 14 0.0014289
12 26 100 14 0.258808
13 26 100 14 0.318318
14 26 100 14 0.293596
2 27 100 14 4.93557e-06
3 27 100 14 3.41447e-05
4 27 100 14 0.00200525
5 27 100 14 5.36529e-05
6 27 100 14 1.67296e-06
7 27 100 14 5.08175e-05
8 27 100 14 1.43337e-05
9 27 100 14 1.42638e-05
10 27 100 14 0.00802123
11 27 100 14 0.00343116
12 27 100 14 0.00194538
13 27 100 14 0.801823
14 27 100 14 0.1826
2 28 100 14 4.66622e-05
3 28 100 14 6.75249e-07
4 28 100 14 3.81891e-05
5 28 100 14 0.000121075
6 28 100 14 1.35471e-06
8 28 100 14 3.3775e-06
9 28 100 14 1.42623e-05
11 28 100 14 0.0179253
12 28 100 14 0.000494048
13 28 100 14 0.166547
14 28 100 14 0.814808
1 29 100 14 0.00704057
3 29 100 14 6.88681e-06
5 29 100 14 8.40544e-07
6 29 100 14 2.61499e-06
7 29 100 14 1.01899e-06
8 29 100 14 2.62968e-06
9 29 100 14 0.000124649
10 29 100 14 3.63683e-06
11 29 100 14 0.00176038
12 29 100 14 0.0279214
13 29 100 14 0.179434
14 29 100 14 0.783701
1 30 100 14 3.2691e-07
2 30 100 14 0.0845857
3 30 100 14 0.000823666
4 30 100 14 3.56927e-07
5 30 100 14 2.67466e-05
6 30 100 14 2.59627e-05
7 30 100 14 6.02369e-07
9 30 100 14 0.00423579
11 30 100 14 1.71095e-06
12 30 100 14 4.75971e-05
13 30 100 14 0.119998
14 30 100 14 0.790254
1 31 100 14 0.0506499
2 31 100 14 0.0506539
3 31 100 14 0.0506511
4 31 100 14 2.02127e-05
5 31 100 14 0.0523301
6 31 100 14 0.0139684
7 31 100 14 0.100298
8 31 100 14 0.0526767
9 31 100 14 0.00725683
10 31 100 14 0.152027
11 31 100 14 0.140888
12 31 100 14 0.150973
13 31 100 14 0.076304
14 31 100 14 0.101303
2 32 100 14 3.76885e-06
6 32 100 14 1.00213e-06
7 32 100 14 0.000646223
9 32 100 14 7.98614e-06
10 32 100 14 3.79303e-06
11 32 100 14 1.03484e-06
12 32 100 14 0.000160819
13 32 100 14 0.000824719
14 32 100 14 0.998351
3 33 100 14 8.27984e-07
8 33 100 14 1.30899e-05
9 33 100 14 0.000298436
10 33 100 14 2.17954e-05
12 33 100 14 0.00165864
13 33 100 14 0.231871
14 33 100 14 0.766136
2 34 100 14 2.11313e-06
3 34 100 14 2.06242e-06
8 34 100 14 1.02835e-05
10 34 100 14 0.000190256
11 34 100 14 5.72262e-06
12 34 100 14 0.000412276
13 34 100 14 0.240798
14 34 100 14 0.758579
6 35 100 14 0.00827726
8 35 100 14 0.00960812
9 35 100 14 0.160481
10 35 100 14 0.162845
11 35 100 14 0.147018
12 35 100 14 0.162845
13 35 100 14 0.186082
14 35 100 14 0.162844
2 36 100 14 0.000133398
4 36 100 14 8.02792e-07
6 36 100 14 1.23852e-05
8 36 100 14 2.8367e-06
13 36 100 14 0.238026
14 36 100 14 0.761824
4 37 100 14 0.00599678
6 37 100 14 0.0482572
9 37 100 14 0.945619
13 37 100 14 0.000126937
6 38 100 14 3.33456e-06
13 38 100 14 4.02372e-05
14 38 100 14 0.999956
12 39 100 14 1
12 40 100 14 1.64248e-06
13 40 100 14 0.231211
14 40 100 14 0.768788
14 45 100 14 1
1 0 100 15 0.000240258
2 0 100 15 0.0843732
3 0 100 15 0.0948031
4 0 100 15 0.0687052
5 0 100 15 0.0718928
6 0 100 15 0.0737423
7 0 100 15 0.0626116
8 0 100 15 0.0750722
9 0 100 15 0.0723269
10 0 100 15 0.074114
11 0 100 15 0.0829983
12 0 100 15 0.0703414
13 0 100 15 0.037102
14 0 100 15 0.117656
15 0 100 15 0.0140204
1 1 100 15 0.406079
2 1 100 15 0.082584
3 1 100 15 0.0539276
4 1 100 15 0.0586124
5 1 100 15 0.0502695
6 1 100 15 0.0446436
7 1 100 15 0.0445423
8 1 100 15 0.0379587
9 1 100 15 0.0423035
10 1 100 15 0.0348448
11 1 100 15 0.0406084
12 1 100 15 0.0280529
13 1 100 15 0.0384366
14 1 100 15 0.0255761
15 1 100 15 0.0115601
1 2 100 15 0.15229
2 2 100 15 0.22275
3 2 100 15 0.0907058
4 2 100 15 0.0774394
5 2 100 15 0.0720099
6 2 100 15 0.0540143
7 2 100 15 0.0434701
8 2 100 15 0.0491308
9 2 100 15 0.0487628
10 2 100 15 0.0385741
11 2 100 15 0.0355648
12 2 100 15 0.0456033
13 2 100 15 0.0314737
14 2 100 15 0.0307021
15 2 100 15 0.00750916
1 3 100 15 0.102432
2 3 100 15 0.14856
3 3 100 15 0.166495
4 3 100 15 0.101187
5 3 100 15 0.0761628
6 3 100 15 0.0710313
7 3 100 15 0.0434471
8 3 100 15 0.0349361
9 3 100 15 0.0294413
10 3 100 15 0.0316885
11 3 100 15 0.0304497
12 3 100 15 0.0449625
13 3 100 15 0.0646727
14 3 100 15 0.0412833
15 3 100 15 0.0132507
1 4 100 15 0.0846135
2 4 100 15 0.106965
3 4 100 15 0.111516
4 4 100 15 0.127528
5 4 100 15 0.0919255
6 4 100 15 0.0706603
7 4 100 15 0.059501
8 4 100 15 0.0440567
9 4 100 15 0.0470929
10 4 100 15 0.0411343
11 4 100 15 0.0440257
12 4 100 15 0.0583446
13 4 100 15 0.0695622
14 4 100 15 0.0371707
15 4 100 15 0.00590442
1 5 100 15 0.0706253
2 5 100 15 0.0777513
3 5 100 15 0.0910475
4 5 100 15 0.117249
5 5 100 15 0.109236
6 5 100 15 0.0890094
7 5 100 15 0.0719154
8 5 100 15 0.055022
9 5 100 15 0.0450151
10 5 100 15 0.0639804
11 5 100 15 0.0529321
12 5 100 15 0.0582455
13 5 100 15 0.047333
14 5 100 15 0.0362446
15 5 100 15 0.0143929
1 6 100 15 0.0503703
2 6 100 15 0.0641198
3 6 100 15 0.074131
4 6 100 15 0.0938507
5 6 100 15 0.0972285
6 6 100 15 0.100059
7 6 100 15 0.0945832
8 6 100 15 0.0889431
9 6 100 15 0.057049
10 6 100 15 0.0477171
11 6 100 15 0.0613387
12 6 100 15 0.0641474
13 6 100 15 0.0718946
14 6 100 15 0.0288351
15 6 100 15 0.00573242
1 7 100 15 0.0530527
2 7 100 15 0.0498918
3 7 100 15 0.0561884
4 7 100 15 0.0676097
5 7 100 15 0.0885837
6 7 100 15 0.0901537
7 7 100 15 0.104003
8 7 100 15 0.083813
9 7 100 15 0.0808409
10 7 100 15 0.0642473
11 7 100 15 0.0623101
12 7 100 15 0.0514085
13 7 100 15 0.0778643
14 7 100 15 0.0465836
15 7 100 15 0.0234494
1 8 100 15 0.048766
2 8 100 15 0.0448144
3 8 100 15 0.0514651
4 8 100 15 0.0713637
5 8 100 15 0.0766937
6 8 100 15 0.0837699
7 8 100 15 0.0944184
8 8 100 15 0.0805032
9 8 100 15 0.093713
10 8 100 15 0.0777975
11 8 100 15 0.0761497
12 8 100 15 0.0793313
13 8 100 15 0.0672389
14 8 100 15 0.0348194
15 8 100 15 0.0191559
1 9 100 15 0.0410071
2 9 100 15 0.0407428
3 9 100 15 0.0386442
4 9 100 15 0.0715953
5 9 100 15 0.0752056
6 9 100 15 0.0786497
7 9 100 15 0.104524
8 9 100 15 0.0957737
9 9 100 15 0.105766
10 9 100 15 0.0841385
11 9 100 15 0.0694784
12 9 100 15 0.0511035
13 9 100 15 0.0744938
14 9 100 15 0.0484952
15 9 100 15 0.020382
1 10 100 15 0.0224969
2 10 100 15 0.0262944
3 10 100 15 0.0523474
4 10 100 15 0.0468474
5 10 100 15 0.0784085
6 10 100 15 0.0717231
7 10 100 15 0.0779596
8 10 100 15 0.0942445
9 10 100 15 0.0799195
10 10 100 15 0.111813
11 10 100 15 0.0799477
12 10 100 15 0.0728185
13 10 100 15 0.0779234
14 10 100 15 0.0658415
15 10 100 15 0.0414147
1 11 100 15 0.0239329
2 11 100 15 0.0315504
3 11 100 15 0.0508517
4 11 100 15 0.0527695
5 11 100 15 0.056707
6 11 100 15 0.0665963
7 11 100 15 0.0722762
8 11 100 15 0.0718322
9 11 100 15 0.0903065
10 11 100 15 0.0697189
11 11 100 15 0.0834568
12 11 100 15 0.0871877
13 11 100 15 0.0877292
14 11 100 15 0.0718257
15 11 100 15 0.0832592
1 12 100 15 0.0214218
2 12 100 15 0.0194341
3 12 100 15 0.0365982
4 12 100 15 0.0448902
5 12 100 15 0.0549866
6 12 100 15 0.0639949
7 12 100 15 0.0723813
8 12 100 15 0.0714794
9 12 100 15 0.080276
10 12 100 15 0.100246
11 12 100 15 0.079831
12 12 100 15 0.0852839
13 12 100 15 0.0905832
14 12 100 15 0.072577
15 12 100 15 0.106016
1 13 100 15 0.0211175
2 13 100 15 0.0257688
3 13 100 15 0.0247509
4 13 100 15 0.0390249
5 13 100 15 0.0318886
6 13 100 15 0.0529357
7 13 100 15 0.0526022
8 13 100 15 0.0736589
9 13 100 15 0.0713384
10 13 100 15 0.0800988
11 13 100 15 0.0991645
12 13 100 15 0.0908293
13 13 100 15 0.110804
14 13 100 15 0.0901126
15 13 100 15 0.135905
1 14 100 15 0.0247491
2 14 100 15 0.0167291
3 14 100 15 0.0383167
4 14 100 15 0.0363615
5 14 100 15 0.0372068
6 14 100 15 0.0509721
7 14 100 15 0.0643607
8 14 100 15 0.0601308
9 14 100 15 0.0751597
10 14 100 15 0.0647789
11 14 100 15 0.0559357
12 14 100 15 0.0897278
13 14 100 15 0.0857878
14 14 100 15 0.0796497
15 14 100 15 0.220134
1 15 100 15 0.0122183
2 15 100 15 0.0222627
3 15 100 15 0.0224552
4 15 100 15 0.0275441
5 15 100 15 0.0325216
6 15 100 15 0.0395209
7 15 100 15 0.0506281
8 15 100 15 0.0500795
9 15 100 15 0.0641313
10 15 100 15 0.0908504
11 15 100 15 0.0660161
12 15 100 15 0.0732228
13 15 100 15 0.10511
14 15 100 15 0.0862444
15 15 100 15 0.257194
1 16 100 15 0.0209239
2 16 100 15 0.0234382
3 16 100 15 0.0341295
4 16 100 15 0.0360482
5 16 100 15 0.0289869
6 16 100 15 0.0293301
7 16 100 15 0.053516
8 16 100 15 0.0520805
9 16 100 15 0.0509632
10 16 100 15 0.0663762
11 16 100 15 0.0769559
12 16 100 15 0.0724735
13 16 100 15 0.0799618
14 16 100 15 0.0902305
15 16 100 15 0.284586
1 17 100 15 0.0223735
2 17 100 15 0.0215111
3 17 100 15 0.00564746
4 17 100 15 0.0332532
5 17 100 15 0.0424709
6 17 100 15 0.0406097
7 17 100 15 0.0431014
8 17 100 15 0.0687577
9 17 100 15 0.0383117
10 17 100 15 0.0324064
11 17 100 15 0.0763818
12 17 100 15 0.0712106
13 17 100 15 0.0997752
14 17 100 15 0.123914
15 17 100 15 0.280276
1 18 100 15 0.0258138
2 18 100 15 0.00192994
3 18 100 15 0.0106273
4 18 100 15 0.0192128
5 18 100 15 0.0292812
6 18 100 15 0.030746
7 18 100 15 0.0275741
8 18 100 15 0.0677251
9 18 100 15 0.0854489
10 18 100 15 0.0635843
11 18 100 15 0.0730369
12 18 100 15 0.0899406
13 18 100 15 0.0601647
14 18 100 15 0.0973738
15 18 100 15 0.31754
1 19 100 15 0.034157
2 19 100 15 0.0254741
3 19 100 15 0.0105567
4 19 100 15 0.0403563
5 19 100 15 0.0337096
6 19 100 15 0.0205504
7 19 100 15 0.034789
8 19 100 15 0.0350021
9 19 100 15 0.0511841
10 19 100 15 0.0469711
11 19 100 15 0.0543805
12 19 100 15 0.0879026
13 19 100 15 0.0875524
14 19 100 15 0.120281
15 19 100 15 0.317134
1 20 100 15 3.92241e-06
2 20 100 15 1.64499e-05
3 20 100 15 0.00241091
4 20 100 15 0.0579183
5 20 100 15 0.0141175
6 20 100 15 0.0275598
7 20 100 15 0.0494668
8 20 100 15 0.0561125
9 20 100 15 0.0372175
10 20 100 15 0.0464369
11 20 100 15 0.0692987
12 20 100 15 0.100308
13 20 100 15 0.035411
14 20 100 15 0.10358
15 20 100 15 0.400141
1 21 100 15 4.50595e-05
2 21 100 15 7.17691e-05
3 21 100 15 0.000110881
4 21 100 15 0.0317746
5 21 100 15 0.114499
6 21 100 15 0.0263997
7 21 100 15 0.0321546
8 21 100 15 0.0317274
9 21 100 15 4.46408e-05
10 21 100 15 0.0969414
11 21 100 15 0.0318356
12 21 100 15 0.0944622
13 21 100 15 0.0953095
14 21 100 15 0.126988
15 21 100 15 0.317636
1 22 100 15 0.0631959
2 22 100 15 0.0599231
3 22 100 15 0.0603068
4 22 100 15 0.0318184
5 22 100 15 0.0196171
6 22 100 15 0.0459898
7 22 100 15 0.0599404
8 22 100 15 0.0636339
9 22 100 15 0.0319618
10 22 100 15 0.0636175
11 22 100 15 0.031936
12 22 100 15 0.0384121
13 22 100 15 0.168517
14 22 100 15 0.102042
15 22 100 15 0.159087
1 23 100 15 0.306951
2 23 100 15 0.00218561
3 23 100 15 0.000851019
4 23 100 15 9.4675e-06
6 23 100 15 0.000301075
7 23 100 15 0.000229236
8 23 100 15 4.72939e-07
9 23 100 15 0.000370266
10 23 100 15 0.000863778
11 23 100 15 0.000223562
12 23 100 15 0.283278
13 23 100 15 0.0583975
14 23 100 15 0.346322
15 23 100 15 1.74051e-05
1 24 100 15 0.059027
2 24 100 15 0.436442
3 24 100 15 0.00110065
6 24 100 15 0.00140258
8 24 100 15 0.0251922
9 24 100 15 1.94606e-05
10 24 100 15 6.73646e-06
11 24 100 15 0.000309471
13 24 100 15 0.000226866
14 24 100 15 0.0102165
15 24 100 15 0.466056
1 25 100 15 3.14478e-07
2 25 100 15 0.0562569
3 25 100 15 0.0752096
4 25 100 15 1.0836e-06
5 25 100 15 0.0121197
7 25 100 15 0.12622
8 25 100 15 0.125061
9 25 100 15 3.56719e-05
10 25 100 15 0.232035
11 25 100 15 0.000479544
12 25 100 15 0.129206
13 25 100 15 0.115758
14 25 100 15 0.000112671
15 25 100 15 0.127505
1 26 100 15 4.69879e-07
2 26 100 15 2.72179e-05
3 26 100 15 6.93333e-05
4 26 100 15 6.94258e-07
6 26 100 15 3.69488e-05
7 26 100 15 0.235432
8 26 100 15 1.63048e-06
9 26 100 15 0.000114387
10 26 100 15 3.95118e-06
11 26 100 15 3.01505e-05
13 26 100 15 0.0157375
14 26 100 15 0.0761471
15 26 100 15 0.672398
3 27 100 15 0.091775
6 27 100 15 0.192921
8 27 100 15 0.0215346
9 27 100 15 0.00379278
10 27 100 15 0.0323739
11 27 100 15 0.00274468
12 27 100 15 7.87334e-05
13 27 100 15 8.88662e-05
14 27 100 15 0.0761027
15 27 100 15 0.578588
3 28 100 15 0.0229566
5 28 100 15 0.838031
6 28 100 15 0.00140703
7 28 100 15 0.136624
9 28 100 15 0.00057951
11 28 100 15 0.000194269
13 28 100 15 6.63103e-06
14 28 100 15 0.000201195
2 29 100 15 3.20049e-06
3 29 100 15 1.95327e-05
6 29 100 15 1.44595e-05
8 29 100 15 0.0977961
9 29 100 15 0.000130897
13 29 100 15 0.0121082
14 29 100 15 0.141489
15 29 100 15 0.748438
1 30 100 15 3.07642e-06
3 30 100 15 0.0152576
5 30 100 15 1.30706e-05
6 30 100 15 0.000325745
8 30 100 15 0.00201923
9 30 100 15 0.00414774
11 30 100 15 6.08835e-06
13 30 100 15 1.00258e-05
14 30 100 15 0.0332598
15 30 100 15 0.944958
2 31 100 15 4.21011e-05
3 31 100 15 7.89183e-06
4 31 100 15 0.100368
5 31 100 15 0.000634187
9 31 100 15 0.0955247
10 31 100 15 0.0984174
11 31 100 15 0.0990509
12 31 100 15 0.192277
13 31 100 15 0.198224
14 31 100 15 0.116403
15 31 100 15 0.0990509
9 32 100 15 2.62175e-06
14 32 100 15 0.0191664
15 32 100 15 0.980831
1 33 100 15 0.27624
9 33 100 15 0.72376
2 34 100 15 8.13396e-05
3 34 100 15 1.41225e-05
8 34 100 15 0.0999396
9 34 100 15 0.899588
10 34 100 15 0.000373107
13 34 100 15 4.22932e-06
1 35 100 15 0.669526
2 35 100 15 0.0627174
4 35 100 15 8.05661e-06
7 35 100 15 0.00450276
8 35 100 15 0.000105562
9 35 100 15 7.82536e-05
10 35 100 15 0.229791
13 35 100 15 0.0332713
3 37 100 15 0.969874
6 37 100 15 0.0113802
8 37 100 15 0.0128097
9 37 100 15 0.0034794
12 37 100 15 0.0023315
14 37 100 15 0.000124851
2 38 100 15 9.72283e-06
5 38 100 15 6.389e-05
7 38 100 15 0.999863
11 38 100 15 6.389e-05
2 39 100 15 0.99995
3 39 100 15 9.71179e-06
5 39 100 15 1.08197e-05
8 39 100 15 7.57399e-06
11 39 100 15 1.08197e-05
14 39 100 15 1.13898e-05
2 40 100 15 0.00159333
3 40 100 15 1.61903e-06
4 40 100 15 0.00207104
5 40 100 15 0.00237956
6 40 100 15 0.00159796
7 40 100 15 0.000672958
8 40 100 15 0.000654608
9 40 100 15 0.000572567
10 40 100 15 0.00159332
11 40 100 15 0.00177839
12 40 100 15 0.0021594
13 40 100 15 0.000333107
14 40 100 15 1.52205e-05
15 40 100 15 0.984577
1 41 100 15 0.1047
2 41 100 15 0.125307
4 41 100 15 0.123993
5 41 100 15 1.02297e-05
6 41 100 15 0.127159
7 41 100 15 0.126664
8 41 100 15 0.125431
9 41 100 15 0.014659
10 41 100 15 0.122475
11 41 100 15 1.02297e-05
12 41 100 15 0.127085
13 41 100 15 0.00250657
3 42 100 15 0.451661
13 42 100 15 0.548339
3 43 100 15 0.00389354
5 43 100 15 0.000699475
8 43 100 15 3.65919e-05
11 43 100 15 0.000699475
13 43 100 15 0.16304
14 43 100 15 0.831631
7 44 100 15 0.000115173
13 44 100 15 0.998008
14 44 100 15 0.00187695
13 45 100 15 0.000366115
14 45 100 15 0.218804
15 45 100 15 0.78083
1 0 100 16 0.000702718
2 0 100 16 0.0728607
3 0 100 16 0.0900182
4 0 100 16 0.0694858
5 0 100 16 0.0702026
6 0 100 16 0.0698411
7 0 100 16 0.0617568
8 0 100 16 0.0662346
9 0 100 16 0.0730752
10 0 100 16 0.0680059
11 0 100 16 0.0678899
12 0 100 16 0.0817665
13 0 100 16 0.0634598
14 0 100 16 0.0338582
15 0 100 16 0.0966536
16 0 100 16 0.0141886
1 1 100 16 0.406751
2 1 100 16 0.097298
3 1 100 16 0.0607725
4 1 100 16 0.0611177
5 1 100 16 0.0458527
6 1 100 16 0.040656
7 1 100 16 0.0483089
8 1 100 16 0.0405677
9 1 100 16 0.0403084
10 1 100 16 0.0343595
11 1 100 16 0.0271502
12 1 100 16 0.0227401
13 1 100 16 0.0310602
14 1 100 16 0.0267464
15 1 100 16 0.0144925
16 1 100 16 0.00181783
1 2 100 16 0.162378
2 2 100 16 0.180713
3 2 100 16 0.0994701
4 2 100 16 0.0836718
5 2 100 16 0.0634503
6 2 100 16 0.0553576
7 2 100 16 0.0345077
8 2 100 16 0.0391925
9 2 100 16 0.0347646
10 2 100 16 0.0393292
11 2 100 16 0.050109
12 2 100 16 0.0382664
13 2 100 16 0.0373012
14 2 100 16 0.0366383
15 2 100 16 0.0344041
16 2 100 16 0.0104463
1 3 100 16 0.0801477
2 3 100 16 0.136469
3 3 100 16 0.159805
4 3 100 16 0.106305
5 3 100 16 0.0768348
6 3 100 16 0.0614414
7 3 100 16 0.0483489
8 3 100 16 0.0396461
9 3 100 16 0.0408061
10 3 100 16 0.0346559
11 3 100 16 0.0281229
12 3 100 16 0.0408624
13 3 100 16 0.0419774
14 3 100 16 0.0592323
15 3 100 16 0.0320194
16 3 100 16 0.0133264
1 4 100 16 0.0941111
2 4 100 16 0.109577
3 4 100 16 0.116766
4 4 100 16 0.135548
5 4 100 16 0.0966166
6 4 100 16 0.067165
7 4 100 16 0.0593367
8 4 100 16 0.0458262
9 4 100 16 0.0444922
10 4 100 16 0.0480267
11 4 100 16 0.0260792
12 4 100 16 0.0313676
13 4 100 16 0.0490537
14 4 100 16 0.0545746
15 4 100 16 0.0160254
16 4 100 16 0.00543446
1 5 100 16 0.087543
2 5 100 16 0.0825218
3 5 100 16 0.0736245
4 5 100 16 0.116959
5 5 100 16 0.125295
6 5 100 16 0.0938982
7 5 100 16 0.0621675
8 5 100 16 0.0623774
9 5 100 16 0.042177
10 5 100 16 0.0336855
11 5 100 16 0.0507806
12 5 100 16 0.0444268
13 5 100 16 0.0390063
14 5 100 16 0.0449283
15 5 100 16 0.0309755
16 5 100 16 0.00963429
1 6 100 16 0.0768368
2 6 100 16 0.079004
3 6 100 16 0.0714325
4 6 100 16 0.062331
5 6 100 16 0.103187
6 6 100 16 0.0974052
7 6 100 16 0.0889076
8 6 100 16 0.0519492
9 6 100 16 0.0608829
10 6 100 16 0.0550085
11 6 100 16 0.0405707
12 6 100 16 0.0476511
13 6 100 16 0.048375
14 6 100 16 0.0599346
15 6 100 16 0.0440754
16 6 100 16 0.0124488
1 7 100 16 0.0493591
2 7 100 16 0.0657188
3 7 100 16 0.0612728
4 7 100 16 0.0757797
5 7 100 16 0.0680498
6 7 100 16 0.0812092
7 7 100 16 0.087595
8 7 100 16 0.0799699
9 7 100 16 0.0709899
10 7 100 16 0.0657492
11 7 100 16 0.0583817
12 7 100 16 0.0546539
13 7 100 16 0.0585509
14 7 100 16 0.0723178
15 7 100 16 0.0404082
16 7 100 16 0.00999405
1 8 100 16 0.0331301
2 8 100 16 0.0451651
3 8 100 16 0.0573199
4 8 100 16 0.0635225
5 8 100 16 0.0878889
6 8 100 16 0.0843292
7 8 100 16 0.103342
8 8 100 16 0.106253
9 8 100 16 0.0686622
10 8 100 16 0.0772905
11 8 100 16 0.060696
12 8 100 16 0.0408893
13 8 100 16 0.0539965
14 8 100 16 0.0612249
15 8 100 16 0.0426933
16 8 100 16 0.0135972
1 9 100 16 0.0269212
2 9 100 16 0.0236464
3 9 100 16 0.0438951
4 9 100 16 0.0576152
5 9 100 16 0.0545592
6 9 100 16 0.0756779
7 9 100 16 0.101262
8 9 100 16 0.104845
9 9 100 16 0.0908069
10 9 100 16 0.0675629
11 9 100 16 0.0706914
12 9 100 16 0.0723283
13 9 100 16 0.0652497
14 9 100 16 0.0740242
15 9 100 16 0.047047
16 9 100 16 0.0238668
1 10 100 16 0.0168173
2 10 100 16 0.0281587
3 10 100 16 0.0415999
4 10 100 16 0.0585268
5 10 100 16 0.0596255
6 10 100 16 0.0682302
7 10 100 16 0.0737148
8 10 100 16 0.0833172
9 10 100 16 0.0989156
10 10 100 16 0.0907516
11 10 100 16 0.0806133
12 10 100 16 0.0752478
13 10 100 16 0.0726668
14 10 100 16 0.0720806
15 10 100 16 0.0526701
16 10 100 16 0.0270637
1 11 100 16 0.0234878
2 11 100 16 0.0282641
3 11 100 16 0.0322315
4 11 100 16 0.0408154
5 11 100 16 0.0531532
6 11 100 16 0.0753785
7 11 100 16 0.0628315
8 11 100 16 0.0717375
9 11 100 16 0.0891639
10 11 100 16 0.0828139
11 11 100 16 0.0814825
12 11 100 16 0.0842381
13 11 100 16 0.0722785
14 11 100 16 0.0809865
15 11 100 16 0.0655993
16 11 100 16 0.0555377
1 12 100 16 0.0290481
2 12 100 16 0.0222851
3 12 100 16 0.0394572
4 12 100 16 0.038731
5 12 100 16 0.0448725
6 12 100 16 0.0440777
7 12 100 16 0.066706
8 12 100 16 0.0613734
9 12 100 16 0.0667915
10 12 100 16 0.0968973
11 12 100 16 0.0918615
12 12 100 16 0.0865335
13 12 100 16 0.0894725
14 12 100 16 0.0812249
15 12 100 16 0.0660664
16 12 100 16 0.0746016
1 13 100 16 0.0219316
2 13 100 16 0.0261695
3 13 100 16 0.0210971
4 13 100 16 0.0434709
5 13 100 16 0.0337182
6 13 100 16 0.0526937
7 13 100 16 0.0409163
8 13 100 16 0.0582197
9 13 100 16 0.0567246
10 13 100 16 0.0817789
11 13 100 16 0.0966006
12 13 100 16 0.0809735
13 13 100 16 0.0728204
14 13 100 16 0.0983249
15 13 100 16 0.0872217
16 13 100 16 0.127339
1 14 100 16 0.0246185
2 14 100 16 0.0245548
3 14 100 16 0.0278694
4 14 100 16 0.0285442
5 14 100 16 0.0335366
6 14 100 16 0.0467253
7 14 100 16 0.0506751
8 14 100 16 0.044366
9 14 100 16 0.066146
10 14 100 16 0.0557499
11 14 100 16 0.0736031
12 14 100 16 0.0755451
13 14 100 16 0.0989397
14 14 100 16 0.0840252
15 14 100 16 0.0871828
16 14 100 16 0.177918
1 15 100 16 0.0237588
2 15 100 16 0.0196257
3 15 100 16 0.0226645
4 15 100 16 0.0235526
5 15 100 16 0.0330128
6 15 100 16 0.0394098
7 15 100 16 0.050711
8 15 100 16 0.0627075
9 15 100 16 0.0572502
10 15 100 16 0.0705251
11 15 100 16 0.0674205
12 15 100 16 0.0738839
13 15 100 16 0.0819624
14 15 100 16 0.0937175
15 15 100 16 0.0831936
16 15 100 16 0.196604
1 16 100 16 0.0238915
2 16 100 16 0.021503
3 16 100 16 0.0176465
4 16 100 16 0.0217337
5 16 100 16 0.0327298
6 16 100 16 0.0339032
7 16 100 16 0.0504191
8 16 100 16 0.0473277
9 16 100 16 0.038829
10 16 100 16 0.0652319
11 16 100 16 0.0918018
12 16 100 16 0.0553052
13 16 100 16 0.0803935
14 16 100 16 0.089311
15 16 100 16 0.0983811
16 16 100 16 0.231592
1 17 100 16 0.0115673
2 17 100 16 0.0248126
3 17 100 16 0.0222438
4 17 100 16 0.0160087
5 17 100 16 0.0231407
6 17 100 16 0.0298428
7 17 100 16 0.0433735
8 17 100 16 0.0517784
9 17 100 16 0.0502581
10 17 100 16 0.0386423
11 17 100 16 0.0476074
12 17 100 16 0.0730857
13 17 100 16 0.0841459
14 17 100 16 0.110649
15 17 100 16 0.0977994
16 17 100 16 0.275044
1 18 100 16 0.02538
2 18 100 16 0.0217232
3 18 100 16 0.0148936
4 18 100 16 0.0269879
5 18 100 16 0.0146263
6 18 100 16 0.0179194
7 18 100 16 0.0423013
8 18 100 16 0.0526418
9 18 100 16 0.0650127
10 18 100 16 0.0625209
11 18 100 16 0.0911175
12 18 100 16 0.059124
13 18 100 16 0.0769469
14 18 100 16 0.0710868
15 18 100 16 0.101702
16 18 100 16 0.256016
1 19 100 16 0.00973158
2 19 100 16 0.0333983
3 19 100 16 0.0422643
4 19 100 16 0.0351011
5 19 100 16 0.0400069
6 19 100 16 0.0172097
7 19 100 16 0.0307247
8 19 100 16 0.0525144
9 19 100 16 0.0400426
10 19 100 16 0.0713403
11 19 100 16 0.0641568
12 19 100 16 0.0687285
13 19 100 16 0.0661277
14 19 100 16 0.0812198
15 19 100 16 0.0863081
16 19 100 16 0.261125
1 20 100 16 0.00841585
2 20 100 16 1.62571e-05
3 20 100 16 0.0134282
4 20 100 16 0.0232978
5 20 100 16 0.0297488
6 20 100 16 0.0252336
7 20 100 16 0.023368
8 20 100 16 0.0561084
9 20 100 16 0.0720092
10 20 100 16 0.0531722
11 20 100 16 0.0546069
12 20 100 16 0.0708969
13 20 100 16 0.0807285
14 20 100 16 0.0945282
15 20 100 16 0.116324
16 20 100 16 0.278118
1 21 100 16 0.00433382
2 21 100 16 0.00287162
3 21 100 16 0.000130746
4 21 100 16 0.00305406
5 21 100 16 0.0180186
6 21 100 16 0.00484596
7 21 100 16 0.0195856
8 21 100 16 0.00224864
9 21 100 16 0.0340955
10 21 100 16 0.0740704
11 21 100 16 0.0172363
12 21 100 16 0.0465973
13 21 100 16 0.0808679
14 21 100 16 0.12036
15 21 100 16 0.153633
16 21 100 16 0.418051
1 22 100 16 0.000124048
2 22 100 16 0.0181844
3 22 100 16 0.00120567
4 22 100 16 0.0300003
5 22 100 16 0.0357296
6 22 100 16 0.0624566
7 22 100 16 0.05984
8 22 100 16 0.0524198
9 22 100 16 0.0279344
10 22 100 16 0.0188358
11 22 100 16 0.0187711
12 22 100 16 0.05404
13 22 100 16 0.0951748
14 22 100 16 0.113299
15 22 100 16 0.148898
16 22 100 16 0.263087
1 23 100 16 3.20847e-06
2 23 100 16 5.46092e-07
3 23 100 16 4.70405e-05
4 23 100 16 5.24361e-05
5 23 100 16 6.6479e-06
6 23 100 16 1.61039e-05
7 23 100 16 5.14399e-06
8 23 100 16 4.58584e-06
9 23 100 16 0.000457498
10 23 100 16 0.00273406
11 23 100 16 0.00133113
12 23 100 16 0.211126
13 23 100 16 0.104132
14 23 100 16 0.000389347
15 23 100 16 0.149226
16 23 100 16 0.530469
1 24 100 16 1.59696e-06
2 24 100 16 7.1099e-06
3 24 100 16 7.70254e-06
4 24 100 16 1.13155e-05
5 24 100 16 0.0877681
6 24 100 16 0.00847733
7 24 100 16 0.00021203
8 24 100 16 3.32486e-05
9 24 100 16 3.45829e-07
10 24 100 16 2.34054e-07
11 24 100 16 0.175511
12 24 100 16 0.000196038
13 24 100 16 0.015107
14 24 100 16 0.175679
15 24 100 16 0.274112
16 24 100 16 0.262876
1 25 100 16 6.4371e-06
2 25 100 16 2.40419e-05
3 25 100 16 0.123516
4 25 100 16 0.00138667
6 25 100 16 1.52979e-06
7 25 100 16 2.28999e-05
8 25 100 16 7.82716e-07
10 25 100 16 0.00619405
11 25 100 16 0.00264404
12 25 100 16 0.391997
13 25 100 16 0.409217
14 25 100 16 2.15193e-05
15 25 100 16 9.59126e-05
16 25 100 16 0.0648726
2 26 100 16 5.9865e-06
3 26 100 16 0.000145192
6 26 100 16 0.0571515
7 26 100 16 0.101821
8 26 100 16 0.100132
9 26 100 16 1.65424e-05
11 26 100 16 0.100684
12 26 100 16 0.101827
13 26 100 16 0.10262
14 26 100 16 0.101208
15 26 100 16 0.0165985
16 26 100 16 0.31779
3 27 100 16 2.76695e-05
5 27 100 16 0.0428572
6 27 100 16 3.35489e-05
7 27 100 16 2.64258e-06
8 27 100 16 6.83337e-06
9 27 100 16 0.956004
10 27 100 16 0.000193653
11 27 100 16 0.000251887
13 27 100 16 4.12822e-06
14 27 100 16 0.000105575
15 27 100 16 0.000512707
1 28 100 16 0.166584
2 28 100 16 0.333198
3 28 100 16 0.166591
4 28 100 16 0.000124871
5 28 100 16 3.27735e-05
7 28 100 16 7.52925e-05
8 28 100 16 1.30294e-06
9 28 100 16 6.25791e-07
10 28 100 16 6.8137e-05
11 28 100 16 2.80622e-05
12 28 100 16 1.66273e-05
13 28 100 16 9.21793e-05
14 28 100 16 0.166589
15 28 100 16 1.57982e-05
16 28 100 16 0.166583
1 29 100 16 0.098097
2 29 100 16 3.26597e-05
3 29 100 16 0.101716
4 29 100 16 0.0982657
5 29 100 16 0.0975503
6 29 100 16 0.000335617
7 29 100 16 0.0835641
8 29 100 16 0.0914917
10 29 100 16 0.0667925
11 29 100 16 3.91773e-07
12 29 100 16 0.056793
13 29 100 16 0.024778
14 29 100 16 7.09128e-06
15 29 100 16 0.0758312
16 29 100 16 0.204745
4 30 100 16 6.28179e-05
5 30 100 16 0.966382
6 30 100 16 0.000156551
7 30 100 16 3.64753e-05
8 30 100 16 0.0333022
11 30 100 16 3.09182e-05
13 30 100 16 1.54628e-06
15 30 100 16 2.76424e-05
2 31 100 16 0.00225619
4 31 100 16 0.00293238
5 31 100 16 7.31209e-05
6 31 100 16 0.000235178
7 31 100 16 0.300711
8 31 100 16 0.0136319
9 31 100 16 0.357135
10 31 100 16 0.316501
11 31 100 16 3.75155e-06
12 31 100 16 0.0038521
13 31 100 16 6.79055e-07
15 31 100 16 0.00266782
1 32 100 16 0.495851
2 32 100 16 0.000142772
3 32 100 16 0.49599
4 32 100 16 0.00036587
5 32 100 16 0.00503686
6 32 100 16 1.92642e-06
7 32 100 16 0.00260347
10 32 100 16 2.60319e-06
12 32 100 16 2.29434e-06
14 32 100 16 5.50536e-07
15 32 100 16 2.44193e-06
2 33 100 16 1.35571e-06
3 33 100 16 1.10524e-06
4 33 100 16 4.39202e-06
6 33 100 16 0.303042
7 33 100 16 1.70905e-05
8 33 100 16 1.83812e-06
9 33 100 16 1.3791e-06
11 33 100 16 3.11313e-06
13 33 100 16 4.68114e-06
14 33 100 16 5.3354e-07
15 33 100 16 0.0839259
16 33 100 16 0.612997
1 34 100 16 0.249669
2 34 100 16 0.249635
3 34 100 16 0.000125377
4 34 100 16 0.249612
5 34 100 16 0.249394
6 34 100 16 5.50303e-05
7 34 100 16 0.00148094
9 34 100 16 1.90965e-06
10 34 100 16 1.47695e-05
12 34 100 16 1.07285e-05
14 34 100 16 7.1247e-07
3 35 100 16 0.00795491
7 35 100 16 0.0977153
11 35 100 16 0.0154376
13 35 100 16 0.337968
14 35 100 16 0.540924
1 36 100 16 5.38566e-07
2 36 100 16 3.40623e-05
3 36 100 16 2.16546e-06
4 36 100 16 5.6522e-05
5 36 100 16 0.000218845
6 36 100 16 1.20497e-06
7 36 100 16 1.2391e-05
8 36 100 16 0.0623425
9 36 100 16 3.27083e-06
10 36 100 16 0.000526975
11 36 100 16 1.62628e-06
12 36 100 16 0.444641
13 36 100 16 6.93878e-05
14 36 100 16 0.256857
15 36 100 16 0.235233
7 37 100 16 0.100603
13 37 100 16 0.899371
15 37 100 16 2.6335e-05
2 38 100 16 1.12199e-06
4 38 100 16 5.81166e-07
5 38 100 16 1.77133e-06
7 38 100 16 4.73514e-06
9 38 100 16 9.0593e-07
10 38 100 16 0.00288792
11 38 100 16 1.13391e-05
12 38 100 16 0.0568291
13 38 100 16 0.498567
14 38 100 16 0.441695
15 38 100 16 7.32704e-07
7 39 100 16 0.000174924
11 39 100 16 5.77424e-06
13 39 100 16 8.74318e-05
14 39 100 16 7.80344e-05
15 39 100 16 0.766037
16 39 100 16 0.233617
11 40 100 16 0.0277178
15 40 100 16 0.972282
8 41 100 16 4.7009e-06
9 41 100 16 4.43327e-06
11 41 100 16 1.17421e-06
14 41 100 16 3.96902e-05
15 41 100 16 0.0433708
16 41 100 16 0.956579
1 0 100 17 6.27588e-05
2 0 100 17 0.0802983
3 0 100 17 0.065994
4 0 100 17 0.0664684
5 0 100 17 0.0713974
6 0 100 17 0.0619065
7 0 100 17 0.0673438
8 0 100 17 0.0603344
9 0 100 17 0.0611696
10 0 100 17 0.0627689
11 0 100 17 0.0599135
12 0 100 17 0.0717051
13 0 100 17 0.0692774
14 0 100 17 0.0590308
15 0 100 17 0.0281359
16 0 100 17 0.100376
17 0 100 17 0.013818
1 1 100 17 0.401425
2 1 100 17 0.0887736
3 1 100 17 0.0644265
4 1 100 17 0.0548188
5 1 100 17 0.0414185
6 1 100 17 0.0469918
7 1 100 17 0.0365142
8 1 100 17 0.0334378
9 1 100 17 0.0280302
10 1 100 17 0.0252135
11 1 100 17 0.0271155
12 1 100 17 0.0279028
13 1 100 17 0.035208
14 1 100 17 0.0358374
15 1 100 17 0.0313244
16 1 100 17 0.014618
17 1 100 17 0.00694423
1 2 100 17 0.18016
2 2 100 17 0.214833
3 2 100 17 0.0875972
4 2 100 17 0.0638044
5 2 100 17 0.0608729
6 2 100 17 0.0527292
7 2 100 17 0.0365134
8 2 100 17 0.0319198
9 2 100 17 0.038213
10 2 100 17 0.0301659
11 2 100 17 0.032586
12 2 100 17 0.0272506
13 2 100 17 0.0286081
14 2 100 17 0.028253
15 2 100 17 0.0384834
16 2 100 17 0.0368112
17 2 100 17 0.0111993
1 3 100 17 0.0909889
2 3 100 17 0.138684
3 3 100 17 0.163839
4 3 100 17 0.0897758
5 3 100 17 0.0958523
6 3 100 17 0.0622426
7 3 100 17 0.0476873
8 3 100 17 0.0227436
9 3 100 17 0.0262057
10 3 100 17 0.0335312
11 3 100 17 0.0277969
12 3 100 17 0.0366587
13 3 100 17 0.0370723
14 3 100 17 0.0410242
15 3 100 17 0.0550138
16 3 100 17 0.0244494
17 3 100 17 0.00643482
1 4 100 17 0.0801078
2 4 100 17 0.0932075
3 4 100 17 0.131612
4 4 100 17 0.147835
5 4 100 17 0.0800901
6 4 100 17 0.0871836
7 4 100 17 0.0467271
8 4 100 17 0.0466921
9 4 100 17 0.0368088
10 4 100 17 0.0346082
11 4 100 17 0.0270878
12 4 100 17 0.0365395
13 4 100 17 0.0259371
14 4 100 17 0.0405761
15 4 100 17 0.0456922
16 4 100 17 0.0300512
17 4 100 17 0.00924457
1 5 100 17 0.087772
2 5 100 17 0.0664606
3 5 100 17 0.0959982
4 5 100 17 0.121759
5 5 100 17 0.115626
6 5 100 17 0.102789
7 5 100 17 0.0718341
8 5 100 17 0.0418668
9 5 100 17 0.0268951
10 5 100 17 0.0342587
11 5 100 17 0.0275304
12 5 100 17 0.0366305
13 5 100 17 0.0420477
14 5 100 17 0.0439573
15 5 100 17 0.0418884
16 5 100 17 0.0325354
17 5 100 17 0.0101513
1 6 100 17 0.0735115
2 6 100 17 0.0640596
3 6 100 17 0.0907821
4 6 100 17 0.0834162
5 6 100 17 0.106677
6 6 100 17 0.0884518
7 6 100 17 0.0754237
8 6 100 17 0.0755511
9 6 100 17 0.0634835
10 6 100 17 0.0432443
11 6 100 17 0.0443763
12 6 100 17 0.0383811
13 6 100 17 0.0303538
14 6 100 17 0.0430777
15 6 100 17 0.0545269
16 6 100 17 0.019424
17 6 100 17 0.00525935
1 7 100 17 0.0529589
2 7 100 17 0.0648567
3 7 100 17 0.066251
4 7 100 17 0.0737561
5 7 100 17 0.0655494
6 7 100 17 0.0956321
7 7 100 17 0.090701
8 7 100 17 0.102099
9 7 100 17 0.0699738
10 7 100 17 0.0561269
11 7 100 17 0.0478785
12 7 100 17 0.0462565
13 7 100 17 0.032043
14 7 100 17 0.0409435
15 7 100 17 0.0524945
16 7 100 17 0.0365154
17 7 100 17 0.00596392
1 8 100 17 0.0365902
2 8 100 17 0.0550469
3 8 100 17 0.0558828
4 8 100 17 0.0603684
5 8 100 17 0.0749588
6 8 100 17 0.0764558
7 8 100 17 0.0871194
8 8 100 17 0.0905028
9 8 100 17 0.0734753
10 8 100 17 0.0749379
11 8 100 17 0.0717437
12 8 100 17 0.0449222
13 8 100 17 0.0431839
14 8 100 17 0.0545135
15 8 100 17 0.0524697
16 8 100 17 0.0346623
17 8 100 17 0.0131662
1 9 100 17 0.0264451
2 9 100 17 0.0297644
3 9 100 17 0.0455897
4 9 100 17 0.0596751
5 9 100 17 0.0674101
6 9 100 17 0.070163
7 9 100 17 0.0824584
8 9 100 17 0.0934391
9 9 100 17 0.0932106
10 9 100 17 0.0766243
11 9 100 17 0.0550077
12 9 100 17 0.0542592
13 9 100 17 0.0623099
14 9 100 17 0.0605792
15 9 100 17 0.060783
16 9 100 17 0.0455325
17 9 100 17 0.0167486
1 10 100 17 0.0224643
2 10 100 17 0.0207977
3 10 100 17 0.0346193
4 10 100 17 0.03494
5 10 100 17 0.0459987
6 10 100 17 0.0673038
7 10 100 17 0.0842396
8 10 100 17 0.0854373
9 10 100 17 0.0783133
10 10 100 17 0.084452
11 10 100 17 0.0769198
12 10 100 17 0.078134
13 10 100 17 0.0659261
14 10 100 17 0.0739976
15 10 100 17 0.0744915
16 10 100 17 0.0469022
17 10 100 17 0.0250629
1 11 100 17 0.0332509
2 11 100 17 0.021164
3 11 100 17 0.0470347
4 11 100 17 0.0455783
5 11 100 17 0.035357
6 11 100 17 0.0511108
7 11 100 17 0.0703179
8 11 100 17 0.0726015
9 11 100 17 0.0901386
10 11 100 17 0.0773053
11 11 100 17 0.0890473
12 11 100 17 0.0722474
13 11 100 17 0.0748848
14 11 100 17 0.0622374
15 11 100 17 0.0784371
16 11 100 17 0.051886
17 11 100 17 0.0274009
1 12 100 17 0.0205312
2 12 100 17 0.0278099
3 12 100 17 0.0287578
4 12 100 17 0.0401692
5 12 100 17 0.0421758
6 12 100 17 0.0462987
7 12 100 17 0.056883
8 12 100 17 0.0794201
9 12 100 17 0.0818041
10 12 100 17 0.0814343
11 12 100 17 0.0770333
12 12 100 17 0.0713082
13 12 100 17 0.0769595
14 12 100 17 0.0681538
15 12 100 17 0.096191
16 12 100 17 0.0579078
17 12 100 17 0.0471623
1 13 100 17 0.022289
2 13 100 17 0.0199619
3 13 100 17 0.0226552
4 13 100 17 0.0246197
5 13 100 17 0.0469561
6 13 100 17 0.0389154
7 13 100 17 0.0384577
8 13 100 17 0.0435808
9 13 100 17 0.064267
10 13 100 17 0.0860155
11 13 100 17 0.0940806
12 13 100 17 0.0771885
13 13 100 17 0.0776518
14 13 100 17 0.0837228
15 13 100 17 0.0861668
16 13 100 17 0.0720004
17 13 100 17 0.101471
1 14 100 17 0.0167108
2 14 100 17 0.0189009
3 14 100 17 0.0243673
4 14 100 17 0.035512
5 14 100 17 0.036795
6 14 100 17 0.034141
7 14 100 17 0.0382099
8 14 100 17 0.0494251
9 14 100 17 0.0630111
10 14 100 17 0.0677776
11 14 100 17 0.0762884
12 14 100 17 0.0872752
13 14 100 17 0.0904576
14 14 100 17 0.0798235
15 14 100 17 0.0757139
16 14 100 17 0.0764123
17 14 100 17 0.129178
1 15 100 17 0.0127439
2 15 100 17 0.0144631
3 15 100 17 0.0307425
4 15 100 17 0.0335569
5 15 100 17 0.040392
6 15 100 17 0.0340366
7 15 100 17 0.0549883
8 15 100 17 0.0450628
9 15 100 17 0.0534117
10 15 100 17 0.0575752
11 15 100 17 0.0834403
12 15 100 17 0.0689973
13 15 100 17 0.0859139
14 15 100 17 0.0827194
15 15 100 17 0.087211
16 15 100 17 0.0778055
17 15 100 17 0.13694
1 16 100 17 0.0175382
2 16 100 17 0.0131121
3 16 100 17 0.0176431
4 16 100 17 0.0226777
5 16 100 17 0.0213062
6 16 100 17 0.0380423
7 16 100 17 0.0442129
8 16 100 17 0.0638637
9 16 100 17 0.0581462
10 16 100 17 0.0586386
11 16 100 17 0.067115
12 16 100 17 0.0726476
13 16 100 17 0.0719185
14 16 100 17 0.0751975
15 16 100 17 0.0861211
16 16 100 17 0.0733098
17 16 100 17 0.198509
1 17 100 17 0.0135556
2 17 100 17 0.0135154
3 17 100 17 0.0185876
4 17 100 17 0.0221759
5 17 100 17 0.0209188
6 17 100 17 0.0355237
7 17 100 17 0.030391
8 17 100 17 0.041065
9 17 100 17 0.0677807
10 17 100 17 0.0587387
11 17 100 17 0.0752414
12 17 100 17 0.0726005
13 17 100 17 0.0726273
14 17 100 17 0.0827387
15 17 100 17 0.0803479
16 17 100 17 0.0767754
17 17 100 17 0.217416
1 18 100 17 0.0104076
2 18 100 17 0.020574
3 18 100 17 0.0148738
4 18 100 17 0.024855
5 18 100 17 0.0167951
6 18 100 17 0.0132867
7 18 100 17 0.0310966
8 18 100 17 0.0251009
9 18 100 17 0.0479224
10 18 100 17 0.0699225
11 18 100 17 0.0684045
12 18 100 17 0.0589056
13 18 100 17 0.0792369
14 18 100 17 0.059897
15 18 100 17 0.0972529
16 18 100 17 0.0792275
17 18 100 17 0.282241
1 19 100 17 0.0107906
2 19 100 17 0.00981601
3 19 100 17 0.0160059
4 19 100 17 0.0181197
5 19 100 17 0.0273654
6 19 100 17 0.0272893
7 19 100 17 0.0193052
8 19 100 17 0.046181
9 19 100 17 0.0326945
10 19 100 17 0.0556589
11 19 100 17 0.0626679
12 19 100 17 0.0606738
13 19 100 17 0.0590328
14 19 100 17 0.0884539
15 19 100 17 0.0730848
16 19 100 17 0.115565
17 19 100 17 0.277295
1 20 100 17 0.000294412
2 20 100 17 0.000381513
3 20 100 17 0.0115534
4 20 100 17 0.0146281
5 20 100 17 0.0152345
6 20 100 17 0.0350194
7 20 100 17 0.0260364
8 20 100 17 0.0312481
9 20 100 17 0.0547841
10 20 100 17 0.064979
11 20 100 17 0.0431548
12 20 100 17 0.0858401
13 20 100 17 0.0668373
14 20 100 17 0.0771778
15 20 100 17 0.0985554
16 20 100 17 0.106727
17 20 100 17 0.267549
1 21 100 17 0.0114157
2 21 100 17 6.54875e-05
3 21 100 17 0.00323964
4 21 100 17 0.0109475
5 21 100 17 0.00121801
6 21 100 17 0.000470657
7 21 100 17 0.0534309
8 21 100 17 0.02886
9 21 100 17 0.0158247
10 21 100 17 0.0911038
11 21 100 17 0.0666967
12 21 100 17 0.0690478
13 21 100 17 0.0527617
14 21 100 17 0.0613983
15 21 100 17 0.0722724
16 21 100 17 0.0983671
17 21 100 17 0.36288
1 22 100 17 0.0395021
2 22 100 17 0.0144117
3 22 100 17 0.00266903
4 22 100 17 0.0142361
5 22 100 17 0.0267144
6 22 100 17 0.0266201
7 22 100 17 0.0482865
8 22 100 17 0.0361721
9 22 100 17 0.0266351
10 22 100 17 0.0171439
11 22 100 17 0.0588816
12 22 100 17 0.0305804
13 22 100 17 0.0799522
14 22 100 17 0.0727588
15 22 100 17 0.0939493
16 22 100 17 0.0974836
17 22 100 17 0.314003
2 23 100 17 7.01655e-05
3 23 100 17 1.18579e-07
4 23 100 17 0.000280658
5 23 100 17 5.74334e-05
6 23 100 17 8.57118e-05
7 23 100 17 0.000342084
8 23 100 17 0.107021
9 23 100 17 0.0797348
10 23 100 17 0.0312805
11 23 100 17 0.112819
12 23 100 17 0.0527627
13 23 100 17 0.0387662
14 23 100 17 0.0212596
15 23 100 17 0.03923
16 23 100 17 0.185412
17 23 100 17 0.330877
1 24 100 17 0.0460707
2 24 100 17 1.76584e-05
3 24 100 17 2.36351e-05
4 24 100 17 4.65956e-07
5 24 100 17 0.00181071
6 24 100 17 0.00668406
7 24 100 17 0.00012613
8 24 100 17 0.00162309
9 24 100 17 0.113355
10 24 100 17 0.0507747
11 24 100 17 0.0333925
12 24 100 17 0.169867
13 24 100 17 0.178732
14 24 100 17 0.043991
15 24 100 17 0.0903612
16 24 100 17 0.0716786
17 24 100 17 0.191492
1 25 100 17 0.04047
2 25 100 17 0.0808607
3 25 100 17 0.0379818
4 25 100 17 0.120177
5 25 100 17 0.0380224
6 25 100 17 0.0810152
7 25 100 17 0.107461
8 25 100 17 0.00389572
9 25 100 17 0.0415182
10 25 100 17 0.0409674
11 25 100 17 0.0626575
12 25 100 17 7.93399e-05
13 25 100 17 0.034814
14 25 100 17 0.053733
15 25 100 17 0.0521772
16 25 100 17 0.04485
17 25 100 17 0.15932
1 26 100 17 5.11688e-05
2 26 100 17 7.84516e-05
3 26 100 17 0.0186915
4 26 100 17 0.000302569
5 26 100 17 0.000304819
6 26 100 17 7.4967e-06
7 26 100 17 0.000168942
8 26 100 17 0.000754636
9 26 100 17 0.09069
10 26 100 17 0.0430762
11 26 100 17 0.00146425
12 26 100 17 0.000239562
13 26 100 17 0.000148561
14 26 100 17 4.04048e-06
15 26 100 17 0.197841
16 26 100 17 0.247647
17 26 100 17 0.39853
3 27 100 17 2.88526e-05
4 27 100 17 1.10326e-05
5 27 100 17 1.50309e-06
6 27 100 17 5.02177e-06
7 27 100 17 1.44565e-06
8 27 100 17 6.71252e-05
9 27 100 17 0.000116382
10 27 100 17 0.255254
11 27 100 17 0.00537472
12 27 100 17 0.254984
13 27 100 17 0.403448
14 27 100 17 0.000197549
15 27 100 17 0.0769363
16 27 100 17 0.00013397
17 27 100 17 0.00343955
3 28 100 17 0.000455687
4 28 100 17 2.6989e-05
5 28 100 17 0.000259712
6 28 100 17 9.74009e-06
7 28 100 17 0.000626249
8 28 100 17 2.90843e-05
9 28 100 17 0.33283
11 28 100 17 0.000874993
13 28 100 17 9.71085e-06
14 28 100 17 3.15088e-06
15 28 100 17 2.95815e-06
16 28 100 17 0.104745
17 28 100 17 0.560126
1 29 100 17 8.31473e-06
2 29 100 17 6.57416e-07
