97 200 1.02246e-07
3064 11859 1.59192e-07
3315 2398 1.23949e-07
4505 512 8.2159e-07
749 493 9.65991e-07
9250 493 1.14853e-07
3320 493 2.40872e-06
6035 493 1.73483e-06
50 1021 1.00652e-07
917 10373 5.40323e-07
16546 10373 9.03272e-07
14891 10373 1.5166e-06
29564 34 1.53654e-06
29549 533 1.73982e-06
15268 2030 1.28541e-06
591 10569 1.53329e-07
1607 202 8.36202e-07
12185 202 3.84561e-05
326 3467 1.62563e-07
14622 1252 4.29633e-06
14823 212 7.75311e-07
795 424 1.82482e-07
7587 1814 1.69351e-07
29265 5593 1.31829e-06
29265 735 1.28416e-06
29253 113 6.78525e-06
3518 34 1.5699e-07
29213 514 2.49362e-06
780 4728 2.71672e-07
3517 1683 3.22839e-07
446 12366 2.04776e-07
6588 2946 7.06836e-07
29122 435 1.25752e-06
29107 1756 1.01073e-05
852 2395 5.23185e-07
24508 4810 5.80049e-07
2340 4810 4.48405e-07
17624 1020 2.43739e-06
1521 319 1.04027e-07
1118 3119 1.06534e-07
21382 34 2.40698e-06
18788 31521 2.86132e-07
2278 208 1.3023e-06
2094 2036 2.9719e-06
18701 166 1.8053e-06
2905 533 9.84476e-07
4607 10564 5.47691e-07
7197 2417 2.33529e-06
2246 2417 1.30468e-06
227 12989 1.71527e-07
5993 12989 2.46871e-06
3315 12989 4.1759e-07
16893 12989 1.07134e-06
3119 70 2.79327e-07
310 8653 1.10745e-07
4481 1701 4.79201e-07
1208 31044 1.9393e-07
28367 555 2.30564e-06
28320 3620 9.76993e-07
2457 11449 1.01201e-06
7587 7072 1.87491e-07
16523 8824 1.16528e-06
28163 534 6.51657e-06
1909 8 3.6815e-07
202 190 3.3725e-07
28107 1695 1.49838e-06
1012 386 3.12923e-07
741 26809 6.20652e-07
2896 26809 5.37514e-07
93 12549 1.98959e-07
3780 772 3.2322e-07
28027 1413 2.25493e-06
16460 328 1.96686e-07
16460 4356 2.17759e-07
7652 1351 5.50478e-07
250 12046 1.11765e-07
47 3005 1.02506e-07
234 503 1.1683e-07
14823 321 1.22884e-06
168 2537 1.01599e-07
163 461 1.00991e-07
27858 4690 4.83622e-06
16460 5414 1.91238e-07
87 546 4.80034e-07
310 546 1.31995e-07
2248 126 5.42755e-07
4414 508 1.19359e-07
4831 538 6.35223e-07
4857 812 5.25009e-07
1615 350 1.73226e-06
16461 1912 1.40528e-07
3934 4690 4.15362e-07
27728 361 1.56927e-06
403 18581 1.34171e-07
650 275 5.19564e-07
18775 34 2.19655e-06
27694 18 6.26568e-06
27694 1413 2.23897e-06
3586 1593 4.03172e-07
921 1593 1.11034e-07
27667 1085 9.05366e-07
27528 18062 9.03356e-07
453 470 1.1441e-07
27579 2721 1.19604e-06
27558 179 8.47966e-07
27548 184 1.95937e-06
16580 232 5.50076e-06
25218 11615 9.16192e-07
93 6454 1.98813e-06
18798 6454 4.15274e-05
19186 113 1.6749e-06
3769 2995 2.36931e-07
885 534 1.15662e-07
3814 6940 4.89892e-07
7987 6940 8.67855e-07
16481 528 1.27653e-06
25080 496 1.53514e-06
2842 29719 2.01757e-07
23621 3118 9.42291e-07
27390 43 2.46104e-06
444 29653 2.18361e-07
24648 350 1.13531e-06
3351 166 9.16164e-07
1638 377 9.1718e-06
1814 533 1.05748e-05
9006 533 3.65879e-06
26408 19626 1.13644e-05
331 3526 4.80111e-07
2972 179 8.28111e-07
2626 7754 4.90041e-07
1467 13755 6.60695e-07
17266 508 5.86393e-07
15834 9075 1.05481e-06
2771 22113 8.88628e-07
26855 29100 7.11604e-06
26855 1212 1.78899e-05
3848 1190 1.79149e-06
6423 7921 1.39427e-06
501 1050 1.19137e-07
26749 1344 5.87745e-06
9023 44 1.48884e-06
26643 377 1.19907e-06
26216 126 4.62054e-07
25127 20693 2.69455e-06
14826 2932 4.11157e-07
53 267 1.83068e-07
1450 267 8.71351e-07
227 267 1.87517e-07
1060 267 1.16318e-07
674 6173 4.12947e-06
3067 580 7.69129e-07
26067 1413 1.01814e-06
26067 13 8.88543e-07
26067 208 7.84038e-05
26067 31 1.25225e-06
26067 436 1.58903e-06
15212 28274 9.42238e-07
3304 1030 3.09019e-07
345 218 1.01601e-07
25384 20205 6.5777e-07
25905 7791 1.03224e-05
4692 17 3.89449e-07
3622 616 3.63548e-07
1111 238 2.75015e-07
2248 28120 1.87304e-07
25069 179 1.14808e-06
790 714 5.50096e-07
16009 27556 7.20179e-07
782 267 1.15164e-07
17170 3039 7.64432e-07
1541 2172 2.18146e-07
4414 319 1.14505e-07
4131 27860 9.204e-07
18573 27860 1.42729e-06
1664 3596 1.55716e-07
186 3596 1.07901e-07
25 212 1.18354e-07
25442 13710 2.11093e-06
4886 13710 5.15496e-07
421 27742 1.09159e-07
173 10503 9.89466e-07
477 10503 3.11324e-07
63 4245 1.13451e-07
25437 59 1.32276e-06
2594 141 6.26656e-06
25386 1630 1.83742e-06
16606 138 1.40096e-06
2657 13 1.8808e-07
7584 390 3.46489e-06
19753 717 1.50779e-06
25240 1494 1.82212e-06
63 378 1.4326e-07
1598 4499 1.12696e-07
1598 230 1.86362e-07
2475 230 1.68152e-07
2723 8 1.23473e-07
5268 27065 6.43781e-06
18399 27065 1.01037e-05
25036 5665 2.00186e-06
2166 18590 1.4482e-07
2684 735 1.12441e-06
24918 27207 9.20731e-07
24862 267 7.96389e-07
25019 2792 1.23641e-06
3780 838 2.29408e-07
9 1020 1.12971e-07
130 1020 6.03485e-07
11656 612 2.16249e-05
11656 113 1.40281e-06
1664 6561 1.91392e-07
3121 4677 5.73939e-07
2585 1008 1.66514e-07
794 27054 4.30485e-07
16446 221 8.39181e-07
357 221 1.21837e-07
37 320 1.3726e-07
9738 377 3.73236e-07
453 26877 1.00271e-07
3430 3064 4.48123e-07
302 590 1.17723e-07
128 321 1.04825e-06
3163 368 9.87325e-07
853 16654 6.67055e-07
24601 125 3.62181e-06
9 26657 1.15386e-07
67 26657 2.18203e-07
22802 1797 1.81333e-06
5030 1413 9.46577e-07
24428 12987 2.63047e-06
24424 1413 3.21917e-06
2580 26431 5.39755e-07
1413 17114 4.90509e-07
9715 1413 1.73029e-06
2759 377 5.22328e-07
4108 3033 8.5495e-07
6338 3033 6.65787e-07
9504 166 8.44329e-07
24286 166 1.48883e-06
24286 28 1.65175e-06
764 2309 1.05888e-07
807 1194 2.21567e-07
2340 245 2.62941e-07
15174 4999 2.85257e-07
24141 411 3.27943e-06
7577 1194 8.75959e-07
7784 26052 1.68071e-07
4507 25891 3.88149e-07
89 7395 1.19675e-07
23776 1319 1.68018e-05
23774 1319 3.62283e-06
2946 1319 2.75474e-05
23139 1319 1.9156e-05
15947 321 7.78331e-07
2 23 1.15851e-07
23645 1413 1.7905e-06
21398 17966 4.64918e-06
23 901 2.69004e-07
5011 2157 7.63378e-07
2094 11624 7.22437e-07
23413 16077 3.15791e-06
23357 39 3.10113e-06
2 151 3.90856e-07
23314 108 9.67325e-07
179 1216 1.17283e-07
23260 28 9.03843e-07
23268 184 2.16935e-06
9104 5 1.14181e-06
23242 3152 1.15254e-05
1288 25345 8.50306e-07
10744 510 2.88928e-06
2758 10743 7.05728e-07
14644 64 1.00358e-07
2 1354 1.6349e-07
40 23748 1.00513e-07
1693 8 1.27556e-07
963 16012 4.2035e-07
14805 24012 1.16707e-07
10789 864 6.01779e-07
2287 19750 2.43955e-07
17730 17 1.12861e-06
2170 111 3.25618e-07
519 460 2.18176e-07
3102 39 2.75694e-07
11349 39 2.34377e-07
22654 9272 1.69728e-06
22644 16077 1.85983e-06
6309 69 2.72483e-07
57 9203 1.42842e-07
440 9203 4.3451e-07
22521 10783 1.68735e-06
22519 10564 1.27122e-06
9764 24336 1.79721e-07
22351 10 1.03827e-06
457 10564 7.44045e-07
22318 10654 3.16596e-06
9257 34 1.93906e-07
17209 15840 1.07827e-06
22246 10564 2.04932e-06
21199 10564 1.55717e-06
8862 16835 1.70768e-06
30 5878 3.10504e-07
40 5878 2.91371e-07
2129 5878 4.70871e-07
608 5878 4.9891e-07
125 5878 7.44918e-07
2558 405 1.95731e-07
14055 23919 4.34544e-07
10030 2367 3.84493e-07
2734 3551 2.53661e-07
18068 17 1.93581e-06
542 23720 1.11951e-07
684 163 7.65533e-07
2400 7449 1.66832e-07
4637 19605 3.05691e-07
21110 3806 2.8432e-06
8148 487 6.58008e-07
732 772 1.14377e-07
21014 22908 1.31742e-06
905 5882 2.26571e-07
23 16077 2.50391e-07
912 3107 1.092e-07
2923 5623 5.48389e-07
20679 126 4.29352e-06
20638 13948 1.4133e-05
2464 1507 3.02432e-07
20596 9128 3.55241e-06
1271 621 1.68146e-07
6624 621 1.01977e-07
3078 621 2.53015e-07
348 232 3.27565e-07
2512 5028 2.36715e-07
3593 9025 1.61558e-07
16622 22247 1.58293e-06
15790 22199 1.67188e-06
10310 2356 7.92049e-07
10805 377 4.71782e-07
6860 6353 6.24384e-07
20096 125 1.56743e-06
614 17 1.92473e-07
7791 1057 6.3332e-07
18836 18612 1.81427e-06
12636 10624 2.92573e-07
701 21684 7.25798e-07
19530 377 1.61138e-06
15468 377 1.38536e-06
15122 1268 4.18516e-06
19533 621 2.03427e-06
19525 10564 1.2017e-06
7175 233 7.58705e-07
4383 189 8.25795e-07
16107 189 4.59202e-07
304 189 7.59867e-07
19417 189 3.10026e-06
19405 533 8.7772e-07
2222 43 1.19422e-07
15237 60 4.19306e-07
131 12995 1.19469e-07
88 12995 5.45091e-07
117 5019 1.83508e-07
19038 2446 2.61631e-06
10592 6499 5.1121e-07
1371 4787 4.89961e-07
3270 7346 2.06009e-07
16823 20759 1.36459e-06
2170 20759 3.47003e-07
18871 10789 2.3689e-06
9327 229 7.26064e-07
16515 1605 4.47485e-07
18613 20430 1.58491e-06
14844 5520 6.58216e-07
17927 20287 1.82122e-06
1318 3628 5.73316e-07
1507 534 9.35612e-07
13336 7955 1.11063e-06
2954 2439 4.24677e-07
4175 2532 4.52984e-07
11460 8852 3.89773e-06
324 534 3.38654e-07
17747 514 1.68996e-06
12652 17 6.63163e-07
17597 166 2.0578e-06
17574 39 8.84201e-07
17574 125 7.14823e-06
17482 395 6.28395e-07
17545 3806 5.28073e-07
380 16835 3.90195e-07
2230 15851 9.0762e-07
17294 235 3.58994e-06
17294 9970 8.29598e-06
17294 5053 2.49528e-06
2613 10743 2.11857e-07
2363 18927 1.3203e-07
413 18925 4.58283e-07
17178 18913 1.95062e-06
1328 18913 1.4745e-07
6891 377 8.21704e-07
2151 350 3.78935e-07
1278 168 2.96921e-07
2400 12995 1.91112e-07
4253 5 1.19216e-06
1951 16277 1.54211e-07
542 16277 1.25386e-06
14773 3661 1.6953e-06
16967 863 4.26507e-06
16913 17 2.32967e-06
16852 17 1.08204e-06
89 6675 1.02206e-07
7741 17534 6.07775e-07
16793 2446 1.24624e-06
16153 18285 3.95726e-07
143 1196 1.11045e-07
3078 18126 1.89894e-07
16702 3661 1.31216e-06
288 3204 1.17203e-07
16621 1554 1.3737e-06
14909 5 5.15092e-07
9049 17873 1.0546e-07
14977 4 5.28203e-07
14977 31 5.64455e-07
16416 96 1.27996e-06
14980 901 1.20331e-06
6110 2941 4.00332e-07
16155 12987 1.50249e-06
1410 2099 1.39358e-07
5070 10538 4.43003e-07
15909 28 1.84036e-06
15874 17 1.82711e-06
15359 17 1.11496e-06
10430 17168 6.17722e-07
15839 3650 2.53335e-06
15839 5411 1.3847e-06
1937 17137 1.63641e-07
15820 743 2.49451e-06
9250 16876 1.14555e-07
15724 10564 3.47679e-06
15720 17 2.1795e-06
15119 235 3.6581e-07
2740 10578 4.47416e-07
570 16689 7.28739e-07
7818 508 4.3774e-07
273 2637 1.05502e-07
9313 1557 2.59534e-07
15187 17 3.0087e-06
15186 39 1.01944e-06
14980 39 1.10513e-06
174 10743 1.03943e-07
297 16121 1.05412e-07
375 3816 2.85485e-07
1064 2565 1.0046e-07
545 714 1.29177e-07
311 590 1.00076e-07
1811 860 1.23745e-07
103 368 2.72263e-07
885 424 1.02705e-07
565 5101 1.05784e-07
56 5101 2.06943e-07
343 5101 8.54712e-07
9250 465 1.10131e-07
1135 15629 1.09988e-07
1859 125 1.71227e-07
88 125 4.65772e-07
14325 9272 1.55936e-06
513 364 1.09516e-07
2512 10564 2.48139e-07
602 10564 1.15875e-07
14269 725 5.35315e-06
4071 289 1.03294e-06
14236 724 1.68174e-06
163 232 1.10211e-07
157 15179 2.66554e-07
14172 28 1.67007e-06
1701 963 1.74711e-07
591 12474 1.51094e-07
1746 12474 1.03034e-06
7165 10564 8.06433e-07
14013 589 2.26459e-06
14008 15204 4.39381e-06
244 3219 5.16199e-07
866 15152 3.07283e-07
457 3214 7.64339e-07
95 1301 1.6717e-07
4024 554 5.23197e-07
9549 7990 5.84574e-07
9080 377 1.53602e-05
3832 293 4.60065e-07
4550 179 1.6055e-06
13598 14689 1.79345e-06
13598 125 3.70247e-06
13598 9123 2.68709e-06
13598 1564 0.000745488
768 4164 1.82307e-06
363 5010 4.3733e-07
1834 14551 3.32345e-07
13445 10564 1.2321e-05
13237 1018 1.56279e-06
416 269 1.88453e-07
743 39 8.30087e-07
1907 3385 5.49149e-07
9539 9816 6.4627e-07
9658 4628 5.81017e-07
100 349 1.01479e-07
1006 1803 1.12466e-07
147 2676 1.06525e-07
9541 428 2.45136e-06
9541 174 1.56259e-06
11424 12040 1.27316e-05
12763 8 1.16119e-06
204 495 1.93532e-07
2315 885 5.33999e-07
8513 885 2.14502e-06
35 1494 1.81396e-07
12622 815 1.5835e-06
9274 3219 3.04054e-07
5416 621 1.01898e-06
12539 8 7.60237e-07
836 11462 1.78587e-07
87 600 1.39373e-07
9547 1724 3.18929e-07
12376 469 1.32067e-06
6 35 1.10928e-07
12230 35 6.94427e-06
484 13252 1.45749e-07
5802 163 1.20531e-06
1391 64 4.40617e-07
2418 2599 2.04533e-07
2377 275 1.12185e-07
9720 4658 2.46603e-07
328 4658 1.06267e-06
9699 174 1.31785e-06
6765 12585 3.12366e-07
11448 494 3.23137e-06
11409 8311 1.19287e-06
2543 179 3.38897e-07
11355 2101 1.98659e-06
444 10936 1.3626e-07
3282 5184 1.76387e-07
8933 825 1.13801e-05
11141 102 2.21265e-05
6175 53 1.08462e-06
1860 1611 6.9174e-07
297 1611 1.15924e-07
7354 10564 2.28594e-06
2012 319 1.9104e-07
10842 10569 9.15143e-07
1102 179 4.21374e-07
165 421 2.58239e-07
10589 8010 4.13881e-06
3064 2778 1.48566e-07
6364 789 3.52587e-06
100 789 3.71442e-07
9998 789 1.55591e-06
331 11713 3.10656e-07
355 196 1.05455e-07
9695 324 5.59673e-07
10074 9314 8.53479e-07
2504 1007 2.66229e-07
9271 733 5.43211e-07
2031 4990 1.17619e-07
515 28 1.13373e-07
3004 15 2.31927e-07
131 134 2.29549e-07
154 134 4.12673e-07
1818 4164 3.71475e-07
10105 508 1.04077e-06
10103 10564 3.75366e-06
1626 590 1.4859e-07
1724 9272 9.6197e-07
1281 1581 1.63919e-07
3581 1581 2.33065e-07
147 864 1.11597e-07
4481 10906 4.427e-07
9561 10564 2.11893e-06
9561 222 1.81293e-06
2069 2946 5.55473e-07
148 730 1.03137e-07
2368 313 3.27536e-07
3635 24 8.84992e-07
123 336 2.16601e-07
9374 17 1.28278e-06
127 10082 1.28769e-07
9239 34 1.19831e-06
2051 10565 4.17183e-06
750 10565 3.2886e-07
234 10565 1.0606e-07
174 2956 4.65797e-07
4509 2956 3.30767e-06
40 2956 1.65884e-07
441 2956 6.45477e-07
31 398 1.08881e-07
1117 15 1.63291e-07
8888 10392 1.88125e-06
762 1014 4.78464e-07
762 10507 1.34016e-06
688 2 2.46605e-06
30 6220 1.15111e-07
502 28 1.35418e-07
5058 6220 2.12989e-06
5058 4816 3.88099e-06
2511 28 8.62786e-07
86 179 1.25707e-07
4333 232 2.38722e-07
753 179 1.44042e-07
421 125 1.1345e-07
7230 252 8.43356e-07
347 388 1.02902e-07
15 1330 3.21449e-07
15 1257 3.25421e-07
15 1172 1.824e-07
772 1330 6.45308e-07
772 1257 1.02756e-06
772 1190 3.22111e-07
728 1330 2.42472e-07
728 1257 3.86104e-07
728 386 4.34705e-07
421 1257 1.18547e-07
421 386 1.33469e-07
935 2593 1.16864e-07
2326 5928 2.94272e-07
4333 5928 2.01338e-07
1289 2956 1.08408e-05
8966 2956 4.16898e-05
311 2956 8.69338e-07
77 2956 2.0665e-05
57 2956 5.02963e-07
260 2956 2.84471e-06
1612 2956 3.46657e-06
1980 2956 7.7472e-07
3279 2956 2.32929e-05
136 2956 8.84385e-07
585 2956 3.74923e-06
28 2956 2.84487e-06
990 2956 9.79365e-06
2672 2956 1.10645e-05
1064 2956 2.5966e-05
1293 2956 7.55934e-05
735 2956 9.72469e-05
8964 2956 0.000257813
2 2956 1.58548e-06
0 10289 3.68806e-07
0 3065 1.41963e-06
0 2956 4.10769e-06
0 3796 2.21851e-06
175 1194 1.15983e-07
1973 670 1.02709e-07
1060 1884 1.44636e-07
1092 1884 4.73543e-07
7228 293 1.64412e-06
8891 293 4.75272e-06
2051 28 5.50373e-07
291 612 1.41161e-07
6309 34 3.20399e-07
562 7350 1.1551e-07
1422 42 1.46907e-07
24 196 4.76985e-07
8613 623 1.31317e-06
466 41 2.81625e-07
6997 735 2.01761e-06
355 2013 1.68327e-07
1278 1007 4.82773e-07
50 1007 2.7835e-07
1928 1007 2.27335e-07
228 1007 1.13963e-07
866 297 5.05224e-07
2775 2577 9.23911e-07
2254 69 1.19723e-07
8442 233 1.14333e-06
538 4663 4.46392e-06
4671 1336 1.59772e-06
515 27 1.19093e-07
1646 401 9.86099e-07
390 2 1.27784e-07
2067 2 1.31744e-07
1829 2036 3.48498e-07
8322 15 1.25835e-06
5 6011 4.55458e-07
365 2117 1.96207e-07
613 573 1.05718e-06
422 4717 2.16642e-07
662 540 2.06366e-07
662 573 3.35129e-07
662 4717 1.46286e-07
696 9397 1.06334e-07
422 1232 2.03573e-07
1124 4364 5.28452e-06
2245 321 3.02392e-07
2245 1003 2.81193e-07
789 321 1.66847e-07
789 1003 1.55151e-07
789 319 1.48064e-07
789 2946 1.25292e-07
2362 103 2.72579e-07
7133 6783 6.47703e-07
201 6783 1.03837e-07
515 17 1.81737e-07
282 2279 3.05233e-07
1124 2279 1.54491e-07
696 2279 2.2367e-07
1626 2279 4.70645e-07
9 2279 5.12579e-07
949 2279 1.3392e-06
86 2279 3.08569e-07
120 2279 3.37189e-07
63 2279 1.43808e-07
1351 2279 4.21955e-07
28 2279 8.62118e-07
732 2279 5.57038e-06
766 126 2.21588e-07
766 69 3.89788e-07
766 972 3.51054e-07
4205 2663 1.12441e-07
716 34 1.80345e-07
8069 1821 6.50579e-06
8069 424 2.75397e-05
8069 419 6.44543e-05
8069 39 9.81979e-06
2949 3216 1.03862e-07
7293 95 1.02937e-06
3593 28 1.64574e-07
1216 1301 2.21064e-07
3051 2300 3.59412e-07
1896 339 1.39134e-07
6 1594 1.06506e-07
880 15 6.46057e-07
1841 183 1.62832e-06
399 183 7.22612e-07
587 183 2.64767e-07
1760 5511 2.32736e-06
1381 867 1.08608e-07
7750 2282 2.29836e-06
935 118 1.20455e-07
7695 17 2.45904e-06
7695 7164 3.47577e-06
1196 141 3.95479e-07
1975 2462 2.03993e-07
343 203 1.05229e-07
1085 1236 2.85806e-07
3627 491 5.7036e-07
1627 1706 2.12487e-07
598 141 4.7612e-07
1381 141 3.83011e-07
2363 141 2.86532e-07
2734 141 2.94896e-07
382 1484 1.51584e-07
132 7395 1.06891e-07
3724 3214 1.17206e-07
1811 232 1.15577e-07
4018 1014 5.37813e-07
3138 17 2.10552e-07
54 4359 2.46117e-07
1732 7239 1.07912e-07
991 4496 1.03281e-07
7268 1030 1.43216e-06
2428 3451 1.85645e-07
7256 685 8.72034e-07
469 245 4.81433e-07
2647 427 5.51265e-07
6761 43 9.0224e-07
7074 232 5.64273e-06
302 195 1.2576e-07
6069 427 5.62223e-07
6955 7995 2.09812e-06
2219 7995 3.01865e-07
5541 2721 1.44809e-06
4684 628 7.05162e-07
2276 6952 5.19137e-07
734 419 1.04947e-07
5088 3080 6.28695e-07
874 3711 1.3383e-07
385 178 2.20244e-07
6366 141 4.65415e-07
1766 212 1.52151e-06
174 212 1.34909e-07
250 212 2.23354e-06
6116 3894 4.69181e-07
6256 5 1.00135e-06
6597 7321 2.99117e-06
6597 59 4.06903e-06
3117 4900 7.13313e-07
1599 580 5.28745e-07
918 1875 3.5958e-07
1458 2006 8.66223e-07
1597 395 3.70641e-07
310 178 1.05897e-07
35 540 1.30704e-07
400 178 2.14214e-07
811 1255 1.05959e-07
5716 1255 8.0062e-07
6111 590 4.07101e-07
86 267 1.25602e-07
1100 714 1.80301e-07
1381 552 1.00122e-07
23 1146 3.31666e-07
6111 6970 3.77881e-07
3179 288 4.10294e-07
1122 4033 7.84662e-07
516 714 3.04063e-07
762 113 1.84343e-07
2702 460 2.40801e-07
1745 3214 1.11431e-06
1692 3214 4.10234e-07
1776 1147 1.13538e-07
385 377 2.04254e-07
5896 1657 3.2782e-06
3982 6717 3.92899e-07
5878 28 1.22375e-06
3139 208 7.30356e-07
2435 1484 3.30513e-07
5741 126 8.63453e-07
1701 665 3.96949e-07
5436 665 3.56306e-07
484 665 4.23261e-07
696 665 1.61279e-07
650 371 2.80391e-07
3535 34 4.82642e-07
5438 6391 2.07206e-07
395 2371 3.04387e-07
5431 1373 4.08776e-07
522 43 1.54666e-07
461 4816 5.31774e-07
1103 377 8.44109e-07
5435 6141 7.85436e-07
3315 218 1.28076e-07
37 4812 1.0031e-07
1869 24 4.61841e-07
637 24 6.33901e-07
4003 10 1.23463e-06
4740 409 1.02322e-06
166 1484 1.13602e-07
358 202 1.89986e-07
914 5524 2.58764e-07
4867 31 2.25237e-06
3905 70 4.17791e-07
175 5348 3.13729e-07
598 5348 5.21169e-07
123 141 1.72626e-07
4573 1860 1.6599e-07
4014 172 1.70139e-07
3591 69 1.92774e-06
1041 5248 2.50538e-07
585 5156 1.34096e-07
857 2339 1.49059e-06
4180 131 5.81522e-06
408 297 1.02456e-07
4336 994 5.71619e-07
4162 735 1.38515e-06
4323 41 8.73427e-07
4319 10 2.92926e-07
4279 299 1.80823e-06
980 778 1.66395e-07
260 4793 1.629e-07
790 4793 1.34483e-07
1796 1077 3.16729e-07
54 4635 2.64811e-07
0 325 2.20601e-07
3368 5 3.91047e-07
1736 4220 1.74546e-06
334 1146 1.0758e-07
1919 4180 2.51248e-06
522 18 2.22234e-07
3649 18 7.25374e-07
3521 1253 1.02833e-06
695 2963 1.46769e-06
3500 168 2.23467e-06
0 298 1.31373e-06
3331 3714 4.71968e-07
3256 326 1.13039e-06
3224 17 8.34623e-07
3222 319 3.60645e-07
3010 803 4.84561e-07
1326 202 5.89945e-07
1020 27 2.38475e-07
2900 714 3.44023e-07
2712 9 3.17127e-06
2698 28 8.655e-07
1032 2955 2.32766e-07
0 2440 3.82677e-07
1937 28 1.35593e-07
2658 2919 2.16321e-06
2502 134 5.6717e-07
2604 398 1.48052e-06
67 18 1.47659e-07
1733 869 6.01689e-07
186 582 1.02205e-07
2110 2500 1.65609e-07
1060 1413 1.26448e-07
599 1413 1.27911e-07
2204 2404 2.21325e-07
2063 12 6.56908e-07
2 1057 8.78187e-07
1004 2149 2.69911e-07
579 1264 1.02025e-07
1728 1152 8.25935e-07
1427 405 4.78115e-07
1380 151 2.11044e-06
347 86 1.23334e-07
31 689 1.11187e-07
1059 377 6.0151e-07
642 740 9.2229e-07
577 43 7.23798e-07
188 441 2.64494e-07
317 365 2.88363e-07
310 351 3.05434e-07
29849 10564 8.44158e-05
1118 10747 1.3001e-07
7219 4391 2.68149e-06
1450 590 6.95741e-07
2327 590 0.000303196
2673 590 5.96789e-06
14711 590 2.14119e-05
6786 590 1.10003e-07
2224 248 1.12065e-05
24746 129 7.49954e-06
2059 129 6.11394e-07
29461 5 9.76132e-05
3205 256 2.53013e-07
29602 256 4.13677e-07
29630 1253 3.23728e-05
6786 32028 1.24298e-07
186 32 1.16247e-07
3487 1584 1.18244e-06
789 803 1.79884e-07
29229 9272 6.25459e-06
6576 1784 6.56548e-06
29229 123 5.32249e-06
2482 547 1.13139e-07
29385 202 5.53088e-05
14058 606 4.56166e-06
29317 6675 1.48151e-05
375 25796 8.51741e-07
3780 1076 4.17489e-07
1846 14247 1.50419e-07
2030 14247 1.91693e-06
29233 2892 0.000126569
29213 31746 7.34009e-05
132 6399 1.33304e-07
807 31679 1.20145e-06
3518 10789 6.28015e-07
18788 2116 1.24086e-06
3898 8 3.61494e-06
437 2390 1.11287e-07
4290 580 4.30129e-06
3917 1671 2.56769e-06
386 848 3.83362e-07
1327 525 4.59153e-07
16343 2418 3.77146e-06
4230 398 2.18532e-06
1526 1354 3.12569e-07
28825 10373 3.87984e-06
300 31350 2.70335e-06
11481 4173 5.0668e-06
937 31326 2.29147e-06
8662 31326 1.7148e-05
3451 386 5.8393e-07
22206 2790 0.0034544
22460 166 3.87561e-05
996 31044 3.87348e-06
11594 31044 2.18093e-05
853 10789 6.93996e-06
7587 36 6.24753e-07
155 2742 2.88376e-06
136 7826 2.45812e-07
375 6884 2.32465e-06
1118 630 1.42422e-07
1776 86 1.49604e-07
350 522 5.53964e-07
2160 1992 1.36913e-05
15747 9783 8.01411e-06
210 810 7.48335e-06
372 750 5.13127e-07
28092 386 5.30741e-05
25283 119 1.56236e-05
227 555 5.65758e-07
105 555 8.96134e-07
24001 1413 5.95099e-05
28015 377 9.7131e-06
6786 4356 2.22774e-07
198 2534 8.73368e-07
15552 2534 0.063406
4688 2534 0.00276517
735 2534 4.54335e-05
6645 16636 5.22867e-07
683 16636 1.27096e-06
2316 404 5.33091e-07
2062 2313 4.57315e-06
27942 125 9.37866e-06
16611 125 0.000384603
24437 28 1.95176e-05
1240 8181 3.54905e-07
54 2537 8.21515e-07
3274 12499 9.73059e-07
46 789 2.94745e-06
16449 789 7.22396e-05
5990 964 1.45303e-06
1247 2937 3.92179e-06
27820 2937 0.000228295
16438 2937 1.27063e-06
17968 1546 3.18155e-06
2309 2485 3.21801e-06
17968 1413 5.5522e-06
14157 43 4.92724e-06
93 5202 1.55353e-07
319 508 2.73695e-07
453 522 1.68425e-07
1846 538 6.81437e-07
2870 30247 1.58488e-07
27746 463 0.00158175
990 27255 2.94565e-07
1413 86 1.34829e-07
807 297 9.22018e-07
6633 377 2.87255e-06
257 166 2.34232e-07
699 166 2.01656e-07
5990 166 2.84472e-05
7398 386 1.5626e-07
377 13681 1.3957e-07
24944 487 4.18391e-06
24944 44 4.33649e-07
3055 321 9.22267e-06
2112 590 1.42113e-07
1982 2972 1.05007e-06
604 630 1.13681e-07
297 1247 1.36941e-07
4385 29857 2.85009e-06
27495 1344 3.72259e-05
1450 3138 1.48673e-07
6145 28 7.55774e-06
157 29700 3.33232e-07
27402 10 7.85862e-05
665 2313 3.93931e-06
2563 534 2.62981e-06
552 6 7.7647e-07
143 6 7.04669e-06
9000 13059 9.65379e-06
932 98 1.03669e-07
27287 7754 9.34831e-05
575 29447 1.35072e-07
8928 29516 1.20302e-05
15544 29516 2.33275e-05
16523 701 3.68826e-06
27085 439 5.75657e-05
1624 98 9.11208e-06
2512 735 4.22465e-07
26979 60 2.81629e-05
18162 321 2.98576e-05
19049 310 6.43891e-05
1929 310 5.11869e-05
6248 575 6.77113e-06
26894 2063 0.00111579
448 13738 2.43836e-06
1423 172 6.12949e-07
26770 11572 2.27274e-06
16363 386 8.89469e-07
4570 386 0.000102103
26823 10 0.000115872
3384 223 5.6266e-06
26279 208 1.24029e-06
329 248 1.22228e-07
26589 60 5.65071e-05
932 28715 1.17597e-07
26414 2707 1.9977e-06
26488 1176 3.95302e-05
2080 1176 6.6836e-07
26473 2932 4.45078e-05
23203 15840 2.00686e-05
989 15840 3.07126e-06
202 377 6.73266e-07
204 28610 8.89024e-07
13167 803 1.09471e-06
21843 60 1.25654e-05
726 267 4.22744e-05
1850 2001 2.04396e-07
26301 86 1.39569e-05
8430 964 1.86355e-06
93 11453 2.6877e-07
10076 11453 1.61141e-05
14657 11453 1.6378e-06
2635 2836 2.5658e-07
16602 26 1.38171e-06
39 4810 1.09107e-07
2746 110 9.32355e-06
3451 59 7.74404e-07
7632 1319 1.14275e-06
482 5793 2.77137e-07
5532 533 1.66203e-05
26037 275 0.000410142
212 27816 6.00719e-07
2723 27816 2.07127e-07
250 580 1.43948e-07
25569 212 1.74748e-07
6230 1383 3.46998e-06
3288 533 7.69212e-07
25910 366 2.09878e-05
27 366 4.1499e-06
2620 737 5.25286e-06
5813 510 3.15392e-06
2578 28004 3.92824e-06
25727 45 0.000110343
974 45 0.00144763
25713 34 7.1251e-05
74 1344 1.43115e-07
1108 218 4.69209e-06
8719 23312 6.94887e-07
11872 23312 1.00246e-05
1364 2306 6.3458e-05
119 276 1.46734e-07
9465 17 1.97452e-05
2870 23470 1.28876e-07
4406 26401 5.66091e-07
519 590 8.64915e-07
477 590 4.70312e-07
74 508 1.16579e-07
6119 2144 0.000292543
601 435 4.85226e-06
601 176 0.000116575
2632 306 4.54802e-07
547 701 1.31495e-07
326 419 1.58582e-07
29 5894 4.95963e-06
310 5894 1.20933e-07
2521 51 3.60219e-07
25244 674 1.76093e-05
228 377 1.70249e-07
1941 377 3.83932e-07
13522 3406 1.7315e-05
1060 18 6.58459e-06
278 2936 7.08752e-07
365 789 2.22304e-07
6743 789 7.49498e-06
620 19605 1.29083e-07
3394 39 1.23894e-06
3394 6070 1.2875e-06
12026 2117 8.7948e-06
6105 2356 3.26524e-05
6038 17 3.27822e-05
37 1053 1.52594e-07
2723 11493 1.79053e-07
217 11493 1.88226e-07
7503 2335 5.26571e-06
937 23317 7.8151e-07
2591 1073 1.25965e-06
4755 818 4.38936e-07
453 3631 1.31446e-07
4019 202 3.09215e-06
3573 27042 6.52621e-06
147 319 1.92226e-07
6644 27139 6.14413e-07
1875 27134 1.21363e-07
11179 208 2.54574e-07
3165 365 1.32934e-06
24933 1859 9.07912e-06
3046 3341 3.40114e-07
635 4307 3.01265e-07
18830 3431 3.81391e-06
319 42 1.01312e-07
1131 42 1.20903e-06
100 2246 1.51102e-07
4286 202 3.10567e-06
608 26599 8.36156e-07
5301 15968 1.33814e-06
24603 148 6.39791e-06
24603 221 1.66044e-06
24594 60 0.00194723
905 1197 3.58831e-07
9049 4014 2.77142e-07
121 4014 1.16566e-06
16460 4014 2.64982e-06
2039 4014 4.46319e-06
3223 4014 4.15705e-06
504 4014 6.29921e-06
132 4014 2.43885e-06
4089 4014 5.05937e-05
17830 534 3.82788e-06
461 26457 0.00713555
318 26457 4.08577e-07
19129 39 4.2922e-05
14706 179 4.14153e-06
834 179 5.67514e-07
1601 3179 8.39668e-07
828 1413 9.6489e-07
24316 10210 0.000180297
24294 2504 6.84539e-06
7643 30 2.69385e-05
9504 30 4.87253e-05
12837 6518 1.47539e-05
159 5629 5.6645e-07
23415 5 6.98847e-05
24066 5202 0.000603693
20996 208 3.52147e-06
18600 645 0.0123294
221 52 1.10856e-05
14818 1787 5.93704e-07
2131 1787 4.79362e-06
2633 1787 3.06049e-05
504 26043 1.2194e-07
2464 319 1.22222e-06
7508 174 5.29744e-06
6645 74 5.84528e-07
21185 17826 6.11771e-06
253 25973 1.468e-07
1064 1413 1.96416e-07
319 2827 1.25543e-07
5500 37 2.51176e-05
23841 37 8.11002e-05
23840 37 0.0100253
16546 37 3.62344e-05
2946 25859 1.2738e-05
23139 25859 6.11943e-06
14827 166 2.8322e-06
1099 15981 1.31844e-06
17594 15981 0.000709007
14827 15981 0.000546765
7428 15981 2.11688e-05
2714 141 2.64956e-06
20524 7767 1.1061e-05
1507 400 3.5355e-06
11232 5632 1.44258e-05
113 64 3.81493e-07
23541 9 0.0002866
23520 19956 6.95368e-05
2860 18 6.39844e-05
248 24755 1.60463e-05
23382 1413 0.000589015
7632 1004 2.4368e-06
2351 60 9.91637e-07
69 25452 2.63265e-06
23304 3135 1.37749e-05
919 13395 9.59431e-07
23322 1413 1.76529e-05
46 648 3.2916e-07
10844 187 2.79395e-05
7888 25301 3.61952e-05
716 377 3.99723e-07
567 7577 1.59226e-07
2062 321 3.78154e-06
7818 10564 9.05051e-07
281 12779 4.83211e-07
22264 10564 2.78658e-05
416 742 1.14041e-05
17549 110 8.82107e-07
763 24380 2.10964e-06
5472 4091 5.78601e-06
331 2188 1.87882e-06
1060 64 7.07862e-07
3117 378 5.60437e-06
2220 24707 2.05906e-07
22266 4 3.55327e-05
6763 7771 1.42846e-05
593 10685 1.60526e-07
18568 350 3.11908e-05
362 126 2.39658e-06
276 113 2.58621e-07
17209 10731 7.42854e-06
22226 5 0.000112231
2380 24149 2.79912e-06
5608 1061 6.52038e-06
18321 3875 8.45249e-06
855 469 2.00685e-07
3200 12651 6.14074e-05
760 350 2.67098e-07
4471 12987 6.28905e-07
20531 13023 6.46438e-05
21846 1064 5.02408e-06
4481 23712 6.12954e-06
1859 23711 8.7179e-07
127 23711 0.000360757
2031 23711 1.43837e-06
0 23711 1.10299e-06
18085 424 2.53002e-06
21568 6883 3.60965e-05
21450 515 2.09595e-05
21442 19605 5.39866e-05
143 523 2.92757e-07
3792 23214 6.2683e-06
263 4739 4.84637e-07
17726 10569 3.63432e-05
21148 465 1.59276e-05
2365 10564 2.45863e-07
760 10564 2.41785e-07
10495 28 1.16732e-05
1103 108 1.78386e-05
20893 108 0.000485046
3157 1246 1.31437e-07
15093 148 2.18223e-05
20828 424 1.95919e-05
4946 22720 1.15443e-07
105 1354 1.24123e-07
10131 126 1.27686e-05
11299 17 9.94239e-07
608 3913 5.26067e-07
4710 674 2.51116e-06
12504 17588 4.02735e-06
855 3812 1.98198e-07
16782 3038 2.81501e-05
9578 42 5.86543e-07
11085 224 1.68755e-05
18944 377 5.40546e-06
16657 377 1.29904e-05
20121 1222 0.000273289
15355 5941 6.49731e-06
9257 16424 3.6218e-07
9215 50 3.80059e-06
7809 4891 5.85032e-06
905 4359 6.595e-07
19690 21427 2.99525e-05
2612 11362 1.39517e-06
19418 189 0.000297061
16725 248 1.00612e-05
3119 97 1.34913e-05
911 4987 4.53681e-07
17818 60 1.74584e-06
16291 349 9.73119e-06
11857 5103 1.95639e-05
16153 20166 1.42341e-06
3270 3629 5.83426e-07
681 12989 1.81848e-06
1608 12989 1.27306e-07
19033 126 0.000126697
7578 18960 3.32615e-07
263 4787 1.23705e-07
18924 17 0.000108206
0 2537 1.32833e-07
245 10830 2.46052e-07
608 9945 1.71745e-07
7508 7535 4.39439e-06
4659 8 7.61984e-06
593 9456 1.19198e-07
10093 463 4.31474e-06
3813 463 2.81256e-05
421 10 2.04685e-07
18417 20220 2.3673e-05
18085 20190 2.60817e-06
15180 15840 5.01997e-06
4850 16835 4.84692e-06
1646 377 1.68996e-07
11349 110 1.31156e-07
14987 4145 2.63741e-07
2449 19899 5.11502e-05
2031 19899 1.55846e-07
212 435 7.83454e-07
16546 102 2.41617e-05
4542 19749 2.71186e-06
17912 19749 0.000876657
15315 208 6.8842e-06
17846 3894 1.00029e-05
2226 220 9.50926e-07
5364 220 4.67603e-06
17764 39 8.58871e-06
7648 5 0.000113491
1859 9827 1.42636e-07
2758 18115 4.6476e-07
2657 355 3.81179e-07
17587 16228 3.90183e-05
17295 424 1.72364e-05
1094 17281 8.64728e-07
1951 19089 2.43943e-07
3010 134 1.80536e-06
5187 616 1.49576e-06
180 2 7.48096e-07
1615 2 9.91884e-07
381 5493 1.69364e-05
17188 5605 1.8742e-05
17187 424 1.56974e-05
377 2637 1.43923e-07
282 931 2.35091e-07
1951 1570 1.18278e-07
9081 113 4.76428e-05
7370 7546 8.14726e-06
6119 702 1.18802e-06
608 18285 1.1187e-07
3593 111 3.77358e-07
3157 2356 1.54418e-07
3315 11204 3.37679e-07
16289 15107 6.53352e-05
16256 1442 6.69862e-05
16149 612 3.00198e-05
3272 51 1.32535e-07
15957 465 1.47595e-05
3431 612 4.12576e-06
11866 60 2.46618e-05
1450 60 2.05626e-07
15753 3068 1.46768e-05
143 98 1.77726e-07
6644 5300 0.0005275
885 5300 4.1754e-07
15799 5300 3.75303e-05
205 15843 2.52873e-07
10785 208 5.2445e-05
6831 204 5.25961e-06
787 16876 2.2838e-07
15764 16876 2.20412e-05
354 12988 1.48637e-07
9763 510 5.50635e-06
3159 133 2.806e-06
1099 41 1.49902e-07
10430 16842 3.87318e-06
542 16749 2.26481e-07
15478 9272 4.43718e-06
15495 4891 0.000174102
159 16711 5.66849e-07
510 16711 8.73443e-06
15465 16689 0.000488788
11530 9025 7.42813e-07
15064 17 9.63173e-07
5993 16373 7.34954e-06
15225 10 2.73289e-05
147 7399 1.27902e-07
4610 39 8.49813e-06
14946 303 1.39189e-05
14941 232 7.14078e-06
288 424 1.78894e-07
14773 5 6.46227e-06
625 3711 1.15557e-06
7879 15836 7.06227e-06
720 15786 1.28712e-06
212 1861 1.01208e-06
125 2895 1.63594e-07
1685 714 5.40271e-07
9529 11115 2.97594e-06
661 15629 1.64512e-06
14350 15629 2.49229e-06
79 15629 7.81409e-07
356 10597 1.83676e-07
8591 60 1.06743e-05
5782 10564 3.19253e-06
1898 10564 9.7583e-07
7323 1496 4.71295e-07
4089 2093 6.68895e-07
9529 4 1.85359e-06
587 2904 2.02286e-07
154 368 5.2065e-07
5736 117 3.12272e-06
715 211 4.34495e-06
9738 26 2.75379e-06
14399 1484 1.94505e-05
4078 4663 1.71709e-06
7714 377 2.85416e-05
1859 8256 2.50388e-07
14284 301 5.55906e-05
4878 232 2.97803e-05
9076 15373 1.57284e-05
9539 1336 1.17923e-06
526 1329 2.18748e-07
3483 1329 4.23745e-05
865 3214 1.18123e-07
1773 3204 1.16543e-06
2227 3204 4.22168e-06
9798 3204 4.26759e-06
3360 3633 1.00956e-05
13782 39 3.51968e-05
416 10564 3.11662e-07
13620 9272 2.97761e-05
3120 1564 8.05419e-06
1705 1564 1.75629e-05
2716 1564 0.00101152
10908 1564 0.00019829
6395 1564 5.27065e-05
2096 4164 6.10733e-05
2051 5246 0.00010025
300 5246 3.29799e-05
441 5246 8.13315e-06
804 5246 1.42545e-05
113 5246 9.19514e-06
13445 514 0.000978366
13394 319 0.000275791
5474 319 5.55533e-05
108 174 2.62758e-07
179 3084 1.25492e-07
2198 3084 5.99547e-07
13188 1683 2.35718e-05
2684 350 4.54816e-05
1200 9230 4.34506e-07
13161 14249 1.85501e-06
637 5140 2.97872e-05
437 5140 2.90199e-05
850 1057 6.13316e-07
9313 4014 3.81633e-07
13070 9272 1.5208e-05
7104 4496 2.52858e-05
12871 2885 1.72746e-05
8735 2885 2.49902e-05
1421 2885 3.82161e-06
913 2885 1.98476e-06
12793 174 1.52596e-05
10929 5247 0.000666194
9980 5247 4.60695e-05
548 1232 2.35313e-06
1080 590 1.58249e-05
12735 159 1.15804e-06
9860 1301 8.76345e-05
6364 1484 1.46406e-06
54 943 7.8272e-07
3223 13542 2.89575e-07
12515 1018 3.9962e-05
5026 405 5.37566e-07
771 13152 6.43191e-07
12144 13137 0.0017825
9995 2058 4.17881e-06
2521 9272 2.0613e-07
30 64 1.18436e-07
11500 13045 0.000176686
2164 164 6.74996e-06
10983 1630 1.96511e-05
32 2796 2.87881e-07
11860 9272 3.76082e-05
3615 96 9.93889e-05
368 96 0.000191354
1850 96 2.48732e-06
2184 96 9.79395e-06
11791 1190 7.35585e-06
1064 12832 1.03427e-07
11739 3525 3.65512e-05
2239 3253 4.80221e-07
3505 534 2.13739e-06
52 342 1.7391e-07
14 342 1.43545e-07
2789 927 9.93715e-07
1633 927 1.3853e-06
170 7487 3.28805e-07
526 10936 3.68549e-07
565 10936 1.45868e-07
3627 10936 4.47068e-06
1241 4622 1.71729e-06
300 10616 6.00864e-07
3350 189 1.59048e-05
507 189 0.000700613
323 10371 1.33358e-07
11130 232 2.70675e-05
11120 6966 0.000120193
3083 313 5.21513e-07
148 313 1.35836e-07
11039 1058 7.07644e-05
1201 540 3.78583e-07
10334 1476 0.00022575
1860 10158 1.03483e-06
10918 1643 4.54969e-05
493 179 5.75755e-06
245 179 1.33525e-07
3907 43 8.4459e-06
8575 222 2.4856e-05
10810 2783 3.95437e-05
10810 23 0.000350739
10810 1601 0.00332889
552 1220 2.94801e-07
5744 1220 7.06573e-06
10805 12033 1.83505e-06
10791 10569 3.13034e-05
3839 671 2.50162e-06
10750 1301 4.36915e-05
8561 2670 8.80153e-06
10644 34 3.28453e-05
725 3370 3.88183e-07
10492 2946 9.11746e-05
1557 44 9.71712e-06
10353 714 8.71022e-05
10353 972 7.36423e-05
10353 2 0.000172611
9600 573 8.19587e-06
2102 2 2.38877e-05
1589 10747 4.21162e-05
9818 5694 5.29925e-06
10301 512 9.34473e-06
10219 11502 6.43054e-05
9228 822 1.96276e-07
4014 113 3.6842e-07
6075 629 9.87107e-06
105 28 1.16861e-07
245 166 1.16642e-07
1169 10564 6.53946e-06
7276 6432 3.73249e-05
2909 671 2.04154e-06
2708 4110 4.5531e-06
1580 4110 1.64885e-06
5813 141 4.04052e-06
2 10757 1.16496e-07
644 2341 7.2185e-07
9696 17 2.45534e-05
1518 824 1.01419e-07
5489 824 6.91788e-06
3976 2783 8.13629e-07
7276 8375 8.55641e-06
9424 108 8.18707e-05
673 3062 1.40605e-06
2350 252 2.48851e-06
491 252 3.8183e-07
2715 296 9.63794e-06
2299 125 2.19666e-06
1730 69 1.64074e-05
913 577 5.39478e-07
623 577 6.46007e-06
378 577 3.98708e-05
378 12 7.44874e-07
659 577 4.95304e-05
659 12 6.20608e-06
659 558 3.86748e-07
659 1761 0.000269435
659 10513 0.000325408
867 577 2.3883e-05
867 12 2.9925e-06
867 1761 0.000129919
867 10513 0.000156908
301 577 2.32816e-05
301 12 1.40125e-06
301 1761 3.19542e-05
301 10513 3.85107e-05
556 577 1.27152e-05
556 1761 6.91682e-05
556 10513 8.35373e-05
1871 577 0.000639813
1871 12 8.01675e-05
1871 558 8.88819e-06
1871 1761 0.00348045
1871 10513 0.00420348
5154 1761 7.54046e-06
5154 10513 1.20579e-05
15 577 5.15197e-07
15 12 1.23655e-07
15 10513 2.81381e-06
731 1761 5.48224e-07
1092 1761 5.88592e-06
1092 10513 7.76741e-06
585 1761 1.67975e-06
585 10513 2.2167e-06
450 1761 2.23214e-07
450 10513 2.94567e-07
40 1761 1.01471e-07
40 10513 1.33907e-07
2289 1852 1.8588e-07
2289 1761 8.25787e-06
2289 10513 1.08976e-05
3014 1761 0.000973912
3014 10513 5.37e-06
8888 661 4.84631e-05
1745 18 8.53639e-05
1705 18 4.06592e-06
595 18 3.86116e-06
2702 4923 5.50417e-07
2204 1308 5.85363e-05
1725 1055 2.37534e-05
5200 648 5.49729e-06
1092 6432 6.39464e-07
1092 8641 9.38351e-07
4333 293 1.02022e-05
4333 563 3.56447e-07
3208 1999 7.14045e-07
2331 1999 1.47208e-06
421 3615 4.3444e-06
990 18 2.3284e-07
15 386 9.21684e-07
15 2774 1.03975e-05
772 386 2.27399e-06
2838 1330 2.47919e-07
8977 735 3.64451e-05
268 670 1.50968e-07
15 10191 1.92933e-07
8857 612 3.53195e-05
8857 1107 1.41508e-05
862 1308 5.25453e-07
6626 9988 6.95734e-05
1221 252 5.45645e-07
1685 2865 3.31827e-07
329 1476 1.02093e-07
1187 1232 1.947e-07
545 693 1.41002e-07
245 512 1.11303e-07
5856 34 1.44121e-06
5873 2670 2.01512e-06
355 1309 1.47742e-07
1982 2013 1.39729e-06
1836 528 6.70316e-06
1836 9647 9.61258e-07
1836 6177 3.31055e-07
1836 6 8.44423e-07
1836 2983 2.43555e-07
3 9647 8.74243e-07
587 309 1.1229e-07
177 98 4.54227e-07
350 1925 2.07475e-06
311 1925 1.47317e-07
862 1925 2.67615e-05
1968 1925 1.21547e-06
1450 1925 1.74415e-06
193 780 1.09751e-07
8022 2429 2.61305e-06
1240 43 1.71414e-06
3998 43 2.23085e-06
351 383 3.10348e-07
177 1759 0.0154561
17 7649 0.0180531
2307 401 8.78666e-07
151 401 2.93203e-06
796 3062 4.74898e-06
380 401 5.08504e-06
8328 584 0.000600835
28 584 2.13935e-07
302 584 5.45101e-05
2365 252 4.13042e-06
2133 1415 4.22865e-07
2067 1232 2.32844e-07
6091 1232 1.8592e-05
2307 1232 1.48036e-07
1829 1232 1.59773e-06
2236 4558 1.69348e-06
268 580 4.67509e-07
1419 580 4.67481e-05
1125 321 7.76398e-07
1584 218 2.21063e-07
1617 15 4.65761e-06
545 590 1.68635e-07
900 590 1.25307e-07
2338 666 1.07054e-07
1928 2 5.58697e-07
1194 2 1.44542e-05
1193 2 7.256e-06
1124 789 1.18726e-07
1551 248 1.62413e-07
1551 34 1.71678e-07
1102 2717 1.76421e-06
667 233 3.32258e-07
291 9130 1.68714e-07
6940 4359 6.16788e-07
343 208 9.48446e-07
836 208 1.26938e-06
696 208 4.28192e-07
804 208 2.54966e-06
753 1030 1.20847e-07
1550 34 2.71785e-06
673 912 1.10373e-05
623 350 1.90042e-06
2166 350 8.06419e-06
1084 350 8.52728e-06
98 350 3.89542e-05
244 350 1.86957e-06
2338 13 5.17223e-05
941 2055 1.70468e-07
282 178 2.20546e-07
1953 179 3.38367e-07
7967 972 7.38814e-06
334 258 3.93326e-07
3949 4388 3.96609e-05
941 9019 1.09804e-07
941 6904 1.12789e-07
764 236 1.60881e-07
364 110 3.12186e-06
4555 202 5.73291e-06
3116 202 2.62309e-06
6 2282 1.58342e-07
1846 178 1.4766e-07
7450 3377 5.47116e-06
2591 464 1.50947e-06
3319 194 9.24853e-06
7127 2030 2.1809e-06
2214 2262 9.68339e-07
3102 8682 6.50278e-07
2513 559 1.44347e-05
276 8620 3.24349e-07
2783 201 3.3312e-07
1086 17 4.47504e-06
333 789 3.01086e-07
359 233 1.95996e-06
358 928 1.3583e-07
7399 1236 1.92064e-05
790 3221 1.31622e-07
180 2433 8.0306e-07
4115 2370 4.08899e-06
4772 1014 1.99388e-06
650 2155 1.08968e-06
3593 313 3.17009e-07
2835 714 2.1008e-06
2074 178 3.53674e-07
2605 1484 9.34434e-07
497 8284 1.47228e-07
690 1190 4.91319e-06
117 154 2.21048e-07
5066 510 1.42671e-05
7194 26 3.33256e-05
5145 1605 0.000137117
926 110 1.33608e-06
7104 6432 1.77185e-05
7084 3305 1.72834e-05
1875 98 1.70441e-07
1185 98 1.12797e-07
182 463 2.34201e-06
5301 512 1.84582e-06
6982 2280 4.28354e-06
6982 463 2.30363e-05
2106 2280 3.60316e-06
3085 8014 1.14952e-06
2005 7991 1.32328e-06
1997 1813 2.51422e-07
1891 117 7.89582e-07
6807 1007 2.94794e-05
6807 44 1.99807e-05
504 7784 5.5898e-07
2031 7784 4.2228e-06
1099 7784 3.06185e-07
429 7784 6.18797e-06
2587 69 1.19934e-05
871 194 7.0456e-07
443 854 1.11434e-07
846 854 0.000380845
3348 598 2.86628e-06
453 141 2.99088e-07
399 15 2.582e-07
2693 3098 5.40698e-06
3752 3098 2.24459e-06
186 943 1.32198e-07
1020 232 6.36587e-07
652 189 2.9306e-06
3435 125 1.77264e-05
1628 1484 8.4011e-07
2875 1843 1.27855e-05
311 178 1.82385e-07
1100 178 7.99825e-07
1084 178 8.54687e-07
2547 1255 4.18329e-06
330 885 3.41143e-07
2248 885 3.97359e-06
850 999 3.49414e-07
378 7154 1.13077e-06
6281 2950 2.164e-05
2156 293 7.04343e-05
1214 42 9.69412e-07
421 349 4.27038e-07
79 59 1.79746e-07
2457 86 7.76384e-07
4075 5030 1.83846e-06
2050 576 8.85773e-06
646 3593 2.27739e-07
1907 424 7.82277e-06
1966 6567 0.000157159
2905 6567 0.000384604
1421 6567 0.000361911
1859 6567 1.11997e-05
5904 6567 0.0014002
5747 6567 0.000878162
3715 13 2.21531e-07
865 6739 1.6593e-07
1391 6613 1.41317e-06
151 580 1.40953e-06
670 1484 6.40447e-07
796 1861 3.57333e-06
728 1409 2.28128e-07
1422 407 1.49909e-06
5608 37 2.75655e-05
5596 885 0.000265436
1828 885 1.28742e-06
50 2946 1.11299e-05
5512 2049 4.04931e-05
2497 1190 7.09254e-06
1966 3450 6.53826e-07
397 521 0.000216436
4759 521 0.000721368
5142 5634 4.42173e-05
2702 5634 5.49836e-06
3470 5798 1.6788e-06
1846 5727 1.22251e-07
4890 5537 3.74009e-06
4637 5537 5.94989e-07
3674 5537 1.46333e-06
356 1992 1.20074e-07
4766 5385 3.28e-05
4725 5 2.47622e-05
35 1964 1.12246e-07
4682 822 0.000279521
2571 3177 8.29927e-06
549 2565 8.18947e-07
4336 5116 6.25245e-05
1901 4806 3.95433e-07
836 4123 2.32684e-07
505 4915 2.0251e-06
604 669 1.23428e-07
764 4888 1.50758e-07
23 4870 6.95696e-07
4267 1021 1.44555e-05
1778 4766 4.37784e-07
316 98 3.98027e-06
4147 377 1.25567e-05
804 963 1.84728e-07
1100 113 3.45372e-07
4074 661 0.00017701
979 4523 2.25462e-07
3250 714 0.000182428
979 714 8.58492e-06
497 714 3.38019e-06
1211 1601 1.06809e-06
1250 3811 3.65295e-07
1726 1772 6.84732e-06
3898 1146 2.53929e-05
900 350 1.15605e-06
497 350 3.04618e-07
3622 350 2.97962e-05
401 735 1.49443e-07
2468 2312 5.73984e-07
941 735 1.24954e-07
961 4087 1.98978e-06
3585 27 1.06294e-05
2823 584 1.56919e-06
641 252 2.46362e-06
1988 2865 9.62965e-06
3331 931 2.49908e-06
123 3669 2.8959e-07
2216 23 3.83215e-06
3283 23 1.82723e-05
796 23 2.06421e-07
654 3499 4.06918e-07
3077 3281 4.68141e-05
3044 2042 4.24688e-05
52 193 3.10363e-07
1611 1478 1.32368e-05
1526 110 8.24831e-07
2859 3163 0.000103918
464 1891 4.32504e-07
1206 315 2.27145e-06
250 3095 1.82354e-07
1393 1484 1.87534e-05
702 223 2.15342e-06
2784 18 2.71295e-05
530 2962 1.3647e-05
974 43 5.54689e-06
2407 2588 0.000328734
2354 863 0.000106829
2312 2465 0.000173267
2286 97 6.9191e-06
2285 2500 7.15141e-06
105 427 1.21914e-07
10 427 5.55295e-07
130 427 1.00821e-07
380 2239 1.67561e-06
380 2238 3.85541e-06
2056 2239 9.23045e-06
796 2239 9.74357e-07
2018 37 2.06008e-06
493 2120 8.69661e-06
1727 1152 1.48894e-05
1231 86 2.36152e-05
519 86 6.32532e-07
232 707 2.54068e-07
1119 1255 1.06285e-05
1101 1238 0.00038159
326 1206 5.09603e-07
12732 10564 1.59891e-05
1042 1157 1.43891e-07
873 31 0.000119735
873 4 8.61965e-05
731 200 2.04042e-07
713 200 4.86418e-06
559 208 5.94615e-05
549 39 1.18919e-07
397 52 5.62441e-06
376 424 4.81445e-06
187 210 5.68892e-06
187 209 6.80748e-06
19372 863 0.000328661
14926 3620 0.00114764
27015 276 8.09027e-05
6863 10717 2.84631e-06
29569 717 0.00043825
575 41 1.90595e-07
10158 789 0.000141695
15841 398 0.000405524
7755 11572 3.03331e-05
29652 2783 0.00765449
8719 612 1.087e-06
2285 350 7.06572e-05
958 2037 1.73076e-07
18655 1212 0.000152496
11152 4938 0.000153714
29158 512 0.000350784
24530 34 9.65096e-06
3126 1002 5.5534e-05
1715 9272 1.47365e-05
1281 717 2.58857e-07
29677 1404 0.00122375
5383 1404 0.000150139
7561 1404 4.95043e-05
453 42 2.61056e-06
311 42 1.33635e-07
917 13718 3.67352e-05
1650 3926 8.12768e-06
46 10373 4.51531e-07
11827 6883 7.94655e-05
10108 21282 0.00101663
2965 233 0.00033525
10761 384 1.40858e-05
3487 5796 2.77426e-06
6616 135 1.31679e-05
1811 1374 2.3541e-07
23688 9272 0.000427341
4392 16483 3.68116e-06
932 703 1.42085e-07
23664 17 0.000474477
29414 2284 0.169825
1064 2284 3.47882e-07
1457 2284 2.37091e-06
11403 825 0.000204551
186 2339 1.35313e-07
9547 1322 4.2587e-06
6938 2117 0.000433812
2061 17 2.01411e-05
940 31818 4.23823e-05
7398 405 1.31213e-07
29268 2555 0.000364404
932 4117 3.27167e-07
24896 1784 0.00488868
1954 31 4.99763e-05
29205 275 0.00128668
40 10581 2.86455e-07
20788 2368 9.77209e-07
2572 5719 6.59436e-06
345 772 0.00395897
121 17 1.2128e-05
11590 4045 6.20848e-06
300 2291 1.34363e-05
437 617 4.45314e-07
2635 3419 4.71601e-07
12050 26501 2.4013e-05
1327 31628 1.28701e-06
1327 621 2.50609e-06
4182 126 7.68347e-05
5864 3679 0.000269785
506 230 0.000189532
3665 2395 2.23974e-06
74 166 2.27173e-07
195 10616 1.40201e-05
19166 163 0.000350882
1598 163 1.15346e-06
29063 9272 0.00296714
4170 11256 0.000246866
18788 194 6.03445e-06
7980 674 0.000182057
3050 674 0.000460874
23873 31493 8.60645e-05
186 1630 2.04191e-07
3737 29 3.901e-07
27724 17 0.000186012
1336 1871 1.55817e-05
1271 864 3.03294e-07
834 26732 4.79216e-07
28934 179 2.60932e-05
17517 6339 0.000252752
20576 6339 0.000806605
8823 717 2.60595e-05
2063 3064 0.000184053
2652 31390 2.57751e-06
591 10731 1.29956e-06
28064 5763 0.000150428
400 3913 1.6226e-06
6071 533 0.000249841
2308 490 1.45926e-05
12678 3620 2.08451e-05
21186 69 3.54322e-05
1430 487 4.79558e-05
3241 5 1.60361e-07
2204 44 2.18936e-06
605 8653 3.24787e-07
19126 4816 2.56318e-05
1206 4816 1.36488e-05
19170 19605 1.83288e-05
979 377 1.77155e-07
121 30 1.16311e-06
28350 5606 0.0170854
3274 110 8.99663e-06
16145 110 0.0007957
297 9321 1.68442e-07
650 287 3.21542e-06
5796 12829 2.22609e-05
3204 202 1.49098e-06
2608 2 3.60547e-05
2294 8702 2.37653e-06
1513 163 0.000835506
1278 30141 2.82595e-06
28179 176 0.0012414
28179 2555 0.00201546
9083 154 0.000377473
949 42 8.04813e-07
753 582 1.00347e-06
964 141 1.23559e-06
3282 3668 3.66759e-07
3276 27 0.000200444
28125 6453 0.00572425
4870 34 2.89206e-05
27757 110 2.04119e-06
7323 29925 0.00020603
572 386 1.28178e-05
28080 1413 0.00302195
8080 3521 9.95459e-06
8080 2 0.000649413
375 2172 7.88292e-07
1005 386 2.77811e-06
14942 282 2.83869e-05
5243 863 5.23189e-05
2053 119 1.93977e-05
180 1413 0.000161804
2305 18 5.21609e-05
8958 2537 0.000172061
27558 30348 0.000207344
3780 203 6.03377e-06
27766 4975 0.000108923
9059 4975 5.14439e-05
27955 3690 0.000878226
11723 395 1.30359e-05
834 98 5.84134e-07
11557 2279 5.47154e-07
2326 30397 2.56947e-07
282 126 1.29997e-06
25300 1413 0.00527906
4385 2698 1.90162e-07
817 845 5.16916e-07
23691 30336 0.166055
7665 964 0.000134683
3299 126 1.12477e-05
9296 707 2.69448e-06
16597 53 7.20932e-06
4380 279 4.44046e-07
17968 279 0.000494234
27808 1554 3.33485e-06
6860 98 3.54169e-05
27800 2193 0.00503659
27794 2826 0.00164556
27793 1413 0.00244235
27787 96 0.00055644
985 17454 4.88089e-05
312 512 3.17679e-06
13318 306 0.000515113
16461 383 5.17203e-07
148 377 6.28471e-07
1208 4180 1.31235e-06
6541 2339 3.8065e-05
481 2339 2.26694e-06
24944 69 4.31633e-06
7587 377 8.67622e-07
647 28 3.85609e-06
15 5050 0.011252
1445 383 3.61948e-06
11496 13681 3.47206e-05
17228 98 0.000114561
1042 1754 3.65319e-07
4385 1413 1.39932e-06
122 25818 8.16547e-07
941 98 3.08191e-07
1091 12765 5.39399e-05
4157 2972 0.000250369
87 661 3.82307e-07
2673 661 1.07712e-06
2056 29914 0.0147952
1828 4852 1.54607e-06
27543 1020 0.00103039
1391 3462 1.79932e-05
4385 29904 1.8811e-07
1528 1077 1.03457e-06
24944 29853 3.59309e-05
347 9156 1.68096e-07
25381 1096 5.85618e-05
3068 29799 7.31235e-06
941 208 3.72988e-07
28 2995 2.51366e-07
172 321 0.0117802
4406 17545 7.05317e-07
22619 41 0.036228
22619 29526 0.000153771
27440 53 0.0187185
3555 29700 0.0100976
6333 3118 0.000544147
5948 3971 3.00953e-06
443 29653 5.31116e-06
3078 29653 0.000323979
27324 1409 0.00011432
27306 5438 0.00372559
4857 885 1.43494e-05
443 29548 2.51979e-07
4886 2317 1.78052e-05
613 175 6.66692e-06
26525 86 0.0021806
26004 29516 1.9087e-05
2843 29509 1.15567e-05
16438 2282 2.16172e-06
27244 319 0.000740891
27016 28084 0.000202537
2870 16997 1.193e-07
3220 29411 3.09093e-05
1247 377 3.67254e-07
3323 1079 4.3361e-05
4857 1079 0.000525411
245 28811 2.39873e-07
19893 4384 0.000537478
15364 98 0.00129596
15853 212 0.000350701
3614 377 3.81459e-06
6541 28541 7.1288e-06
8998 1784 1.72554e-07
8998 735 3.41612e-07
26986 2493 0.000720476
2400 508 1.73825e-06
673 2930 2.16971e-05
39 1176 3.51271e-07
26868 1635 0.00017329
578 508 3.27552e-07
7258 377 0.000284249
1057 110 0.000111567
4850 503 7.15219e-06
26226 28923 5.59922e-05
12636 110 7.17357e-06
1577 510 1.38375e-06
1777 28809 6.56091e-05
25853 17 0.00169819
564 28839 1.48131e-06
575 1176 1.85665e-07
5504 885 5.84194e-05
7323 377 5.46978e-07
119 1253 5.03727e-07
2098 487 9.04308e-05
2808 28674 5.18892e-06
3219 28692 2.26901e-05
1668 25625 1.83676e-05
5568 45 0.000172909
825 28610 4.25443e-06
299 28610 0.000128402
26373 470 0.00302272
26373 31 0.00353823
3398 1784 0.0004352
3398 2036 6.43032e-07
1293 1176 1.63773e-05
1293 4294 1.07338e-05
3990 28023 7.27618e-07
5574 321 1.34444e-05
639 321 2.42672e-06
26004 674 4.30157e-06
11580 5 6.40533e-05
26239 355 0.000148809
26221 5 0.0206051
26181 629 1.19471e-05
26181 13766 3.87363e-05
8037 1557 0.000104189
1410 1557 2.32893e-06
25613 28377 4.86269e-05
26158 17 0.0952871
5180 141 2.64599e-05
789 8627 2.34133e-07
1468 8627 1.78619e-05
204 98 3.06228e-06
9075 470 9.43073e-05
403 470 5.49556e-07
26094 9318 0.00411633
3517 28305 1.30456e-05
1917 28264 2.32111e-06
2103 426 7.71298e-06
26066 3525 0.00314144
25569 27706 2.96803e-07
3495 368 4.09985e-07
159 368 5.56721e-07
912 3913 1.88192e-07
26037 39 4.56229e-06
20162 1020 0.000562531
760 427 2.82812e-07
2670 28212 1.07563e-05
2723 580 2.15768e-07
8240 23312 0.000295292
546 1784 9.90632e-05
25972 8 0.033336
37 36 1.76883e-07
2248 508 3.01154e-07
25569 349 1.14582e-07
3814 6465 0.00138525
16617 2168 0.00014139
25589 778 1.98816e-07
25580 174 0.000542514
25872 179 0.00010551
457 366 0.000117349
4062 176 8.01257e-05
11630 17 0.00493414
828 27556 8.53534e-07
25810 20512 0.000578755
93 27991 2.7813e-07
1270 1494 5.80837e-06
2375 14166 4.88447e-07
5066 377 0.000638353
25693 20615 7.01127e-06
25742 534 0.000134263
23 267 1.20148e-06
8984 13 2.04204e-05
5546 110 0.000775155
8327 2306 0.000115553
2632 126 3.02197e-06
25385 27896 1.41802e-06
8430 1409 0.000156971
1956 1409 6.18012e-06
18798 20205 2.70363e-06
25637 11615 0.000733878
25636 11615 0.000325943
25601 1319 3.30364e-05
2723 27860 6.03366e-05
1053 2713 4.49445e-07
111 3596 7.65809e-07
17575 179 0.000807985
14945 2421 2.11599e-07
21246 1147 0.000239127
21246 238 0.0106498
994 1264 3.55476e-06
3917 212 2.32247e-05
3917 540 5.87489e-05
17454 1308 8.25414e-07
14805 580 2.8374e-07
16352 333 7.07597e-05
2453 27 4.41422e-07
25604 15837 0.0228905
25600 27783 0.000129454
25573 1413 0.00311678
1318 10503 5.48898e-05
25547 639 0.000623872
22148 86 0.00257551
25504 386 2.81537e-05
16640 17 7.53374e-05
2635 4891 1.97245e-05
8409 176 7.7355e-06
24050 275 0.000153767
2953 138 6.31172e-07
2636 701 0.000580224
11152 508 1.82297e-05
4534 189 3.0871e-05
4146 218 3.5773e-07
105 11460 3.26457e-07
14945 15859 9.11573e-07
2219 13963 7.82932e-06
318 377 3.10895e-07
233 4065 2.51038e-06
25212 131 0.00065377
12058 179 4.25807e-06
9504 179 0.000245766
2206 3406 1.14941e-05
2160 377 5.71834e-05
248 3211 1.36351e-05
6110 3341 6.6011e-06
46 108 4.49904e-07
25164 202 8.79576e-05
25140 59 0.0188454
5268 13963 4.64181e-05
25124 1742 8.06064e-05
3394 3374 1.66513e-05
257 2518 3.45133e-07
16342 5 0.000376372
24862 894 7.90018e-07
25021 202 0.072648
11557 200 0.0225028
20 200 2.98959e-07
2521 1635 1.41931e-06
37 113 2.09385e-06
13994 967 0.00016616
3766 838 6.33193e-06
879 17 6.84059e-05
24914 4876 0.000454449
24995 267 0.0391778
18399 59 0.000207283
7878 1020 0.000224837
2324 1020 1.95444e-05
2447 863 8.62408e-06
2215 789 1.83229e-06
6786 717 4.45549e-07
6786 13059 8.6581e-06
24964 2892 0.00543362
3766 27 4.96157e-06
24906 232 7.17137e-06
24850 26 0.0032108
17119 8 2.93383e-05
24846 12545 4.87138e-06
1914 540 4.62984e-05
3338 42 0.000112133
2430 42 0.00015563
24800 9 2.36129e-06
2392 377 3.40843e-05
3887 5636 6.16785e-05
2723 34 1.42726e-07
1869 316 2.9835e-06
24687 590 0.00037418
235 590 1.12822e-06
129 590 2.08984e-06
2657 26629 4.43789e-06
4802 26820 7.48605e-06
3778 119 2.04174e-05
2096 2936 0.0051017
57 321 2.34831e-07
389 92 1.84871e-05
853 5793 0.000182033
940 42 6.89437e-06
1118 3593 2.86162e-07
1722 3593 5.19807e-07
24613 3895 0.00143831
24610 59 0.00384361
16111 168 0.00327189
24601 168 0.0787374
3191 168 4.61585e-05
17124 39 0.000212764
753 26657 4.37213e-07
106 17 2.69075e-07
5398 96 0.0182821
11758 27 6.64635e-05
4089 17 2.60012e-05
24505 2637 0.00124288
23495 1413 0.120325
441 26579 1.76076e-07
534 8 6.97577e-07
7283 1587 2.94091e-07
24403 661 0.000748274
23457 5 0.00257934
24382 3525 0.000891566
14893 2936 7.62713e-06
5978 2952 7.8895e-05
1055 6303 0.0220086
24317 10210 7.74678e-05
4717 20755 1.16374e-06
9039 20755 0.000352208
7643 9007 6.79549e-05
3291 174 1.9595e-05
979 10 1.75688e-06
129 14162 9.52744e-07
52 14162 7.63589e-07
24230 17786 0.00518333
15018 26244 5.78891e-07
15967 5545 9.51958e-05
2486 5545 2.16947e-06
4388 915 3.68172e-06
17054 295 0.0058936
23879 1413 0.000509882
11095 2676 0.000502429
16449 283 0.00851843
1591 106 0.000131505
24098 106 0.00979268
24025 1342 0.00586362
1005 275 2.16985e-06
400 2408 3.14176e-06
8037 19803 6.3527e-05
1860 416 1.03615e-05
8952 3728 0.000113542
3394 8 5.03967e-07
2060 15956 6.41697e-05
23822 179 0.00926628
23813 912 5.19624e-06
23798 16077 3.71768e-05
2200 178 2.65194e-06
22179 28 0.000307993
23774 166 0.0083472
23730 166 0.0125918
545 2478 1.40928e-07
21060 126 2.30711e-05
2284 15922 0.000270056
17622 15922 0.000265749
16363 25802 0.00246429
2486 25802 0.0173433
88 495 7.20867e-06
250 25782 1.94777e-07
1846 17932 2.3999e-07
143 18 1.59626e-07
684 18 0.000533601
3223 207 2.83922e-07
620 23632 2.9735e-06
956 9564 2.21541e-06
6514 3179 6.79629e-06
16948 2343 4.69615e-06
937 5345 1.88732e-06
3737 24531 8.58619e-07
23574 402 0.000137645
319 1047 2.19766e-06
19 1047 3.14906e-07
2142 8626 2.21515e-07
23542 25640 0.0093989
23541 323 0.0201806
2131 844 2.21688e-06
1822 7395 1.71814e-06
3318 232 0.000130759
150 25604 1.28e-06
23476 4 0.00201531
23476 31 0.00245675
5028 803 5.44055e-05
17454 803 1.04601e-06
1316 2850 1.25165e-06
2187 2850 3.7572e-06
1598 97 4.4825e-05
5286 97 0.00622847
905 2414 9.61648e-07
172 9564 2.72935e-07
56 5894 1.10607e-07
501 2653 2.51299e-07
8703 96 3.56025e-05
319 3135 6.16352e-07
4813 18 0.000478249
636 208 1.70337e-05
4217 25365 3.18382e-05
2536 1205 8.76012e-05
10070 1605 5.06634e-05
443 1605 3.7342e-07
4406 580 1.81151e-07
4932 25299 0.00101493
11572 25299 3.2791e-05
3315 3648 9.26986e-07
10744 8 1.85999e-05
17575 208 0.000219148
2744 10616 5.35238e-05
916 23748 4.82145e-06
230 8 1.37381e-07
14841 2 1.28674e-06
23094 179 0.00205897
9029 19543 0.0359042
12837 25135 3.30479e-06
544 656 5.65049e-06
17875 16107 3.43955e-06
631 16077 0.000165844
3368 1828 4.78058e-07
16312 1707 3.04073e-06
16781 218 0.000128319
4892 14930 1.57535e-05
1789 5 0.000215765
545 487 3.47279e-07
2031 487 1.26631e-07
6673 487 3.00229e-05
5060 487 0.0123496
5060 378 1.24456e-05
3552 487 0.000734821
8905 487 0.00168282
607 16077 3.64633e-05
22706 16077 7.22164e-06
7243 16077 2.39939e-05
17549 24708 6.24108e-06
2220 166 2.04497e-06
3180 24676 5.02329e-05
7691 2339 0.000536833
2188 2339 0.0598319
782 2339 3.28293e-06
651 2339 0.000456738
22682 2339 0.000395633
2528 460 0.00033154
786 460 1.27128e-06
22654 45 6.24833e-06
16486 646 1.72072e-06
7334 8367 7.35609e-05
14699 23888 0.000251265
1005 12290 1.27884e-06
2094 424 0.000216129
22564 12247 0.00335571
22561 12247 0.144804
9065 12247 1.57335e-05
611 14097 1.072e-05
914 2637 1.3339e-05
1645 24532 7.54297e-06
834 15279 3.22542e-07
6863 10538 4.86769e-06
17492 17 5.18715e-05
2410 18048 3.53322e-06
15733 10564 4.27974e-05
2098 10564 3.78963e-05
97 19389 1.53471e-07
22307 125 8.18273e-05
22289 166 1.55688e-05
663 20467 1.08082e-06
444 912 1.88881e-07
22053 16077 5.63233e-06
2316 2555 1.01969e-06
22232 9272 0.00256251
855 24188 4.18735e-07
22193 16835 0.00269977
22178 13 0.0653048
23 8 3.25481e-06
228 17229 0.000388837
885 17229 4.02164e-06
2311 16835 1.42093e-05
498 9816 2.18441e-07
403 2356 1.96732e-06
21928 469 0.00111989
21928 2802 0.000637558
18911 129 5.44097e-06
21956 241 0.0035047
11629 10564 0.000918817
18911 19995 8.23568e-06
21934 166 0.00107865
740 13948 3.40838e-05
2705 9272 1.82185e-05
40 10704 7.82031e-07
538 16298 1.2836e-05
419 10 2.45939e-07
3829 17 0.00220981
16778 10743 0.0236491
6511 10743 7.18473e-05
21544 28 0.000953316
17986 23399 0.0002368
21469 590 0.00749789
21454 5 0.000285096
10167 2895 0.000106612
3225 23317 2.66284e-05
1275 23307 7.2578e-06
1704 23300 4.67908e-07
1556 23205 3.39773e-07
11830 10731 7.01861e-07
10483 10395 0.000171872
4330 23214 0.000171773
2109 13916 1.97068e-06
21294 23205 0.000162051
11477 3893 0.000148683
14794 15533 0.000214752
3332 110 5.55157e-05
2302 377 0.000188387
16919 23040 0.140426
21116 23040 0.0073923
9029 23002 1.18241e-06
20 342 1.0929e-07
1975 3407 1.60249e-06
776 166 0.000290454
5796 17925 2.51038e-05
15179 3039 4.24009e-05
20749 1494 0.0956876
15619 126 0.000112564
15018 2408 2.48693e-06
19321 125 9.71856e-05
15122 2356 0.00054714
15064 208 9.54879e-06
10070 12988 8.7735e-05
2077 9230 1.74785e-05
20472 10743 0.000559599
10603 174 8.07195e-05
11717 18 0.000481038
20414 235 0.00249307
7665 17 0.00017729
1706 18873 1.59805e-05
20 18873 1.71269e-07
3157 28 1.69688e-07
4982 16340 0.000137
12397 496 0.000200974
13076 50 3.89875e-05
37 992 8.56511e-07
9578 12987 2.52557e-06
11530 12987 5.98571e-06
17040 18075 0.000254898
4248 18075 3.12023e-05
15174 51 2.53558e-06
2643 1211 0.00274289
4697 50 5.43914e-06
536 16461 9.92439e-07
964 1494 1.68641e-06
1118 9272 1.59073e-07
107 2296 4.85664e-07
3902 2296 0.00279882
4402 2296 8.55075e-05
609 13367 1.54655e-05
19672 134 0.00243684
15648 15027 2.25175e-06
3456 248 4.53742e-07
3355 11326 8.13111e-05
16210 1268 0.0505953
6206 2101 0.000182857
1949 11362 0.000213877
15463 377 6.22119e-07
19569 377 4.9873e-06
766 1494 2.2042e-06
32 16550 1.23718e-07
15366 21453 0.000595651
19264 10395 0.000218473
18867 21398 0.000232833
2316 9134 3.64857e-06
2091 202 1.24996e-06
2289 233 6.41312e-07
7291 689 0.000458246
3593 689 4.44487e-06
3593 5029 5.03357e-06
2628 689 0.000122942
19420 189 0.00184375
3119 189 5.71704e-06
19415 2 0.00497722
11586 248 0.000185715
19258 514 3.37039e-05
17798 514 5.54687e-06
17620 4876 1.94973e-06
19255 10564 5.67912e-05
10804 17994 2.38941e-05
49 21065 4.32824e-07
1879 5890 4.54392e-06
3456 20166 2.10456e-07
6510 469 0.00016437
8058 567 3.70085e-06
567 1557 2.41424e-06
12502 208 4.99239e-07
3272 20901 3.25499e-07
16923 6100 3.937e-05
11781 1057 6.76728e-06
15368 17480 0.000376137
18917 10594 0.000199447
817 20759 1.42683e-07
9142 69 0.000805742
14910 772 0.00955882
3197 20716 1.9287e-05
403 4315 5.33769e-07
421 4315 2.18455e-05
18847 13650 4.58425e-05
9853 10830 4.71044e-06
377 10616 2.59696e-07
663 12989 2.62387e-06
564 12989 2.8673e-06
10013 1601 0.000426815
16557 538 8.43164e-05
18719 9272 2.67524e-05
5665 2185 0.00105466
3167 8 0.00016222
1327 313 1.70304e-06
7818 113 3.1793e-06
17981 10564 2.12165e-05
18600 20414 0.00322579
3057 20414 0.000479876
2113 8184 0.000181759
16358 1589 0.00230285
14802 1589 0.00565336
4932 18 3.01469e-05
1626 9128 5.07885e-07
17545 1053 1.72641e-05
2792 98 5.54569e-06
1875 881 9.2006e-07
9437 20152 3.01058e-07
11349 844 1.62784e-07
3165 10575 5.64668e-06
18176 18 0.000431178
14943 4145 3.45621e-05
13335 8387 0.0671232
3142 30 7.93483e-05
501 3648 2.41631e-07
17987 19828 0.00544328
9237 39 0.000137777
1085 19749 0.000116594
16351 4753 0.000450564
17727 4753 0.00025036
118 514 4.55434e-05
15303 514 0.00270858
17737 9272 0.00266963
806 19517 0.00021703
263 5 5.95987e-07
15319 134 0.000162093
2657 864 4.56234e-06
1827 10616 1.47675e-05
11228 98 1.53599e-06
17583 19432 0.0397248
17580 19426 0.000791481
17559 8520 9.76111e-05
17522 1216 0.0102217
511 8666 1.83016e-06
234 688 1.57102e-07
2851 126 9.47185e-06
15092 1557 7.67855e-05
5631 17 0.000153169
6158 19138 1.55118e-06
451 1494 7.31517e-06
319 1494 2.30504e-06
17244 897 8.10719e-05
17231 12366 0.000760282
1955 5300 3.13792e-07
2080 70 9.94227e-06
1423 2 2.19653e-05
212 12474 6.48848e-05
1606 10607 4.08609e-06
7508 5605 7.90644e-05
17187 616 0.000478308
4946 321 2.05703e-07
3315 17316 1.63854e-05
17153 2335 2.78236e-06
6233 2637 0.000131313
2151 2637 8.36105e-06
608 56 1.46682e-07
406 16346 3.81242e-06
16153 377 1.38155e-05
3270 16208 2.27715e-06
17107 148 0.000170782
2152 113 6.36944e-07
63 10473 2.55515e-07
17040 980 4.43946e-05
32 2306 1.05671e-06
0 17229 1.89104e-07
3834 18523 2.68089e-05
16889 10523 0.000556946
547 17 2.3036e-07
9762 629 9.50552e-06
3270 16340 1.37888e-05
56 18285 1.62295e-07
4419 111 3.54706e-05
9147 111 4.11553e-05
16363 111 1.68071e-06
16698 126 0.000371774
2734 4756 1.4724e-06
2474 12987 1.44682e-05
9331 12987 7.29971e-06
2781 10564 1.14433e-05
3368 345 2.33049e-07
1623 582 8.18155e-05
453 5 4.11376e-07
749 10717 2.16048e-06
3046 10594 6.94858e-07
2067 2186 0.000389363
16470 2895 0.00311809
4385 17845 5.62272e-07
2 17852 5.56894e-07
15018 528 1.62807e-05
2453 17800 2.53444e-06
16390 110 0.000177083
595 1635 5.6331e-07
15483 13502 0.0879951
1330 13502 0.000105344
16211 16379 0.000929639
9645 1878 0.00011955
16148 2356 0.00221341
1339 12474 1.00363e-05
16146 176 2.40821e-06
16146 13 3.22632e-06
16077 5 0.000130651
681 17434 3.77447e-06
5196 17416 0.000197583
2248 17 9.76643e-07
421 674 3.23924e-07
1457 98 1.41196e-05
15900 17211 0.000115893
15663 16853 5.98486e-05
15869 470 0.0428989
2287 7327 2.43055e-06
1410 533 3.45383e-07
15816 15 0.00569178
7289 17070 1.14877e-05
122 76 2.69572e-06
64 10564 4.25352e-05
2129 13948 1.62092e-06
56 16876 2.04916e-07
15768 125 0.0106041
15756 8 0.000450759
635 377 3.29834e-06
15759 600 0.000854873
1875 201 1.81535e-07
6 110 3.20486e-07
4131 64 3.92172e-05
2367 5882 1.36771e-05
12502 51 3.9347e-06
1859 8 1.69369e-07
14889 16637 1.01298e-06
536 377 2.58253e-07
15303 2306 0.0984086
4692 1494 4.47592e-06
2367 629 2.38311e-07
15064 3107 9.40684e-06
545 16513 1.10458e-06
15254 16480 3.6332e-05
117 616 1.51592e-06
12502 192 1.2376e-06
2400 16334 1.9243e-07
4243 16252 4.30507e-05
9762 5 9.77154e-06
15029 10731 0.0669026
643 16012 2.5368e-07
2185 1589 1.46013e-06
14930 110 0.00282889
14880 16103 0.000122642
2700 547 2.14392e-05
14814 1506 4.53832e-07
917 15836 4.01559e-07
14683 15864 0.00201788
14681 15864 0.00240754
14658 15836 7.50077e-07
14632 164 0.00213646
11391 9272 0.000107051
12392 10564 4.93643e-05
1816 731 1.19065e-06
336 368 3.22481e-05
1555 847 4.54214e-06
10352 17 0.00173725
14413 1329 0.0556027
575 7281 2.02104e-07
8113 3651 9.4769e-06
1846 1482 1.82122e-06
3083 536 3.36395e-06
2014 10569 9.69341e-05
1333 7296 7.50062e-06
3495 7296 1.69207e-06
11965 18 0.00082369
9692 1329 1.64762e-05
1333 508 7.73597e-06
79 580 6.78144e-07
3120 233 5.67625e-06
454 7290 7.9085e-07
10710 424 0.000793102
18 368 1.1836e-07
147 368 4.62111e-06
251 368 1.24532e-05
1915 368 1.26187e-05
2895 1815 5.16195e-06
14017 1034 4.23324e-05
639 1250 2.20124e-06
8058 39 1.70085e-06
719 15612 3.63714e-06
1430 2740 9.53011e-07
14419 666 9.85362e-06
944 15608 0.00214573
147 7352 2.55585e-07
114 9272 1.33849e-06
14342 972 1.93931e-06
817 53 3.11449e-07
3311 11115 3.97826e-07
602 4020 3.70342e-07
7186 64 0.000214694
10697 15446 0.000122054
11640 15446 0.000139871
6060 332 7.34836e-06
5025 1021 0.000175319
454 865 1.07943e-07
2995 39 5.87058e-07
4327 4164 8.74667e-06
5378 5 0.00107899
14090 31 0.0291416
37 2555 9.83979e-07
14010 31 9.76525e-05
4024 15175 6.10646e-05
5067 15164 0.00219928
416 2036 3.53004e-07
13923 232 0.0108389
13918 10564 0.000171642
13903 3214 0.00028427
1227 514 9.5447e-07
872 15038 1.14761e-05
13792 264 0.000598338
13785 14945 0.000734406
1692 14944 3.42215e-06
1555 14935 3.05319e-07
797 1004 6.29645e-06
288 293 2.39943e-07
282 10564 6.21541e-07
2502 299 4.29509e-06
13665 299 0.000783217
3299 6029 9.36596e-07
13550 4164 0.104651
3906 3211 1.94477e-05
9940 2036 5.71189e-05
525 689 3.13262e-06
49 212 1.01893e-07
497 4164 0.000106651
9356 963 1.85194e-06
1620 14476 3.72974e-07
9228 364 1.88254e-07
12261 490 3.38226e-05
1927 11379 1.08553e-05
179 11379 2.40259e-07
13221 14316 3.8157e-05
13210 1106 0.00236612
54 1232 9.7263e-07
437 2699 1.03538e-07
553 1545 4.69177e-07
522 3434 4.81155e-05
437 3434 5.12017e-05
13149 10564 0.111162
766 4014 9.22829e-05
87 4014 6.91243e-07
9327 7005 8.71757e-05
13098 7005 0.000819759
1838 2101 1.11797e-06
10133 407 1.61502e-05
2954 3249 1.25845e-05
2 3249 2.1644e-07
17 847 1.54261e-06
5733 1298 6.63095e-05
9741 860 5.80386e-05
3887 7495 8.68023e-06
12899 28 0.0147903
750 2870 2.35899e-07
4948 10564 7.80215e-06
839 3711 1.74973e-05
12790 174 0.00121319
10573 13809 5.47914e-06
3021 2313 4.41351e-06
2909 2313 4.18293e-06
12760 10564 0.067087
12742 13643 0.00298455
6964 159 4.45791e-06
1960 1301 4.95131e-06
394 1301 6.79354e-05
117 13742 4.7107e-06
12629 282 1.90588e-05
885 3843 1.45508e-07
2905 13550 1.32808e-05
12504 96 6.6741e-05
10087 6592 0.000294578
8600 33 0.0014373
311 13399 2.89185e-07
9913 692 3.59518e-05
125 13444 2.75098e-07
1070 7240 1.33547e-06
12377 8233 2.39988e-05
1745 8233 5.24511e-05
1705 8233 5.61288e-07
3747 470 0.000345154
1450 13355 3.95344e-06
12351 9272 0.000781366
12348 9272 0.000159358
2699 69 5.11299e-06
939 5809 1.2353e-06
12182 17 0.000771544
5120 2589 0.000734296
0 12474 2.20563e-07
12043 350 2.891e-05
12043 69 3.84128e-05
11585 2580 1.58438e-06
12003 13006 0.000156014
6408 13006 0.000167223
11947 17 0.00197707
21 567 3.99884e-05
939 663 1.18183e-06
325 96 9.35202e-05
3054 689 6.02302e-06
2160 689 0.00011006
11698 10564 0.000473655
11696 1020 0.000208399
11671 10564 0.00447237
11613 195 6.52241e-05
3459 12687 3.90455e-05
4894 386 0.000381437
851 342 0.000209599
1982 5268 1.19025e-05
11253 812 0.00150806
11075 12220 0.00552104
433 3256 3.8217e-07
11168 10236 1.83901e-06
2206 521 2.19634e-05
11091 313 0.00212509
9763 313 3.13714e-05
11074 12220 0.00310787
9559 1308 0.000515482
991 218 2.68812e-07
10766 9881 6.03902e-05
8855 10158 0.000685169
1450 10877 1.32221e-07
8244 7882 2.5652e-05
10889 1327 0.00312055
10872 9123 0.00101491
5267 9123 7.81451e-05
297 12074 2.93292e-07
10845 9272 0.000847861
8444 31 1.11607e-05
9933 1952 0.00232092
10640 9272 0.000590912
10607 39 0.00133107
8744 2067 4.71457e-06
1169 1308 2.08126e-05
5747 11777 3.67114e-05
231 3675 5.50056e-07
1339 3675 9.21336e-05
841 772 2.22916e-05
10454 26 0.00392623
2879 11712 4.83034e-06
343 110 2.02251e-07
9553 693 1.18997e-06
1071 6336 5.43009e-07
556 2613 2.06025e-07
6 5 1.51372e-07
192 1207 6.30119e-07
764 666 1.83976e-06
10209 10 3.53955e-05
1100 11448 2.97986e-06
228 11448 1.00925e-07
1221 11403 5.40677e-06
494 2026 1.37171e-06
2 4044 1.18174e-07
5907 1249 0.000127263
8940 39 3.07494e-06
9989 671 6.17671e-05
946 671 1.54969e-05
4324 577 0.000192383
1228 630 4.75235e-06
9857 1308 0.000713439
9843 13 2.50299e-06
157 10988 3.26753e-07
437 10599 4.41604e-06
1805 2209 5.19038e-05
9253 5796 2.64114e-06
234 3526 2.12006e-07
752 6373 5.64504e-07
2821 10923 3.12244e-07
5386 1409 7.01327e-05
288 580 1.34738e-05
9595 17 0.00105007
932 17 1.88357e-07
3581 576 1.74571e-06
623 10877 2.04515e-07
2630 1194 9.33858e-05
24 5 7.47967e-06
9419 9272 0.0615353
9412 110 2.73967e-05
123 3089 1.2987e-06
766 3089 2.09944e-07
9291 64 0.00023411
2120 10564 0.000132061
9270 545 0.000261699
9212 7979 1.88394e-05
5391 3062 0.031331
1201 10565 0.000574836
47 2956 8.53531e-06
836 490 2.58874e-07
766 102 1.77524e-06
2345 252 0.000288567
302 258 6.97306e-07
301 258 2.26179e-06
291 258 8.73796e-06
330 258 8.87166e-07
515 125 3.53949e-07
513 296 2.20518e-07
5465 6234 4.94492e-06
2696 69 7.39977e-06
2696 1018 6.8798e-05
542 4177 4.31081e-05
1730 4001 1.57977e-06
1730 735 0.00217888
507 735 7.25091e-05
130 735 1.12116e-06
15 1564 0.0114079
15 6449 0.011217
15 1761 3.22621e-05
5026 166 8.40959e-05
417 1484 5.19372e-05
1879 1484 3.84453e-06
288 1484 3.5605e-07
258 1014 1.17309e-07
2652 59 3.88679e-06
5448 39 5.37154e-05
5448 41 2.90203e-05
6747 98 1.18717e-06
8437 69 0.000819863
8437 27 7.44207e-05
8437 176 2.58449e-05
556 3106 6.90978e-05
4333 735 1.67346e-05
1879 6979 2.95904e-07
2613 8094 7.45322e-06
9022 1091 3.70417e-06
9020 952 1.06563e-06
9020 5193 1.35149e-06
1705 10358 1.56752e-06
1705 952 6.61227e-07
1705 5193 8.91419e-07
925 10358 1.11265e-05
925 952 4.69349e-06
925 5193 6.32742e-06
1214 10358 2.42141e-07
919 5193 1.65185e-07
1112 952 0.000368922
1112 5193 0.00345199
1823 5193 3.5188e-05
1816 589 6.75563e-06
297 589 3.39006e-07
79 589 4.12361e-07
454 388 1.00728e-06
292 2865 2.41085e-07
772 1301 4.24863e-06
772 465 5.27492e-07
728 1301 2.22895e-07
37 1257 2.42416e-07
659 1330 3.47517e-05
659 1257 1.31446e-05
659 386 3.28268e-05
659 2055 4.4214e-05
659 2964 9.50995e-07
2838 1257 8.32847e-07
2838 2950 1.21234e-06
2838 2055 2.04943e-07
2838 1301 6.69738e-07
2838 2964 4.27372e-06
2838 2478 1.05598e-06
2838 2774 1.0974e-06
44 2964 3.39127e-07
44 2774 2.8486e-07
1646 2550 1.02332e-05
89 2550 3.64763e-06
63 2550 0.000154147
822 2550 1.61798e-05
4573 670 4.90311e-07
2645 1147 3.62683e-05
7228 232 4.64583e-07
2014 28 5.45381e-06
5556 28 6.33134e-05
243 28 4.13794e-07
6309 2016 1.34654e-06
562 1165 4.58741e-07
623 1165 2.38719e-07
3513 1165 2.61073e-05
8789 69 1.09397e-05
4253 1301 1.38806e-05
1450 1472 1.58102e-07
8663 335 6.84183e-05
1216 1476 2.58698e-06
641 222 2.57709e-07
8481 7892 0.000661125
949 7892 9.71381e-07
599 34 3.57431e-07
811 1657 4.04332e-07
3021 1657 0.00054783
564 1657 5.89082e-06
662 299 3.9311e-07
623 1231 1.56787e-07
148 2124 1.83156e-07
24 69 1.9527e-06
125 714 1.70726e-07
2365 218 4.32484e-07
2558 512 1.31502e-06
1935 6711 9.16405e-06
8496 8813 0.000157014
15 9646 0.0112122
230 189 1.35838e-06
1236 825 5.52062e-07
2775 97 1.07826e-06
796 1925 8.56113e-06
1187 1925 3.82953e-05
258 1925 3.17202e-06
497 1925 5.32718e-07
6893 1925 0.0156149
1236 1925 8.02302e-07
900 43 2.55612e-07
7251 780 9.86195e-05
109 780 1.44789e-06
343 780 7.11434e-06
2152 780 9.36099e-05
1521 3971 1.14062e-07
482 5 1.05697e-07
8437 194 0.00236065
623 5 1.52093e-07
1381 43 1.16989e-06
225 1759 0.052436
1058 9529 0.0134597
50 9128 1.00946e-06
6306 44 1.74138e-05
186 9128 6.61886e-07
5492 15618 0.000149988
862 1784 4.50958e-05
2458 2946 0.00985068
3304 2946 0.000145289
2193 2946 0.00012132
2193 424 4.79746e-06
1605 2371 9.21642e-06
3928 2371 0.000311927
5070 1602 1.65607e-05
2067 43 3.93926e-07
2776 43 6.55277e-06
8035 8374 1.48929e-06
167 9128 2.65818e-07
3517 416 0.0312672
2293 9427 1.67448e-06
2293 9397 1.33618e-06
2293 416 7.4444e-05
2475 9427 0.0135159
2475 9397 0.0135131
2475 355 1.83743e-05
2133 1966 1.88896e-06
8306 1909 0.000121933
5608 113 9.62854e-06
422 4437 0.0197555
8300 1841 0.000346253
168 9401 4.9621e-07
8294 9401 0.000734951
288 9401 0.000438434
1280 9401 0.000209891
1280 1966 7.53303e-06
941 9401 3.05502e-07
804 9401 2.88746e-06
8294 584 2.55182e-06
215 1484 1.80284e-07
7920 319 5.60305e-05
1207 888 2.31806e-07
6116 1232 2.58405e-05
663 141 9.3508e-07
5796 141 0.000114069
789 4364 1.49629e-05
1125 2946 3.29314e-06
7219 1994 4.27969e-05
3754 2194 1.91026e-06
1517 28 1.414e-07
31 3313 6.97492e-06
5738 410 2.53954e-06
291 9185 1.2767e-07
7250 69 4.82767e-06
591 1325 5.74281e-07
512 968 1.10387e-05
477 864 1.18855e-07
1604 1188 6.10996e-07
53 2781 1.60725e-07
522 9130 5.05107e-07
5070 4390 5.23459e-05
8056 1301 0.000269648
8028 766 3.83958e-06
15 1565 4.34992e-05
130 1565 6.0743e-07
1603 9 4.4669e-07
1081 34 4.02425e-06
1915 711 6.38939e-07
368 3028 3.37476e-07
1042 9122 1.36015e-07
1042 3986 1.33019e-05
1915 4810 2.68827e-07
2766 1194 4.47235e-05
1633 28 2.18482e-07
291 2055 1.7155e-06
2881 3712 2.39242e-06
882 370 3.03701e-06
7976 18 0.00120953
2184 9054 6.32114e-07
308 2063 9.85895e-07
7960 2950 0.000913326
3715 113 9.13348e-07
5634 102 0.00011713
3252 7487 2.99022e-05
790 2303 4.51403e-07
2184 567 5.76137e-06
890 4051 2.44821e-06
890 590 1.30662e-06
7215 39 1.71808e-05
2953 230 9.31188e-06
148 230 7.95042e-06
3739 980 1.12044e-06
1143 7425 2.86674e-05
4299 248 5.26295e-06
1701 248 3.80307e-07
5431 345 4.79305e-07
880 345 3.73273e-05
403 245 3.51764e-07
403 96 5.83797e-07
403 1054 2.87141e-07
1472 110 4.2872e-05
7799 418 7.21659e-05
7799 202 0.00030042
1914 8864 4.30223e-05
3116 8864 1.06671e-06
931 10 2.18453e-05
5370 874 3.10003e-05
7786 724 9.23556e-05
637 8810 1.11883e-05
598 118 2.10884e-06
311 129 1.40436e-07
1402 2721 8.27886e-07
1957 187 6.12934e-05
3600 1349 0.000187309
3 2279 1.91071e-07
3127 1532 3.53703e-06
3056 1532 4.29987e-06
444 1216 1.95832e-07
111 1532 1.90997e-07
32 1532 2.9661e-07
3518 1532 3.54029e-07
288 1216 3.12363e-05
450 1216 3.14823e-05
595 1532 1.20552e-06
595 1216 0.000517879
2474 1532 9.50175e-06
2474 1216 0.00404929
464 8620 3.46583e-06
2166 8189 2.54982e-07
390 82 6.12e-07
925 390 5.86246e-06
7473 8591 0.00101934
4372 8591 0.000124728
2340 2132 3.90961e-06
513 3363 6.68776e-07
7532 3363 0.00118964
7454 5790 2.63647e-05
1032 789 5.16631e-06
192 178 0.000143291
6821 18 3.36391e-05
329 18 3.29406e-07
288 18 3.95633e-07
163 18 2.29389e-07
1646 822 2.36454e-07
7447 822 0.00846524
1129 178 1.86644e-05
867 200 2.2088e-06
1118 8333 2.55795e-07
3083 1232 1.5901e-06
3241 707 1.03077e-06
86 1667 1.76711e-07
2842 4384 3.59189e-06
3724 370 1.23958e-06
109 6650 2.50109e-07
1588 580 5.85786e-06
890 2055 1.66545e-07
890 8313 8.72185e-06
1060 1811 1.30499e-05
2129 1811 0.000181155
2433 321 8.29563e-06
890 223 6.67807e-07
3138 223 4.82087e-06
86 1014 2.47434e-06
3767 4046 7.83054e-06
7308 894 0.0118053
5855 116 2.15986e-05
6181 116 1.88836e-06
216 10 2.40039e-06
4883 28 0.000819749
7276 28 0.00449145
2005 400 1.89338e-05
1584 371 8.75428e-07
3212 8277 3.19902e-06
1609 44 6.70423e-05
7212 1232 0.000656323
7199 203 0.000970394
1850 245 1.49382e-07
587 8232 1.24228e-07
4724 34 1.04289e-05
729 202 2.81408e-07
7163 39 0.000219881
418 1197 5.25456e-05
7124 1601 0.0557651
4731 487 8.28566e-05
4129 8120 0.000190794
1089 111 2.07281e-06
4328 121 8.84562e-06
284 20 0.000677267
1192 20 1.1015e-05
1236 6333 1.01925e-06
3260 273 4.78611e-05
141 794 2.49432e-05
2106 463 1.99543e-05
6409 972 1.71222e-05
351 3890 8.51515e-07
243 269 6.78532e-07
63 269 2.78376e-07
1751 269 0.0823114
800 377 3.38899e-06
3359 7962 0.000146292
6908 935 0.00313168
334 127 1.93921e-07
1240 3138 9.08246e-07
4163 2175 1.95845e-06
6865 7870 1.45837e-05
3568 166 2.76099e-06
180 159 5.19917e-06
143 6925 1.74912e-07
168 797 9.73989e-07
192 797 1.10446e-05
4014 867 2.53384e-06
3754 117 1.30172e-06
2333 118 4.92563e-05
2239 2563 3.20867e-07
2448 217 2.53981e-05
1148 217 7.20151e-05
49 217 1.76183e-07
10 3080 5.99961e-05
826 221 2.3216e-06
1185 7657 2.08741e-07
37 844 6.79122e-06
1766 325 1.99217e-05
1325 3814 1.04892e-07
6605 2074 0.00174599
6582 319 0.00142268
6572 7523 0.00050448
3056 7495 6.02308e-05
826 299 9.78428e-07
1806 194 9.51096e-05
6108 1020 9.36217e-05
1085 7419 1.48002e-06
725 69 1.75271e-06
6394 4 0.00122922
610 2025 1.96757e-07
979 384 8.38688e-06
2612 6710 4.40661e-06
5855 7268 5.00466e-06
1430 178 3.63066e-05
1408 232 8.1404e-06
5008 2175 0.0477439
6323 7212 2.69712e-05
6307 7195 6.90313e-06
683 7195 7.46635e-07
579 7182 3.04177e-07
5980 3933 1.22073e-05
3311 1190 3.29994e-07
1135 7163 4.46266e-07
378 7163 9.68267e-07
1721 7158 2.56381e-05
1439 7151 5.46461e-05
1564 7139 3.125e-07
1413 1085 2.26751e-07
1429 39 3.20759e-05
6260 326 0.00076678
497 325 3.54005e-07
5988 31 0.000170835
5988 534 0.000138979
3518 2433 5.93808e-07
6217 2175 0.00216915
1151 448 0.00100163
622 7064 2.62181e-05
2075 590 4.43099e-05
603 98 6.41675e-05
549 6988 1.76142e-07
37 1406 7.65385e-07
6110 1146 3.7859e-05
654 349 1.8022e-05
1318 772 6.03257e-05
1649 2313 0.00308888
1310 1148 0.000434035
1599 4575 6.54855e-06
6023 2418 1.14892e-05
801 460 1.90835e-05
1846 289 2.0724e-07
1927 370 1.10537e-05
5931 972 0.00136792
5931 2085 0.00415557
3347 1264 0.000332717
1818 151 2.98995e-05
539 6762 6.79628e-07
5648 464 0.055049
417 6762 3.92783e-07
5903 17 0.000186914
1406 4333 2.828e-07
2875 3392 3.08182e-05
5889 848 0.00295929
5879 1190 2.77156e-05
136 1357 2.10959e-06
3139 5 0.000134472
4762 1456 0.00073959
299 428 7.96622e-05
3279 1575 8.99269e-05
5818 39 3.56675e-06
5816 28 0.000340212
5757 863 5.222e-05
5757 4767 2.65911e-05
3014 778 2.09505e-07
1468 1770 0.000186568
1450 1770 7.4567e-06
5720 847 0.0294457
5720 1301 0.0813535
2727 2901 1.21527e-06
565 4035 1.37952e-06
5454 6418 4.44536e-06
874 1409 6.78306e-07
180 1409 1.16493e-06
5585 1657 0.000410598
624 590 0.0140093
1828 817 1.72776e-06
5431 6144 2.81087e-06
1413 6144 2.40087e-07
231 6144 8.18574e-07
5555 885 0.00243073
5555 4 0.00145954
398 1200 3.21846e-07
1963 1484 0.000102027
5544 2946 0.00076089
2734 3317 9.49986e-06
5541 584 0.00826631
1859 3317 8.27322e-07
147 2407 1.99642e-06
539 232 5.92265e-06
590 215 0.000125529
923 28 3.55154e-06
1606 4739 3.61607e-05
1661 867 2.86118e-06
2489 28 3.09565e-06
2684 434 0.0018251
291 1319 4.42565e-07
3914 5962 0.00025227
659 5937 6.69267e-05
5277 113 1.48278e-05
63 1580 1.2381e-07
2016 299 3.20424e-05
2016 1569 8.67584e-05
4592 24 3.04601e-06
871 24 5.15856e-06
1318 521 0.00289709
3459 5786 0.0001167
182 1605 4.11821e-07
1064 4123 2.08624e-07
5067 2405 4.02557e-05
2913 5727 2.29054e-05
4189 5398 5.53647e-05
2365 3033 6.4684e-07
3516 3259 1.13351e-05
1884 178 8.79979e-06
1275 5 6.82744e-06
2858 2599 0.000106774
400 5537 1.63295e-05
4864 5537 0.000306644
4864 5536 8.37924e-06
182 178 3.09128e-06
2734 1962 9.02869e-06
921 1962 5.90373e-07
3990 629 3.15398e-07
4055 1852 0.000259118
716 396 5.63412e-07
2137 5385 0.000255371
1508 70 0.00028816
731 4008 1.62314e-05
396 3521 4.62466e-06
2571 17 0.000145453
2639 297 3.08694e-07
4539 2565 0.000162519
4504 3088 0.00021473
4534 533 3.2638e-05
4470 245 0.0977377
4180 2790 8.91935e-05
958 5050 2.6759e-07
720 2256 3.67005e-06
1869 669 3.35131e-06
14 179 3.35411e-07
173 3221 9.12317e-06
836 4855 4.05162e-07
4264 4829 0.000748783
2789 4770 1.43717e-05
2231 52 5.25223e-05
1406 1858 2.3831e-05
11553 294 0.000143922
1707 912 1.0579e-05
912 912 1.39452e-06
1092 4730 4.17759e-06
260 4706 2.0739e-05
162 4706 6.82008e-05
0 1301 1.1203e-07
79 4659 3.46768e-07
259 3983 1.69996e-05
1664 13 3.61463e-07
2934 31 4.26753e-07
163 126 1.20527e-07
1106 1377 1.37019e-06
1659 325 0.00384563
749 1763 1.22342e-06
519 4523 5.37352e-07
1627 4523 2.02795e-06
1887 2172 0.000147284
1677 293 2.33187e-05
1968 2663 3.69864e-07
1123 69 2.31141e-06
942 869 1.27622e-06
3964 2883 0.000405219
3766 582 3.83583e-06
865 248 7.39353e-07
1282 1735 1.47785e-06
232 1735 2.84183e-07
3839 370 1.28086e-05
2081 4380 8.9331e-07
3913 1484 0.000320901
1004 1146 6.40246e-06
3312 1146 8.30126e-05
2324 1146 9.40294e-06
1526 3216 1.79183e-07
3145 2516 1.88015e-05
265 4117 4.35595e-05
2080 512 2.2755e-06
2245 4167 6.77208e-07
3173 2418 6.55911e-05
3650 244 0.000271693
3584 244 0.00213795
3648 174 0.00243273
3635 52 0.000119434
2891 4054 6.76599e-07
913 1122 2.06423e-06
3612 661 0.06305
556 4011 3.33599e-07
2161 4006 3.4725e-07
3579 3997 0.000325115
3535 1253 4.05823e-05
1894 1253 1.8666e-06
2075 2865 0.000134342
1804 3914 2.014e-06
882 3914 1.27929e-06
3403 157 4.68337e-06
1749 386 3.60194e-06
3013 157 8.60612e-05
836 98 2.09412e-06
331 3748 4.03727e-07
2776 163 1.0331e-05
362 3608 1.1015e-05
3222 1454 2.62636e-05
3223 110 1.08725e-07
100 110 3.53599e-07
433 3595 7.39725e-07
1176 1798 1.43339e-07
3184 3552 4.73787e-06
3072 3285 5.02481e-05
2949 3285 5.17728e-07
228 707 5.70502e-07
2928 1147 8.30079e-05
1776 110 1.35718e-07
1196 388 4.14845e-06
2892 18 0.000663275
2762 377 4.71962e-05
2743 17 4.91032e-05
151 3027 3.37954e-07
2716 17 0.00537928
2689 42 0.000394495
440 42 2.56633e-05
2686 42 7.48191e-06
348 1667 2.20496e-06
2297 2272 7.35122e-05
2634 129 8.78094e-05
2578 321 5.49646e-05
836 2736 6.58635e-07
2552 448 0.0005593
2552 2795 0.000220111
2550 448 0.00289801
2500 2736 3.35669e-05
525 2729 3.68232e-06
919 2729 9.55907e-07
2495 2729 0.00188808
2494 2729 0.00045037
2493 2729 0.0387441
2476 42 4.9264e-06
553 2680 3.69107e-07
37 2662 4.34881e-07
2372 44 3.14487e-07
1072 1014 0.000127238
2258 2520 3.86079e-05
2286 2500 0.000266202
8 137 3.07832e-07
2 137 1.64453e-07
355 58 1.84632e-07
2123 443 3.19853e-05
113 2296 5.13114e-07
428 2225 1.32416e-07
607 1057 7.32545e-07
764 390 9.27099e-07
57 2134 1.7602e-07
1919 1501 9.0849e-06
1396 31 6.98192e-05
579 215 2.04352e-07
1094 772 1.11126e-05
817 869 5.95448e-07
907 427 2.63233e-05
1845 176 0.000243815
1845 326 0.000207074
302 1999 2.66264e-07
1693 1057 6.94915e-07
1773 1258 8.77498e-07
1726 1152 0.000132694
275 26 0.00102762
913 1653 1.03021e-06
1026 39 0.000174565
640 1584 2.34673e-05
1281 113 5.71062e-07
1194 515 0.000130719
86 54 3.56325e-07
569 54 1.61242e-05
93 1208 2.43083e-06
1080 1208 4.22177e-06
1042 1150 1.98271e-07
925 32 2.88729e-06
925 1016 2.04808e-06
921 1013 1.68261e-07
878 223 9.51547e-05
873 39 0.00186285
856 31 0.000286876
692 788 4.75091e-05
0 368 1.76281e-07
339 219 0.00019981
312 351 1.48831e-06
309 351 6.50619e-05
3769 200 0.00110062
2679 528 0.00135414
1097 32326 0.04506
257 32326 6.43604e-05
1541 893 1.02934e-06
5028 893 0.0117983
403 2398 2.28187e-06
2251 1413 0.000137074
3315 129 2.01009e-06
250 11162 1.43411e-06
2190 203 0.00869313
683 203 0.00402028
2300 2699 0.000139588
826 203 1.82094e-06
826 2517 3.05455e-07
826 2699 0.0170667
29569 847 0.0163298
29804 10373 0.0075045
2061 32267 2.93483e-05
1208 612 0.00285473
9049 17871 0.000957909
1208 590 0.000161386
1208 5861 2.71144e-06
1808 8640 0.000250527
29768 5 0.000393916
29767 32017 0.0268662
29716 10373 0.108389
1715 13 0.0011212
1715 31 0.000325968
2708 1235 0.00126181
1282 717 1.21788e-05
29286 717 0.0667027
4746 11680 0.0110404
786 5 3.01787e-07
29680 555 0.0481079
11223 555 0.0634964
29679 555 0.00327479
11842 1404 3.68844e-06
29676 1404 0.1249
752 42 4.56357e-06
3078 424 1.38318e-06
15276 309 0.0719391
5011 3926 0.00112432
932 10743 1.40446e-06
1289 2339 4.28895e-06
2500 1205 0.0494883
4472 4999 0.0516036
9049 4999 7.67745e-07
24169 3589 0.00234022
5306 5801 2.5757e-05
6483 208 0.0110833
4770 1859 7.01795e-05
9250 508 1.56472e-06
3487 10569 1.70373e-05
1652 3595 0.000137071
651 717 0.0221938
164 17869 0.000148258
11179 4301 0.012955
119 4301 0.000135323
3512 31921 5.99074e-06
6005 405 0.0532768
4146 1409 6.4355e-06
22771 23312 0.124115
29446 60 0.0466672
1896 2126 1.62452e-06
3430 2126 9.76705e-05
1953 2126 0.000103853
526 2126 3.86855e-06
2118 41 0.00262019
11179 4008 0.0120365
3225 612 5.94821e-07
19137 223 6.18532e-05
19137 1252 8.81782e-07
2910 223 4.29624e-05
2810 3204 1.92264e-05
18146 27042 0.055483
1410 27042 2.75536e-05
29416 2284 5.12089e-05
3054 31864 0.000353776
699 2107 0.00788445
52 12833 4.75723e-07
29388 7964 1.84039e-05
2482 14079 4.63171e-07
3205 547 1.23591e-05
3205 14079 3.46155e-07
26120 6478 0.14407
9049 565 1.81844e-05
444 565 5.16695e-07
3205 565 0.0094482
3241 23 6.84399e-06
1186 23 0.00409004
643 11397 3.18351e-05
1118 11397 0.00234417
2787 11624 0.000165463
1894 10750 1.84477e-05
817 10750 0.0123026
1894 5 0.000655952
244 5 0.00188506
4924 4989 0.00201032
3312 4989 3.43571e-06
670 9494 0.0298538
2647 4793 0.000167172
3666 15383 0.0430994
14184 319 4.62445e-06
29312 166 0.0464632
3388 27520 0.0287806
11530 894 6.40346e-06
4139 159 0.0535471
752 3079 5.64466e-07
752 14247 5.58574e-05
752 159 0.000607307
461 13537 0.0317582
461 3079 0.0050485
1869 3079 5.48286e-06
1830 13537 0.000304848
3338 13537 0.000328437
16748 8 3.39944e-05
525 789 3.83291e-05
1954 2080 0.0254586
29233 9272 0.00123067
2197 17 0.00010646
647 716 1.90055e-05
534 31747 0.000531468
476 31747 4.65662e-05
1189 1187 0.0624817
29199 43 0.0210621
29199 34 0.000694802
29199 28 0.0608885
15237 134 0.00266807
331 134 1.66073e-05
0 771 2.527e-06
4340 6399 0.00139674
7391 2368 0.0235136
836 2368 1.72865e-07
24894 9272 0.0579599
872 12366 7.17277e-06
9570 534 6.6909e-05
3737 424 0.000274928
300 617 0.000286045
15733 4307 0.0422878
53 4307 7.25736e-07
6624 3434 3.20285e-06
105 3419 1.15325e-06
9274 7781 3.20485e-06
8493 1707 1.36346e-05
6742 10564 0.0556792
2796 10564 0.000289688
29113 16747 0.119261
29108 34 0.000698979
2904 2410 6.42123e-06
3622 9272 4.07521e-06
525 12373 3.47044e-05
15412 616 0.108813
8905 629 1.62532e-06
17549 580 2.87099e-05
2488 863 0.00243269
2591 5180 3.07004e-06
3391 2175 0.066038
782 2175 2.29471e-06
732 2175 7.36813e-05
11723 2175 6.73422e-07
542 2175 2.05396e-07
2316 10373 7.7851e-07
4562 3679 0.0848253
2316 20825 4.42353e-07
3997 20825 2.71472e-05
2252 10581 1.67147e-05
542 10581 4.01412e-06
790 57 6.50946e-05
2572 1683 1.54666e-05
441 30187 4.54662e-06
311 1683 1.59991e-07
311 30187 2.95767e-07
852 30187 0.0304079
2702 30187 1.36664e-05
2702 2395 0.0234293
3596 2395 0.000164584
3665 1683 1.27641e-06
3665 30187 0.00028705
1223 4810 3.4427e-07
356 2116 3.42273e-06
10817 1108 0.000484865
282 396 3.94143e-05
605 396 1.64295e-06
143 396 4.77443e-07
9049 8383 4.90128e-05
3000 10755 1.02571e-05
419 3119 1.61786e-06
25765 36 0.164653
635 8 9.40139e-07
121 8196 0.000105274
3205 508 1.95646e-06
1457 784 3.33911e-05
1601 784 0.0264973
15052 17 0.00864127
29029 3417 0.0422805
29008 10594 0.0111978
8055 8193 0.00431851
20921 8193 0.085664
20790 24440 0.249116
13690 24440 4.48598e-06
24507 9272 7.27448e-05
24507 4663 0.000220278
28999 645 0.0160489
28157 10373 0.0266339
9257 1630 3.16338e-07
159 1630 0.000130453
5717 1630 3.7078e-05
12377 273 7.22545e-06
9720 645 3.67582e-05
8719 12807 2.23814e-06
2278 1635 0.0928537
25250 10 0.00281263
11822 674 4.60017e-06
6950 10564 0.0284676
16738 2341 0.0981184
28952 735 0.110394
28943 8492 0.166126
28934 31439 0.252435
1688 10564 0.00142165
28896 9272 0.176005
24630 39 8.32247e-05
696 39 4.61583e-07
3064 4307 0.00013771
9989 17 0.0347214
28889 36 0.11024
139 166 0.123348
129 166 4.14151e-06
28124 166 0.000625645
725 31390 6.37591e-06
149 31390 0.000370642
157 10731 0.00100814
4010 27255 0.00011608
3901 11315 0.000382112
1626 14020 9.84279e-07
28273 17 0.00682772
2789 31350 0.000238123
981 31350 0.000352578
2120 10616 0.00618955
20339 2395 0.0085373
2300 2395 0.000259685
3205 134 2.49391e-07
21186 31312 0.0433899
2355 9272 1.81357e-06
1060 10743 3.89775e-07
3231 386 0.0384167
94 9257 0.0104253
10751 10717 0.107956
10751 5 0.112239
4290 96 0.003564
421 528 0.000205573
2695 528 0.000548248
6089 10830 0.0344421
5993 1574 0.00190056
3315 1574 1.31045e-06
1647 2431 9.88379e-06
3241 166 2.64458e-06
15693 166 0.000663827
18655 2218 0.0638848
28661 10724 0.0657862
1070 3256 6.82931e-07
2204 10743 5.50448e-06
28637 2243 0.00712263
17605 1164 0.0027099
7253 1164 0.028448
10452 11013 0.000356089
10452 2417 0.00123458
911 294 6.66163e-05
4535 4816 0.0458929
25810 4841 0.0017702
25645 4841 0.103281
11672 4841 0.0111181
2170 11926 1.30829e-06
961 11926 2.05667e-05
25164 9272 0.000533973
2413 321 0.0114394
131 31006 0.0016551
3542 218 1.40217e-05
21387 202 4.55717e-05
2428 10616 4.14587e-06
7315 3045 9.80207e-06
1299 3045 0.0164763
4892 30946 0.000892909
1646 30946 5.93247e-05
822 30946 2.45349e-06
5351 30945 5.23998e-06
2943 287 0.00375904
1440 10743 0.00043087
158 10743 0.0589243
2691 98 0.115222
917 10830 0.00247387
28363 9272 0.00560307
28354 5193 0.153257
28306 3620 0.000536528
2220 3033 9.14533e-05
2220 4038 3.38676e-05
28297 43 0.103922
1071 202 6.40505e-07
6616 15102 0.0038052
6223 9272 1.79289e-05
885 9272 8.7999e-07
463 10564 0.0614691
28280 2698 0.000580108
28280 26720 0.0583687
8057 534 0.000458146
2541 534 0.00191651
3330 12654 7.339e-05
5187 5 3.13584e-06
6767 10643 0.0834685
3430 20217 6.7867e-07
299 20217 1.95927e-06
1604 4490 5.12568e-07
2074 4490 1.61396e-07
179 4490 6.6839e-07
4607 2218 0.00286811
27929 2744 0.00156625
19698 17482 0.0903357
3388 622 2.81121e-05
119 7826 2.28066e-05
2983 5 0.153292
27551 2063 1.28687e-06
7228 30724 8.39451e-06
4121 7655 0.000190287
1320 7655 0.000548829
27551 5 0.00108116
2690 5 0.00597747
18081 163 0.000850266
28181 41 0.017121
422 1671 2.51643e-07
3368 612 1.76282e-06
3282 7812 9.77584e-07
27551 4316 0.0026588
838 377 0.000345694
422 27 2.01906e-05
838 621 1.25801e-05
3667 30613 0.000133341
28125 377 0.247112
11581 964 7.29148e-07
28121 2137 0.110754
6645 232 2.01003e-05
212 3881 5.0791e-05
7756 17 0.000894807
6786 17 5.453e-06
2014 7460 6.26018e-05
2664 25383 0.00487835
2672 13076 5.76729e-05
20663 528 0.00985415
1874 29925 0.0421673
11179 29925 0.00285591
27692 2774 0.110752
2300 4362 0.0105204
3293 4362 0.00298217
134 8 7.34324e-06
7398 8 1.69961e-05
1012 8 0.000297319
17974 844 0.127818
1855 1554 0.00388567
3311 26809 1.8136e-06
5026 26809 0.019448
4570 350 4.81248e-05
6576 350 0.000101472
5425 386 0.0593101
4629 377 6.153e-06
6436 487 1.93218e-05
28039 3531 0.000370089
28038 119 0.0486659
2154 119 0.000646096
3769 1771 2.29354e-05
27881 1413 0.00183498
4238 19728 0.0235046
205 19728 1.70529e-07
1041 15237 2.42849e-05
2457 15237 3.60598e-06
1299 30517 0.0152627
1572 30516 1.05834e-06
1661 350 9.02228e-06
16460 6883 0.0184027
1917 19505 4.29541e-05
3451 8437 0.0204645
257 163 3.55995e-05
257 3547 8.22793e-07
896 975 0.00225859
1643 30496 1.09562e-05
4091 1028 0.000114812
1060 1028 0.000268301
1827 1028 0.000327078
15206 1028 0.0466894
2922 1028 0.00135805
764 166 1.43161e-05
3205 395 2.09888e-06
1454 3525 0.000327008
4184 490 0.113337
2287 2516 2.2064e-05
4131 2538 0.00690911
52 2538 1.22693e-06
3346 2538 0.000553289
26982 174 0.0997936
136 487 6.4254e-07
441 178 3.52022e-06
4414 178 1.88016e-06
838 503 0.000281812
13756 59 0.000238818
13756 212 0.0707586
4385 113 6.17756e-06
3165 202 0.0109807
2904 202 6.50739e-05
2124 24010 2.70706e-06
1874 880 8.44378e-06
1206 98 0.000360086
27927 297 0.056001
443 18 2.09581e-06
408 377 0.000183407
2185 377 0.00326991
6786 140 1.5223e-07
17046 5396 1.75741e-05
17046 10538 0.0813978
52 10538 1.98044e-06
14058 2637 0.000288055
2850 25973 0.0254485
1906 17 0.00106048
136 2537 3.3846e-06
3775 2537 0.000276533
3138 4465 1.35668e-05
18202 96 6.14203e-05
1599 845 0.000311413
8294 17 0.000320479
3282 17 9.87413e-05
27850 1413 0.0187063
27842 5 0.143081
3311 321 0.0128443
87 1631 5.48266e-07
27831 17786 0.331811
11349 17786 1.59791e-07
9001 428 5.95122e-05
9001 13963 1.48703e-06
9001 17786 2.05146e-05
27830 428 0.124514
27830 17786 0.000162223
25302 174 0.000999567
421 426 7.05238e-07
2067 707 5.14363e-05
3938 24036 0.0482066
1250 98 0.000253903
5703 4316 2.97189e-05
5703 1413 1.04239e-05
2521 1072 0.00056575
4144 4997 2.40399e-06
27799 510 0.000755486
4976 2842 0.0787012
2326 424 2.07171e-06
4378 424 3.75396e-06
2701 424 7.3701e-05
25055 570 2.41222e-06
1615 2952 0.000200093
8715 163 0.00154162
6860 163 0.00255523
27490 17454 5.40762e-05
18655 96 0.0644149
18655 1797 0.00228291
1068 179 1.7855e-05
27767 25764 0.0289064
2680 321 0.0145919
27761 350 0.137257
1732 1668 7.43552e-07
6786 500 8.40562e-06
1518 2952 3.65502e-05
27750 208 0.0304162
26384 98 0.000900468
27742 2 0.0076249
2909 661 1.45491e-05
562 661 1.48455e-07
6058 661 0.000244523
27551 508 2.61726e-06
2014 267 0.0307941
24944 27255 0.00379657
16461 18061 0.00486815
1871 383 3.50806e-06
3666 1803 0.0145591
14966 1803 0.000858909
817 1803 0.00863561
2430 282 0.0906163
6881 110 3.71199e-05
27733 110 0.0510148
23102 202 0.0443902
654 202 3.13509e-06
16438 1787 0.000381157
2943 1787 0.00934094
1413 377 0.000113054
16486 377 6.8239e-05
4286 7964 2.22327e-06
2624 7964 0.0485862
1522 368 7.05175e-05
9005 166 1.33542e-06
23648 233 0.0589716
373 233 2.20348e-06
2539 9610 2.33441e-06
2695 9610 0.0453934
1555 9610 4.7426e-05
401 350 0.000121454
935 737 1.73132e-06
3752 166 0.00613241
16403 59 0.112093
4385 1050 2.16042e-07
6634 1050 0.0450961
576 25818 3.00856e-06
576 12988 0.000946808
576 2676 0.000935545
14126 377 0.00156192
257 184 2.5075e-06
7398 184 9.33663e-06
699 184 1.86387e-06
11179 377 6.71304e-07
17772 377 6.77509e-06
4380 1248 0.000152236
26943 34 0.00477096
650 2932 8.76067e-06
18775 36 0.00497922
1899 36 0.000477782
6786 3678 0.00415745
1413 3678 1.93202e-07
534 709 8.39431e-07
421 709 1.06739e-06
163 709 0.00968304
52 709 1.35764e-06
1850 714 1.22516e-06
4325 28 0.00369065
4325 4231 0.00334033
7490 4962 0.000351844
1445 125 0.000850532
1445 17695 0.0272995
1445 283 0.000108596
3586 424 0.0240379
3586 538 0.000364595
345 1593 6.06199e-06
482 1593 1.51627e-07
27668 1593 0.0656103
5980 8732 0.00101793
3595 2630 8.75019e-07
3155 212 3.49164e-06
1413 212 6.64759e-06
341 212 4.34111e-06
1403 661 1.40939e-06
7398 97 4.87798e-05
7398 825 3.01663e-05
24551 862 4.7239e-05
574 1754 0.000226125
574 97 1.10428e-05
86 1542 0.00119621
7440 4892 0.0571175
7440 27096 3.11231e-06
3530 377 0.000678046
3299 377 0.000462304
27644 377 0.0916141
3563 377 0.00338936
1622 377 0.00132009
18 8091 8.23383e-05
1413 25818 4.91696e-06
610 25818 5.74185e-06
19958 25818 3.84644e-07
2112 233 2.36216e-06
2151 15960 0.0373104
1928 1147 2.37847e-06
7848 7972 1.35677e-05
15664 288 0.123642
2738 98 0.0201955
350 98 3.57791e-07
27620 86 0.370257
18212 9156 5.08618e-06
1692 9156 1.6633e-05
1208 9156 0.0174045
1073 9156 0.000114811
230 9738 3.28234e-06
24701 184 0.00144434
8299 184 0.990513
4766 184 3.11342e-06
5359 184 6.4776e-06
27606 184 0.00166969
27604 21176 0.199241
2832 21176 8.33766e-06
27590 1393 9.65376e-05
3720 30023 0.000630475
67 53 3.17779e-05
9992 98 1.80999e-06
1328 869 9.18504e-07
382 1462 0.0112624
227 1462 2.27279e-06
27569 931 0.00591777
1700 1462 4.05246e-06
7812 18 8.285e-05
704 18 1.07882e-06
6996 410 0.000160928
3274 61 0.000462072
7591 61 0.0136275
148 61 0.000818878
2300 3417 0.000131205
3331 3417 0.0395791
1206 377 9.69695e-06
16914 377 0.0703432
3312 2836 0.029787
18212 2836 0.002141
27552 1442 0.085711
1456 4852 0.00362936
1528 4852 0.014432
20706 3915 0.0461784
27546 3915 0.152393
3834 3915 0.000665996
23829 1309 0.017512
5062 377 0.0615532
704 29922 0.00504888
257 8 0.000151791
2096 184 0.000188166
27534 34 9.13551e-05
27534 661 4.24827e-05
27534 29904 7.36003e-06
27534 184 4.21378e-06
2842 27509 7.64963e-06
1899 53 0.0407111
2904 86 2.77729e-05
25235 96 0.0161204
1555 377 1.50803e-05
977 1077 0.000246982
2344 487 3.73909e-06
7605 487 0.07997
93 6234 4.52941e-07
310 6234 1.40986e-07
2326 6234 3.23593e-05
3814 465 0.0413163
27464 2736 0.00407404
27489 166 0.0242119
16497 29835 0.11064
3114 98 3.80836e-06
26689 275 0.047614
731 44 6.10606e-05
297 428 2.71156e-05
4552 5461 0.0465074
3068 208 0.000256741
3814 25177 2.69463e-06
212 98 0.000190083
26411 98 0.144909
2020 34 0.0014996
964 2805 2.11893e-05
20524 2 7.21052e-06
20551 2 0.000115243
885 2 8.15098e-07
3629 2 0.00255017
3274 1511 0.0211348
416 419 9.80779e-05
25080 377 0.0689693
25080 661 0.0900637
27431 661 0.000406052
15712 5 0.00698724
27417 5 0.00699697
27416 5 0.127689
27414 166 0.143332
3715 29700 1.49666e-05
3068 29700 1.99612e-05
3083 29700 2.76971e-06
44 29700 1.81122e-06
27403 666 0.16633
27403 29692 0.000122473
1649 29692 2.53681e-06
27401 29692 0.158648
27399 29692 0.00963641
2635 2313 4.26887e-05
2949 2313 8.76695e-05
2223 126 0.000537494
3849 3971 0.0350478
3733 377 0.0882144
27380 377 0.0187571
2635 50 4.92099e-07
2457 50 3.49457e-06
4005 538 6.88259e-07
1054 29645 3.12298e-06
143 29645 0.000377922
302 29638 1.57381e-05
2482 29638 0.0078325
345 7721 2.70509e-06
46 7721 3.21548e-07
22839 220 1.13908e-05
26572 179 0.0178286
4316 1398 0.00176657
555 179 3.79043e-06
555 1398 0.0238254
2902 17685 6.86469e-05
107 17685 1.072e-07
16292 125 0.134229
27360 5 0.105401
15712 212 6.81202e-06
329 355 2.22482e-05
6074 355 0.000114839
764 355 9.95135e-06
205 98 1.43578e-05
1262 28774 9.12069e-07
18304 7754 0.00123624
27295 24069 0.199505
16658 29548 0.00213019
817 29548 1.41282e-05
2031 2527 6.93238e-07
875 8510 7.37884e-06
17516 175 5.49242e-05
6 175 5.63027e-07
23490 7754 0.0855799
358 377 1.26056e-06
18538 377 0.00348457
15722 22976 1.04947e-05
481 4235 0.000128457
27253 1079 0.163606
7551 28 5.01124e-06
18885 29502 0.0996438
27246 29502 0.000117044
1247 6070 1.84036e-05
329 6070 3.73015e-06
1064 6070 2.10173e-05
4388 6070 0.0149116
1661 59 2.4731e-06
1661 321 8.11334e-05
1121 15854 0.000271673
16245 15854 0.0408815
17510 29481 0.000165194
592 29481 1.78875e-05
2733 29468 0.00225277
8998 377 0.028127
7334 377 1.10211e-06
27199 19213 0.0580032
2965 28393 4.20236e-06
3479 28393 0.166963
20357 1409 0.000402439
16354 10395 0.000133206
2380 233 2.34581e-06
519 233 2.25925e-06
27118 233 0.078623
18726 233 0.016305
325 233 2.36613e-05
27134 233 2.46462e-06
14062 29386 5.46629e-06
21367 355 0.00764532
1208 28811 3.04056e-06
4093 28811 0.0609634
2420 98 3.03597e-05
2136 29102 0.0811935
12794 12632 0.0201504
2302 7754 0.0984613
4967 7754 0.00279679
8998 16997 1.53548e-07
9392 16997 8.83686e-05
27039 39 1.76903e-06
5997 29304 0.0762089
20563 3786 3.90561e-05
876 717 0.00867669
7603 789 0.0554249
3799 25803 0.0171863
406 321 0.000109333
1214 321 6.6798e-07
2170 321 2.64891e-06
2843 275 9.50448e-05
1084 8818 2.49768e-06
415 508 9.30277e-06
234 508 0.000617765
26230 321 0.00277416
4448 10618 0.0216647
26828 508 0.158451
1685 508 1.64941e-05
415 8437 7.17631e-07
7258 166 0.0695668
12636 427 5.03914e-06
6248 18 9.08114e-06
1057 21923 0.00181124
19826 4677 3.62797e-06
20702 4677 0.170182
2536 377 0.055578
8747 503 9.80689e-05
26708 3061 9.56186e-06
3010 8328 1.87105e-05
3010 28486 0.0416481
26667 5803 0.0191588
120 321 4.00228e-06
9023 2427 0.000145837
26661 2427 0.497884
2310 2427 1.16669e-06
1056 28809 0.00552373
2512 28809 5.38467e-05
26611 28809 0.0221134
1984 28809 8.37161e-05
446 28809 4.42543e-06
4091 248 0.000297041
26648 5 0.0185896
13564 3318 0.0534612
6342 28197 4.44223e-06
7576 321 0.00206438
3674 86 0.00103401
3078 125 4.34452e-07
119 125 1.36743e-07
3117 28832 1.10171e-05
9502 1176 0.134882
26613 221 0.110725
3614 6188 1.34699e-06
211 508 0.00476065
263 508 0.00120362
5163 2978 0.0488351
1073 2978 0.000177834
541 2356 0.0562719
3593 4235 1.69625e-06
8998 1253 3.53833e-06
325 28753 0.0165051
2133 28753 4.33654e-05
1450 377 6.02421e-07
2098 2850 0.0605365
443 2850 0.000103349
419 2850 3.35832e-07
26532 5 0.174552
26491 3373 0.00882862
872 6904 0.0202037
817 28715 2.94038e-06
26473 17 0.19928
26460 28627 0.00218289
16258 28627 5.64886e-07
3622 28627 2.7314e-05
19753 28627 0.00267523
3450 28627 3.59725e-05
7391 28627 1.29627e-05
1041 1872 0.0231239
4893 28655 3.4779e-06
1403 319 0.00343758
26267 28579 0.0990001
12625 3730 2.06161e-06
15578 386 9.26492e-05
2705 386 0.000581195
1692 267 8.28344e-05
8998 267 1.07733e-05
358 28554 1.83792e-07
4388 28554 0.00232724
1247 28554 3.43152e-06
10288 28554 0.0773392
7554 28554 0.0140027
2149 28554 2.75467e-05
120 98 1.0118e-05
855 377 1.74872e-06
817 7325 0.00104995
435 321 0.0139952
86 28512 5.53891e-06
2635 321 4.99419e-05
401 5 2.32832e-06
26004 24425 2.19884e-05
2179 321 0.000163355
26274 321 0.0366638
334 283 0.00467388
227 390 6.31026e-07
10076 3142 0.0714797
443 522 4.19713e-07
6769 522 0.0128549
2953 522 0.00157165
2824 28432 0.0198512
2476 23615 0.00035317
23313 5 0.00120091
382 540 1.39653e-06
26176 1442 0.163966
257 18 9.7547e-05
257 2805 1.74471e-07
6077 2805 1.65626e-06
12821 2836 0.0224123
941 3311 2.13807e-07
119 702 0.000228626
16602 3311 6.25398e-05
484 5830 3.90094e-06
576 22028 3.9259e-05
14361 22028 0.00235434
2109 126 6.5526e-07
4418 2532 0.00656706
127 86 1.37795e-05
25569 1027 0.000179988
2117 179 0.000886576
2103 1242 6.87901e-07
26102 5 0.119153
7168 612 0.0013117
26097 39 0.000171323
97 401 4.30832e-07
3283 56 0.00928551
17245 56 0.0133394
3280 1377 8.08648e-05
1058 28264 0.011089
3454 28304 2.83977e-05
19499 1887 3.91131e-07
8314 69 0.00114176
26073 2862 9.24413e-05
453 140 0.000532171
443 140 8.56386e-06
6040 17 0.00913439
734 1027 2.77559e-06
20376 18 6.44736e-05
26063 18 0.124503
6769 934 7.60356e-05
3146 8865 0.000613476
6769 7562 0.000127453
16354 7562 0.000282267
2436 86 0.000528621
3994 4621 0.0048957
202 803 5.58041e-05
278 10285 0.00130819
4336 16144 0.00412429
1104 16144 0.0016687
30 7501 0.000121505
40 217 2.13725e-07
8998 27816 6.48741e-06
3754 126 5.79902e-07
17568 590 1.45028e-05
14938 847 0.00957744
25935 60 0.0012861
25182 2986 0.110921
23 2986 5.76474e-06
17518 580 0.0145434
18684 772 4.91152e-05
18193 70 0.000355218
234 70 4.18908e-05
3887 27900 0.00017224
4448 789 0.0117291
1450 789 2.16674e-05
789 789 4.7331e-06
3023 789 0.01585
2484 789 0.000143463
8610 465 0.000217137
1251 126 1.9842e-05
2127 789 6.80442e-05
1320 789 0.0547314
6935 6403 7.4985e-05
3622 6403 0.00175965
25938 917 1.18364e-05
25937 917 0.127064
25936 917 7.52648e-06
25936 717 9.99374e-06
16715 917 0.123583
57 917 1.19315e-06
7370 917 8.37014e-05
2902 917 3.89075e-06
1112 917 6.67562e-06
3301 28124 1.88064e-05
25925 59 0.00075398
25922 126 0.247622
25908 6296 0.110526
20323 17 0.245758
1223 2172 0.00588224
1047 129 0.0319049
2998 685 0.0409158
16622 26299 0.0213575
6913 487 0.190153
3495 1706 6.08715e-06
464 580 1.89698e-05
2476 275 2.9301e-05
21551 275 0.0705892
1249 6077 0.00135226
778 11572 3.5079e-07
778 424 7.32985e-05
6514 580 1.68249e-06
415 102 2.36482e-06
620 23558 0.0110164
470 24634 1.40685e-05
763 14166 0.00259121
3618 20615 0.00014734
2289 3596 5.41119e-07
782 3596 2.9663e-06
25693 113 0.107015
16602 5411 0.000409342
16602 27556 3.31579e-06
2758 1912 8.42297e-06
278 267 0.00591461
1032 5202 4.85223e-05
25727 34 0.00338765
2954 5051 0.00408727
18161 3507 0.000318431
25569 3507 0.000337899
2310 3507 0.00892841
7878 3507 5.70285e-07
5327 3507 1.05726e-05
25724 377 0.246929
25722 424 0.246138
16245 17832 9.98348e-05
16245 1264 0.000177485
1268 267 7.3613e-05
5717 13915 2.02278e-05
25655 1004 6.02568e-06
8984 1859 0.103844
1973 1406 2.72117e-05
3629 110 0.00037776
1638 110 4.11219e-05
25697 86 0.0216868
30 496 7.80517e-07
25692 496 0.0126578
52 491 2.63086e-07
